################################################################################
# Neural network connection values (weights and biases).
################################################################################
# Col  Name       Description
################################################################################
# 1    connection Neural network connection value.
# 2    t          Connection type (a = weight, b = bias).
# 3    index      Index enumerating weights.
# 4    l_s        Starting point layer (end point layer for biases).
# 5    n_s        Starting point neuron in starting layer (end point neuron for biases).
# 6    l_e        End point layer.
# 7    n_e        End point neuron in end layer.
################################################################################
#                      1 2         3     4     5     6     7
#             connection t     index   l_s   n_s   l_e   n_e
############################################################
 -4.5923633342018128E-02 a         1     0     1     1     1
  6.8755109787377575E-02 a         2     0     1     1     2
 -1.8043884954972705E-01 a         3     0     1     1     3
  1.4397533812940627E-01 a         4     0     1     1     4
  9.5855026530174331E-02 a         5     0     1     1     5
  8.2315708946094236E-03 a         6     0     1     1     6
  2.3557984910449824E-02 a         7     0     1     1     7
  8.7364479189037822E-02 a         8     0     1     1     8
 -4.9064008280509455E-02 a         9     0     1     1     9
 -2.6393837572351303E-01 a        10     0     1     1    10
 -2.9244349503495051E-02 a        11     0     1     1    11
 -3.0155308772948083E-02 a        12     0     1     1    12
  5.5637817496405527E-02 a        13     0     1     1    13
 -6.9193463895650176E-02 a        14     0     1     1    14
 -2.4290552321919172E-02 a        15     0     1     1    15
 -2.4164246823886890E-02 a        16     0     1     1    16
 -1.6273957934472085E-02 a        17     0     1     1    17
 -1.1663973125020129E-01 a        18     0     1     1    18
 -1.4351534983220083E-02 a        19     0     1     1    19
 -8.5239954344711443E-03 a        20     0     1     1    20
 -1.2142809914367245E-01 a        21     0     2     1     1
  1.5090569256192110E-01 a        22     0     2     1     2
  9.4239211510314266E-02 a        23     0     2     1     3
  3.2531278230290103E-02 a        24     0     2     1     4
  6.5206534195828766E-02 a        25     0     2     1     5
 -8.6627527675059907E-02 a        26     0     2     1     6
 -1.4099783897961915E-01 a        27     0     2     1     7
  1.2134113697452684E-01 a        28     0     2     1     8
  1.6498185064575852E-01 a        29     0     2     1     9
 -2.0595040017570784E-02 a        30     0     2     1    10
  6.5043442201191612E-02 a        31     0     2     1    11
 -5.6284183263058937E-02 a        32     0     2     1    12
  7.4635671614084242E-02 a        33     0     2     1    13
 -2.2923655606040417E-02 a        34     0     2     1    14
  6.7969539807778354E-02 a        35     0     2     1    15
  1.1490703803707428E-01 a        36     0     2     1    16
  2.6552505945072871E-02 a        37     0     2     1    17
  1.3008146118791428E-01 a        38     0     2     1    18
 -1.0550893072767668E-01 a        39     0     2     1    19
  7.6744379086248107E-02 a        40     0     2     1    20
  9.4036043920909834E-02 a        41     0     3     1     1
  8.7822869720093538E-02 a        42     0     3     1     2
 -1.5225366597421966E-01 a        43     0     3     1     3
  1.7046819718532977E-01 a        44     0     3     1     4
 -1.3122354551740861E-01 a        45     0     3     1     5
  7.9633815022067483E-02 a        46     0     3     1     6
  5.1958843728720505E-03 a        47     0     3     1     7
  4.7890846831848057E-02 a        48     0     3     1     8
 -1.2517646200547283E-01 a        49     0     3     1     9
  5.0423432927831392E-02 a        50     0     3     1    10
 -9.4333990317283178E-02 a        51     0     3     1    11
  2.4249738989197731E-01 a        52     0     3     1    12
 -6.9763326290890826E-02 a        53     0     3     1    13
 -3.7367674482873675E-03 a        54     0     3     1    14
  3.8453283138819128E-02 a        55     0     3     1    15
 -2.3522704922454571E-03 a        56     0     3     1    16
  7.4976339676975784E-02 a        57     0     3     1    17
 -8.8958011791372263E-02 a        58     0     3     1    18
 -2.6517282928701928E-02 a        59     0     3     1    19
  1.2317118379502937E-01 a        60     0     3     1    20
 -1.8517325154653796E-01 a        61     0     4     1     1
 -7.1539628819160025E-02 a        62     0     4     1     2
 -2.9948520769393923E-02 a        63     0     4     1     3
  5.5284427101064515E-02 a        64     0     4     1     4
  1.8626779731556889E-01 a        65     0     4     1     5
  1.8447222658641274E-01 a        66     0     4     1     6
 -8.4177103706369161E-02 a        67     0     4     1     7
  9.7865326859000137E-02 a        68     0     4     1     8
  5.5265856559835992E-02 a        69     0     4     1     9
  1.0019083471799962E-01 a        70     0     4     1    10
  7.6495245962904954E-02 a        71     0     4     1    11
 -1.7870351288845970E-01 a        72     0     4     1    12
  2.8514464869781888E-03 a        73     0     4     1    13
 -1.9281919246087528E-04 a        74     0     4     1    14
 -6.4275269563621867E-02 a        75     0     4     1    15
 -8.8490345548050367E-02 a        76     0     4     1    16
  2.2273058004800065E-02 a        77     0     4     1    17
  4.9544033213705955E-03 a        78     0     4     1    18
 -7.9607863755689054E-02 a        79     0     4     1    19
  1.5133266875437243E-02 a        80     0     4     1    20
 -1.1571007382703694E-01 a        81     0     5     1     1
 -3.3513770771525009E-02 a        82     0     5     1     2
 -9.1568037820003695E-02 a        83     0     5     1     3
 -5.8476065902288016E-02 a        84     0     5     1     4
  8.9273382405782916E-03 a        85     0     5     1     5
  1.1828856498372618E-01 a        86     0     5     1     6
 -6.1006713680700611E-02 a        87     0     5     1     7
 -2.1706837096565148E-02 a        88     0     5     1     8
  1.0862146894324319E-01 a        89     0     5     1     9
  1.3178971977678086E-01 a        90     0     5     1    10
  7.4609937805844406E-02 a        91     0     5     1    11
  1.1658757550835429E-01 a        92     0     5     1    12
  6.8956592844774067E-02 a        93     0     5     1    13
  8.1617784498648774E-02 a        94     0     5     1    14
 -3.3999811744227518E-02 a        95     0     5     1    15
 -4.1230013337865808E-02 a        96     0     5     1    16
  1.2939199132831694E-01 a        97     0     5     1    17
  1.6070655589759994E-01 a        98     0     5     1    18
  7.4708690968748742E-02 a        99     0     5     1    19
  1.2612519287465182E-01 a       100     0     5     1    20
  5.7508397497917418E-02 a       101     0     6     1     1
  1.7974095974002301E-02 a       102     0     6     1     2
  1.7449364996197569E-01 a       103     0     6     1     3
 -4.4237996996869054E-02 a       104     0     6     1     4
  1.1566654066843884E-02 a       105     0     6     1     5
 -4.9177659772435323E-02 a       106     0     6     1     6
  2.2347704406694224E-01 a       107     0     6     1     7
  8.2531906453031656E-02 a       108     0     6     1     8
  3.6768330237737380E-02 a       109     0     6     1     9
 -8.6814836735115419E-02 a       110     0     6     1    10
 -1.9297123574654548E-01 a       111     0     6     1    11
  1.7997592234401311E-01 a       112     0     6     1    12
  1.0338769655389797E-02 a       113     0     6     1    13
 -1.6680008101858219E-02 a       114     0     6     1    14
  3.1830706091183797E-02 a       115     0     6     1    15
 -4.0013123917573924E-02 a       116     0     6     1    16
 -2.0780586974493379E-02 a       117     0     6     1    17
  7.9859581720117187E-02 a       118     0     6     1    18
  7.2411444212460346E-02 a       119     0     6     1    19
  1.3107174675435052E-01 a       120     0     6     1    20
 -3.0193969167009418E-02 a       121     0     7     1     1
 -1.3215218611567073E-01 a       122     0     7     1     2
  1.2275563893171301E-02 a       123     0     7     1     3
  7.3492740355934602E-02 a       124     0     7     1     4
  5.1032216103610910E-02 a       125     0     7     1     5
  6.8541594085720386E-02 a       126     0     7     1     6
  2.8651806372815627E-02 a       127     0     7     1     7
 -1.0738568717099688E-01 a       128     0     7     1     8
 -5.5341754474819815E-02 a       129     0     7     1     9
 -3.3990679910466344E-02 a       130     0     7     1    10
 -8.7307280359097877E-02 a       131     0     7     1    11
 -7.0051994016674057E-02 a       132     0     7     1    12
  1.3982188948809315E-01 a       133     0     7     1    13
  1.1489766496789953E-01 a       134     0     7     1    14
  3.0425971951138039E-02 a       135     0     7     1    15
 -1.1494813590257440E-01 a       136     0     7     1    16
  6.6078802320591420E-02 a       137     0     7     1    17
 -3.2576354329423060E-02 a       138     0     7     1    18
  1.6497624107302805E-01 a       139     0     7     1    19
  1.6064547814171615E-01 a       140     0     7     1    20
 -1.5830030132692863E-01 a       141     0     8     1     1
  7.4075901821750417E-02 a       142     0     8     1     2
  1.9140494770197572E-01 a       143     0     8     1     3
 -3.2030092998611687E-01 a       144     0     8     1     4
 -3.6926465561783153E-02 a       145     0     8     1     5
  8.4238663784393014E-02 a       146     0     8     1     6
  2.1375879175722170E-02 a       147     0     8     1     7
  3.8322670203410222E-02 a       148     0     8     1     8
  2.7290930215036667E-02 a       149     0     8     1     9
  2.1109012767898397E-01 a       150     0     8     1    10
  2.1967038359242802E-01 a       151     0     8     1    11
  9.1349148144827252E-03 a       152     0     8     1    12
  1.3960966226691369E-02 a       153     0     8     1    13
  1.4736156023103777E-01 a       154     0     8     1    14
 -9.9156325514315774E-02 a       155     0     8     1    15
 -1.1006227788639068E-01 a       156     0     8     1    16
 -6.8676707036418511E-02 a       157     0     8     1    17
  1.5251221313750040E-02 a       158     0     8     1    18
 -1.4229057987548968E-01 a       159     0     8     1    19
  1.1958624749494999E-01 a       160     0     8     1    20
  2.3369195313838115E-01 a       161     0     9     1     1
 -8.2349821537596055E-02 a       162     0     9     1     2
  1.0591864452330331E-01 a       163     0     9     1     3
 -6.3548807677348579E-02 a       164     0     9     1     4
  1.1071760918568811E-01 a       165     0     9     1     5
 -2.6085095172753975E-01 a       166     0     9     1     6
 -6.5375569674553755E-02 a       167     0     9     1     7
  4.9890144884852494E-02 a       168     0     9     1     8
  1.3204037028766819E-01 a       169     0     9     1     9
  9.9462764940379658E-02 a       170     0     9     1    10
  1.8292913003591541E-02 a       171     0     9     1    11
  1.3218310055124979E-01 a       172     0     9     1    12
  7.1418807802719086E-02 a       173     0     9     1    13
 -1.3152533895105636E-01 a       174     0     9     1    14
  6.0948591199412622E-02 a       175     0     9     1    15
  1.0531199169450448E-01 a       176     0     9     1    16
 -9.9836683134690463E-02 a       177     0     9     1    17
 -3.9843923514207943E-02 a       178     0     9     1    18
  1.1858599548297065E-01 a       179     0     9     1    19
 -3.6723445480514288E-02 a       180     0     9     1    20
  4.5825419470609467E-02 a       181     0    10     1     1
  5.1222243002389915E-02 a       182     0    10     1     2
  7.2759414885110937E-02 a       183     0    10     1     3
 -9.2833426827916676E-02 a       184     0    10     1     4
 -9.8275725919094212E-02 a       185     0    10     1     5
  1.0246922168002670E-01 a       186     0    10     1     6
 -5.3809136177965511E-02 a       187     0    10     1     7
 -7.3884663145684079E-02 a       188     0    10     1     8
  1.1094667326453568E-04 a       189     0    10     1     9
 -3.1891517384006686E-03 a       190     0    10     1    10
 -9.0767153832547784E-02 a       191     0    10     1    11
  1.4346853537171445E-01 a       192     0    10     1    12
 -1.6310102003798477E-01 a       193     0    10     1    13
 -2.0517386207651653E-01 a       194     0    10     1    14
  1.0011811005293933E-01 a       195     0    10     1    15
 -1.2370840733940711E-01 a       196     0    10     1    16
 -7.5691970207570777E-02 a       197     0    10     1    17
 -6.9527337314401944E-02 a       198     0    10     1    18
  3.3544494050126827E-02 a       199     0    10     1    19
 -2.3141571577005243E-01 a       200     0    10     1    20
  1.3607193545766835E-01 a       201     0    11     1     1
 -3.6154964515289989E-02 a       202     0    11     1     2
  3.8260706624637382E-02 a       203     0    11     1     3
  4.0759337887396725E-02 a       204     0    11     1     4
  2.6733929737529855E-01 a       205     0    11     1     5
  2.8183468228395862E-03 a       206     0    11     1     6
  2.3583999520916940E-01 a       207     0    11     1     7
  2.6809374230225380E-01 a       208     0    11     1     8
  2.5634278154868778E-01 a       209     0    11     1     9
  9.5837036820712942E-02 a       210     0    11     1    10
 -1.7215451294097331E-01 a       211     0    11     1    11
 -5.9838805444978313E-02 a       212     0    11     1    12
  3.3908780061446286E-03 a       213     0    11     1    13
 -1.3909385708955388E-01 a       214     0    11     1    14
 -6.3118564459212628E-02 a       215     0    11     1    15
  1.0971996747428882E-01 a       216     0    11     1    16
  9.7646999532041867E-02 a       217     0    11     1    17
 -2.3774170433547481E-01 a       218     0    11     1    18
  3.5656582360485814E-02 a       219     0    11     1    19
 -2.1040372440000832E-01 a       220     0    11     1    20
  3.1840486774658733E-01 a       221     0    12     1     1
  8.1741816861511649E-02 a       222     0    12     1     2
 -2.3048365929148906E-01 a       223     0    12     1     3
 -1.5866619491466488E-01 a       224     0    12     1     4
 -2.7176880426643964E-02 a       225     0    12     1     5
  7.3880595883373798E-02 a       226     0    12     1     6
  7.0252872456120816E-02 a       227     0    12     1     7
  2.3556625181922346E-02 a       228     0    12     1     8
 -8.7099469864799925E-02 a       229     0    12     1     9
  1.1659725834010379E-01 a       230     0    12     1    10
 -9.0824428075159599E-02 a       231     0    12     1    11
 -1.3408421404259946E-01 a       232     0    12     1    12
 -2.0397157164504504E-01 a       233     0    12     1    13
 -1.8732552114067433E-01 a       234     0    12     1    14
 -7.2089440850845107E-02 a       235     0    12     1    15
  6.7705205795471929E-02 a       236     0    12     1    16
 -3.4048151902666177E-02 a       237     0    12     1    17
 -1.2364994259005624E-01 a       238     0    12     1    18
  2.2389688766312223E-02 a       239     0    12     1    19
 -2.1378251922881397E-01 a       240     0    12     1    20
  3.4154775602541605E-02 a       241     0    13     1     1
 -1.6559953471245897E-01 a       242     0    13     1     2
 -5.0996952771200636E-02 a       243     0    13     1     3
  1.0031736177703808E-01 a       244     0    13     1     4
  4.1473140831892220E-02 a       245     0    13     1     5
 -1.5335167257092372E-01 a       246     0    13     1     6
 -1.3389638562034054E-01 a       247     0    13     1     7
 -5.8454266258224391E-02 a       248     0    13     1     8
 -1.1662256836171887E-01 a       249     0    13     1     9
 -8.1631669478321924E-03 a       250     0    13     1    10
 -1.6301095965077925E-01 a       251     0    13     1    11
 -1.7196255520159573E-01 a       252     0    13     1    12
  1.0748412912099900E-01 a       253     0    13     1    13
 -2.6989440484431604E-01 a       254     0    13     1    14
 -8.5073974991738428E-03 a       255     0    13     1    15
  1.2393545373414452E-01 a       256     0    13     1    16
 -5.5730667407117566E-02 a       257     0    13     1    17
 -7.4900488211465638E-02 a       258     0    13     1    18
  2.3404958737038475E-01 a       259     0    13     1    19
 -2.7437577660422952E-01 a       260     0    13     1    20
  1.2174788016478526E-01 a       261     0    14     1     1
  5.9759739087995069E-02 a       262     0    14     1     2
 -6.4385422180728735E-02 a       263     0    14     1     3
  1.7288240862639932E-02 a       264     0    14     1     4
 -1.1813575027262936E-01 a       265     0    14     1     5
 -2.1753710187541789E-01 a       266     0    14     1     6
  1.2087933385099327E-01 a       267     0    14     1     7
 -4.7635096496667306E-02 a       268     0    14     1     8
 -2.7094042949469505E-02 a       269     0    14     1     9
 -1.6122535219669848E-01 a       270     0    14     1    10
 -1.6545467800402927E-01 a       271     0    14     1    11
 -2.2666369051248464E-01 a       272     0    14     1    12
 -7.8531863048150283E-02 a       273     0    14     1    13
 -2.6353961224995930E-02 a       274     0    14     1    14
  3.9969612716353863E-03 a       275     0    14     1    15
  2.0935690915363334E-02 a       276     0    14     1    16
  6.7307562708954910E-02 a       277     0    14     1    17
 -2.6569227702450602E-02 a       278     0    14     1    18
  2.9361235493795428E-02 a       279     0    14     1    19
 -1.6227473369965766E-02 a       280     0    14     1    20
  1.2565060513987000E-01 a       281     0    15     1     1
  4.1985811340007652E-02 a       282     0    15     1     2
 -2.2625291366518439E-02 a       283     0    15     1     3
  2.2193496575592769E-01 a       284     0    15     1     4
  1.9860450931582696E-01 a       285     0    15     1     5
  1.9501277817423940E-01 a       286     0    15     1     6
  8.0606857698635695E-02 a       287     0    15     1     7
 -1.7779031892000058E-01 a       288     0    15     1     8
  1.0616250469412926E-01 a       289     0    15     1     9
  2.1360674771710694E-01 a       290     0    15     1    10
 -1.3004502387285247E-01 a       291     0    15     1    11
 -3.4709742422762091E-02 a       292     0    15     1    12
  1.0599149552585030E-01 a       293     0    15     1    13
  1.1196952412170989E-01 a       294     0    15     1    14
 -5.9845284507425670E-02 a       295     0    15     1    15
 -1.1276177160202057E-01 a       296     0    15     1    16
  4.2554820541558076E-02 a       297     0    15     1    17
 -2.3632317056326121E-01 a       298     0    15     1    18
  7.5182091686108133E-03 a       299     0    15     1    19
 -8.3874725068033590E-02 a       300     0    15     1    20
 -1.2449177368408260E-01 a       301     0    16     1     1
 -2.0686769937456849E-02 a       302     0    16     1     2
  4.1914964222792069E-02 a       303     0    16     1     3
  1.8919443007426073E-01 a       304     0    16     1     4
  3.4648610572769918E-02 a       305     0    16     1     5
  2.7358687245196526E-02 a       306     0    16     1     6
  2.8088291791784714E-01 a       307     0    16     1     7
  4.0292226591539450E-02 a       308     0    16     1     8
 -6.7505216098643697E-03 a       309     0    16     1     9
 -1.3966699253659315E-01 a       310     0    16     1    10
 -3.7458218346506966E-01 a       311     0    16     1    11
 -4.3761485288462389E-02 a       312     0    16     1    12
  2.2213185907690564E-01 a       313     0    16     1    13
 -2.3285164542129508E-01 a       314     0    16     1    14
  8.3870249471029409E-04 a       315     0    16     1    15
 -9.4997751462879379E-02 a       316     0    16     1    16
  8.5608366605308076E-03 a       317     0    16     1    17
 -1.2183725813965851E-01 a       318     0    16     1    18
  1.5000647692196550E-01 a       319     0    16     1    19
 -1.2971161498348791E-01 a       320     0    16     1    20
 -8.9998572284269052E-02 a       321     0    17     1     1
 -1.9832550036443614E-01 a       322     0    17     1     2
 -1.9983609309333758E-01 a       323     0    17     1     3
 -2.3126525042113750E-03 a       324     0    17     1     4
 -2.7652441528296556E-01 a       325     0    17     1     5
  1.4647985367838742E-01 a       326     0    17     1     6
  6.9313573389307451E-02 a       327     0    17     1     7
  2.0110751108994285E-01 a       328     0    17     1     8
  4.4219495430915861E-03 a       329     0    17     1     9
  1.1697496026887258E-01 a       330     0    17     1    10
  4.7526463460444472E-02 a       331     0    17     1    11
  1.1300532319686703E-01 a       332     0    17     1    12
  2.9609553539904142E-02 a       333     0    17     1    13
 -1.2356075152216648E-02 a       334     0    17     1    14
  8.9401663546163801E-02 a       335     0    17     1    15
 -4.2832129813963428E-02 a       336     0    17     1    16
  6.5417361624343778E-02 a       337     0    17     1    17
  3.4296325581855920E-02 a       338     0    17     1    18
 -1.7957813589157842E-01 a       339     0    17     1    19
  1.7836683629856592E-01 a       340     0    17     1    20
 -1.3691604017418564E-02 a       341     0    18     1     1
 -4.7825297094375240E-02 a       342     0    18     1     2
 -2.1398095943266499E-01 a       343     0    18     1     3
  1.2739199275912219E-01 a       344     0    18     1     4
 -1.0380415682355323E-01 a       345     0    18     1     5
 -2.1089534558683246E-03 a       346     0    18     1     6
  3.2571345170804115E-02 a       347     0    18     1     7
 -5.3751442963946704E-02 a       348     0    18     1     8
  2.7904214948672940E-01 a       349     0    18     1     9
 -2.2435370695560328E-01 a       350     0    18     1    10
  5.7178721276273284E-02 a       351     0    18     1    11
  1.5618954849721048E-01 a       352     0    18     1    12
 -6.6485956339316393E-02 a       353     0    18     1    13
  1.8937168717406672E-01 a       354     0    18     1    14
 -1.0658781782379053E-02 a       355     0    18     1    15
 -1.0305215242582996E-01 a       356     0    18     1    16
  8.8048821721880971E-02 a       357     0    18     1    17
  2.0854121326206185E-01 a       358     0    18     1    18
 -2.1593133126639577E-01 a       359     0    18     1    19
  1.1038163949870580E-01 a       360     0    18     1    20
 -2.2341538093682972E-02 a       361     0    19     1     1
  1.3805944407467294E-01 a       362     0    19     1     2
 -1.4533513756927408E-01 a       363     0    19     1     3
  1.2152739900858830E-01 a       364     0    19     1     4
  2.3052652571754259E-01 a       365     0    19     1     5
  1.8169364645085220E-01 a       366     0    19     1     6
  4.9405324359867000E-03 a       367     0    19     1     7
  9.7968121614076226E-02 a       368     0    19     1     8
  7.1449534881507640E-02 a       369     0    19     1     9
  1.9858444402852013E-01 a       370     0    19     1    10
 -5.3978091033177127E-02 a       371     0    19     1    11
  2.3662563095000779E-02 a       372     0    19     1    12
  1.0359761473348431E-01 a       373     0    19     1    13
 -5.0160100818108663E-02 a       374     0    19     1    14
  2.4487095044620796E-01 a       375     0    19     1    15
 -5.5012801381843279E-02 a       376     0    19     1    16
  1.1377465561529342E-01 a       377     0    19     1    17
 -4.0390118437004782E-02 a       378     0    19     1    18
  4.0392674290921818E-02 a       379     0    19     1    19
 -1.0491806836197286E-02 a       380     0    19     1    20
 -1.6747424708093125E-01 a       381     0    20     1     1
  2.2135877153360803E-01 a       382     0    20     1     2
 -1.0038133134620325E-01 a       383     0    20     1     3
 -9.6056841255645606E-02 a       384     0    20     1     4
 -1.6414450489794299E-01 a       385     0    20     1     5
  1.4368823442859358E-02 a       386     0    20     1     6
  1.1797443836732538E-01 a       387     0    20     1     7
  4.4790129208420258E-02 a       388     0    20     1     8
 -1.9270942954169965E-01 a       389     0    20     1     9
 -2.2397990642697682E-01 a       390     0    20     1    10
  9.4022214924951109E-02 a       391     0    20     1    11
 -1.7852103651349679E-01 a       392     0    20     1    12
 -1.4431568364370151E-01 a       393     0    20     1    13
  7.1489207076272210E-02 a       394     0    20     1    14
  4.9416941702587841E-02 a       395     0    20     1    15
 -3.9573322431043841E-02 a       396     0    20     1    16
 -1.0583678899814408E-01 a       397     0    20     1    17
  4.9438026305523561E-02 a       398     0    20     1    18
 -3.0548891037708020E-01 a       399     0    20     1    19
 -1.3474361374644236E-01 a       400     0    20     1    20
  1.4354122883617762E-01 a       401     0    21     1     1
 -2.0681062876156447E-01 a       402     0    21     1     2
 -1.1919766109921398E-01 a       403     0    21     1     3
 -1.5805904404530657E-01 a       404     0    21     1     4
  1.7132204544035726E-01 a       405     0    21     1     5
  8.7725613924288681E-02 a       406     0    21     1     6
  1.2642110979472479E-01 a       407     0    21     1     7
  4.0747457012866073E-01 a       408     0    21     1     8
  2.9090539253717923E-01 a       409     0    21     1     9
  2.9906345317615957E-01 a       410     0    21     1    10
 -1.9983344839905834E-01 a       411     0    21     1    11
  1.0649491274084243E-01 a       412     0    21     1    12
  1.2079608138300234E-01 a       413     0    21     1    13
 -3.3742681306985706E-01 a       414     0    21     1    14
 -1.4651256982098701E-01 a       415     0    21     1    15
  4.7767432906185840E-02 a       416     0    21     1    16
  1.3170065091755637E-01 a       417     0    21     1    17
 -3.5111202081795506E-01 a       418     0    21     1    18
 -1.7479321571152814E-01 a       419     0    21     1    19
 -7.8424958428408104E-02 a       420     0    21     1    20
 -2.7087076559875030E-02 a       421     0    22     1     1
  1.9252014107857485E-02 a       422     0    22     1     2
  9.7035422663779250E-02 a       423     0    22     1     3
  2.8471233610574923E-02 a       424     0    22     1     4
  7.3821903405146258E-02 a       425     0    22     1     5
  3.4289176628915603E-03 a       426     0    22     1     6
 -3.6969927747419307E-02 a       427     0    22     1     7
 -1.5356612645117521E-01 a       428     0    22     1     8
 -1.2606685964857700E-01 a       429     0    22     1     9
 -6.8606243283390253E-02 a       430     0    22     1    10
  2.0338286960095389E-02 a       431     0    22     1    11
 -4.6799935086157818E-02 a       432     0    22     1    12
  1.5595770523916253E-01 a       433     0    22     1    13
 -1.0958155963568662E-01 a       434     0    22     1    14
 -8.0010888790070983E-02 a       435     0    22     1    15
 -5.5497812367409895E-02 a       436     0    22     1    16
  1.2319503608719660E-01 a       437     0    22     1    17
 -1.4064436621541218E-01 a       438     0    22     1    18
  9.0035860781239638E-02 a       439     0    22     1    19
  6.6553359208474938E-02 a       440     0    22     1    20
  1.2730358527010024E-01 a       441     0    23     1     1
 -8.1450195743019607E-02 a       442     0    23     1     2
 -1.2010627552907049E-01 a       443     0    23     1     3
 -8.0883662407367829E-02 a       444     0    23     1     4
 -1.1785045886609280E-01 a       445     0    23     1     5
 -5.6750972842561420E-02 a       446     0    23     1     6
  8.4328937863031427E-03 a       447     0    23     1     7
 -4.3851351820548695E-02 a       448     0    23     1     8
 -1.6114068977450108E-01 a       449     0    23     1     9
 -1.1278074843727308E-02 a       450     0    23     1    10
  1.6341769646453966E-01 a       451     0    23     1    11
  2.0023394046888873E-01 a       452     0    23     1    12
  1.2666509578543184E-01 a       453     0    23     1    13
 -1.5655130566869332E-01 a       454     0    23     1    14
 -1.0468105522115005E-01 a       455     0    23     1    15
 -2.7636323140609415E-01 a       456     0    23     1    16
  1.4533331230870395E-03 a       457     0    23     1    17
  1.9671076105830989E-02 a       458     0    23     1    18
 -1.8145254654103807E-01 a       459     0    23     1    19
 -6.6040284182701553E-02 a       460     0    23     1    20
  2.9013904864861682E-02 a       461     0    24     1     1
  1.2778622757111145E-02 a       462     0    24     1     2
  1.3992173193764171E-02 a       463     0    24     1     3
  7.4765721426749365E-02 a       464     0    24     1     4
  3.1848155139386498E-02 a       465     0    24     1     5
  5.0407975207889935E-02 a       466     0    24     1     6
  1.7254041581064183E-01 a       467     0    24     1     7
  1.2832537194750590E-01 a       468     0    24     1     8
  7.3467047237623762E-02 a       469     0    24     1     9
  5.5051811884782823E-02 a       470     0    24     1    10
 -7.2735379141354500E-02 a       471     0    24     1    11
 -1.9546357682696672E-03 a       472     0    24     1    12
  5.7128850022489283E-02 a       473     0    24     1    13
 -2.2333032987578866E-01 a       474     0    24     1    14
 -2.9430780518598598E-01 a       475     0    24     1    15
  1.0809606548289535E-01 a       476     0    24     1    16
  4.9785250488705940E-02 a       477     0    24     1    17
 -2.3629449031963640E-01 a       478     0    24     1    18
  6.1601029058074859E-02 a       479     0    24     1    19
  5.7222554399381342E-02 a       480     0    24     1    20
 -3.2079741087217624E-02 a       481     0    25     1     1
 -1.4477503207961293E-01 a       482     0    25     1     2
  7.7497995464013342E-02 a       483     0    25     1     3
 -5.5386408051276946E-03 a       484     0    25     1     4
  9.9730191666375034E-02 a       485     0    25     1     5
 -3.8215890971669712E-02 a       486     0    25     1     6
 -6.8516352325825688E-02 a       487     0    25     1     7
  4.7425103315590779E-02 a       488     0    25     1     8
 -6.0511225171259057E-02 a       489     0    25     1     9
  9.5944999602797384E-02 a       490     0    25     1    10
  4.4473667477289557E-02 a       491     0    25     1    11
  1.0961265202393039E-01 a       492     0    25     1    12
 -1.5745023556707993E-01 a       493     0    25     1    13
 -9.2509296647980702E-02 a       494     0    25     1    14
  6.1571665521176988E-02 a       495     0    25     1    15
  1.5450654819344861E-01 a       496     0    25     1    16
  7.5614981171255147E-02 a       497     0    25     1    17
 -1.2510949170854804E-01 a       498     0    25     1    18
  6.9300845255363078E-02 a       499     0    25     1    19
  1.6783029882865749E-01 a       500     0    25     1    20
 -4.2021742205660843E-02 a       501     0    26     1     1
 -9.4670338978462526E-02 a       502     0    26     1     2
 -5.8603752221785058E-02 a       503     0    26     1     3
  4.1871633186033853E-02 a       504     0    26     1     4
 -1.2309664193390746E-01 a       505     0    26     1     5
  2.0819445565980480E-02 a       506     0    26     1     6
  2.7912625829955028E-02 a       507     0    26     1     7
 -1.4397002643239093E-01 a       508     0    26     1     8
  2.9737242530022061E-02 a       509     0    26     1     9
  1.0986566686415142E-01 a       510     0    26     1    10
 -5.8267142337433055E-02 a       511     0    26     1    11
 -3.3017937787365670E-01 a       512     0    26     1    12
  1.6242682129408215E-01 a       513     0    26     1    13
 -2.1511625465897966E-01 a       514     0    26     1    14
 -1.3625315879764280E-01 a       515     0    26     1    15
  1.7091641033530152E-02 a       516     0    26     1    16
  1.1665163053905220E-01 a       517     0    26     1    17
 -7.0262884732712350E-03 a       518     0    26     1    18
  1.0406940294374414E-01 a       519     0    26     1    19
 -1.7851313432294227E-01 a       520     0    26     1    20
  2.8098641263180918E-01 a       521     0    27     1     1
 -6.7824631539423072E-02 a       522     0    27     1     2
 -2.2727243542778572E-01 a       523     0    27     1     3
 -1.9851228904055812E-01 a       524     0    27     1     4
  4.8151982509241915E-02 a       525     0    27     1     5
  6.8654075136760750E-02 a       526     0    27     1     6
  1.1655320102391363E-01 a       527     0    27     1     7
  5.7687735375166097E-02 a       528     0    27     1     8
 -1.6707635219872938E-01 a       529     0    27     1     9
 -7.3721022877344337E-03 a       530     0    27     1    10
 -3.3197562620000710E-02 a       531     0    27     1    11
 -6.5898390402808801E-02 a       532     0    27     1    12
  1.3151896704917555E-02 a       533     0    27     1    13
 -2.2056386354201879E-01 a       534     0    27     1    14
  9.3484202761744767E-02 a       535     0    27     1    15
  1.4125089380543868E-01 a       536     0    27     1    16
  2.1946556435600926E-02 a       537     0    27     1    17
 -3.4610331301324044E-04 a       538     0    27     1    18
 -3.9550573267173351E-02 a       539     0    27     1    19
  1.0930131466885132E-01 a       540     0    27     1    20
  3.1417119384349650E-02 a       541     0    28     1     1
 -1.1503445206775507E-02 a       542     0    28     1     2
 -9.9303745148012962E-02 a       543     0    28     1     3
  1.6537909106498223E-02 a       544     0    28     1     4
  8.2095597674327114E-02 a       545     0    28     1     5
 -1.6031566161888849E-01 a       546     0    28     1     6
 -1.1544092282116593E-01 a       547     0    28     1     7
  1.3144559197426567E-01 a       548     0    28     1     8
  8.1736438919934082E-02 a       549     0    28     1     9
 -8.5571618386871863E-03 a       550     0    28     1    10
 -1.3944874708796179E-01 a       551     0    28     1    11
  2.8887955448225860E-01 a       552     0    28     1    12
 -5.2853118770533961E-02 a       553     0    28     1    13
 -4.9713290187003448E-02 a       554     0    28     1    14
  1.7442617169517250E-03 a       555     0    28     1    15
 -1.5062658589193895E-01 a       556     0    28     1    16
 -6.7098797789797118E-02 a       557     0    28     1    17
 -1.3398602344837890E-02 a       558     0    28     1    18
 -8.2655031641315921E-02 a       559     0    28     1    19
  7.1819362478000887E-02 a       560     0    28     1    20
  1.3736991691985548E-01 a       561     0    29     1     1
 -3.2447282333423068E-02 a       562     0    29     1     2
  3.0309877349025054E-02 a       563     0    29     1     3
  1.2601400215488919E-02 a       564     0    29     1     4
  1.1418130741421112E-01 a       565     0    29     1     5
 -8.2648080398906254E-02 a       566     0    29     1     6
 -1.8144601794121959E-01 a       567     0    29     1     7
  4.8895819560327333E-02 a       568     0    29     1     8
  1.1099279417935309E-01 a       569     0    29     1     9
  3.6038949749096838E-01 a       570     0    29     1    10
 -1.4132625281432731E-01 a       571     0    29     1    11
  1.7578465991418904E-01 a       572     0    29     1    12
  1.2250051982599301E-01 a       573     0    29     1    13
 -1.9514764052015321E-01 a       574     0    29     1    14
  4.7642432230384432E-02 a       575     0    29     1    15
 -3.4562441824251889E-03 a       576     0    29     1    16
  1.5579143223581490E-01 a       577     0    29     1    17
 -1.2511213055799231E-01 a       578     0    29     1    18
  8.0303516791905380E-02 a       579     0    29     1    19
 -6.6146437366777486E-02 a       580     0    29     1    20
  2.1519160428535880E-01 a       581     0    30     1     1
  1.9298411898715248E-01 a       582     0    30     1     2
  5.9344963739114097E-02 a       583     0    30     1     3
 -9.0645377492440338E-02 a       584     0    30     1     4
  1.3372047849930260E-01 a       585     0    30     1     5
 -1.1767543214416989E-01 a       586     0    30     1     6
 -2.2496920004250312E-02 a       587     0    30     1     7
 -1.1370794698128121E-01 a       588     0    30     1     8
 -1.2663433134502919E-01 a       589     0    30     1     9
 -1.3548016838285146E-01 a       590     0    30     1    10
 -1.5693622004637056E-01 a       591     0    30     1    11
 -9.3865089331482951E-02 a       592     0    30     1    12
 -2.1082614139408076E-03 a       593     0    30     1    13
  5.9716462413911516E-03 a       594     0    30     1    14
 -1.3496648508038375E-01 a       595     0    30     1    15
 -1.1016421612972084E-01 a       596     0    30     1    16
 -5.9672838133720298E-02 a       597     0    30     1    17
  1.2743695939994007E-01 a       598     0    30     1    18
  5.7699544140144811E-02 a       599     0    30     1    19
  1.2675008557719064E-01 a       600     0    30     1    20
  9.8853607271114571E-02 a       601     0    31     1     1
 -6.6873106076214869E-02 a       602     0    31     1     2
 -9.2402970459973935E-02 a       603     0    31     1     3
 -2.7470438771126624E-02 a       604     0    31     1     4
  7.7533685601052477E-02 a       605     0    31     1     5
  3.4418642978392304E-02 a       606     0    31     1     6
 -6.7432838801275902E-02 a       607     0    31     1     7
  3.7451928139233016E-02 a       608     0    31     1     8
  1.3939547424576795E-01 a       609     0    31     1     9
  1.1088956321234154E-01 a       610     0    31     1    10
 -1.8760035736630886E-02 a       611     0    31     1    11
 -1.9221620493500963E-01 a       612     0    31     1    12
  6.4762366294628421E-02 a       613     0    31     1    13
 -1.5115196675341958E-01 a       614     0    31     1    14
 -7.1200698433674658E-02 a       615     0    31     1    15
  2.5064395868190237E-01 a       616     0    31     1    16
  8.1552893595018508E-02 a       617     0    31     1    17
 -2.2886034871307998E-01 a       618     0    31     1    18
  1.7012356924493277E-01 a       619     0    31     1    19
  1.2587319715047554E-02 a       620     0    31     1    20
 -7.9082687566102303E-02 a       621     0    32     1     1
  1.2982347692334204E-02 a       622     0    32     1     2
 -1.0560228649788919E-01 a       623     0    32     1     3
 -1.5859407425675742E-01 a       624     0    32     1     4
  3.9558795419818771E-02 a       625     0    32     1     5
 -2.2030248593359364E-01 a       626     0    32     1     6
 -1.1318368030881802E-01 a       627     0    32     1     7
 -2.4185531330066835E-02 a       628     0    32     1     8
  3.0152915775850428E-02 a       629     0    32     1     9
 -4.2871620951825049E-02 a       630     0    32     1    10
  1.9523651958714961E-02 a       631     0    32     1    11
  2.6989701201043143E-01 a       632     0    32     1    12
  1.6576275337843291E-01 a       633     0    32     1    13
 -1.9139431686934844E-01 a       634     0    32     1    14
 -2.4429235694421758E-01 a       635     0    32     1    15
  9.9191516168422963E-02 a       636     0    32     1    16
 -8.9733057054307581E-03 a       637     0    32     1    17
 -1.0698697432987578E-01 a       638     0    32     1    18
 -6.1237822365127703E-02 a       639     0    32     1    19
 -8.3159145390148140E-02 a       640     0    32     1    20
 -2.0206303360356757E-02 a       641     0    33     1     1
 -9.5539731454506754E-02 a       642     0    33     1     2
  1.6734007939207887E-01 a       643     0    33     1     3
 -8.3473575881499715E-02 a       644     0    33     1     4
 -1.9025225274363630E-01 a       645     0    33     1     5
 -3.5285196806479166E-02 a       646     0    33     1     6
 -5.4077940656899269E-02 a       647     0    33     1     7
  1.8860473304640665E-01 a       648     0    33     1     8
 -9.0812141565728324E-02 a       649     0    33     1     9
  2.3147227588718716E-02 a       650     0    33     1    10
  2.5800431208600305E-01 a       651     0    33     1    11
  3.0587501067422340E-01 a       652     0    33     1    12
  1.3029694068936756E-01 a       653     0    33     1    13
 -9.2767249696261087E-02 a       654     0    33     1    14
  4.6397615305167617E-02 a       655     0    33     1    15
 -1.0505696658486871E-01 a       656     0    33     1    16
  1.2820044186556187E-01 a       657     0    33     1    17
 -8.4811466177858966E-02 a       658     0    33     1    18
 -1.6070493637727723E-01 a       659     0    33     1    19
 -2.9834929292624124E-01 a       660     0    33     1    20
  4.3340450228596797E-02 a       661     0    34     1     1
  4.4808586443671632E-02 a       662     0    34     1     2
  2.2375460518646534E-01 a       663     0    34     1     3
 -7.8219773244437324E-02 a       664     0    34     1     4
 -1.1086881992237674E-01 a       665     0    34     1     5
 -7.8341360529599044E-02 a       666     0    34     1     6
 -5.0477939570968189E-02 a       667     0    34     1     7
  1.2623489878376892E-01 a       668     0    34     1     8
  7.2272832197740125E-02 a       669     0    34     1     9
  3.1140092890334886E-01 a       670     0    34     1    10
 -7.2702841773589003E-02 a       671     0    34     1    11
  1.8707331378171410E-01 a       672     0    34     1    12
  8.2182891486663079E-02 a       673     0    34     1    13
 -1.5219041883859719E-01 a       674     0    34     1    14
 -1.5538905356345179E-02 a       675     0    34     1    15
 -1.5478179511834852E-02 a       676     0    34     1    16
  6.8058023206355844E-02 a       677     0    34     1    17
 -1.7008997253788194E-01 a       678     0    34     1    18
 -1.0557578348976322E-01 a       679     0    34     1    19
 -8.4280870797220270E-02 a       680     0    34     1    20
  7.3871688604945779E-02 a       681     0    35     1     1
  2.3018151041057817E-02 a       682     0    35     1     2
 -6.1617302694215857E-02 a       683     0    35     1     3
  6.6954346547851526E-02 a       684     0    35     1     4
 -1.9626770786461953E-02 a       685     0    35     1     5
 -8.2429791811316627E-02 a       686     0    35     1     6
  1.7300347184974027E-01 a       687     0    35     1     7
 -9.3010889424377172E-02 a       688     0    35     1     8
  1.4670870140751807E-01 a       689     0    35     1     9
 -3.3677676213982460E-02 a       690     0    35     1    10
  3.5366209742336188E-02 a       691     0    35     1    11
  1.4489435773828827E-01 a       692     0    35     1    12
  1.3425610557392661E-02 a       693     0    35     1    13
 -3.7271047448952419E-02 a       694     0    35     1    14
 -1.4454231363016507E-02 a       695     0    35     1    15
 -8.3178681683524019E-02 a       696     0    35     1    16
 -5.1306930594018176E-02 a       697     0    35     1    17
 -3.0144907316149248E-02 a       698     0    35     1    18
 -8.7840125027848076E-02 a       699     0    35     1    19
 -3.0224786617106297E-02 a       700     0    35     1    20
 -1.4099196908166686E-01 a       701     0    36     1     1
 -1.3502663783601554E-01 a       702     0    36     1     2
 -4.7225807409156696E-02 a       703     0    36     1     3
 -4.7109358629710781E-02 a       704     0    36     1     4
 -1.2499320320632681E-02 a       705     0    36     1     5
  2.3880607703395373E-01 a       706     0    36     1     6
  2.5718453339909752E-02 a       707     0    36     1     7
 -1.5697878830095532E-01 a       708     0    36     1     8
 -3.3962928196945220E-02 a       709     0    36     1     9
  1.3412662652664223E-01 a       710     0    36     1    10
 -5.5055791829370669E-02 a       711     0    36     1    11
 -1.1555743845318554E-01 a       712     0    36     1    12
 -1.8732307407030387E-03 a       713     0    36     1    13
 -1.3491136208543494E-01 a       714     0    36     1    14
 -7.6346576402024399E-02 a       715     0    36     1    15
 -8.9343427630530922E-02 a       716     0    36     1    16
  9.2764310345895162E-02 a       717     0    36     1    17
 -1.0977709539674381E-01 a       718     0    36     1    18
 -8.9694760406921065E-02 a       719     0    36     1    19
  3.3113890846018304E-02 a       720     0    36     1    20
 -3.7578908702539842E-03 a       721     0    37     1     1
  1.0050323101167447E-01 a       722     0    37     1     2
 -6.2587127631923686E-02 a       723     0    37     1     3
  1.2671153408399077E-01 a       724     0    37     1     4
 -2.1093778161036916E-01 a       725     0    37     1     5
  3.0219513773272162E-02 a       726     0    37     1     6
 -2.1969088999496225E-01 a       727     0    37     1     7
  1.9989198391624212E-02 a       728     0    37     1     8
  1.6400293105265071E-01 a       729     0    37     1     9
  2.8164585592241398E-01 a       730     0    37     1    10
  4.4603485793232901E-02 a       731     0    37     1    11
 -4.1093859383979865E-02 a       732     0    37     1    12
  1.4781942233606640E-01 a       733     0    37     1    13
 -3.5292472809620334E-02 a       734     0    37     1    14
  3.7765474050646987E-02 a       735     0    37     1    15
  7.2148034112809498E-02 a       736     0    37     1    16
  8.9578133028169388E-02 a       737     0    37     1    17
 -2.4973110959230996E-01 a       738     0    37     1    18
  1.1237335441136148E-01 a       739     0    37     1    19
 -4.4993618128909889E-02 a       740     0    37     1    20
 -6.0743806913332848E-03 a       741     0    38     1     1
 -3.0673854848679204E-02 a       742     0    38     1     2
 -1.3861007590532706E-01 a       743     0    38     1     3
 -1.2336489672790391E-01 a       744     0    38     1     4
  1.3549478730938830E-01 a       745     0    38     1     5
  1.9742081720649375E-02 a       746     0    38     1     6
 -6.3930574012716512E-02 a       747     0    38     1     7
  1.8427219144611703E-01 a       748     0    38     1     8
  1.0792185679687603E-01 a       749     0    38     1     9
  1.4777540222629104E-01 a       750     0    38     1    10
 -8.6459278869392392E-02 a       751     0    38     1    11
  1.3898205023717222E-01 a       752     0    38     1    12
  4.0749787429107648E-02 a       753     0    38     1    13
 -1.7894979253251636E-01 a       754     0    38     1    14
 -1.7346275038988143E-01 a       755     0    38     1    15
 -7.6462269829960086E-02 a       756     0    38     1    16
 -6.9795846224324568E-02 a       757     0    38     1    17
 -8.5203619471131045E-02 a       758     0    38     1    18
 -7.5274213992657185E-02 a       759     0    38     1    19
  2.8737466346520808E-03 a       760     0    38     1    20
  1.3015362050749539E-02 a       761     0    39     1     1
  8.7254447278663397E-02 a       762     0    39     1     2
 -1.7225123491079269E-01 a       763     0    39     1     3
  7.8723691221892239E-02 a       764     0    39     1     4
  2.2173443913124988E-01 a       765     0    39     1     5
  1.1587038398603959E-01 a       766     0    39     1     6
  9.9755479137423400E-02 a       767     0    39     1     7
 -4.2076846995967601E-02 a       768     0    39     1     8
  6.0669652591761040E-02 a       769     0    39     1     9
 -1.5639209277216384E-01 a       770     0    39     1    10
  4.2301599477254016E-02 a       771     0    39     1    11
 -9.4147891999899966E-02 a       772     0    39     1    12
 -6.7188941585632642E-02 a       773     0    39     1    13
  8.6692175645317046E-02 a       774     0    39     1    14
 -2.0805613976659403E-02 a       775     0    39     1    15
  3.6562669328492497E-03 a       776     0    39     1    16
  6.5340768828219182E-04 a       777     0    39     1    17
  1.5172007413497718E-01 a       778     0    39     1    18
  5.0625624350335553E-02 a       779     0    39     1    19
  7.2778869635802629E-02 a       780     0    39     1    20
  4.6768438992071081E-02 a       781     0    40     1     1
 -4.1296959891369812E-02 a       782     0    40     1     2
  1.1128195541335786E-01 a       783     0    40     1     3
 -5.6905617677818310E-04 a       784     0    40     1     4
  1.1124980251235377E-01 a       785     0    40     1     5
  1.2035833825697045E-01 a       786     0    40     1     6
 -2.0384056128470645E-02 a       787     0    40     1     7
  1.6067035117877951E-01 a       788     0    40     1     8
  6.1915585210926015E-02 a       789     0    40     1     9
  6.3617614890314519E-02 a       790     0    40     1    10
 -3.6063790811325942E-02 a       791     0    40     1    11
  1.7510831252623993E-01 a       792     0    40     1    12
 -8.3817380402578329E-02 a       793     0    40     1    13
  8.2094843123830790E-03 a       794     0    40     1    14
  1.3924799793626641E-01 a       795     0    40     1    15
 -1.8723270692089608E-01 a       796     0    40     1    16
 -2.0646565663178334E-02 a       797     0    40     1    17
 -1.6228097295876955E-02 a       798     0    40     1    18
 -2.0358149371652268E-01 a       799     0    40     1    19
  3.9355874759661102E-03 a       800     0    40     1    20
  1.8699453923442852E-01 a       801     0    41     1     1
  9.0645428584760990E-02 a       802     0    41     1     2
 -1.9756323403161721E-01 a       803     0    41     1     3
  3.3016791724417342E-02 a       804     0    41     1     4
 -1.1141656367073854E-01 a       805     0    41     1     5
 -9.1219933736901238E-02 a       806     0    41     1     6
  7.1552944640775704E-02 a       807     0    41     1     7
  1.3342324222171598E-01 a       808     0    41     1     8
  5.3342380254253662E-02 a       809     0    41     1     9
  4.3051520421371586E-02 a       810     0    41     1    10
  2.7288153534771143E-02 a       811     0    41     1    11
  2.7473229399535722E-02 a       812     0    41     1    12
  1.4377203249298662E-01 a       813     0    41     1    13
 -8.9918185213717639E-02 a       814     0    41     1    14
 -1.4458394297060237E-02 a       815     0    41     1    15
  1.0145996157993385E-02 a       816     0    41     1    16
  8.9684713181972242E-03 a       817     0    41     1    17
 -3.8663386738008058E-02 a       818     0    41     1    18
 -9.1229150788631669E-02 a       819     0    41     1    19
 -1.1358448368895510E-01 a       820     0    41     1    20
  1.0633092768227027E-01 a       821     0    42     1     1
 -2.0425565700340861E-01 a       822     0    42     1     2
  2.7559933115487467E-01 a       823     0    42     1     3
 -6.1295555182040232E-02 a       824     0    42     1     4
  1.2601070356478405E-01 a       825     0    42     1     5
  5.3700049693009712E-02 a       826     0    42     1     6
  4.1679364105237461E-02 a       827     0    42     1     7
  3.7742441940459845E-03 a       828     0    42     1     8
 -2.4869892774146564E-02 a       829     0    42     1     9
 -4.9369849576984703E-02 a       830     0    42     1    10
 -6.5134638556762475E-03 a       831     0    42     1    11
 -3.2790852594087164E-02 a       832     0    42     1    12
  5.5059055578953769E-02 a       833     0    42     1    13
 -1.3001413183454588E-01 a       834     0    42     1    14
  7.0046019494363981E-02 a       835     0    42     1    15
  5.2490882568282160E-02 a       836     0    42     1    16
 -2.6464670629377556E-02 a       837     0    42     1    17
 -3.4695396762086535E-03 a       838     0    42     1    18
 -5.0564173393065272E-02 a       839     0    42     1    19
 -1.3835393532340542E-01 a       840     0    42     1    20
  1.0371022587099325E-01 a       841     0    43     1     1
  4.3730571370452484E-02 a       842     0    43     1     2
  2.0669165203779524E-01 a       843     0    43     1     3
 -7.1457584149570444E-02 a       844     0    43     1     4
  2.9535083096851541E-02 a       845     0    43     1     5
 -1.6587845627746922E-01 a       846     0    43     1     6
 -1.3755115242127533E-01 a       847     0    43     1     7
 -3.2415717928329521E-02 a       848     0    43     1     8
 -2.0970835139025725E-02 a       849     0    43     1     9
  2.1081882575610811E-01 a       850     0    43     1    10
  9.0005268968700966E-02 a       851     0    43     1    11
  2.3237763125578084E-01 a       852     0    43     1    12
  1.5957348450104222E-01 a       853     0    43     1    13
 -2.3271591656811841E-01 a       854     0    43     1    14
  4.3568753737166156E-02 a       855     0    43     1    15
  9.4315659709903934E-03 a       856     0    43     1    16
  1.4062608356610121E-01 a       857     0    43     1    17
 -2.1191735931174877E-01 a       858     0    43     1    18
 -6.4269384463050389E-02 a       859     0    43     1    19
 -2.3806651665721182E-01 a       860     0    43     1    20
  4.7552842990076338E-02 a       861     0    44     1     1
 -2.1721309232180291E-01 a       862     0    44     1     2
  3.8515027200118185E-03 a       863     0    44     1     3
  3.6658298857938951E-03 a       864     0    44     1     4
 -1.6373054073559326E-01 a       865     0    44     1     5
 -1.0455830215953521E-01 a       866     0    44     1     6
 -6.6235980959564622E-02 a       867     0    44     1     7
  2.0971475122685664E-02 a       868     0    44     1     8
  7.0253519066129352E-02 a       869     0    44     1     9
 -8.1210014027058741E-02 a       870     0    44     1    10
 -4.2475835436269149E-02 a       871     0    44     1    11
 -8.1589979778114788E-02 a       872     0    44     1    12
  4.3084707948903171E-02 a       873     0    44     1    13
 -1.0110735306182607E-01 a       874     0    44     1    14
  3.3701052645260791E-02 a       875     0    44     1    15
 -4.0316820078548456E-02 a       876     0    44     1    16
  3.4094209655437781E-02 a       877     0    44     1    17
 -5.2704634218875217E-02 a       878     0    44     1    18
  3.7603248392479535E-03 a       879     0    44     1    19
 -2.1132480674736553E-01 a       880     0    44     1    20
 -5.4998273256548227E-02 a       881     0    45     1     1
  2.2217572064870586E-01 a       882     0    45     1     2
 -8.8022224516225697E-02 a       883     0    45     1     3
  2.6269284618648910E-02 a       884     0    45     1     4
 -1.4681890389977142E-01 a       885     0    45     1     5
 -2.1242734735019420E-02 a       886     0    45     1     6
  6.9274605957527269E-02 a       887     0    45     1     7
  4.2955099100777305E-03 a       888     0    45     1     8
 -7.8387452732886026E-02 a       889     0    45     1     9
 -1.3297252797488493E-01 a       890     0    45     1    10
  8.1516975395249103E-02 a       891     0    45     1    11
  9.8310690472849724E-02 a       892     0    45     1    12
  2.2783289816665806E-02 a       893     0    45     1    13
  5.1154571524420151E-03 a       894     0    45     1    14
 -1.9304688302188117E-01 a       895     0    45     1    15
  1.0342575644704978E-04 a       896     0    45     1    16
  2.4112671442266458E-02 a       897     0    45     1    17
 -3.0019201854541658E-02 a       898     0    45     1    18
  5.0056836553819421E-02 a       899     0    45     1    19
 -1.8276023929608587E-01 a       900     0    45     1    20
  3.1633108592921233E-02 a       901     0    46     1     1
 -2.0226703620252853E-01 a       902     0    46     1     2
 -7.6140625115606014E-02 a       903     0    46     1     3
 -4.7280275547292694E-02 a       904     0    46     1     4
  9.9701031349739067E-02 a       905     0    46     1     5
  3.0226330070057508E-02 a       906     0    46     1     6
 -4.5058898444511573E-02 a       907     0    46     1     7
 -1.2981717613658497E-01 a       908     0    46     1     8
  1.9309827053612663E-01 a       909     0    46     1     9
  4.2865991722859036E-02 a       910     0    46     1    10
  5.7785669854521710E-03 a       911     0    46     1    11
 -1.5543466822567489E-01 a       912     0    46     1    12
  6.6516938702488454E-02 a       913     0    46     1    13
 -2.2809634974772403E-01 a       914     0    46     1    14
 -8.1836796699537848E-02 a       915     0    46     1    15
 -7.5438560403285962E-02 a       916     0    46     1    16
  1.0536602048024621E-01 a       917     0    46     1    17
 -9.8063690564422573E-02 a       918     0    46     1    18
  3.2598904931107960E-02 a       919     0    46     1    19
 -1.8910700638279754E-01 a       920     0    46     1    20
 -1.3694418931253466E-01 a       921     0    47     1     1
 -1.3165705776527659E-01 a       922     0    47     1     2
  2.2511231839591636E-01 a       923     0    47     1     3
 -8.0771823653353059E-02 a       924     0    47     1     4
  6.5357114055064516E-02 a       925     0    47     1     5
 -9.3283720711575049E-02 a       926     0    47     1     6
 -1.1327295505522269E-02 a       927     0    47     1     7
 -7.3524588037293850E-02 a       928     0    47     1     8
 -1.6274379568280803E-02 a       929     0    47     1     9
  1.9072306836312169E-01 a       930     0    47     1    10
  7.8605755061379082E-02 a       931     0    47     1    11
  9.2033275100194354E-03 a       932     0    47     1    12
  6.3932391112902054E-02 a       933     0    47     1    13
 -2.1521304928041107E-01 a       934     0    47     1    14
  1.6844249181406422E-03 a       935     0    47     1    15
  1.9067945858500940E-02 a       936     0    47     1    16
  1.4808294992867249E-01 a       937     0    47     1    17
 -1.9494005959673816E-01 a       938     0    47     1    18
 -5.0032386318406834E-02 a       939     0    47     1    19
 -1.8065244266428168E-01 a       940     0    47     1    20
  5.5090102351057900E-02 a       941     0    48     1     1
 -9.6010552611817720E-02 a       942     0    48     1     2
  4.0180566871111892E-02 a       943     0    48     1     3
 -4.0019119945962064E-02 a       944     0    48     1     4
  6.8604573761173723E-02 a       945     0    48     1     5
 -2.9550928047973601E-02 a       946     0    48     1     6
  3.4716169467671476E-02 a       947     0    48     1     7
  1.2607466633220521E-01 a       948     0    48     1     8
  9.2747376562193506E-02 a       949     0    48     1     9
  6.8159513810347155E-02 a       950     0    48     1    10
 -2.1153269293544011E-02 a       951     0    48     1    11
  8.2157805706479958E-02 a       952     0    48     1    12
  3.5704649931418138E-03 a       953     0    48     1    13
 -1.6612491276512387E-01 a       954     0    48     1    14
 -1.1892519133252635E-01 a       955     0    48     1    15
 -4.6787808030639297E-02 a       956     0    48     1    16
  8.0785330410528024E-03 a       957     0    48     1    17
 -1.0618440142927871E-01 a       958     0    48     1    18
 -1.0883744890553382E-01 a       959     0    48     1    19
 -2.7392124325405481E-02 a       960     0    48     1    20
 -1.8018349227354274E-02 a       961     0    49     1     1
  2.5194525174068272E-01 a       962     0    49     1     2
  3.1721148831251225E-02 a       963     0    49     1     3
  2.5927538104983498E-02 a       964     0    49     1     4
  4.4419878178131388E-02 a       965     0    49     1     5
  1.9795588091012126E-01 a       966     0    49     1     6
  9.5101261930544731E-02 a       967     0    49     1     7
 -1.6517652841304045E-02 a       968     0    49     1     8
  9.0977848722774035E-02 a       969     0    49     1     9
  1.3243309604082701E-01 a       970     0    49     1    10
 -1.4466979416553555E-03 a       971     0    49     1    11
  2.4957013021308705E-01 a       972     0    49     1    12
  6.3582545605049296E-03 a       973     0    49     1    13
 -9.6969752054009376E-03 a       974     0    49     1    14
 -4.7442315778377660E-02 a       975     0    49     1    15
 -1.5271309946176292E-01 a       976     0    49     1    16
  2.4405290410476760E-02 a       977     0    49     1    17
 -5.7132797025501836E-02 a       978     0    49     1    18
 -1.4431380545224454E-01 a       979     0    49     1    19
  7.1435529056712078E-04 a       980     0    49     1    20
  1.0046841188197322E-01 a       981     0    50     1     1
 -1.6623650892633404E-01 a       982     0    50     1     2
  4.3141617919720134E-02 a       983     0    50     1     3
  6.1604638425663091E-02 a       984     0    50     1     4
  1.0136693291846305E-01 a       985     0    50     1     5
 -6.2208144495348998E-02 a       986     0    50     1     6
  3.2472830701173357E-02 a       987     0    50     1     7
  2.6067184323949735E-02 a       988     0    50     1     8
  2.2292209190942239E-01 a       989     0    50     1     9
 -2.2560957587865353E-02 a       990     0    50     1    10
 -3.3245922669964012E-02 a       991     0    50     1    11
  3.9301843100330323E-02 a       992     0    50     1    12
  3.2524632940511632E-02 a       993     0    50     1    13
 -1.2960512973501910E-02 a       994     0    50     1    14
  8.2003796762578698E-02 a       995     0    50     1    15
 -1.2252442733805276E-01 a       996     0    50     1    16
 -3.9619750657854974E-02 a       997     0    50     1    17
  8.3378561435994106E-02 a       998     0    50     1    18
 -1.2565271977005626E-01 a       999     0    50     1    19
 -2.9466245599633553E-02 a      1000     0    50     1    20
 -5.1636030688743506E-02 a      1001     0    51     1     1
  5.4051118825978309E-02 a      1002     0    51     1     2
  4.2031155828082860E-02 a      1003     0    51     1     3
  6.4311698932450201E-02 a      1004     0    51     1     4
 -6.5590384920820685E-02 a      1005     0    51     1     5
  9.2609423348793185E-02 a      1006     0    51     1     6
  1.9278229526032609E-01 a      1007     0    51     1     7
 -1.3829582371551200E-02 a      1008     0    51     1     8
  8.5163038533337551E-02 a      1009     0    51     1     9
 -5.5775747816642428E-02 a      1010     0    51     1    10
  9.5521972256642274E-02 a      1011     0    51     1    11
  1.0056112581873605E-01 a      1012     0    51     1    12
  8.4269506733102059E-02 a      1013     0    51     1    13
 -9.9525507653916948E-02 a      1014     0    51     1    14
  2.4527933731220020E-02 a      1015     0    51     1    15
  5.2216846402480796E-02 a      1016     0    51     1    16
  8.3238530402771821E-02 a      1017     0    51     1    17
 -6.3596786910412428E-02 a      1018     0    51     1    18
 -1.5084526734067524E-01 a      1019     0    51     1    19
 -1.8593005151955089E-01 a      1020     0    51     1    20
  3.4535380351741883E-02 a      1021     0    52     1     1
  2.7192305468555382E-02 a      1022     0    52     1     2
 -1.3439928518332969E-01 a      1023     0    52     1     3
 -5.8487129650116189E-02 a      1024     0    52     1     4
 -1.0773896914093431E-01 a      1025     0    52     1     5
  6.5262911597898168E-02 a      1026     0    52     1     6
 -4.0686152292068296E-02 a      1027     0    52     1     7
 -2.0233398807457295E-01 a      1028     0    52     1     8
 -1.4679425224740866E-02 a      1029     0    52     1     9
 -2.1114541197013401E-01 a      1030     0    52     1    10
 -1.5441918890725177E-02 a      1031     0    52     1    11
  2.6247217875518494E-02 a      1032     0    52     1    12
  4.8247688299857955E-02 a      1033     0    52     1    13
  2.2013431680404576E-02 a      1034     0    52     1    14
 -9.8907240898483531E-02 a      1035     0    52     1    15
  1.2223591046977980E-01 a      1036     0    52     1    16
 -1.1207125323460923E-01 a      1037     0    52     1    17
 -8.8000562583116393E-02 a      1038     0    52     1    18
  1.1938988697695763E-01 a      1039     0    52     1    19
  1.2276237408068656E-01 a      1040     0    52     1    20
  1.5091595781042078E-02 a      1041     0    53     1     1
 -2.8805757415616251E-02 a      1042     0    53     1     2
  4.6670888307608106E-02 a      1043     0    53     1     3
  9.5351847948707422E-02 a      1044     0    53     1     4
 -6.7714080024153037E-02 a      1045     0    53     1     5
 -1.1507325570112756E-01 a      1046     0    53     1     6
  1.2787914554508015E-01 a      1047     0    53     1     7
  1.9241295206557785E-01 a      1048     0    53     1     8
  1.5375196133236491E-01 a      1049     0    53     1     9
 -1.7840498226848822E-01 a      1050     0    53     1    10
 -5.6483683844132389E-02 a      1051     0    53     1    11
  1.8982348161612375E-01 a      1052     0    53     1    12
 -4.2753705738467193E-02 a      1053     0    53     1    13
  6.8309176992613435E-02 a      1054     0    53     1    14
 -4.5301595566119339E-02 a      1055     0    53     1    15
 -1.2434915740525403E-01 a      1056     0    53     1    16
  6.8317987104006411E-03 a      1057     0    53     1    17
  5.6917559209002676E-02 a      1058     0    53     1    18
  1.3367357048828649E-02 a      1059     0    53     1    19
  1.8668481362080794E-01 a      1060     0    53     1    20
 -1.0722653109907278E-01 a      1061     0    54     1     1
  5.1020981116575138E-02 a      1062     0    54     1     2
  2.7813861066194386E-02 a      1063     0    54     1     3
 -6.9901013686747906E-02 a      1064     0    54     1     4
  1.7893649282672557E-02 a      1065     0    54     1     5
  1.5671264986636249E-01 a      1066     0    54     1     6
  1.4158837752531786E-01 a      1067     0    54     1     7
 -1.3526004725109553E-01 a      1068     0    54     1     8
  4.6943730402248529E-02 a      1069     0    54     1     9
  1.3558829070518363E-01 a      1070     0    54     1    10
  3.8773364419351135E-02 a      1071     0    54     1    11
 -3.3917848454432020E-02 a      1072     0    54     1    12
 -1.1972168272355982E-01 a      1073     0    54     1    13
  8.6160003152540826E-02 a      1074     0    54     1    14
  5.6384523227707678E-02 a      1075     0    54     1    15
 -9.2143380807550052E-02 a      1076     0    54     1    16
 -1.3159628046125735E-01 a      1077     0    54     1    17
 -2.0631860345721520E-01 a      1078     0    54     1    18
 -1.8123871350926728E-02 a      1079     0    54     1    19
 -6.5491320972053922E-03 a      1080     0    54     1    20
 -6.9854552207123319E-02 a      1081     0    55     1     1
  1.1942105227808962E-01 a      1082     0    55     1     2
 -1.3022725061145532E-01 a      1083     0    55     1     3
  8.7570131977399768E-02 a      1084     0    55     1     4
  1.9648850020237965E-01 a      1085     0    55     1     5
  1.0868317041454408E-01 a      1086     0    55     1     6
 -9.3905492150772193E-02 a      1087     0    55     1     7
  1.1966028804144332E-01 a      1088     0    55     1     8
  1.3655502948848505E-01 a      1089     0    55     1     9
  1.5844713583823505E-01 a      1090     0    55     1    10
  1.7524394385659800E-01 a      1091     0    55     1    11
 -4.1056400968746708E-02 a      1092     0    55     1    12
  8.5785512085239843E-04 a      1093     0    55     1    13
  8.9566356959663446E-02 a      1094     0    55     1    14
  6.6727943766581754E-02 a      1095     0    55     1    15
  9.2335217229177730E-02 a      1096     0    55     1    16
  1.0871433468138673E-01 a      1097     0    55     1    17
  2.0236130120919538E-01 a      1098     0    55     1    18
  9.6186192553795138E-02 a      1099     0    55     1    19
  8.1645812638313414E-02 a      1100     0    55     1    20
 -1.7938528277949023E-01 a      1101     0    56     1     1
 -9.6336502045686626E-02 a      1102     0    56     1     2
  1.8045682369546268E-01 a      1103     0    56     1     3
  2.5104746682926793E-01 a      1104     0    56     1     4
 -1.4077448940058855E-02 a      1105     0    56     1     5
  8.2225748275082902E-02 a      1106     0    56     1     6
 -1.1657277172062847E-01 a      1107     0    56     1     7
  8.9603250483719393E-02 a      1108     0    56     1     8
  9.8598271345706034E-02 a      1109     0    56     1     9
 -1.2141350428196011E-01 a      1110     0    56     1    10
  1.0498964954610830E-01 a      1111     0    56     1    11
  1.9897380564881478E-01 a      1112     0    56     1    12
 -1.4936247851301174E-01 a      1113     0    56     1    13
  2.1551853899140866E-01 a      1114     0    56     1    14
  1.3826760522879591E-01 a      1115     0    56     1    15
  7.2964894581782527E-02 a      1116     0    56     1    16
  3.3358870890110172E-02 a      1117     0    56     1    17
 -2.4015620750954807E-02 a      1118     0    56     1    18
  5.7352723880142065E-02 a      1119     0    56     1    19
  8.9895593742672086E-02 a      1120     0    56     1    20
  1.5043135344427172E-01 a      1121     0    57     1     1
 -1.4973241619948272E-01 a      1122     0    57     1     2
  8.0695134355308493E-02 a      1123     0    57     1     3
  4.9929569171642714E-02 a      1124     0    57     1     4
 -7.7065961635310598E-02 a      1125     0    57     1     5
 -1.2382220961820027E-01 a      1126     0    57     1     6
  4.8829423179104128E-03 a      1127     0    57     1     7
  8.3811192373016971E-02 a      1128     0    57     1     8
 -2.6558571216305071E-01 a      1129     0    57     1     9
 -4.1066507247638440E-02 a      1130     0    57     1    10
 -5.6676078539790613E-02 a      1131     0    57     1    11
  1.0597214944419642E-01 a      1132     0    57     1    12
 -9.5585293478147940E-02 a      1133     0    57     1    13
  8.6553606289547461E-02 a      1134     0    57     1    14
  2.1631650141297909E-01 a      1135     0    57     1    15
  7.6274846462360588E-02 a      1136     0    57     1    16
  2.0361713390676967E-01 a      1137     0    57     1    17
  5.3433665327771156E-02 a      1138     0    57     1    18
 -9.3626106028962180E-02 a      1139     0    57     1    19
  7.6646253381839349E-02 a      1140     0    57     1    20
 -1.1087225867933359E-01 a      1141     0    58     1     1
  1.1283714524690007E-01 a      1142     0    58     1     2
 -8.0497744954313055E-02 a      1143     0    58     1     3
 -4.5246186159885224E-02 a      1144     0    58     1     4
  4.1438973724127103E-02 a      1145     0    58     1     5
  1.5054031379279342E-01 a      1146     0    58     1     6
  5.3923779211291920E-02 a      1147     0    58     1     7
  1.6737006696000928E-01 a      1148     0    58     1     8
  1.3055947013034808E-01 a      1149     0    58     1     9
  9.8435662268355442E-02 a      1150     0    58     1    10
 -1.4583371587616837E-02 a      1151     0    58     1    11
  5.4675734762814752E-02 a      1152     0    58     1    12
 -1.1540088248652851E-01 a      1153     0    58     1    13
  2.6441458194980472E-01 a      1154     0    58     1    14
 -6.0871947417786357E-02 a      1155     0    58     1    15
  1.3243611212266973E-01 a      1156     0    58     1    16
  3.8349043834047553E-02 a      1157     0    58     1    17
  1.5577037367927251E-02 a      1158     0    58     1    18
  8.2596699589876935E-02 a      1159     0    58     1    19
 -1.8947739795214691E-01 a      1160     0    58     1    20
 -1.3970117121995692E-02 a      1161     0    59     1     1
  1.0827649528540065E-01 a      1162     0    59     1     2
  1.7379503428678195E-01 a      1163     0    59     1     3
 -9.7057618774804594E-02 a      1164     0    59     1     4
  5.6901772847099671E-02 a      1165     0    59     1     5
  1.6819546391353837E-01 a      1166     0    59     1     6
 -2.0221167732741397E-02 a      1167     0    59     1     7
  5.5087282918635704E-02 a      1168     0    59     1     8
 -1.1447401629466965E-01 a      1169     0    59     1     9
 -4.0422501540177319E-02 a      1170     0    59     1    10
  5.2886001136157559E-02 a      1171     0    59     1    11
 -2.9367334308655338E-03 a      1172     0    59     1    12
 -9.5520053762063767E-02 a      1173     0    59     1    13
  7.8059654802292280E-02 a      1174     0    59     1    14
  1.4934935964516563E-01 a      1175     0    59     1    15
  9.7598292073373220E-03 a      1176     0    59     1    16
 -5.5303796310499052E-02 a      1177     0    59     1    17
 -1.8534948489214213E-02 a      1178     0    59     1    18
 -1.7516802700538656E-01 a      1179     0    59     1    19
  1.9030944342334953E-02 a      1180     0    59     1    20
  7.0525327039378721E-02 a      1181     0    60     1     1
  7.4847147715018117E-02 a      1182     0    60     1     2
  2.0799833531343229E-01 a      1183     0    60     1     3
  2.5149219875260812E-02 a      1184     0    60     1     4
  2.2075572400923213E-01 a      1185     0    60     1     5
  8.1077041291933841E-02 a      1186     0    60     1     6
  3.7891809730482083E-02 a      1187     0    60     1     7
  9.4011889537909343E-02 a      1188     0    60     1     8
  2.0780350232124520E-01 a      1189     0    60     1     9
 -4.8189189786700296E-02 a      1190     0    60     1    10
 -3.4056189450715910E-02 a      1191     0    60     1    11
  3.1569208134473697E-02 a      1192     0    60     1    12
  1.6872845384283998E-02 a      1193     0    60     1    13
  5.4918011803579171E-02 a      1194     0    60     1    14
  1.9877468308459242E-01 a      1195     0    60     1    15
 -7.7850038053116799E-02 a      1196     0    60     1    16
 -8.1766890892867788E-02 a      1197     0    60     1    17
 -4.2044481832462142E-02 a      1198     0    60     1    18
 -2.2157240394836471E-02 a      1199     0    60     1    19
 -1.1510312352691275E-01 a      1200     0    60     1    20
  4.6410687042873841E-04 a      1201     0    61     1     1
  4.3453628210609448E-02 a      1202     0    61     1     2
 -1.3907813187833468E-01 a      1203     0    61     1     3
 -1.9383559136178702E-01 a      1204     0    61     1     4
 -1.0048017336677430E-01 a      1205     0    61     1     5
 -9.6835107569899395E-02 a      1206     0    61     1     6
  1.2019374883022901E-01 a      1207     0    61     1     7
  2.4772709137846788E-01 a      1208     0    61     1     8
 -1.8667095492426422E-01 a      1209     0    61     1     9
  1.0401388222469547E-01 a      1210     0    61     1    10
 -1.3496597088036857E-01 a      1211     0    61     1    11
 -6.0598941760282923E-02 a      1212     0    61     1    12
  1.4129928621764834E-01 a      1213     0    61     1    13
 -2.6225391326830255E-02 a      1214     0    61     1    14
  1.5119649776737057E-01 a      1215     0    61     1    15
  5.7652028356515478E-02 a      1216     0    61     1    16
 -1.2479783750958375E-02 a      1217     0    61     1    17
  1.4020163576574518E-01 a      1218     0    61     1    18
 -7.5522515778043822E-02 a      1219     0    61     1    19
  1.4699174499541842E-01 a      1220     0    61     1    20
 -1.6260582823205902E-02 a      1221     0    62     1     1
 -1.3926787492083806E-01 a      1222     0    62     1     2
 -1.2068733034773428E-01 a      1223     0    62     1     3
 -3.7363422189367322E-03 a      1224     0    62     1     4
 -1.4963099109362768E-01 a      1225     0    62     1     5
  3.4575039862286515E-02 a      1226     0    62     1     6
  6.4705026622395911E-02 a      1227     0    62     1     7
  8.7087158166231471E-02 a      1228     0    62     1     8
 -1.4152452928735538E-03 a      1229     0    62     1     9
  4.0769843538048134E-02 a      1230     0    62     1    10
 -6.9767299024446297E-02 a      1231     0    62     1    11
  1.8731537144486599E-01 a      1232     0    62     1    12
  1.3165128665577286E-01 a      1233     0    62     1    13
 -8.9388261787513190E-02 a      1234     0    62     1    14
 -1.5206152825540092E-01 a      1235     0    62     1    15
 -1.3990843901623790E-01 a      1236     0    62     1    16
  2.3240367755205677E-02 a      1237     0    62     1    17
 -8.1324058658865161E-02 a      1238     0    62     1    18
 -1.6419258158289335E-01 a      1239     0    62     1    19
 -2.1850298737996385E-01 a      1240     0    62     1    20
 -6.4962326379907509E-02 a      1241     0    63     1     1
  1.7628594746310217E-01 a      1242     0    63     1     2
 -4.0335051116347477E-02 a      1243     0    63     1     3
 -5.0123327081810692E-02 a      1244     0    63     1     4
 -5.7170089107679734E-02 a      1245     0    63     1     5
  1.3761273408810520E-01 a      1246     0    63     1     6
 -3.0023597126078907E-03 a      1247     0    63     1     7
 -1.0333286449617841E-01 a      1248     0    63     1     8
 -5.2360067673240279E-02 a      1249     0    63     1     9
 -1.3087765684956396E-01 a      1250     0    63     1    10
  3.1870944489508002E-02 a      1251     0    63     1    11
 -5.0726102219193395E-02 a      1252     0    63     1    12
 -2.5285125264073782E-04 a      1253     0    63     1    13
  7.5541317488601309E-02 a      1254     0    63     1    14
  1.8396520735352667E-02 a      1255     0    63     1    15
 -8.5611327410010513E-02 a      1256     0    63     1    16
 -7.4145337148320931E-02 a      1257     0    63     1    17
 -6.0325136811477109E-02 a      1258     0    63     1    18
 -9.6477240009357965E-02 a      1259     0    63     1    19
  1.0307747914270181E-01 a      1260     0    63     1    20
 -6.6890833522455562E-02 a      1261     0    64     1     1
 -6.5888985668267300E-02 a      1262     0    64     1     2
 -4.2587039095303598E-03 a      1263     0    64     1     3
 -2.7409593744440585E-02 a      1264     0    64     1     4
  1.2983566682739378E-01 a      1265     0    64     1     5
  6.3923024842554577E-02 a      1266     0    64     1     6
 -1.3095860489813735E-01 a      1267     0    64     1     7
  5.6572971152989406E-02 a      1268     0    64     1     8
 -9.5472053038157506E-02 a      1269     0    64     1     9
  2.1517771150616760E-01 a      1270     0    64     1    10
 -4.3370204318893373E-03 a      1271     0    64     1    11
 -6.3701600078931386E-02 a      1272     0    64     1    12
 -2.3558159142425514E-02 a      1273     0    64     1    13
  9.2127398001915384E-02 a      1274     0    64     1    14
  1.9181772352797921E-01 a      1275     0    64     1    15
  1.1830500857535688E-01 a      1276     0    64     1    16
 -4.2399101008141392E-02 a      1277     0    64     1    17
 -1.8020757948420625E-02 a      1278     0    64     1    18
 -2.0489796769389088E-03 a      1279     0    64     1    19
  3.7173257619489551E-02 a      1280     0    64     1    20
  8.0733159322550568E-02 a      1281     0    65     1     1
  3.1823766353405281E-02 a      1282     0    65     1     2
  1.3784055593341252E-01 a      1283     0    65     1     3
  2.2081157869738830E-02 a      1284     0    65     1     4
  7.4782811477593220E-02 a      1285     0    65     1     5
 -3.6935157805635159E-02 a      1286     0    65     1     6
  3.5313431253250378E-02 a      1287     0    65     1     7
 -9.5082874709288626E-02 a      1288     0    65     1     8
  1.5741887520964293E-01 a      1289     0    65     1     9
 -8.6468102001853966E-02 a      1290     0    65     1    10
 -2.3421719848287798E-03 a      1291     0    65     1    11
 -7.3619522298993448E-02 a      1292     0    65     1    12
 -1.2366624642081686E-01 a      1293     0    65     1    13
 -4.6866340386800036E-02 a      1294     0    65     1    14
 -1.0854645847019435E-01 a      1295     0    65     1    15
  7.1477734033673648E-02 a      1296     0    65     1    16
  1.9964664744948613E-02 a      1297     0    65     1    17
  6.6316381464878407E-02 a      1298     0    65     1    18
 -1.7223001960467008E-01 a      1299     0    65     1    19
  2.9922872674799827E-01 a      1300     0    65     1    20
  6.9906837724777141E-02 a      1301     0    66     1     1
  7.7803045016016628E-04 a      1302     0    66     1     2
  9.0779417155877701E-02 a      1303     0    66     1     3
 -1.9948581281459925E-02 a      1304     0    66     1     4
  1.3996208155899140E-02 a      1305     0    66     1     5
  1.2398622772725705E-01 a      1306     0    66     1     6
  1.8012866265368485E-01 a      1307     0    66     1     7
 -2.0091374395060607E-01 a      1308     0    66     1     8
 -4.7497045724036187E-02 a      1309     0    66     1     9
  1.0398741858901195E-01 a      1310     0    66     1    10
 -1.6010841370109233E-02 a      1311     0    66     1    11
  1.5141266028453579E-01 a      1312     0    66     1    12
 -2.1493743239142482E-01 a      1313     0    66     1    13
  2.7007100671873539E-02 a      1314     0    66     1    14
 -2.1052165182697527E-01 a      1315     0    66     1    15
 -1.1665164647034859E-01 a      1316     0    66     1    16
  1.6681586471074455E-02 a      1317     0    66     1    17
 -2.1274332306987585E-02 a      1318     0    66     1    18
  7.0334925107353688E-02 a      1319     0    66     1    19
  7.2845860570556628E-02 a      1320     0    66     1    20
  3.4131649908451363E-02 a      1321     0    67     1     1
  2.1120972530249355E-01 a      1322     0    67     1     2
 -5.5131376759960738E-03 a      1323     0    67     1     3
  2.6634739623207193E-01 a      1324     0    67     1     4
  4.1092423026976049E-02 a      1325     0    67     1     5
  7.1188359550191246E-02 a      1326     0    67     1     6
 -7.4992453736391781E-02 a      1327     0    67     1     7
 -1.8505273821074783E-01 a      1328     0    67     1     8
  1.0142264631217734E-01 a      1329     0    67     1     9
  2.0857490888813585E-01 a      1330     0    67     1    10
 -1.4897774071092186E-03 a      1331     0    67     1    11
 -1.0056250956293800E-01 a      1332     0    67     1    12
 -1.6809345560845365E-01 a      1333     0    67     1    13
  1.6922597362495659E-01 a      1334     0    67     1    14
 -1.6728276520988469E-03 a      1335     0    67     1    15
 -1.3114024101574889E-01 a      1336     0    67     1    16
 -3.4771415518092846E-02 a      1337     0    67     1    17
 -2.7063473867272037E-03 a      1338     0    67     1    18
  2.0614834206902008E-01 a      1339     0    67     1    19
  5.2346696294720156E-02 a      1340     0    67     1    20
 -3.8714196983470166E-02 a      1341     0    68     1     1
 -1.4192965573235419E-01 a      1342     0    68     1     2
 -1.4832478107095981E-01 a      1343     0    68     1     3
 -9.0990909039281614E-02 a      1344     0    68     1     4
 -3.6793921487548666E-03 a      1345     0    68     1     5
  1.1545286834097963E-01 a      1346     0    68     1     6
 -4.3329463736525636E-01 a      1347     0    68     1     7
  2.0448361588275971E-02 a      1348     0    68     1     8
 -1.5670842949065930E-01 a      1349     0    68     1     9
  1.0382971545764869E-01 a      1350     0    68     1    10
 -2.1575557877199471E-02 a      1351     0    68     1    11
  7.5391080830717943E-03 a      1352     0    68     1    12
 -6.8200845215371411E-02 a      1353     0    68     1    13
  3.0419281468941262E-01 a      1354     0    68     1    14
  2.1619571179146133E-01 a      1355     0    68     1    15
  6.5254533680154506E-02 a      1356     0    68     1    16
 -7.9201286293108450E-03 a      1357     0    68     1    17
  3.0094700050298484E-01 a      1358     0    68     1    18
  3.4621212767588297E-02 a      1359     0    68     1    19
 -9.0992988762848802E-03 a      1360     0    68     1    20
 -1.4563912587563484E-02 a      1361     0    69     1     1
  7.5939389348043659E-02 a      1362     0    69     1     2
 -5.2563241090386598E-02 a      1363     0    69     1     3
  2.3407947817097791E-02 a      1364     0    69     1     4
 -2.5646902815514483E-01 a      1365     0    69     1     5
  9.1040746692596611E-02 a      1366     0    69     1     6
  1.0301450496447431E-01 a      1367     0    69     1     7
 -1.1094643251899534E-01 a      1368     0    69     1     8
 -2.6290760182649725E-01 a      1369     0    69     1     9
 -1.6927209352094200E-01 a      1370     0    69     1    10
 -2.6630379568568594E-03 a      1371     0    69     1    11
  2.1986700392868766E-01 a      1372     0    69     1    12
 -3.4762083796825570E-02 a      1373     0    69     1    13
  9.7248665425080205E-02 a      1374     0    69     1    14
  1.1115741827688800E-02 a      1375     0    69     1    15
  1.6482243929900497E-01 a      1376     0    69     1    16
  9.6536352985415394E-02 a      1377     0    69     1    17
  1.0155552638894806E-01 a      1378     0    69     1    18
 -6.1362288376789259E-03 a      1379     0    69     1    19
 -9.5854790313778845E-02 a      1380     0    69     1    20
  1.6880349602093586E-02 a      1381     0    70     1     1
  7.6620852697297528E-02 a      1382     0    70     1     2
  1.6691721914606963E-01 a      1383     0    70     1     3
 -1.1146282753548693E-01 a      1384     0    70     1     4
 -5.0769484031412390E-02 a      1385     0    70     1     5
 -8.2003752134404029E-02 a      1386     0    70     1     6
 -8.0512833980685330E-02 a      1387     0    70     1     7
  2.6689631884871706E-02 a      1388     0    70     1     8
  7.8702964015572224E-02 a      1389     0    70     1     9
  1.5793877665006069E-02 a      1390     0    70     1    10
 -1.2530378753570959E-01 a      1391     0    70     1    11
 -1.6010619767930326E-01 a      1392     0    70     1    12
  7.3879086861005833E-02 a      1393     0    70     1    13
  1.6806189161884627E-01 a      1394     0    70     1    14
  6.4914368978189529E-02 a      1395     0    70     1    15
  3.3886557243747013E-02 a      1396     0    70     1    16
 -1.4474926436345861E-01 a      1397     0    70     1    17
  1.3018762607082812E-01 a      1398     0    70     1    18
 -7.4902793271012111E-02 a      1399     0    70     1    19
 -1.5420221493077502E-01 a      1400     0    70     1    20
 -6.4380394491857368E-02 a      1401     0    71     1     1
 -3.1649802509635720E-02 a      1402     0    71     1     2
 -1.5469291381821607E-02 a      1403     0    71     1     3
  2.9520196594308813E-02 a      1404     0    71     1     4
  4.5355056178703605E-02 a      1405     0    71     1     5
  1.9764922795544657E-01 a      1406     0    71     1     6
  2.5133136502972075E-01 a      1407     0    71     1     7
  5.6576868466405458E-02 a      1408     0    71     1     8
 -9.2963985558903700E-02 a      1409     0    71     1     9
 -9.8384071157793115E-02 a      1410     0    71     1    10
 -5.2592045875030434E-02 a      1411     0    71     1    11
  5.3103155980898278E-02 a      1412     0    71     1    12
  1.6667213354643898E-01 a      1413     0    71     1    13
 -1.1612905559957815E-01 a      1414     0    71     1    14
 -9.3802671820430616E-02 a      1415     0    71     1    15
 -9.7320371434046760E-02 a      1416     0    71     1    16
 -9.9444659196237586E-02 a      1417     0    71     1    17
  1.2502687201598056E-01 a      1418     0    71     1    18
 -5.9018961481746679E-02 a      1419     0    71     1    19
 -2.2039348164075062E-01 a      1420     0    71     1    20
  9.3625602598836719E-02 a      1421     0    72     1     1
 -2.2586502327099595E-04 a      1422     0    72     1     2
  1.1188008595914281E-02 a      1423     0    72     1     3
 -1.0942274237183806E-01 a      1424     0    72     1     4
 -2.1137553392926514E-02 a      1425     0    72     1     5
 -3.7864106018646232E-02 a      1426     0    72     1     6
 -5.1678891619072345E-04 a      1427     0    72     1     7
 -5.7862418118405874E-02 a      1428     0    72     1     8
  8.7557877796277897E-02 a      1429     0    72     1     9
 -1.8818650646392107E-01 a      1430     0    72     1    10
  2.2240430571528480E-01 a      1431     0    72     1    11
  5.2951089103167051E-02 a      1432     0    72     1    12
 -9.1737652031898941E-04 a      1433     0    72     1    13
 -1.6355949530877458E-02 a      1434     0    72     1    14
 -1.9197905211127089E-01 a      1435     0    72     1    15
  7.0744981257090153E-02 a      1436     0    72     1    16
 -1.3906909829850114E-01 a      1437     0    72     1    17
  1.7874912708707985E-01 a      1438     0    72     1    18
  1.2699578147050408E-01 a      1439     0    72     1    19
 -1.7169641283008555E-01 a      1440     0    72     1    20
 -8.6511718280451816E-02 a      1441     0    73     1     1
  1.1853732739462555E-01 a      1442     0    73     1     2
 -1.0729637001591089E-01 a      1443     0    73     1     3
 -1.2441599934971150E-01 a      1444     0    73     1     4
  7.5728898967754366E-02 a      1445     0    73     1     5
  5.7978074174199284E-02 a      1446     0    73     1     6
  2.1986926598872629E-02 a      1447     0    73     1     7
 -1.2391488294050383E-01 a      1448     0    73     1     8
 -7.9008128314439430E-02 a      1449     0    73     1     9
  2.0549947999287435E-01 a      1450     0    73     1    10
 -1.8928890924147110E-01 a      1451     0    73     1    11
 -3.2232090275914760E-01 a      1452     0    73     1    12
 -8.4587653096548074E-02 a      1453     0    73     1    13
 -2.2133621679397383E-01 a      1454     0    73     1    14
  2.0711839124976694E-01 a      1455     0    73     1    15
 -1.5932368900358307E-01 a      1456     0    73     1    16
 -2.5115910569324013E-02 a      1457     0    73     1    17
 -1.0044358944422663E-02 a      1458     0    73     1    18
 -6.5386919205890223E-02 a      1459     0    73     1    19
  1.5176814086068244E-01 a      1460     0    73     1    20
 -4.0468002117000815E-02 a      1461     0    74     1     1
 -9.4038713979806801E-02 a      1462     0    74     1     2
 -1.3817534786217545E-01 a      1463     0    74     1     3
  1.7057968250174363E-01 a      1464     0    74     1     4
 -8.8072063400549280E-02 a      1465     0    74     1     5
  3.3770414178718559E-02 a      1466     0    74     1     6
  8.1189601663599273E-02 a      1467     0    74     1     7
  1.3385785990489051E-02 a      1468     0    74     1     8
 -1.2181407047920204E-01 a      1469     0    74     1     9
 -2.7876461686790399E-01 a      1470     0    74     1    10
 -9.1571543840605396E-02 a      1471     0    74     1    11
  2.3646823291335196E-02 a      1472     0    74     1    12
  3.8097194617971809E-04 a      1473     0    74     1    13
  2.0892705154963543E-02 a      1474     0    74     1    14
 -2.1387466549285855E-01 a      1475     0    74     1    15
 -8.8510175741691219E-02 a      1476     0    74     1    16
 -4.0494940788752341E-02 a      1477     0    74     1    17
 -7.4035138735759162E-02 a      1478     0    74     1    18
 -3.4990009720699167E-03 a      1479     0    74     1    19
  6.0435463777632092E-02 a      1480     0    74     1    20
  4.7361629604491778E-02 a      1481     0    75     1     1
  3.9969055525020093E-02 a      1482     0    75     1     2
  9.8044242019246455E-02 a      1483     0    75     1     3
  4.4008353519385229E-02 a      1484     0    75     1     4
 -2.7420168092449158E-02 a      1485     0    75     1     5
 -1.3153348467849402E-01 a      1486     0    75     1     6
 -6.0748861573589948E-02 a      1487     0    75     1     7
 -6.4167311978735611E-02 a      1488     0    75     1     8
 -8.8045150907669498E-02 a      1489     0    75     1     9
 -1.2090223324175604E-02 a      1490     0    75     1    10
  3.6595969553939164E-02 a      1491     0    75     1    11
 -8.0052240977232115E-03 a      1492     0    75     1    12
 -1.5213544261447629E-01 a      1493     0    75     1    13
 -1.6728036367956503E-01 a      1494     0    75     1    14
 -2.7434304984058278E-01 a      1495     0    75     1    15
  1.8141834501031053E-04 a      1496     0    75     1    16
  3.8015475379608810E-02 a      1497     0    75     1    17
  3.8620822533505669E-02 a      1498     0    75     1    18
 -2.3852444326572408E-01 a      1499     0    75     1    19
  4.8786247924953598E-02 a      1500     0    75     1    20
 -1.1554130694379777E-01 a      1501     0    76     1     1
 -3.1557617453476225E-02 a      1502     0    76     1     2
  1.6096931228425346E-01 a      1503     0    76     1     3
 -1.4696821229351755E-02 a      1504     0    76     1     4
  3.2121593041403223E-03 a      1505     0    76     1     5
  1.0535974126080948E-01 a      1506     0    76     1     6
  4.2870540040870930E-02 a      1507     0    76     1     7
  6.8657108526568839E-02 a      1508     0    76     1     8
 -7.3469690832399168E-02 a      1509     0    76     1     9
 -3.3020820648252354E-02 a      1510     0    76     1    10
  6.7593349940228378E-02 a      1511     0    76     1    11
 -1.6943619811475732E-01 a      1512     0    76     1    12
 -1.4607620706309490E-01 a      1513     0    76     1    13
  3.5356051932827037E-02 a      1514     0    76     1    14
  9.7682215898691138E-02 a      1515     0    76     1    15
 -1.4889235621424049E-01 a      1516     0    76     1    16
  3.5347520765571037E-02 a      1517     0    76     1    17
 -7.5187408656079202E-02 a      1518     0    76     1    18
 -8.3084966341816308E-02 a      1519     0    76     1    19
 -9.2348785999731994E-02 a      1520     0    76     1    20
 -6.5873575272428916E-02 a      1521     0    77     1     1
  8.7863680308353426E-02 a      1522     0    77     1     2
  3.6094973237445753E-02 a      1523     0    77     1     3
  3.6915696210797752E-02 a      1524     0    77     1     4
  9.5560668529602169E-02 a      1525     0    77     1     5
 -3.3233084686567507E-02 a      1526     0    77     1     6
 -1.4567936729340930E-01 a      1527     0    77     1     7
  1.2608955632919563E-01 a      1528     0    77     1     8
  5.4941883243581513E-02 a      1529     0    77     1     9
 -2.1875681719972304E-01 a      1530     0    77     1    10
  2.3028001574400417E-01 a      1531     0    77     1    11
 -2.4185561351093066E-01 a      1532     0    77     1    12
 -1.7151236163548286E-01 a      1533     0    77     1    13
 -1.6870653072191322E-02 a      1534     0    77     1    14
  3.4195800160685116E-02 a      1535     0    77     1    15
  1.2036624942058372E-01 a      1536     0    77     1    16
  1.8785439313443765E-02 a      1537     0    77     1    17
 -2.0296909361618959E-02 a      1538     0    77     1    18
  1.7241668399701085E-01 a      1539     0    77     1    19
  7.2887717112633714E-03 a      1540     0    77     1    20
 -1.6173528484575586E-01 a      1541     0    78     1     1
  2.6762954822728995E-02 a      1542     0    78     1     2
 -3.1719158881599589E-02 a      1543     0    78     1     3
 -5.9336391740475933E-02 a      1544     0    78     1     4
 -9.2809097614354463E-02 a      1545     0    78     1     5
  1.8469150430581541E-01 a      1546     0    78     1     6
  1.9927607334590133E-01 a      1547     0    78     1     7
  2.4522422271760765E-02 a      1548     0    78     1     8
 -1.8765957474246420E-01 a      1549     0    78     1     9
  6.0163699640137742E-02 a      1550     0    78     1    10
 -6.0428513485747758E-02 a      1551     0    78     1    11
 -4.8754816469710922E-02 a      1552     0    78     1    12
 -1.5043726352642023E-01 a      1553     0    78     1    13
  5.4225583851895680E-02 a      1554     0    78     1    14
  3.3253624358006435E-03 a      1555     0    78     1    15
  1.5648197241518766E-01 a      1556     0    78     1    16
  1.1157009219793065E-02 a      1557     0    78     1    17
 -1.3568278662755787E-01 a      1558     0    78     1    18
  1.3728304974821426E-01 a      1559     0    78     1    19
  1.0794032933265178E-01 a      1560     0    78     1    20
 -2.0748909905592997E-01 a      1561     0    79     1     1
  1.2272034818002593E-01 a      1562     0    79     1     2
  9.5966686769770368E-02 a      1563     0    79     1     3
  3.7282905513829963E-02 a      1564     0    79     1     4
 -4.9144986627428174E-02 a      1565     0    79     1     5
 -5.1227293364466076E-02 a      1566     0    79     1     6
  2.5039653146809355E-02 a      1567     0    79     1     7
  6.8001029263075163E-02 a      1568     0    79     1     8
  5.1222930921838170E-03 a      1569     0    79     1     9
 -1.6720667534037781E-02 a      1570     0    79     1    10
  5.5558930534044350E-02 a      1571     0    79     1    11
  7.2817825917677340E-02 a      1572     0    79     1    12
  1.1707079688291143E-01 a      1573     0    79     1    13
  4.5950396863975278E-02 a      1574     0    79     1    14
 -1.8364810233614209E-01 a      1575     0    79     1    15
  1.3738356440042082E-01 a      1576     0    79     1    16
  8.0293550579641951E-02 a      1577     0    79     1    17
  1.3208728747447118E-01 a      1578     0    79     1    18
  1.9023164816128729E-01 a      1579     0    79     1    19
  1.3575367604270525E-01 a      1580     0    79     1    20
  8.5249005141242659E-02 a      1581     0    80     1     1
 -1.9011980747197743E-01 a      1582     0    80     1     2
 -2.0742372770693601E-01 a      1583     0    80     1     3
 -3.9748165959892098E-02 a      1584     0    80     1     4
  8.3126466596597892E-02 a      1585     0    80     1     5
 -9.1162814214166249E-02 a      1586     0    80     1     6
  1.6311850751499084E-02 a      1587     0    80     1     7
  7.0478010715235531E-02 a      1588     0    80     1     8
 -2.4427350451112304E-01 a      1589     0    80     1     9
  1.3088072913255325E-02 a      1590     0    80     1    10
 -7.2184864389814571E-02 a      1591     0    80     1    11
 -7.8550369469038442E-02 a      1592     0    80     1    12
  1.5069226444133144E-01 a      1593     0    80     1    13
  3.3011233672936131E-02 a      1594     0    80     1    14
  1.2074429314061016E-01 a      1595     0    80     1    15
 -1.7215584873332728E-02 a      1596     0    80     1    16
 -1.6856886982135591E-01 a      1597     0    80     1    17
 -6.7533383766897839E-02 a      1598     0    80     1    18
  1.8386608651443168E-01 a      1599     0    80     1    19
  1.7514349408011599E-02 a      1600     0    80     1    20
 -1.1081775876128126E-01 a      1601     0    81     1     1
 -9.1394424421852499E-02 a      1602     0    81     1     2
 -2.1470256390906460E-02 a      1603     0    81     1     3
 -5.0624074865568754E-02 a      1604     0    81     1     4
 -5.4885832443170954E-02 a      1605     0    81     1     5
  1.4615432612274867E-01 a      1606     0    81     1     6
  6.5993589313267279E-02 a      1607     0    81     1     7
 -6.6494642491377029E-02 a      1608     0    81     1     8
 -1.0835181891453481E-01 a      1609     0    81     1     9
 -2.7313171342815693E-02 a      1610     0    81     1    10
  5.0446871891581702E-02 a      1611     0    81     1    11
  6.1980192311004337E-02 a      1612     0    81     1    12
 -1.5504894417934090E-02 a      1613     0    81     1    13
  4.2298778967646191E-03 a      1614     0    81     1    14
 -1.5898415701372715E-01 a      1615     0    81     1    15
  2.5260225417089079E-02 a      1616     0    81     1    16
 -4.1484003778127942E-02 a      1617     0    81     1    17
 -1.5020052959118358E-02 a      1618     0    81     1    18
 -6.6251209028419647E-02 a      1619     0    81     1    19
 -2.8287834105583608E-03 a      1620     0    81     1    20
 -1.9321835778867902E-01 a      1621     0    82     1     1
  7.9303569823465175E-02 a      1622     0    82     1     2
 -4.1627382104491364E-02 a      1623     0    82     1     3
