################################################################################
# Neural network connection values (weights and biases).
################################################################################
# Col  Name       Description
################################################################################
# 1    connection Neural network connection value.
# 2    t          Connection type (a = weight, b = bias).
# 3    index      Index enumerating weights.
# 4    l_s        Starting point layer (end point layer for biases).
# 5    n_s        Starting point neuron in starting layer (end point neuron for biases).
# 6    l_e        End point layer.
# 7    n_e        End point neuron in end layer.
################################################################################
#                      1 2         3     4     5     6     7
#             connection t     index   l_s   n_s   l_e   n_e
############################################################
  2.2548015155333925E-01 a         1     0     1     1     1
 -8.2576940008275840E-02 a         2     0     1     1     2
  3.8804640331030699E-01 a         3     0     1     1     3
 -3.7699625347218640E-01 a         4     0     1     1     4
 -1.2781140162396140E-01 a         5     0     1     1     5
 -2.3527457014560693E-01 a         6     0     1     1     6
  9.1257583915585624E-02 a         7     0     1     1     7
 -8.8337704128765918E-02 a         8     0     1     1     8
 -3.2269558337546389E-01 a         9     0     1     1     9
 -3.3055857024722957E-01 a        10     0     1     1    10
 -2.4884177912617084E-01 a        11     0     1     1    11
  2.4468147220653133E-01 a        12     0     1     1    12
 -1.7675369060076587E-01 a        13     0     1     1    13
 -1.6029799040510981E-01 a        14     0     1     1    14
  3.1044212779761271E-01 a        15     0     1     1    15
  1.4767513773273391E-01 a        16     0     1     1    16
 -1.1700459289508172E-01 a        17     0     1     1    17
 -2.0099231126724346E-01 a        18     0     1     1    18
 -3.2224813557069715E-02 a        19     0     1     1    19
  1.3386514547525491E-03 a        20     0     1     1    20
 -1.0908128712186760E-01 a        21     0     2     1     1
  7.1327739831526418E-02 a        22     0     2     1     2
  2.4758121504538304E-02 a        23     0     2     1     3
 -7.7090009855903266E-02 a        24     0     2     1     4
 -4.9078710523107222E-02 a        25     0     2     1     5
  6.5437553803492768E-02 a        26     0     2     1     6
 -9.1487837905841141E-02 a        27     0     2     1     7
  1.3780024021655765E-01 a        28     0     2     1     8
 -2.0727390996204270E-01 a        29     0     2     1     9
  1.3799940690545942E-02 a        30     0     2     1    10
  2.0492578233415944E-02 a        31     0     2     1    11
 -9.2606386442119784E-02 a        32     0     2     1    12
  6.8407639423606975E-02 a        33     0     2     1    13
 -9.7868390953375822E-02 a        34     0     2     1    14
  9.3685726304114439E-02 a        35     0     2     1    15
 -6.5522219585165603E-02 a        36     0     2     1    16
 -1.0032827055205489E-01 a        37     0     2     1    17
 -1.2505064601997967E-01 a        38     0     2     1    18
 -1.7653170211702419E-02 a        39     0     2     1    19
 -1.2480656767451453E-01 a        40     0     2     1    20
  6.7277953731899071E-02 a        41     0     3     1     1
  2.0788397106389182E-02 a        42     0     3     1     2
 -2.6620570343021366E-01 a        43     0     3     1     3
  6.7695443385374310E-02 a        44     0     3     1     4
  8.4948938974703680E-02 a        45     0     3     1     5
 -2.4770689955537700E-01 a        46     0     3     1     6
 -1.0571889176948039E-01 a        47     0     3     1     7
 -1.2107803185982305E-02 a        48     0     3     1     8
  3.0218235610022567E-02 a        49     0     3     1     9
  5.8327445406486857E-02 a        50     0     3     1    10
 -1.1007944643553506E-01 a        51     0     3     1    11
 -6.6716095116617288E-02 a        52     0     3     1    12
 -2.0964261655940588E-02 a        53     0     3     1    13
 -8.3168702620724455E-02 a        54     0     3     1    14
  1.9444531722898162E-01 a        55     0     3     1    15
  8.5958918035785051E-02 a        56     0     3     1    16
  9.3691700873716355E-03 a        57     0     3     1    17
  7.6317253538147986E-02 a        58     0     3     1    18
 -9.3678606555463395E-02 a        59     0     3     1    19
  1.1712684624235825E-01 a        60     0     3     1    20
 -2.2396467180092080E-02 a        61     0     4     1     1
  1.4210352259110826E-01 a        62     0     4     1     2
 -2.4829304653400963E-01 a        63     0     4     1     3
 -1.8406453595595249E-01 a        64     0     4     1     4
  1.5635059959249539E-01 a        65     0     4     1     5
  5.5843742521247200E-02 a        66     0     4     1     6
 -7.3275119072597358E-02 a        67     0     4     1     7
 -1.7634258520441912E-01 a        68     0     4     1     8
  1.0443441611832185E-01 a        69     0     4     1     9
  7.5025335606589527E-02 a        70     0     4     1    10
 -3.0871596821569688E-02 a        71     0     4     1    11
 -1.4168288998799516E-01 a        72     0     4     1    12
 -1.8543049448606616E-01 a        73     0     4     1    13
  1.0288987412142225E-01 a        74     0     4     1    14
  3.0086569588674724E-02 a        75     0     4     1    15
  2.9328830837725008E-02 a        76     0     4     1    16
 -1.1235337862161952E-01 a        77     0     4     1    17
  1.3160293248605624E-02 a        78     0     4     1    18
 -1.8404982583218207E-01 a        79     0     4     1    19
 -1.5190102346270501E-01 a        80     0     4     1    20
  9.2855696494469467E-02 a        81     0     5     1     1
 -2.3688235281566686E-01 a        82     0     5     1     2
  4.8286620070276426E-02 a        83     0     5     1     3
  2.7306521669960459E-02 a        84     0     5     1     4
 -4.4556477823972505E-02 a        85     0     5     1     5
  3.3897808748239097E-03 a        86     0     5     1     6
 -6.2101041248257126E-02 a        87     0     5     1     7
 -1.7180562252728784E-01 a        88     0     5     1     8
  9.4966786617205270E-03 a        89     0     5     1     9
 -6.4727096565439374E-02 a        90     0     5     1    10
 -7.0769363962893350E-02 a        91     0     5     1    11
  1.6680644080954269E-02 a        92     0     5     1    12
 -6.3454948156672656E-03 a        93     0     5     1    13
  1.7144559046718080E-01 a        94     0     5     1    14
 -4.7694262075345856E-02 a        95     0     5     1    15
  2.4004715785487442E-02 a        96     0     5     1    16
  3.1971781161183002E-02 a        97     0     5     1    17
 -8.9295025185442231E-02 a        98     0     5     1    18
 -1.5292465230934935E-01 a        99     0     5     1    19
  1.3169217582492659E-01 a       100     0     5     1    20
 -2.8501347317797182E-01 a       101     0     6     1     1
 -4.1553461683468773E-01 a       102     0     6     1     2
  1.2797272301435791E-01 a       103     0     6     1     3
 -2.4565648557149669E-01 a       104     0     6     1     4
  1.1199684312251267E-01 a       105     0     6     1     5
 -1.8112255243998754E-01 a       106     0     6     1     6
 -6.8806674830895267E-02 a       107     0     6     1     7
 -1.9416951419776016E-01 a       108     0     6     1     8
 -6.9827720123222428E-02 a       109     0     6     1     9
 -1.1579412876301478E-02 a       110     0     6     1    10
 -2.0060233954370157E-01 a       111     0     6     1    11
 -1.7326229188011916E-01 a       112     0     6     1    12
  8.7684428630756595E-02 a       113     0     6     1    13
  1.7593677591799284E-01 a       114     0     6     1    14
 -1.7114072260618862E-01 a       115     0     6     1    15
 -1.2655950968041715E-01 a       116     0     6     1    16
  2.0143349447469916E-01 a       117     0     6     1    17
 -5.3033438756837317E-02 a       118     0     6     1    18
  4.6133482622444037E-02 a       119     0     6     1    19
 -2.1911266921936559E-01 a       120     0     6     1    20
  1.3734698917846652E-01 a       121     0     7     1     1
 -5.7627161114300725E-02 a       122     0     7     1     2
 -1.6771416348617226E-02 a       123     0     7     1     3
 -1.0374004809634856E-01 a       124     0     7     1     4
  4.0108732933793433E-02 a       125     0     7     1     5
 -1.0730917012275244E-01 a       126     0     7     1     6
  1.6044997319552626E-02 a       127     0     7     1     7
  4.4869271204108080E-02 a       128     0     7     1     8
  6.7955728599620693E-02 a       129     0     7     1     9
  1.7087020456323063E-01 a       130     0     7     1    10
 -6.1846055314529406E-02 a       131     0     7     1    11
 -6.5555059721919523E-02 a       132     0     7     1    12
 -1.0706975038422011E-01 a       133     0     7     1    13
  4.6303433795704910E-02 a       134     0     7     1    14
 -6.4181826705455428E-02 a       135     0     7     1    15
  8.0675597143987407E-02 a       136     0     7     1    16
  6.6053045269376609E-02 a       137     0     7     1    17
  5.4310247251673022E-02 a       138     0     7     1    18
 -8.0015112530542012E-02 a       139     0     7     1    19
  1.1173976762857388E-01 a       140     0     7     1    20
 -8.5161905852606731E-02 a       141     0     8     1     1
 -1.2175374947360033E-02 a       142     0     8     1     2
  4.3075912809246112E-03 a       143     0     8     1     3
 -1.1653176611231980E-01 a       144     0     8     1     4
 -4.8916922431718149E-02 a       145     0     8     1     5
  2.0266550114864526E-01 a       146     0     8     1     6
  1.8635422804685009E-01 a       147     0     8     1     7
  1.0474571403594383E-01 a       148     0     8     1     8
  1.7764508310898117E-01 a       149     0     8     1     9
 -1.4699600889593223E-01 a       150     0     8     1    10
 -1.0975066961299533E-01 a       151     0     8     1    11
  4.3120134742637838E-02 a       152     0     8     1    12
 -2.1223859309879894E-02 a       153     0     8     1    13
  6.4339610806094768E-03 a       154     0     8     1    14
 -1.8845942290724929E-01 a       155     0     8     1    15
 -1.3118170167001789E-01 a       156     0     8     1    16
 -1.6476012090900458E-01 a       157     0     8     1    17
 -2.0989073351970644E-01 a       158     0     8     1    18
  1.7677457192130783E-01 a       159     0     8     1    19
  5.7309432696999521E-02 a       160     0     8     1    20
 -4.7892673268166611E-02 a       161     0     9     1     1
  1.3579105684172882E-01 a       162     0     9     1     2
  7.0414763093698332E-02 a       163     0     9     1     3
 -1.0369866512519338E-01 a       164     0     9     1     4
  1.7787921060711859E-03 a       165     0     9     1     5
  1.5966097959621731E-01 a       166     0     9     1     6
  1.8991721844315404E-01 a       167     0     9     1     7
  1.5104386566135705E-01 a       168     0     9     1     8
  9.3302601205732291E-02 a       169     0     9     1     9
  1.1542475747469155E-01 a       170     0     9     1    10
  2.4105115031176155E-02 a       171     0     9     1    11
 -6.7209318984205214E-03 a       172     0     9     1    12
 -9.1942405417996698E-02 a       173     0     9     1    13
 -1.7661527727990578E-01 a       174     0     9     1    14
  1.0001998487086008E-01 a       175     0     9     1    15
  5.7119437435094032E-02 a       176     0     9     1    16
 -1.4466325696534718E-01 a       177     0     9     1    17
  6.1066617974540723E-02 a       178     0     9     1    18
 -5.6433867383080894E-03 a       179     0     9     1    19
  8.9420566960843276E-03 a       180     0     9     1    20
 -8.8659134126828104E-02 a       181     0    10     1     1
 -4.8271862062060862E-02 a       182     0    10     1     2
  9.2161712453078040E-02 a       183     0    10     1     3
 -1.5123614817949868E-01 a       184     0    10     1     4
 -1.1829565504340540E-01 a       185     0    10     1     5
 -1.7235634399390104E-01 a       186     0    10     1     6
 -4.4139697495064807E-02 a       187     0    10     1     7
  1.5071731903869895E-01 a       188     0    10     1     8
  1.9269301284224916E-01 a       189     0    10     1     9
  6.4870853248740049E-02 a       190     0    10     1    10
  1.9516227294156349E-01 a       191     0    10     1    11
  1.1948179171177123E-02 a       192     0    10     1    12
  2.6938271110802638E-02 a       193     0    10     1    13
 -1.7199098229007523E-01 a       194     0    10     1    14
 -7.1326682693700849E-02 a       195     0    10     1    15
  3.5199048730713152E-03 a       196     0    10     1    16
 -3.4974363940460523E-03 a       197     0    10     1    17
  1.4354484735855658E-01 a       198     0    10     1    18
  1.5024690215826664E-01 a       199     0    10     1    19
 -7.0956596988741627E-02 a       200     0    10     1    20
  1.0064817499020301E-01 a       201     0    11     1     1
  5.7207480272001066E-02 a       202     0    11     1     2
 -1.3036783415251929E-01 a       203     0    11     1     3
  1.3992668199667424E-01 a       204     0    11     1     4
 -1.0368280305700781E-01 a       205     0    11     1     5
  2.8288093665186885E-02 a       206     0    11     1     6
  1.1810629594335261E-02 a       207     0    11     1     7
  2.2522100854043556E-01 a       208     0    11     1     8
  1.4264094167890676E-01 a       209     0    11     1     9
  2.4373979210240970E-01 a       210     0    11     1    10
 -4.0838888066961967E-02 a       211     0    11     1    11
 -3.3238988263957311E-02 a       212     0    11     1    12
 -1.0805030444522568E-01 a       213     0    11     1    13
  1.3674445780014080E-01 a       214     0    11     1    14
 -8.0990123691118743E-02 a       215     0    11     1    15
  1.9309910905440020E-01 a       216     0    11     1    16
  1.4175088197461363E-03 a       217     0    11     1    17
 -2.2203902269094494E-02 a       218     0    11     1    18
  7.6543974361623551E-02 a       219     0    11     1    19
  1.4588462997723131E-01 a       220     0    11     1    20
 -5.3037558953373871E-02 a       221     0    12     1     1
  1.4766791993260164E-01 a       222     0    12     1     2
 -4.1100619570721912E-02 a       223     0    12     1     3
  1.6918205456632033E-02 a       224     0    12     1     4
  7.5502207088315412E-02 a       225     0    12     1     5
 -3.2652022909805643E-02 a       226     0    12     1     6
 -3.6480443077736638E-02 a       227     0    12     1     7
 -1.2242500106691882E-01 a       228     0    12     1     8
  6.1607576218933070E-02 a       229     0    12     1     9
  4.3227896904365230E-02 a       230     0    12     1    10
  1.9087781384709435E-01 a       231     0    12     1    11
  1.5062912565198273E-02 a       232     0    12     1    12
  1.3771195008999720E-01 a       233     0    12     1    13
  1.8933166770443960E-02 a       234     0    12     1    14
  9.2416736854999584E-02 a       235     0    12     1    15
 -1.2718448781496689E-02 a       236     0    12     1    16
 -1.3776062245966468E-02 a       237     0    12     1    17
 -3.4432385129684426E-02 a       238     0    12     1    18
  8.3327548751411431E-03 a       239     0    12     1    19
 -4.9549759641932652E-02 a       240     0    12     1    20
 -1.4262654263452501E-01 a       241     0    13     1     1
 -5.7712108195922512E-02 a       242     0    13     1     2
  1.1674321007513244E-01 a       243     0    13     1     3
  1.9723938712426281E-02 a       244     0    13     1     4
 -2.8248159349546741E-02 a       245     0    13     1     5
 -3.5781997689530984E-02 a       246     0    13     1     6
 -1.3276454339940305E-01 a       247     0    13     1     7
  1.8885997362734941E-01 a       248     0    13     1     8
  2.7666741901833836E-01 a       249     0    13     1     9
 -5.8572720789263196E-03 a       250     0    13     1    10
 -9.6092622211279746E-02 a       251     0    13     1    11
 -1.4767683327946562E-01 a       252     0    13     1    12
 -1.4378069451616154E-01 a       253     0    13     1    13
  1.0892877657189869E-01 a       254     0    13     1    14
 -2.2766953818607297E-01 a       255     0    13     1    15
 -4.8318209663648456E-02 a       256     0    13     1    16
  2.7048536270481715E-02 a       257     0    13     1    17
  2.8154860726112707E-01 a       258     0    13     1    18
 -7.1603302199921032E-02 a       259     0    13     1    19
 -4.8051514158435317E-02 a       260     0    13     1    20
  1.6763331931466233E-01 a       261     0    14     1     1
  1.0829419642240343E-01 a       262     0    14     1     2
 -1.8794587139066249E-01 a       263     0    14     1     3
  9.4477482756013489E-02 a       264     0    14     1     4
 -1.8668554482820912E-01 a       265     0    14     1     5
  1.5416187806099996E-01 a       266     0    14     1     6
  2.1667085479555162E-02 a       267     0    14     1     7
  7.8717010247471547E-02 a       268     0    14     1     8
  1.7278970002512897E-01 a       269     0    14     1     9
 -1.2428593832894613E-01 a       270     0    14     1    10
  1.9837918740164942E-01 a       271     0    14     1    11
  1.7397440294436414E-01 a       272     0    14     1    12
 -5.8242543190297987E-04 a       273     0    14     1    13
  4.8993802950452935E-02 a       274     0    14     1    14
 -9.6804692788498264E-02 a       275     0    14     1    15
 -1.6295892585458394E-01 a       276     0    14     1    16
  1.3563485249404345E-01 a       277     0    14     1    17
 -1.8914560208649647E-02 a       278     0    14     1    18
 -2.8148798647423597E-02 a       279     0    14     1    19
  1.1106173904044843E-01 a       280     0    14     1    20
  2.2245886462150664E-02 a       281     0    15     1     1
 -4.2799290599558497E-02 a       282     0    15     1     2
  1.6276896048764875E-01 a       283     0    15     1     3
 -2.2168884925337317E-02 a       284     0    15     1     4
  2.5459224892085691E-01 a       285     0    15     1     5
  3.2393722633413641E-02 a       286     0    15     1     6
  1.3818473585370192E-01 a       287     0    15     1     7
  1.8091531824504379E-02 a       288     0    15     1     8
 -1.6396297469273732E-01 a       289     0    15     1     9
  1.7743523201986405E-01 a       290     0    15     1    10
  1.6788652561070125E-01 a       291     0    15     1    11
  9.0431826789438008E-02 a       292     0    15     1    12
  2.0949919708539386E-01 a       293     0    15     1    13
 -1.2124864578052259E-01 a       294     0    15     1    14
  1.6380639119687246E-01 a       295     0    15     1    15
 -9.8986124546873402E-02 a       296     0    15     1    16
  1.7913119158277684E-02 a       297     0    15     1    17
 -1.3819147148881164E-01 a       298     0    15     1    18
  1.1030640800808648E-01 a       299     0    15     1    19
 -1.7521993553504003E-01 a       300     0    15     1    20
 -8.8742778877390044E-02 a       301     0    16     1     1
  2.3614383513928333E-02 a       302     0    16     1     2
 -2.6382270036517491E-01 a       303     0    16     1     3
 -1.2947523786640394E-01 a       304     0    16     1     4
 -2.4401418641455436E-01 a       305     0    16     1     5
 -1.6019278023820815E-01 a       306     0    16     1     6
  3.4379456685855000E-02 a       307     0    16     1     7
 -1.3891150791101228E-02 a       308     0    16     1     8
 -1.4421440340754804E-01 a       309     0    16     1     9
 -3.6430377860619208E-02 a       310     0    16     1    10
 -7.6262769914251308E-02 a       311     0    16     1    11
  1.8577457510041889E-01 a       312     0    16     1    12
 -4.7097054493401055E-02 a       313     0    16     1    13
 -2.4072718693114309E-02 a       314     0    16     1    14
  9.6308488769821829E-02 a       315     0    16     1    15
  8.5471552035255804E-02 a       316     0    16     1    16
 -1.0490269134459144E-01 a       317     0    16     1    17
 -1.8030311269075441E-01 a       318     0    16     1    18
 -4.6539468036689968E-03 a       319     0    16     1    19
 -3.2706960464923739E-02 a       320     0    16     1    20
  3.3301081047210648E-02 a       321     0    17     1     1
 -4.7607147508580014E-02 a       322     0    17     1     2
  2.4516324815958161E-02 a       323     0    17     1     3
 -1.2945230360407256E-01 a       324     0    17     1     4
 -1.2879718274015024E-02 a       325     0    17     1     5
  8.0235414904288108E-02 a       326     0    17     1     6
  1.6223816794088533E-02 a       327     0    17     1     7
  1.6152987918282102E-01 a       328     0    17     1     8
 -2.7032022782930033E-02 a       329     0    17     1     9
  4.5230720516181381E-03 a       330     0    17     1    10
 -1.9246105656731702E-01 a       331     0    17     1    11
 -4.2340936564709518E-02 a       332     0    17     1    12
 -1.5836812159505434E-01 a       333     0    17     1    13
  1.8461031631336840E-02 a       334     0    17     1    14
 -8.2132585752722323E-02 a       335     0    17     1    15
  1.7610269967077864E-02 a       336     0    17     1    16
  4.8424277027025307E-02 a       337     0    17     1    17
  5.4716389237398154E-02 a       338     0    17     1    18
 -6.4360405134206558E-02 a       339     0    17     1    19
  2.9449422178069663E-02 a       340     0    17     1    20
  1.0627024093498719E-01 a       341     0    18     1     1
  2.0238191170618261E-01 a       342     0    18     1     2
  7.2172619185718184E-02 a       343     0    18     1     3
 -1.7218546096253312E-01 a       344     0    18     1     4
  2.4308131572382441E-03 a       345     0    18     1     5
 -2.5060622717937675E-01 a       346     0    18     1     6
 -2.2105899169621947E-02 a       347     0    18     1     7
 -1.8751189687692415E-02 a       348     0    18     1     8
 -1.1127623218375395E-01 a       349     0    18     1     9
  2.3220126353534909E-01 a       350     0    18     1    10
 -2.9994501202189511E-01 a       351     0    18     1    11
  2.2742043666334774E-01 a       352     0    18     1    12
  2.6294391015010365E-01 a       353     0    18     1    13
 -9.6357310436790938E-02 a       354     0    18     1    14
  2.7103224482295746E-01 a       355     0    18     1    15
  1.1406392553056785E-01 a       356     0    18     1    16
 -6.4794459435867299E-02 a       357     0    18     1    17
  3.6266709041304444E-03 a       358     0    18     1    18
 -2.0249158136651482E-01 a       359     0    18     1    19
  1.4009595562607339E-02 a       360     0    18     1    20
 -9.1976191660798165E-02 a       361     0    19     1     1
  2.2408591553433929E-01 a       362     0    19     1     2
 -2.2352054941529059E-01 a       363     0    19     1     3
 -1.1369812382118195E-01 a       364     0    19     1     4
 -1.1841552371471116E-01 a       365     0    19     1     5
 -7.5506070374405043E-02 a       366     0    19     1     6
 -1.0718500189944431E-01 a       367     0    19     1     7
 -4.3540664363335368E-02 a       368     0    19     1     8
 -1.2049339806689378E-01 a       369     0    19     1     9
  6.6397909320657103E-02 a       370     0    19     1    10
 -1.5358421628404603E-01 a       371     0    19     1    11
 -1.1089882750847293E-02 a       372     0    19     1    12
  1.6517291370924322E-01 a       373     0    19     1    13
  1.2303413970043398E-01 a       374     0    19     1    14
 -8.8912954997809365E-02 a       375     0    19     1    15
  9.7017258787524208E-02 a       376     0    19     1    16
  1.4192297729173675E-01 a       377     0    19     1    17
  6.9652135104780938E-02 a       378     0    19     1    18
 -7.9231208752492940E-02 a       379     0    19     1    19
 -1.5438380324338097E-01 a       380     0    19     1    20
  8.8558170112120776E-02 a       381     0    20     1     1
  1.2388986119408030E-01 a       382     0    20     1     2
  4.9226250372974366E-02 a       383     0    20     1     3
 -1.3450895843753755E-01 a       384     0    20     1     4
 -1.4081808674445917E-01 a       385     0    20     1     5
  7.5383607274476849E-02 a       386     0    20     1     6
 -6.5746647361218435E-02 a       387     0    20     1     7
 -1.4262730437615048E-01 a       388     0    20     1     8
 -1.9085839189770040E-01 a       389     0    20     1     9
 -1.8471416568550639E-01 a       390     0    20     1    10
  8.8543493456882644E-02 a       391     0    20     1    11
  9.7621575559042294E-03 a       392     0    20     1    12
 -1.7991893100885736E-01 a       393     0    20     1    13
  1.1423833642960675E-01 a       394     0    20     1    14
 -9.4146818661338325E-03 a       395     0    20     1    15
  1.0246108663215545E-01 a       396     0    20     1    16
 -1.1487024760974650E-02 a       397     0    20     1    17
  6.3101353370589836E-02 a       398     0    20     1    18
 -4.0485108914642999E-02 a       399     0    20     1    19
 -1.6296385240001685E-01 a       400     0    20     1    20
  5.4688248786271675E-02 a       401     0    21     1     1
  1.3728052721763354E-01 a       402     0    21     1     2
  1.7626643075632800E-01 a       403     0    21     1     3
  2.8107173899281768E-01 a       404     0    21     1     4
 -8.3214477619183200E-02 a       405     0    21     1     5
 -1.1595110163174453E-01 a       406     0    21     1     6
 -3.7133577210296448E-02 a       407     0    21     1     7
  1.3122965863251210E-01 a       408     0    21     1     8
 -3.8380607676124480E-02 a       409     0    21     1     9
  1.4280703407628282E-02 a       410     0    21     1    10
 -1.3420542825189238E-01 a       411     0    21     1    11
  1.3936813274188287E-01 a       412     0    21     1    12
  2.0762589265052497E-01 a       413     0    21     1    13
 -6.1888267885489560E-02 a       414     0    21     1    14
 -1.8442314163933507E-02 a       415     0    21     1    15
  1.5868533189474593E-02 a       416     0    21     1    16
  5.9367453681507011E-02 a       417     0    21     1    17
  1.3142862041837525E-01 a       418     0    21     1    18
  1.0158125747802058E-01 a       419     0    21     1    19
  9.8408457981266739E-02 a       420     0    21     1    20
 -8.7990035545674437E-03 a       421     0    22     1     1
  3.3492810843937473E-02 a       422     0    22     1     2
 -1.0968947559919361E-02 a       423     0    22     1     3
  8.9829269386070016E-03 a       424     0    22     1     4
  3.0763651494420039E-02 a       425     0    22     1     5
 -1.3346585892391991E-02 a       426     0    22     1     6
  2.8505334927824192E-03 a       427     0    22     1     7
 -5.1844962670154100E-02 a       428     0    22     1     8
  4.5021957318660780E-02 a       429     0    22     1     9
  7.4638574637499898E-03 a       430     0    22     1    10
  5.8929747705443299E-02 a       431     0    22     1    11
  1.9525375429518464E-02 a       432     0    22     1    12
  3.1714228621326480E-02 a       433     0    22     1    13
  1.9617387185020756E-02 a       434     0    22     1    14
  1.9210038194407711E-02 a       435     0    22     1    15
  2.4613172230927710E-03 a       436     0    22     1    16
  7.8088653371570825E-03 a       437     0    22     1    17
  5.8490300075737731E-03 a       438     0    22     1    18
  7.6186957973416111E-03 a       439     0    22     1    19
 -1.6078782359056711E-02 a       440     0    22     1    20
 -1.1941933647816309E-01 a       441     0    23     1     1
  2.6280375503471121E-01 a       442     0    23     1     2
  1.7276350444302366E-01 a       443     0    23     1     3
 -1.1094479044648191E-01 a       444     0    23     1     4
  5.2652018047449928E-02 a       445     0    23     1     5
  9.2320974945460280E-02 a       446     0    23     1     6
 -7.7974931595409552E-02 a       447     0    23     1     7
  8.0681962251976574E-02 a       448     0    23     1     8
  5.6593372767982764E-02 a       449     0    23     1     9
  4.1850581268278564E-02 a       450     0    23     1    10
  1.3273856354983427E-01 a       451     0    23     1    11
 -1.2377170416231875E-01 a       452     0    23     1    12
 -1.4292796749572548E-01 a       453     0    23     1    13
  1.1941091412545848E-01 a       454     0    23     1    14
 -1.6437116840816615E-01 a       455     0    23     1    15
 -7.5294092191916170E-02 a       456     0    23     1    16
 -2.7586432894628986E-02 a       457     0    23     1    17
 -7.2422911081633720E-02 a       458     0    23     1    18
 -4.9358679990412546E-02 a       459     0    23     1    19
 -1.5990563103418132E-01 a       460     0    23     1    20
  1.0102232739468096E-01 a       461     0    24     1     1
  3.6736977931114828E-02 a       462     0    24     1     2
  1.5179192058879143E-01 a       463     0    24     1     3
 -4.8092299769684092E-02 a       464     0    24     1     4
 -1.5381669713497922E-01 a       465     0    24     1     5
 -3.5529690807005306E-02 a       466     0    24     1     6
  6.0760426184964765E-02 a       467     0    24     1     7
  5.4230411081971887E-02 a       468     0    24     1     8
 -1.1375819022762575E-03 a       469     0    24     1     9
  3.9706511604972072E-02 a       470     0    24     1    10
  4.9381216329132845E-02 a       471     0    24     1    11
  1.2023943785088645E-03 a       472     0    24     1    12
  1.2990225007110698E-01 a       473     0    24     1    13
 -1.7585357555899719E-01 a       474     0    24     1    14
  2.0377684439354189E-02 a       475     0    24     1    15
  1.1031647988079259E-01 a       476     0    24     1    16
 -6.8695276121637699E-02 a       477     0    24     1    17
  9.9367024020761335E-02 a       478     0    24     1    18
  1.6567861363741582E-01 a       479     0    24     1    19
  5.7343432973407493E-02 a       480     0    24     1    20
 -9.8445795597438754E-02 a       481     0    25     1     1
  1.6572517241103638E-01 a       482     0    25     1     2
 -1.3690958761661010E-01 a       483     0    25     1     3
 -1.5613482192143199E-01 a       484     0    25     1     4
  3.9947137972438460E-03 a       485     0    25     1     5
  1.0237242163732198E-01 a       486     0    25     1     6
  6.7612245299599166E-02 a       487     0    25     1     7
  5.1039249455453337E-02 a       488     0    25     1     8
 -7.7856406966832589E-02 a       489     0    25     1     9
  2.0718414899049561E-01 a       490     0    25     1    10
  7.5086868857171821E-02 a       491     0    25     1    11
  1.1646353491691383E-01 a       492     0    25     1    12
  4.5660121177991772E-02 a       493     0    25     1    13
 -7.6059123198912990E-02 a       494     0    25     1    14
 -7.6737474732069558E-02 a       495     0    25     1    15
 -1.5534030129531345E-01 a       496     0    25     1    16
  3.2468110412533446E-02 a       497     0    25     1    17
 -1.9309507382467037E-01 a       498     0    25     1    18
  1.4635476068493208E-01 a       499     0    25     1    19
 -1.3453820366452168E-01 a       500     0    25     1    20
  5.9412605502750557E-02 a       501     0    26     1     1
  1.3127227408299513E-01 a       502     0    26     1     2
 -3.1763306143129871E-01 a       503     0    26     1     3
 -2.0444930651849089E-02 a       504     0    26     1     4
  1.9660089013541282E-01 a       505     0    26     1     5
 -1.1324396744829553E-01 a       506     0    26     1     6
  1.3904540868385959E-01 a       507     0    26     1     7
  4.2053243985547542E-03 a       508     0    26     1     8
  1.0543929679792408E-01 a       509     0    26     1     9
  2.9571554748286544E-02 a       510     0    26     1    10
  9.9424706709411462E-02 a       511     0    26     1    11
 -6.7217294084346069E-02 a       512     0    26     1    12
 -1.0863574384210536E-01 a       513     0    26     1    13
 -4.0179029679789070E-02 a       514     0    26     1    14
  2.4509034313208578E-01 a       515     0    26     1    15
 -1.8053590292086023E-02 a       516     0    26     1    16
 -1.3883219086760659E-01 a       517     0    26     1    17
  2.1455757352582584E-02 a       518     0    26     1    18
 -1.3090983571301934E-01 a       519     0    26     1    19
 -7.0584384875435530E-02 a       520     0    26     1    20
  9.9565091708411369E-03 a       521     0    27     1     1
  3.9527213318971697E-03 a       522     0    27     1     2
  1.0033673465104621E-03 a       523     0    27     1     3
 -2.8473951885180079E-02 a       524     0    27     1     4
 -5.1198852758522215E-04 a       525     0    27     1     5
  2.4575844327268073E-02 a       526     0    27     1     6
  8.6964547386333534E-03 a       527     0    27     1     7
  3.4248017731997586E-02 a       528     0    27     1     8
 -8.6189042477262893E-03 a       529     0    27     1     9
 -3.1411683856855254E-03 a       530     0    27     1    10
 -5.3406548983445587E-02 a       531     0    27     1    11
 -1.0177747481533373E-02 a       532     0    27     1    12
 -4.4906396697572744E-02 a       533     0    27     1    13
  4.7860488584641411E-03 a       534     0    27     1    14
 -2.5932491695712330E-02 a       535     0    27     1    15
  3.9093820689168031E-03 a       536     0    27     1    16
  1.2392395628129823E-02 a       537     0    27     1    17
  1.5603219104467958E-02 a       538     0    27     1    18
 -1.1869437773948815E-02 a       539     0    27     1    19
  1.7587240104195431E-02 a       540     0    27     1    20
 -1.7990608858119972E-01 a       541     0    28     1     1
  1.3176348061309712E-01 a       542     0    28     1     2
  3.9698575079205059E-02 a       543     0    28     1     3
 -5.9347513521505191E-02 a       544     0    28     1     4
  1.3195942323677087E-01 a       545     0    28     1     5
  1.3544275671256595E-01 a       546     0    28     1     6
 -4.8401038526054820E-03 a       547     0    28     1     7
 -1.9586204408743321E-01 a       548     0    28     1     8
  3.7769019841699808E-02 a       549     0    28     1     9
  1.4478678936022405E-02 a       550     0    28     1    10
  1.4533650604506593E-01 a       551     0    28     1    11
 -1.9122576502822125E-01 a       552     0    28     1    12
 -1.8303928551845827E-01 a       553     0    28     1    13
  1.8290274245557650E-01 a       554     0    28     1    14
 -3.5946371909645898E-02 a       555     0    28     1    15
  1.9769536250565392E-02 a       556     0    28     1    16
 -2.9051300935731148E-04 a       557     0    28     1    17
 -2.0858026750641750E-01 a       558     0    28     1    18
 -8.1235079014300021E-02 a       559     0    28     1    19
  1.9574000541536015E-03 a       560     0    28     1    20
 -8.6062678003738222E-02 a       561     0    29     1     1
 -1.7144316836902410E-01 a       562     0    29     1     2
 -1.0197298654389617E-01 a       563     0    29     1     3
  6.6704915478509971E-02 a       564     0    29     1     4
  2.3482772454686551E-02 a       565     0    29     1     5
  6.4085324265982218E-03 a       566     0    29     1     6
 -1.6596334350485444E-02 a       567     0    29     1     7
 -6.9325622543286280E-02 a       568     0    29     1     8
 -1.1045143771744702E-01 a       569     0    29     1     9
 -2.0890219345946734E-01 a       570     0    29     1    10
  1.3131503810132075E-01 a       571     0    29     1    11
 -1.9135660175851544E-02 a       572     0    29     1    12
  5.8746380112520737E-02 a       573     0    29     1    13
 -5.3271158925509127E-02 a       574     0    29     1    14
  7.1048301608815506E-02 a       575     0    29     1    15
 -5.0248759998050320E-03 a       576     0    29     1    16
 -3.8967486698471207E-02 a       577     0    29     1    17
  7.4783154407905075E-02 a       578     0    29     1    18
  1.2077354994350996E-02 a       579     0    29     1    19
 -7.2010420015582263E-02 a       580     0    29     1    20
  9.9369729191422215E-02 a       581     0    30     1     1
 -1.7904409661924495E-01 a       582     0    30     1     2
  2.4457162824123221E-01 a       583     0    30     1     3
  7.0964029362515876E-02 a       584     0    30     1     4
 -1.2980165386895209E-01 a       585     0    30     1     5
 -4.0155408313455536E-02 a       586     0    30     1     6
 -6.6125769794076689E-03 a       587     0    30     1     7
  7.3058616891402348E-02 a       588     0    30     1     8
 -1.8427797009554367E-01 a       589     0    30     1     9
 -1.2403097253250585E-01 a       590     0    30     1    10
 -2.5361376142520919E-01 a       591     0    30     1    11
  8.2214692958175517E-02 a       592     0    30     1    12
 -1.1611366813498861E-01 a       593     0    30     1    13
 -4.1991126702574655E-02 a       594     0    30     1    14
  6.0907086719845863E-02 a       595     0    30     1    15
  2.8027769803736471E-02 a       596     0    30     1    16
 -3.9846469533191209E-02 a       597     0    30     1    17
 -1.1136181859425959E-01 a       598     0    30     1    18
  1.1078961514385867E-02 a       599     0    30     1    19
 -3.2126547177715542E-02 a       600     0    30     1    20
  9.8747216796805565E-02 a       601     0    31     1     1
  7.6465157145510693E-02 a       602     0    31     1     2
 -2.4862654206151559E-02 a       603     0    31     1     3
 -3.2498780797598630E-04 a       604     0    31     1     4
 -2.3330891198085715E-01 a       605     0    31     1     5
 -1.4890936148665118E-01 a       606     0    31     1     6
 -1.4717403741684279E-02 a       607     0    31     1     7
  1.8831514254296234E-02 a       608     0    31     1     8
  1.5957522645210762E-01 a       609     0    31     1     9
 -9.5554468907780819E-03 a       610     0    31     1    10
 -3.5097182669265448E-01 a       611     0    31     1    11
  2.1080424710866474E-01 a       612     0    31     1    12
  1.1242801286312816E-01 a       613     0    31     1    13
 -9.0288775622950887E-02 a       614     0    31     1    14
 -4.9579613555340893E-02 a       615     0    31     1    15
  8.6386620878301276E-02 a       616     0    31     1    16
  4.6980599943167209E-02 a       617     0    31     1    17
  1.7145395484103121E-01 a       618     0    31     1    18
  9.6416752283598015E-02 a       619     0    31     1    19
 -1.6050213800824945E-01 a       620     0    31     1    20
 -7.5038080506267778E-03 a       621     0    32     1     1
 -1.9700197439822157E-02 a       622     0    32     1     2
  2.4110794536405928E-02 a       623     0    32     1     3
 -1.1639108102958732E-02 a       624     0    32     1     4
  1.1732502254990129E-02 a       625     0    32     1     5
 -4.8029200894738446E-03 a       626     0    32     1     6
  7.9065238504820740E-03 a       627     0    32     1     7
  9.5229924072118602E-04 a       628     0    32     1     8
  4.3094079822247828E-03 a       629     0    32     1     9
  2.1540991138272072E-03 a       630     0    32     1    10
  1.7452608407122455E-02 a       631     0    32     1    11
  8.5451042467524808E-03 a       632     0    32     1    12
  1.2597414511582969E-03 a       633     0    32     1    13
  5.5355590076543466E-03 a       634     0    32     1    14
  1.4813764836128731E-02 a       635     0    32     1    15
 -5.4131954326360626E-04 a       636     0    32     1    16
 -4.7469601192701800E-04 a       637     0    32     1    17
  1.4043369037403150E-03 a       638     0    32     1    18
  2.5532140730996243E-03 a       639     0    32     1    19
 -2.3278058831473668E-02 a       640     0    32     1    20
  7.5904749241274730E-02 a       641     0    33     1     1
  2.0409182407333656E-01 a       642     0    33     1     2
  5.9655708286913772E-02 a       643     0    33     1     3
  3.8034130304411078E-03 a       644     0    33     1     4
 -5.9873727569962780E-02 a       645     0    33     1     5
  6.6278287133175254E-02 a       646     0    33     1     6
 -4.8258428356427290E-03 a       647     0    33     1     7
  6.6688530678091079E-02 a       648     0    33     1     8
 -2.0490386636290350E-02 a       649     0    33     1     9
  2.7114300961269430E-02 a       650     0    33     1    10
 -2.2788257618294006E-02 a       651     0    33     1    11
  6.6369972563452923E-02 a       652     0    33     1    12
 -1.8876010399365900E-02 a       653     0    33     1    13
 -6.9800794104281000E-02 a       654     0    33     1    14
  5.6105563638273702E-03 a       655     0    33     1    15
 -7.3064614592054877E-02 a       656     0    33     1    16
  1.7005519197489799E-02 a       657     0    33     1    17
  2.4189908745862163E-02 a       658     0    33     1    18
 -4.7294371187544704E-02 a       659     0    33     1    19
 -2.0256590951425227E-01 a       660     0    33     1    20
 -5.6263948490691039E-03 a       661     0    34     1     1
 -1.6818891325915261E-01 a       662     0    34     1     2
 -8.4825357463076831E-02 a       663     0    34     1     3
 -1.9545404056006560E-01 a       664     0    34     1     4
  8.8635443019880050E-02 a       665     0    34     1     5
 -8.5680276580984271E-03 a       666     0    34     1     6
 -7.1314506618927473E-03 a       667     0    34     1     7
  4.0732201984675686E-03 a       668     0    34     1     8
  7.4437289599323470E-02 a       669     0    34     1     9
 -6.5715805466859706E-02 a       670     0    34     1    10
 -1.1069098308802246E-01 a       671     0    34     1    11
 -1.8657406529028531E-01 a       672     0    34     1    12
 -6.8944768993830063E-02 a       673     0    34     1    13
  8.5794528560644134E-03 a       674     0    34     1    14
 -5.7045557314962123E-02 a       675     0    34     1    15
  1.0139903579974788E-01 a       676     0    34     1    16
  5.2872906740186743E-02 a       677     0    34     1    17
  9.9378065776132118E-02 a       678     0    34     1    18
 -6.6446208482696259E-03 a       679     0    34     1    19
  2.4873134966266627E-02 a       680     0    34     1    20
 -7.6519496627434846E-02 a       681     0    35     1     1
  2.8731426719758552E-01 a       682     0    35     1     2
  4.9005098248863184E-02 a       683     0    35     1     3
  1.1403525372452739E-01 a       684     0    35     1     4
  1.8827619401779894E-02 a       685     0    35     1     5
 -6.0404418774310596E-02 a       686     0    35     1     6
  1.0874357248891733E-02 a       687     0    35     1     7
 -2.0576482214715769E-01 a       688     0    35     1     8
  3.1665549907353881E-02 a       689     0    35     1     9
 -2.8150339928542736E-02 a       690     0    35     1    10
  1.7394354051594529E-01 a       691     0    35     1    11
  7.7252872760933677E-02 a       692     0    35     1    12
  1.6103508640353759E-01 a       693     0    35     1    13
  1.7524389736882886E-02 a       694     0    35     1    14
  1.2121569706072133E-02 a       695     0    35     1    15
 -1.9131080269387993E-02 a       696     0    35     1    16
  8.0309667232280526E-03 a       697     0    35     1    17
 -1.2264356134318354E-02 a       698     0    35     1    18
  6.7476558521751454E-02 a       699     0    35     1    19
  1.1132536466546375E-01 a       700     0    35     1    20
  1.0569186357167291E-01 a       701     0    36     1     1
  1.4407597572861175E-01 a       702     0    36     1     2
  2.9368620742761035E-02 a       703     0    36     1     3
  2.2313135049188940E-01 a       704     0    36     1     4
 -5.2434429359360393E-02 a       705     0    36     1     5
  9.3322264433400040E-02 a       706     0    36     1     6
  1.4537110907995254E-01 a       707     0    36     1     7
  5.9972086230368850E-02 a       708     0    36     1     8
 -3.1284730159937552E-01 a       709     0    36     1     9
  1.4303637212319080E-03 a       710     0    36     1    10
 -2.0365938403443071E-01 a       711     0    36     1    11
 -1.2943518067945339E-01 a       712     0    36     1    12
  1.3719916013610212E-01 a       713     0    36     1    13
 -2.0537970151193144E-01 a       714     0    36     1    14
  1.8861695343735438E-01 a       715     0    36     1    15
 -1.0084044272513805E-01 a       716     0    36     1    16
 -5.9408244502486031E-02 a       717     0    36     1    17
  1.9294882401092317E-01 a       718     0    36     1    18
  1.9715400638970842E-02 a       719     0    36     1    19
  1.7408042170601801E-01 a       720     0    36     1    20
  6.5068881254209390E-03 a       721     0    37     1     1
  1.7003415393363600E-02 a       722     0    37     1     2
 -1.4430442938992767E-02 a       723     0    37     1     3
  6.9717397113898986E-03 a       724     0    37     1     4
  6.5219375350122205E-03 a       725     0    37     1     5
  1.3361630049652153E-03 a       726     0    37     1     6
  1.3338420459676806E-03 a       727     0    37     1     7
 -8.5415742906393664E-03 a       728     0    37     1     8
 -3.5655873308028981E-04 a       729     0    37     1     9
 -3.6228548814599797E-03 a       730     0    37     1    10
 -9.2940761867255691E-03 a       731     0    37     1    11
 -4.8641988236151224E-03 a       732     0    37     1    12
 -4.5991676847500157E-03 a       733     0    37     1    13
 -3.8235821854130106E-04 a       734     0    37     1    14
 -8.1985784742074734E-03 a       735     0    37     1    15
  1.6799974410843558E-03 a       736     0    37     1    16
  2.5380706029290889E-03 a       737     0    37     1    17
  2.5023356120466040E-03 a       738     0    37     1    18
  2.1365047009763304E-03 a       739     0    37     1    19
  2.6941928428176862E-02 a       740     0    37     1    20
 -1.9859755957184089E-01 a       741     0    38     1     1
  3.0460568361554202E-01 a       742     0    38     1     2
  2.3086361516598955E-01 a       743     0    38     1     3
  7.9403986763140019E-02 a       744     0    38     1     4
 -3.0164317347637557E-02 a       745     0    38     1     5
 -3.6680778417840683E-02 a       746     0    38     1     6
 -1.0762857025189053E-01 a       747     0    38     1     7
 -1.3437624910793255E-01 a       748     0    38     1     8
  1.4039430732369970E-01 a       749     0    38     1     9
  9.7269026537298145E-02 a       750     0    38     1    10
  1.5286509089602537E-01 a       751     0    38     1    11
  1.5363402615922050E-01 a       752     0    38     1    12
 -1.3744410252876677E-01 a       753     0    38     1    13
  3.5470344130566656E-01 a       754     0    38     1    14
 -2.1291393730523239E-01 a       755     0    38     1    15
 -2.9598859736037080E-02 a       756     0    38     1    16
  6.0789068327703581E-02 a       757     0    38     1    17
 -4.9898911805179802E-01 a       758     0    38     1    18
 -1.2602948852692775E-02 a       759     0    38     1    19
 -4.1852348568252543E-03 a       760     0    38     1    20
 -5.3028287606799375E-02 a       761     0    39     1     1
 -2.6527185069234870E-02 a       762     0    39     1     2
 -5.9010084942570692E-02 a       763     0    39     1     3
  1.7123239232529522E-02 a       764     0    39     1     4
 -1.3541037899486932E-02 a       765     0    39     1     5
 -5.5615134336761685E-02 a       766     0    39     1     6
 -5.1021638786812457E-02 a       767     0    39     1     7
 -1.2003620454176527E-03 a       768     0    39     1     8
 -6.8905299645335297E-03 a       769     0    39     1     9
  4.5418045175090273E-02 a       770     0    39     1    10
  1.6261525864919640E-01 a       771     0    39     1    11
  1.0008084958608027E-01 a       772     0    39     1    12
  8.4560475730653589E-02 a       773     0    39     1    13
 -3.3122576425064117E-02 a       774     0    39     1    14
 -3.8886451287879431E-02 a       775     0    39     1    15
  1.6393727342975374E-02 a       776     0    39     1    16
 -7.6230261466452759E-02 a       777     0    39     1    17
 -8.0064456007530559E-03 a       778     0    39     1    18
  1.3529154948607494E-01 a       779     0    39     1    19
  4.5037372959302886E-02 a       780     0    39     1    20
 -3.0484914812149884E-02 a       781     0    40     1     1
  1.1095023625243658E-01 a       782     0    40     1     2
 -1.0521153812101616E-01 a       783     0    40     1     3
  6.4799851346962090E-02 a       784     0    40     1     4
 -5.2932431315902508E-02 a       785     0    40     1     5
  1.3115242130407997E-01 a       786     0    40     1     6
 -8.6970657229781798E-02 a       787     0    40     1     7
  5.5192984177403988E-02 a       788     0    40     1     8
 -8.2123609072295878E-02 a       789     0    40     1     9
 -6.3355700059041203E-02 a       790     0    40     1    10
 -5.7974909172703010E-02 a       791     0    40     1    11
 -4.7254215748144188E-02 a       792     0    40     1    12
 -6.0838485667370441E-02 a       793     0    40     1    13
 -4.1553037707195241E-02 a       794     0    40     1    14
  1.2799796346719999E-02 a       795     0    40     1    15
  9.7707315057385825E-03 a       796     0    40     1    16
 -2.7852701396109718E-02 a       797     0    40     1    17
 -7.2994525157390105E-02 a       798     0    40     1    18
 -1.2185518763488064E-01 a       799     0    40     1    19
 -1.3620637134193715E-02 a       800     0    40     1    20
 -4.1952214518827247E-03 a       801     0    41     1     1
 -2.7260980232912629E-01 a       802     0    41     1     2
 -1.6268009220818438E-01 a       803     0    41     1     3
 -1.0622231442929128E-01 a       804     0    41     1     4
  2.1013555538765855E-02 a       805     0    41     1     5
 -1.4476138075584560E-01 a       806     0    41     1     6
 -1.8040016400816213E-02 a       807     0    41     1     7
 -3.8282637109111492E-02 a       808     0    41     1     8
  1.6207918403038316E-01 a       809     0    41     1     9
 -1.0803029870394699E-01 a       810     0    41     1    10
 -6.5952461068673709E-02 a       811     0    41     1    11
  7.8660780551742235E-02 a       812     0    41     1    12
 -5.4397341675969282E-02 a       813     0    41     1    13
  1.0268477639169252E-02 a       814     0    41     1    14
  6.4945360388776237E-03 a       815     0    41     1    15
  1.0144327067691124E-01 a       816     0    41     1    16
 -1.7321549162781159E-02 a       817     0    41     1    17
 -6.4479450616013066E-03 a       818     0    41     1    18
  2.5980924705756477E-02 a       819     0    41     1    19
 -9.2003605245943310E-02 a       820     0    41     1    20
 -4.0158869110196007E-03 a       821     0    42     1     1
 -1.3347487147513515E-02 a       822     0    42     1     2
  1.5222007974826972E-02 a       823     0    42     1     3
 -1.0905459826467446E-02 a       824     0    42     1     4
 -8.9054386964095825E-04 a       825     0    42     1     5
  5.7931922521659940E-04 a       826     0    42     1     6
  3.1856552216575503E-03 a       827     0    42     1     7
  9.8937205654407688E-03 a       828     0    42     1     8
 -3.1978012146304637E-03 a       829     0    42     1     9
  2.4283027374833281E-03 a       830     0    42     1    10
  2.2606823029867914E-03 a       831     0    42     1    11
  2.9071837139687225E-03 a       832     0    42     1    12
 -3.9319873539252308E-03 a       833     0    42     1    13
  1.0146447597417462E-03 a       834     0    42     1    14
  5.0650804415986600E-03 a       835     0    42     1    15
 -4.4037857868383035E-04 a       836     0    42     1    16
 -1.1286635532272216E-03 a       837     0    42     1    17
  5.3838183472497390E-05 a       838     0    42     1    18
 -9.9709183879779064E-04 a       839     0    42     1    19
 -1.8449791823140032E-02 a       840     0    42     1    20
  6.0461301810607160E-02 a       841     0    43     1     1
 -6.8840836119699308E-02 a       842     0    43     1     2
 -2.3471834275288251E-02 a       843     0    43     1     3
 -3.5578617085150401E-02 a       844     0    43     1     4
  1.5031817654488756E-02 a       845     0    43     1     5
 -3.7036116996062039E-02 a       846     0    43     1     6
  6.7426049971240881E-02 a       847     0    43     1     7
 -1.3944837659487674E-02 a       848     0    43     1     8
 -8.4633917784974907E-02 a       849     0    43     1     9
 -8.9542270524955489E-02 a       850     0    43     1    10
  2.7404843760398256E-02 a       851     0    43     1    11
  1.1812245664916954E-01 a       852     0    43     1    12
  1.9279694213421298E-02 a       853     0    43     1    13
 -9.7066249057424253E-02 a       854     0    43     1    14
  6.9596292448632011E-02 a       855     0    43     1    15
 -2.4438754141122860E-02 a       856     0    43     1    16
  7.2134135426009946E-04 a       857     0    43     1    17
  1.2126299863744247E-01 a       858     0    43     1    18
  3.1536884097846871E-02 a       859     0    43     1    19
 -1.1514784770331504E-01 a       860     0    43     1    20
  1.8964454395906175E-02 a       861     0    44     1     1
 -9.2443707491848506E-02 a       862     0    44     1     2
 -4.6416628448381334E-02 a       863     0    44     1     3
  6.0492785420982284E-02 a       864     0    44     1     4
 -6.0549235280933540E-03 a       865     0    44     1     5
 -2.8131428574096506E-02 a       866     0    44     1     6
 -4.6150428747971329E-03 a       867     0    44     1     7
  2.5796813645272532E-02 a       868     0    44     1     8
 -1.8601117797957883E-01 a       869     0    44     1     9
 -1.6404901906183086E-01 a       870     0    44     1    10
 -8.1129083840053903E-03 a       871     0    44     1    11
  9.3389719574055799E-02 a       872     0    44     1    12
  3.0858894463641002E-02 a       873     0    44     1    13
 -5.1272634494364235E-02 a       874     0    44     1    14
  5.1015476901660035E-02 a       875     0    44     1    15
 -4.4481582586719300E-03 a       876     0    44     1    16
  3.8342689730332807E-02 a       877     0    44     1    17
 -8.3921876083632892E-03 a       878     0    44     1    18
 -3.7226393655325450E-02 a       879     0    44     1    19
  5.3422944993562586E-02 a       880     0    44     1    20
  2.3855288433005207E-02 a       881     0    45     1     1
  6.6675974218100176E-02 a       882     0    45     1     2
  1.3018362352358502E-02 a       883     0    45     1     3
  9.4496714747008478E-02 a       884     0    45     1     4
 -8.1021718067452411E-02 a       885     0    45     1     5
 -2.4971518682392068E-02 a       886     0    45     1     6
  4.6154666347358785E-02 a       887     0    45     1     7
 -7.5437199063941071E-02 a       888     0    45     1     8
  2.4115930009670813E-02 a       889     0    45     1     9
 -1.2411929498066311E-02 a       890     0    45     1    10
 -1.3539814735126543E-01 a       891     0    45     1    11
 -3.3135098359979909E-02 a       892     0    45     1    12
  9.6948665331165348E-02 a       893     0    45     1    13
 -3.5834761140401565E-02 a       894     0    45     1    14
  1.9553766590413857E-02 a       895     0    45     1    15
  7.7722723084917298E-03 a       896     0    45     1    16
  3.5591477751674747E-04 a       897     0    45     1    17
  6.3695605289776816E-02 a       898     0    45     1    18
  9.3121159890412822E-02 a       899     0    45     1    19
  9.2586224367755418E-02 a       900     0    45     1    20
  5.3752134105669785E-02 a       901     0    46     1     1
 -1.2806610798985746E-01 a       902     0    46     1     2
 -1.4029674202790732E-03 a       903     0    46     1     3
 -2.5327381918399495E-02 a       904     0    46     1     4
 -9.4821802610054323E-02 a       905     0    46     1     5
 -2.0901939985792518E-02 a       906     0    46     1     6
  2.3145842069764073E-02 a       907     0    46     1     7
  5.6364336944640978E-02 a       908     0    46     1     8
 -6.1341924174256331E-02 a       909     0    46     1     9
  3.3107394666840241E-02 a       910     0    46     1    10
 -4.5634999293549153E-02 a       911     0    46     1    11
  6.9095168286394698E-02 a       912     0    46     1    12
  8.3664387812451113E-02 a       913     0    46     1    13
 -6.5295806216744703E-02 a       914     0    46     1    14
 -3.8809449706739521E-03 a       915     0    46     1    15
 -2.3117373917734999E-02 a       916     0    46     1    16
  1.7109515322831569E-02 a       917     0    46     1    17
  1.1971807706146395E-01 a       918     0    46     1    18
  3.1923400009262214E-02 a       919     0    46     1    19
 -1.0935469787681450E-01 a       920     0    46     1    20
  1.2521165225660956E-03 a       921     0    47     1     1
  1.0119571382843057E-02 a       922     0    47     1     2
  5.2496585629903815E-04 a       923     0    47     1     3
  2.7521238446670464E-03 a       924     0    47     1     4
  1.6524248950043397E-03 a       925     0    47     1     5
 -3.8518288717310183E-04 a       926     0    47     1     6
  3.4258174464476912E-03 a       927     0    47     1     7
 -5.4530598958033296E-03 a       928     0    47     1     8
  9.3066770008898791E-04 a       929     0    47     1     9
 -5.6210703765070401E-04 a       930     0    47     1    10
 -6.0181359954285295E-04 a       931     0    47     1    11
  5.4571087725370428E-04 a       932     0    47     1    12
 -9.8628385352375354E-04 a       933     0    47     1    13
  8.1642095187465450E-04 a       934     0    47     1    14
  5.8953022217464912E-04 a       935     0    47     1    15
  1.3700063381552301E-04 a       936     0    47     1    16
  7.2020198269537035E-04 a       937     0    47     1    17
  8.9533381993767299E-04 a       938     0    47     1    18
  1.8828828105482813E-03 a       939     0    47     1    19
  1.8130206267501144E-04 a       940     0    47     1    20
 -3.0470733438308698E-02 a       941     0    48     1     1
  2.8070519065511945E-02 a       942     0    48     1     2
  3.5018368675536773E-02 a       943     0    48     1     3
 -5.6341585459117029E-02 a       944     0    48     1     4
  8.5032086475136007E-02 a       945     0    48     1     5
  1.4930736055250979E-02 a       946     0    48     1     6
 -4.4843069596142100E-02 a       947     0    48     1     7
 -1.0380149861174215E-02 a       948     0    48     1     8
  1.5749821053318999E-01 a       949     0    48     1     9
  5.5601237409274806E-02 a       950     0    48     1    10
 -8.3947798542812258E-02 a       951     0    48     1    11
 -1.9847520900115584E-01 a       952     0    48     1    12
 -1.3181742291002929E-01 a       953     0    48     1    13
  1.0718717685763834E-01 a       954     0    48     1    14
 -3.3084240635900021E-02 a       955     0    48     1    15
  2.1859982056197387E-02 a       956     0    48     1    16
 -1.9052797364796960E-03 a       957     0    48     1    17
 -1.4997260034662435E-01 a       958     0    48     1    18
 -8.7990630765916136E-02 a       959     0    48     1    19
  1.0453431096612818E-01 a       960     0    48     1    20
 -4.9134181842975466E-02 a       961     0    49     1     1
 -6.2794079906928479E-02 a       962     0    49     1     2
 -1.4099770991850286E-01 a       963     0    49     1     3
 -7.4184771484699555E-02 a       964     0    49     1     4
  1.6618174323425017E-01 a       965     0    49     1     5
  4.1631719729135409E-02 a       966     0    49     1     6
 -6.8925037223840052E-02 a       967     0    49     1     7
 -3.8439132860598343E-02 a       968     0    49     1     8
  7.4568304046567654E-02 a       969     0    49     1     9
  1.0882906125863671E-02 a       970     0    49     1    10
  7.9056263053292178E-02 a       971     0    49     1    11
 -2.0827037399290596E-01 a       972     0    49     1    12
  1.1433720982797362E-02 a       973     0    49     1    13
 -1.6327783777349392E-02 a       974     0    49     1    14
 -3.7316873536526809E-02 a       975     0    49     1    15
  7.3044965805094994E-02 a       976     0    49     1    16
 -4.0932013408014292E-02 a       977     0    49     1    17
  7.4587728342555323E-02 a       978     0    49     1    18
  2.3947529031365263E-02 a       979     0    49     1    19
  2.1010937818531017E-01 a       980     0    49     1    20
 -1.6015349929406376E-02 a       981     0    50     1     1
  7.0491024146303066E-02 a       982     0    50     1     2
 -6.3985042502704705E-04 a       983     0    50     1     3
 -9.3678736335406229E-02 a       984     0    50     1     4
  9.7545469608879012E-02 a       985     0    50     1     5
 -3.8575595970826923E-02 a       986     0    50     1     6
  1.9920459753246408E-02 a       987     0    50     1     7
 -3.4711071545828379E-02 a       988     0    50     1     8
  5.2363268148024771E-02 a       989     0    50     1     9
 -2.5457212043865529E-02 a       990     0    50     1    10
 -3.1016941812238089E-02 a       991     0    50     1    11
  2.6437107613714494E-02 a       992     0    50     1    12
 -1.2431861556550243E-01 a       993     0    50     1    13
  6.0989577852889020E-02 a       994     0    50     1    14
 -8.2836646615126169E-03 a       995     0    50     1    15
  5.2916973403813986E-04 a       996     0    50     1    16
  1.2534635375614009E-02 a       997     0    50     1    17
 -7.4122953371287076E-02 a       998     0    50     1    18
 -1.6284097848797634E-02 a       999     0    50     1    19
 -1.0367680510890860E-01 a      1000     0    50     1    20
  6.2385763999395230E-02 a      1001     0    51     1     1
 -2.0722151110313983E-01 a      1002     0    51     1     2
  3.4364787822222798E-02 a      1003     0    51     1     3
  1.9381624970126754E-01 a      1004     0    51     1     4
  2.2029916229511462E-01 a      1005     0    51     1     5
 -4.3259833074953971E-02 a      1006     0    51     1     6
  2.5593811148057466E-01 a      1007     0    51     1     7
 -4.2590530076183970E-02 a      1008     0    51     1     8
  1.2507144639164618E-02 a      1009     0    51     1     9
 -2.6801154798466031E-01 a      1010     0    51     1    10
 -6.3641700308927504E-02 a      1011     0    51     1    11
 -9.7720967134468407E-03 a      1012     0    51     1    12
  4.3652138442922664E-02 a      1013     0    51     1    13
  1.3201680564592078E-01 a      1014     0    51     1    14
  2.7035410358872308E-01 a      1015     0    51     1    15
  2.9970367227183492E-02 a      1016     0    51     1    16
  8.4467533997354086E-02 a      1017     0    51     1    17
  2.8236015279324532E-02 a      1018     0    51     1    18
  7.4002301929945030E-02 a      1019     0    51     1    19
 -1.6060407559646628E-01 a      1020     0    51     1    20
  2.9039851060914246E-01 a      1021     0    52     1     1
  1.3111056598249992E-02 a      1022     0    52     1     2
 -1.5085550271245182E-01 a      1023     0    52     1     3
 -4.1359976014749877E-01 a      1024     0    52     1     4
  1.4841547193837321E-01 a      1025     0    52     1     5
 -1.5875798554761865E-02 a      1026     0    52     1     6
 -5.4585810054146609E-02 a      1027     0    52     1     7
 -3.0592785372887600E-02 a      1028     0    52     1     8
 -9.7067303468334462E-02 a      1029     0    52     1     9
 -1.3127623533528968E-01 a      1030     0    52     1    10
  4.7239108375655495E-02 a      1031     0    52     1    11
  1.9227419633837578E-01 a      1032     0    52     1    12
  1.3360062145018115E-01 a      1033     0    52     1    13
 -2.2000783324496918E-02 a      1034     0    52     1    14
  9.7370957176058787E-02 a      1035     0    52     1    15
  2.4819378486989979E-01 a      1036     0    52     1    16
  2.4433115534037424E-02 a      1037     0    52     1    17
 -2.6907617520625482E-02 a      1038     0    52     1    18
 -5.4864379170780408E-02 a      1039     0    52     1    19
  1.3720626503690472E-01 a      1040     0    52     1    20
 -2.7698824042256714E-01 a      1041     0    53     1     1
 -9.4244997214702600E-02 a      1042     0    53     1     2
  1.3637172648625254E-01 a      1043     0    53     1     3
  3.1221808297281578E-01 a      1044     0    53     1     4
 -3.2501479355057311E-01 a      1045     0    53     1     5
 -2.8956088230678440E-01 a      1046     0    53     1     6
 -1.2914046116898947E-01 a      1047     0    53     1     7
 -1.9670826095803326E-01 a      1048     0    53     1     8
  2.7523409894723905E-01 a      1049     0    53     1     9
 -5.4179579998731200E-02 a      1050     0    53     1    10
 -1.7738002523238638E-01 a      1051     0    53     1    11
  3.2186435159623772E-02 a      1052     0    53     1    12
 -8.6194276997831526E-02 a      1053     0    53     1    13
 -5.6892325622148535E-02 a      1054     0    53     1    14
 -1.2437570383656554E-01 a      1055     0    53     1    15
 -3.6925277522082869E-02 a      1056     0    53     1    16
 -4.5693527391281485E-01 a      1057     0    53     1    17
 -6.0941175783921764E-01 a      1058     0    53     1    18
  1.5713700709756079E-01 a      1059     0    53     1    19
  2.0315424404044874E-01 a      1060     0    53     1    20
  2.5646714617041811E-02 a      1061     0    54     1     1
 -1.8649831092133726E-02 a      1062     0    54     1     2
  4.6072106694215013E-03 a      1063     0    54     1     3
 -2.2462041190348135E-02 a      1064     0    54     1     4
 -6.1422857814639097E-02 a      1065     0    54     1     5
  5.3303646558438410E-02 a      1066     0    54     1     6
 -6.9953128901223113E-02 a      1067     0    54     1     7
 -5.7995543762945530E-02 a      1068     0    54     1     8
 -3.5165050588750676E-02 a      1069     0    54     1     9
  2.6256340373919791E-02 a      1070     0    54     1    10
  2.0081646758166832E-01 a      1071     0    54     1    11
 -8.1443146708538680E-02 a      1072     0    54     1    12
  2.1643161268445341E-01 a      1073     0    54     1    13
 -1.9568210905761489E-02 a      1074     0    54     1    14
  1.5302330284683796E-01 a      1075     0    54     1    15
  4.2344525835838302E-02 a      1076     0    54     1    16
  5.0990886111902022E-02 a      1077     0    54     1    17
  1.0160168075189374E-01 a      1078     0    54     1    18
 -3.6623911770220750E-02 a      1079     0    54     1    19
 -1.9977933248498347E-01 a      1080     0    54     1    20
 -5.5144573017628460E-03 a      1081     0    55     1     1
  5.6088488025280124E-02 a      1082     0    55     1     2
  2.1990401773233546E-02 a      1083     0    55     1     3
  5.1641623954243591E-02 a      1084     0    55     1     4
  1.0658155853611127E-01 a      1085     0    55     1     5
 -2.8673163309158464E-02 a      1086     0    55     1     6
 -7.7882587604156134E-03 a      1087     0    55     1     7
  1.5598025859307861E-02 a      1088     0    55     1     8
  1.5218218694336653E-02 a      1089     0    55     1     9
 -1.0537463562509242E-01 a      1090     0    55     1    10
  2.0654313374781769E-01 a      1091     0    55     1    11
  1.6629784257630301E-01 a      1092     0    55     1    12
 -1.1562200765468714E-02 a      1093     0    55     1    13
 -8.3783978995383368E-02 a      1094     0    55     1    14
  7.3828563379382081E-02 a      1095     0    55     1    15
 -6.0756907590448578E-02 a      1096     0    55     1    16
 -6.3001949334655480E-04 a      1097     0    55     1    17
  2.8174097156215012E-02 a      1098     0    55     1    18
 -7.0602416403870882E-02 a      1099     0    55     1    19
  4.1568061069386493E-02 a      1100     0    55     1    20
  1.2070818788343959E-03 a      1101     0    56     1     1
 -5.3651690920099575E-02 a      1102     0    56     1     2
 -2.3799084466764906E-02 a      1103     0    56     1     3
 -7.9520848138762770E-02 a      1104     0    56     1     4
  9.6818769722244374E-02 a      1105     0    56     1     5
  8.0994707071693706E-02 a      1106     0    56     1     6
  9.2947065438543336E-02 a      1107     0    56     1     7
 -1.7120569658901449E-01 a      1108     0    56     1     8
  1.4170103274312504E-01 a      1109     0    56     1     9
 -2.3954684836206497E-02 a      1110     0    56     1    10
  9.6570789437030069E-02 a      1111     0    56     1    11
  8.8473111245809838E-02 a      1112     0    56     1    12
 -7.7190719878684547E-02 a      1113     0    56     1    13
  1.2285075141080901E-01 a      1114     0    56     1    14
 -1.9558601486899291E-01 a      1115     0    56     1    15
  5.5312393910397793E-02 a      1116     0    56     1    16
  5.2597756455561473E-02 a      1117     0    56     1    17
  1.3398267954797133E-01 a      1118     0    56     1    18
  1.1256977585841731E-01 a      1119     0    56     1    19
 -5.0834183888500070E-03 a      1120     0    56     1    20
 -2.8563511019667520E-01 a      1121     0    57     1     1
  2.6421576989053691E-01 a      1122     0    57     1     2
  2.5796209537802761E-01 a      1123     0    57     1     3
 -2.0086046959045149E-02 a      1124     0    57     1     4
  1.9345176923306831E-01 a      1125     0    57     1     5
 -4.9872662816084996E-02 a      1126     0    57     1     6
  1.5994205230692338E-01 a      1127     0    57     1     7
  2.4568158932820805E-01 a      1128     0    57     1     8
  2.0224772603664717E-01 a      1129     0    57     1     9
 -1.3770558311608552E-01 a      1130     0    57     1    10
 -1.7226568465586320E-01 a      1131     0    57     1    11
  7.2960449014925877E-02 a      1132     0    57     1    12
 -2.2247837866118567E-01 a      1133     0    57     1    13
  1.9332130174538842E-01 a      1134     0    57     1    14
 -1.7897348968263033E-01 a      1135     0    57     1    15
 -1.9121199288805440E-02 a      1136     0    57     1    16
 -1.6001565848334020E-02 a      1137     0    57     1    17
  1.0434689992819093E-01 a      1138     0    57     1    18
  1.2032399778198871E-01 a      1139     0    57     1    19
  2.7598391704117434E-02 a      1140     0    57     1    20
  3.7894590775115790E-02 a      1141     0    58     1     1
 -1.5578862898595700E-01 a      1142     0    58     1     2
  1.1774588064645754E-01 a      1143     0    58     1     3
  1.7444142475625476E-01 a      1144     0    58     1     4
  8.8496308237606874E-02 a      1145     0    58     1     5
  7.9891497597100014E-02 a      1146     0    58     1     6
 -9.5167861154082198E-02 a      1147     0    58     1     7
  6.2951397349601437E-02 a      1148     0    58     1     8
 -7.8619222156444776E-02 a      1149     0    58     1     9
 -1.1725712157435726E-01 a      1150     0    58     1    10
 -1.3948208989499228E-01 a      1151     0    58     1    11
 -4.7971574917370689E-02 a      1152     0    58     1    12
  7.0174814610864597E-02 a      1153     0    58     1    13
  9.2177581252333080E-02 a      1154     0    58     1    14
 -9.4896155798313023E-02 a      1155     0    58     1    15
 -9.4780306295300001E-02 a      1156     0    58     1    16
 -1.1630481589930783E-02 a      1157     0    58     1    17
 -2.1156542803542178E-01 a      1158     0    58     1    18
  1.4906399416590310E-01 a      1159     0    58     1    19
 -5.1229805712600315E-02 a      1160     0    58     1    20
  1.0939562297180037E-01 a      1161     0    59     1     1
  6.3180007158894894E-02 a      1162     0    59     1     2
  5.1204149284868508E-02 a      1163     0    59     1     3
  1.5869370420416001E-01 a      1164     0    59     1     4
  2.5287914738336692E-02 a      1165     0    59     1     5
  2.0148149803536537E-02 a      1166     0    59     1     6
  1.9420691863949130E-01 a      1167     0    59     1     7
  1.3699223316808823E-01 a      1168     0    59     1     8
  1.9233985758065387E-02 a      1169     0    59     1     9
 -2.3057670384757725E-02 a      1170     0    59     1    10
  1.6846730732006862E-01 a      1171     0    59     1    11
 -1.8863475142628833E-01 a      1172     0    59     1    12
 -1.5304566881521942E-01 a      1173     0    59     1    13
  2.2236124081248482E-01 a      1174     0    59     1    14
 -1.7862640254213857E-02 a      1175     0    59     1    15
  8.0608351372273804E-02 a      1176     0    59     1    16
  5.2351609670019478E-02 a      1177     0    59     1    17
  1.0443071658556194E-01 a      1178     0    59     1    18
 -9.6679411857184830E-02 a      1179     0    59     1    19
 -1.2633414865016046E-02 a      1180     0    59     1    20
 -1.4122196589006117E-01 a      1181     0    60     1     1
 -3.2115433624327880E-02 a      1182     0    60     1     2
  1.1420556903979816E-01 a      1183     0    60     1     3
 -9.9466696062406004E-02 a      1184     0    60     1     4
  1.4118422640620231E-02 a      1185     0    60     1     5
  7.3985300712044861E-04 a      1186     0    60     1     6
  1.1374836843322167E-01 a      1187     0    60     1     7
 -1.9811958926177570E-01 a      1188     0    60     1     8
 -1.7452949710671212E-01 a      1189     0    60     1     9
  5.9341214022814323E-02 a      1190     0    60     1    10
 -2.0209754137180003E-01 a      1191     0    60     1    11
  9.7613471097478505E-02 a      1192     0    60     1    12
  8.1007723879052862E-02 a      1193     0    60     1    13
  8.8045000089261541E-02 a      1194     0    60     1    14
  2.6079919356526645E-02 a      1195     0    60     1    15
  2.8464920023112499E-02 a      1196     0    60     1    16
 -5.0993030649783500E-02 a      1197     0    60     1    17
  8.7731529930662425E-02 a      1198     0    60     1    18
 -3.0277076932447775E-02 a      1199     0    60     1    19
  2.1173828795150365E-01 a      1200     0    60     1    20
 -5.9574536578866528E-02 a      1201     0    61     1     1
  3.2663257354900332E-02 a      1202     0    61     1     2
  8.8121460252430325E-02 a      1203     0    61     1     3
 -2.0794815044813009E-01 a      1204     0    61     1     4
  1.1429712016060507E-01 a      1205     0    61     1     5
  3.1423363465603933E-02 a      1206     0    61     1     6
  1.3222161148375569E-01 a      1207     0    61     1     7
  1.3503951145797530E-01 a      1208     0    61     1     8
 -2.8957778535983941E-02 a      1209     0    61     1     9
  2.3631818799421658E-01 a      1210     0    61     1    10
  6.2083149872958793E-02 a      1211     0    61     1    11
  1.2337764863248359E-01 a      1212     0    61     1    12
 -3.1575385201446438E-01 a      1213     0    61     1    13
  2.6675518252371783E-01 a      1214     0    61     1    14
 -1.4426440187998330E-01 a      1215     0    61     1    15
  1.3672705639532146E-02 a      1216     0    61     1    16
  4.8444562838658459E-02 a      1217     0    61     1    17
 -1.9951288877349510E-01 a      1218     0    61     1    18
  1.0867802839050550E-01 a      1219     0    61     1    19
 -5.3008062470876393E-03 a      1220     0    61     1    20
 -9.5549944089198161E-02 a      1221     0    62     1     1
  1.4770834330701962E-01 a      1222     0    62     1     2
  2.7713312023931999E-02 a      1223     0    62     1     3
 -6.3178540810728823E-02 a      1224     0    62     1     4
  2.2256773881628333E-02 a      1225     0    62     1     5
  1.1109653084306359E-01 a      1226     0    62     1     6
  7.3077715529465154E-02 a      1227     0    62     1     7
 -1.1021965061631470E-01 a      1228     0    62     1     8
 -1.1126597677795584E-02 a      1229     0    62     1     9
  5.4071049555600659E-02 a      1230     0    62     1    10
  1.4193464561010564E-02 a      1231     0    62     1    11
  2.9354553017147952E-02 a      1232     0    62     1    12
 -7.8558410642757343E-02 a      1233     0    62     1    13
  1.1909036541110798E-01 a      1234     0    62     1    14
 -3.9497129024412110E-02 a      1235     0    62     1    15
 -8.1897566063645396E-03 a      1236     0    62     1    16
  5.0092439555045873E-02 a      1237     0    62     1    17
  1.0444209772753956E-02 a      1238     0    62     1    18
 -4.2705881002811676E-02 a      1239     0    62     1    19
  4.9019294166550452E-02 a      1240     0    62     1    20
 -5.4057146266020373E-02 a      1241     0    63     1     1
  2.6454382812268647E-03 a      1242     0    63     1     2
 -1.5725628100877695E-01 a      1243     0    63     1     3
 -1.6549002314251207E-01 a      1244     0    63     1     4
  6.1941091111436655E-02 a      1245     0    63     1     5
 -8.8422693651855219E-02 a      1246     0    63     1     6
 -5.1666571363370023E-02 a      1247     0    63     1     7
 -7.6176989926460617E-02 a      1248     0    63     1     8
 -1.0685147434582504E-01 a      1249     0    63     1     9
  1.8616831272423581E-02 a      1250     0    63     1    10
  1.2538284685978771E-01 a      1251     0    63     1    11
 -4.1533033414485304E-02 a      1252     0    63     1    12
 -6.0803912812803625E-02 a      1253     0    63     1    13
 -8.7468881546183014E-02 a      1254     0    63     1    14
 -4.6114477626516583E-02 a      1255     0    63     1    15
 -1.4179312697130596E-02 a      1256     0    63     1    16
  1.3755723429330662E-02 a      1257     0    63     1    17
  2.1193092725362708E-01 a      1258     0    63     1    18
 -1.9677784835374390E-01 a      1259     0    63     1    19
  8.3581943884784793E-02 a      1260     0    63     1    20
 -2.9082506800606641E-02 a      1261     0    64     1     1
  1.2824642235656378E-01 a      1262     0    64     1     2
  1.6939285206002436E-01 a      1263     0    64     1     3
  7.5059492724139296E-02 a      1264     0    64     1     4
  1.4450584111904838E-01 a      1265     0    64     1     5
  8.4023601639257817E-02 a      1266     0    64     1     6
  1.0228077211252681E-01 a      1267     0    64     1     7
  6.1589951168918654E-02 a      1268     0    64     1     8
 -1.3912895865047459E-01 a      1269     0    64     1     9
  1.5534446226732621E-01 a      1270     0    64     1    10
 -2.2871994831674522E-01 a      1271     0    64     1    11
 -1.9051181092738803E-01 a      1272     0    64     1    12
 -8.1387035949876483E-03 a      1273     0    64     1    13
 -1.0215195666536874E-02 a      1274     0    64     1    14
  6.5940040086965249E-03 a      1275     0    64     1    15
  9.0683953513268564E-02 a      1276     0    64     1    16
 -1.4867672196557649E-02 a      1277     0    64     1    17
 -1.5956764814100827E-02 a      1278     0    64     1    18
  1.4201683997275581E-02 a      1279     0    64     1    19
  3.1682431718368952E-03 a      1280     0    64     1    20
  1.3094482859513992E-01 a      1281     0    65     1     1
  1.5892402128373767E-01 a      1282     0    65     1     2
  1.0672692218854686E-01 a      1283     0    65     1     3
  4.2803201336278195E-03 a      1284     0    65     1     4
  1.1864234894320080E-01 a      1285     0    65     1     5
  1.0619307161075969E-01 a      1286     0    65     1     6
 -1.8829306746594693E-01 a      1287     0    65     1     7
  1.5449617894887227E-01 a      1288     0    65     1     8
 -7.8059643312623481E-02 a      1289     0    65     1     9
  9.3226474772595477E-02 a      1290     0    65     1    10
  1.3792559462875009E-01 a      1291     0    65     1    11
  2.0087442464800015E-02 a      1292     0    65     1    12
  2.0575560197381537E-01 a      1293     0    65     1    13
 -9.9387037465464637E-02 a      1294     0    65     1    14
 -4.7135759789337525E-02 a      1295     0    65     1    15
 -1.2266522525776229E-01 a      1296     0    65     1    16
  9.5506048200815763E-02 a      1297     0    65     1    17
  1.8832725979171569E-01 a      1298     0    65     1    18
 -2.8241930614024954E-02 a      1299     0    65     1    19
 -2.0952912238890700E-01 a      1300     0    65     1    20
  1.5000008224545044E-01 a      1301     0    66     1     1
  1.1183908085127679E-01 a      1302     0    66     1     2
 -1.6052634082578943E-01 a      1303     0    66     1     3
  1.6138882039475275E-01 a      1304     0    66     1     4
 -5.8444138411023860E-02 a      1305     0    66     1     5
  1.5366955940481916E-01 a      1306     0    66     1     6
 -1.8361883261953413E-01 a      1307     0    66     1     7
 -8.3128596072567298E-02 a      1308     0    66     1     8
 -5.0156705342248788E-02 a      1309     0    66     1     9
 -1.6862168520052906E-01 a      1310     0    66     1    10
 -6.1730173961814683E-02 a      1311     0    66     1    11
  9.9902183603275102E-02 a      1312     0    66     1    12
  7.0842830622458372E-02 a      1313     0    66     1    13
 -2.9718563928921615E-01 a      1314     0    66     1    14
 -1.0730913595963418E-01 a      1315     0    66     1    15
 -2.4863315028513775E-02 a      1316     0    66     1    16
 -1.9240450358128124E-02 a      1317     0    66     1    17
  1.5792387675194544E-01 a      1318     0    66     1    18
  6.6435528272959760E-02 a      1319     0    66     1    19
 -7.3831808761692486E-02 a      1320     0    66     1    20
 -2.6552735889033469E-01 a      1321     0    67     1     1
 -1.7223000736185598E-01 a      1322     0    67     1     2
  9.7652534946273281E-02 a      1323     0    67     1     3
 -1.1129106133455884E-01 a      1324     0    67     1     4
  3.9280431981918551E-01 a      1325     0    67     1     5
  9.4465457579280612E-02 a      1326     0    67     1     6
 -7.3306071266238601E-02 a      1327     0    67     1     7
 -2.2615383016813381E-01 a      1328     0    67     1     8
 -1.8956889801273880E-01 a      1329     0    67     1     9
  4.0738206222854983E-02 a      1330     0    67     1    10
 -1.0075921407431875E-02 a      1331     0    67     1    11
  3.3246288154391644E-02 a      1332     0    67     1    12
  1.0996753330511284E-01 a      1333     0    67     1    13
 -1.2860379851514614E-01 a      1334     0    67     1    14
 -3.4114568767448783E-01 a      1335     0    67     1    15
 -3.8976440226893178E-01 a      1336     0    67     1    16
  1.0937277851497802E-01 a      1337     0    67     1    17
  4.8116262305244373E-01 a      1338     0    67     1    18
  1.3224504425231698E-01 a      1339     0    67     1    19
  1.1714988688873067E-02 a      1340     0    67     1    20
  2.0547764293575999E-01 a      1341     0    68     1     1
 -1.8904354265465332E-02 a      1342     0    68     1     2
  4.1025614025758529E-02 a      1343     0    68     1     3
  1.5943257497212143E-01 a      1344     0    68     1     4
  1.7300958169261546E-01 a      1345     0    68     1     5
  4.2487977082159338E-02 a      1346     0    68     1     6
 -2.6944832266827640E-01 a      1347     0    68     1     7
  4.0777286519578862E-02 a      1348     0    68     1     8
  4.3602037789916566E-02 a      1349     0    68     1     9
  1.2535644139243687E-01 a      1350     0    68     1    10
  1.0658709696488337E-01 a      1351     0    68     1    11
 -1.6043961017340355E-01 a      1352     0    68     1    12
  5.4944292507877635E-02 a      1353     0    68     1    13
 -7.8792976641069434E-03 a      1354     0    68     1    14
 -3.3753348053981266E-02 a      1355     0    68     1    15
 -3.6785376326109492E-01 a      1356     0    68     1    16
  2.2349235662667066E-01 a      1357     0    68     1    17
  1.0158691230376016E-01 a      1358     0    68     1    18
  2.1987003512138725E-01 a      1359     0    68     1    19
 -2.2945835396311624E-02 a      1360     0    68     1    20
 -5.1447170057465741E-02 a      1361     0    69     1     1
  1.5030747910693851E-01 a      1362     0    69     1     2
 -1.4598835706725272E-01 a      1363     0    69     1     3
  1.3982229087746104E-01 a      1364     0    69     1     4
  2.7037957414216296E-01 a      1365     0    69     1     5
  2.3699661356132479E-01 a      1366     0    69     1     6
  1.0937628703146220E-01 a      1367     0    69     1     7
 -2.4201010826970554E-01 a      1368     0    69     1     8
  1.0786365240258881E-01 a      1369     0    69     1     9
 -1.9177069582293960E-01 a      1370     0    69     1    10
  9.5317172223636823E-02 a      1371     0    69     1    11
 -1.2664617664302366E-01 a      1372     0    69     1    12
 -6.0597153545717743E-02 a      1373     0    69     1    13
  7.3054652117133398E-02 a      1374     0    69     1    14
 -1.3962820901593558E-02 a      1375     0    69     1    15
 -2.3604503252543849E-02 a      1376     0    69     1    16
 -9.0504157997925022E-02 a      1377     0    69     1    17
 -8.6832216389511357E-02 a      1378     0    69     1    18
  3.9495539637102429E-02 a      1379     0    69     1    19
 -7.3036304154310699E-02 a      1380     0    69     1    20
 -1.8810195843254851E-01 a      1381     0    70     1     1
  2.2187707525082095E-01 a      1382     0    70     1     2
  1.5450246411346857E-01 a      1383     0    70     1     3
  1.2048092214346150E-01 a      1384     0    70     1     4
  2.1237384831792987E-02 a      1385     0    70     1     5
 -6.3348005448438452E-02 a      1386     0    70     1     6
 -7.0650326497502594E-02 a      1387     0    70     1     7
  1.8935407599305068E-01 a      1388     0    70     1     8
 -2.3102321184916827E-01 a      1389     0    70     1     9
  6.2488875600615203E-02 a      1390     0    70     1    10
  8.6356355545156749E-02 a      1391     0    70     1    11
 -1.6703016527095529E-01 a      1392     0    70     1    12
  6.1904583283906349E-02 a      1393     0    70     1    13
  6.0765204756619597E-02 a      1394     0    70     1    14
 -1.1995218258669264E-01 a      1395     0    70     1    15
  2.2860828757537064E-02 a      1396     0    70     1    16
 -1.2793177146287263E-01 a      1397     0    70     1    17
 -6.6408565118210930E-03 a      1398     0    70     1    18
  1.8248502874177411E-01 a      1399     0    70     1    19
 -2.1815033048309233E-02 a      1400     0    70     1    20
 -5.4956986117371291E-03 a      1401     0    71     1     1
 -5.8870528706000187E-02 a      1402     0    71     1     2
  7.0043685613330242E-02 a      1403     0    71     1     3
  1.2139408566857970E-01 a      1404     0    71     1     4
 -1.5733201757379112E-01 a      1405     0    71     1     5
 -1.1349782261144672E-01 a      1406     0    71     1     6
 -4.2541874778846175E-02 a      1407     0    71     1     7
  1.1000356179700287E-01 a      1408     0    71     1     8
 -2.5998290963208487E-01 a      1409     0    71     1     9
  2.5272535885538527E-02 a      1410     0    71     1    10
 -1.7393093294168507E-02 a      1411     0    71     1    11
 -9.2960666496453875E-02 a      1412     0    71     1    12
  8.2845087761157413E-02 a      1413     0    71     1    13
 -1.7355158340454083E-01 a      1414     0    71     1    14
  1.4438640128576502E-01 a      1415     0    71     1    15
 -6.1627312796800504E-02 a      1416     0    71     1    16
 -1.4692010524365387E-01 a      1417     0    71     1    17
 -1.7847212927390857E-01 a      1418     0    71     1    18
  2.2463710040481154E-02 a      1419     0    71     1    19
 -3.0505670662461060E-02 a      1420     0    71     1    20
  2.8287472213525044E-01 a      1421     0    72     1     1
 -7.6496097980573829E-02 a      1422     0    72     1     2
  1.6009682245267737E-01 a      1423     0    72     1     3
 -6.1366752233417025E-02 a      1424     0    72     1     4
 -2.0976925139634203E-01 a      1425     0    72     1     5
 -1.9987036091578067E-01 a      1426     0    72     1     6
 -1.8636874730441261E-01 a      1427     0    72     1     7
 -1.1301121240061589E-02 a      1428     0    72     1     8
  3.3672215085581891E-01 a      1429     0    72     1     9
  1.3267574055085427E-01 a      1430     0    72     1    10
  1.3378838690471462E-01 a      1431     0    72     1    11
 -2.0330741990240336E-01 a      1432     0    72     1    12
 -1.2152212090085181E-01 a      1433     0    72     1    13
 -1.7025201356393030E-01 a      1434     0    72     1    14
  1.9345974309880408E-02 a      1435     0    72     1    15
  1.6164209884299238E-01 a      1436     0    72     1    16
 -1.1351869233165671E-01 a      1437     0    72     1    17
 -1.8646425351670581E-01 a      1438     0    72     1    18
 -1.2215837982241301E-01 a      1439     0    72     1    19
  1.3433268680503985E-01 a      1440     0    72     1    20
  8.9888129687721325E-03 a      1441     0    73     1     1
  1.3244462542663693E-01 a      1442     0    73     1     2
  1.7951042631046035E-01 a      1443     0    73     1     3
  1.6697983235502334E-01 a      1444     0    73     1     4
 -8.5806512080354072E-02 a      1445     0    73     1     5
 -1.0096619358348062E-01 a      1446     0    73     1     6
 -3.3956528939383709E-02 a      1447     0    73     1     7
  5.4872443666861039E-02 a      1448     0    73     1     8
  3.6181578537496997E-02 a      1449     0    73     1     9
 -1.5712300988902020E-01 a      1450     0    73     1    10
 -8.8587988895043865E-02 a      1451     0    73     1    11
 -1.3467537261365956E-01 a      1452     0    73     1    12
  2.9427922722793196E-02 a      1453     0    73     1    13
 -1.6577004167693951E-01 a      1454     0    73     1    14
  1.1974090769821642E-01 a      1455     0    73     1    15
 -9.3022902177813976E-02 a      1456     0    73     1    16
 -8.5992108665222371E-03 a      1457     0    73     1    17
 -1.8489401395607088E-02 a      1458     0    73     1    18
  2.9110152697166179E-02 a      1459     0    73     1    19
  1.9359652220901705E-01 a      1460     0    73     1    20
 -1.0151411909479535E-01 a      1461     0    74     1     1
 -9.1414588343416273E-02 a      1462     0    74     1     2
 -2.3367475413629996E-01 a      1463     0    74     1     3
  1.1849899503824732E-01 a      1464     0    74     1     4
 -1.4803101572204009E-02 a      1465     0    74     1     5
 -1.4347419985340387E-01 a      1466     0    74     1     6
 -6.5360691447045496E-02 a      1467     0    74     1     7
 -1.3319194157882541E-01 a      1468     0    74     1     8
  8.2465845376558655E-03 a      1469     0    74     1     9
 -2.0267787032518383E-01 a      1470     0    74     1    10
 -9.0841987079563494E-02 a      1471     0    74     1    11
  2.0188372538760671E-01 a      1472     0    74     1    12
  2.1175449908592633E-01 a      1473     0    74     1    13
 -6.9799589087309127E-02 a      1474     0    74     1    14
  3.7717764443269713E-02 a      1475     0    74     1    15
 -9.9137199516540538E-04 a      1476     0    74     1    16
  3.5585705113577275E-02 a      1477     0    74     1    17
  1.0667144986257324E-01 a      1478     0    74     1    18
  9.1992453084688036E-02 a      1479     0    74     1    19
  1.6679856676819924E-01 a      1480     0    74     1    20
  5.2771885574286512E-02 a      1481     0    75     1     1
 -4.7890708156843639E-02 a      1482     0    75     1     2
 -2.2601086445786726E-02 a      1483     0    75     1     3
 -1.4600167071140971E-01 a      1484     0    75     1     4
 -1.6206171045155054E-01 a      1485     0    75     1     5
 -8.8967972144134128E-02 a      1486     0    75     1     6
  6.0868834823974228E-03 a      1487     0    75     1     7
 -1.2784959664053919E-01 a      1488     0    75     1     8
 -3.2281431448213088E-01 a      1489     0    75     1     9
  1.0880248156626787E-02 a      1490     0    75     1    10
 -1.0341279344626930E-01 a      1491     0    75     1    11
 -1.6783745655836130E-01 a      1492     0    75     1    12
  8.9323781613165232E-02 a      1493     0    75     1    13
 -1.5096785265029351E-02 a      1494     0    75     1    14
  1.0282525197779262E-02 a      1495     0    75     1    15
  2.5100256359199741E-01 a      1496     0    75     1    16
  2.5348491818907776E-01 a      1497     0    75     1    17
  3.2267610856315510E-01 a      1498     0    75     1    18
 -6.8814234285720574E-02 a      1499     0    75     1    19
  1.5958013586586051E-01 a      1500     0    75     1    20
  1.5329493262378446E-01 a      1501     0    76     1     1
 -1.3638451201277757E-01 a      1502     0    76     1     2
 -1.8989185343365034E-01 a      1503     0    76     1     3
 -1.9016717085231327E-01 a      1504     0    76     1     4
 -4.0728802965439521E-02 a      1505     0    76     1     5
  1.5224430165797545E-01 a      1506     0    76     1     6
 -1.1070099429387410E-01 a      1507     0    76     1     7
  1.0537162419511965E-01 a      1508     0    76     1     8
 -4.9239525150298988E-02 a      1509     0    76     1     9
  1.6824947930230313E-01 a      1510     0    76     1    10
  4.4186144690883375E-02 a      1511     0    76     1    11
 -1.3731327688449310E-01 a      1512     0    76     1    12
  1.2309359570393301E-01 a      1513     0    76     1    13
 -1.9126811790621157E-01 a      1514     0    76     1    14
 -1.2536534079241998E-01 a      1515     0    76     1    15
  9.2726416525239663E-02 a      1516     0    76     1    16
 -4.3786973915850264E-02 a      1517     0    76     1    17
  1.5159375812222972E-01 a      1518     0    76     1    18
 -8.1406954000951257E-02 a      1519     0    76     1    19
  2.6983543369268775E-01 a      1520     0    76     1    20
  2.1697661776699070E-01 a      1521     0    77     1     1
  1.6929476790986209E-01 a      1522     0    77     1     2
  1.1113529603777590E-01 a      1523     0    77     1     3
  8.9884982770391642E-02 a      1524     0    77     1     4
 -9.5182497981497166E-02 a      1525     0    77     1     5
 -5.9331234647331706E-03 a      1526     0    77     1     6
 -3.2636780683861152E-02 a      1527     0    77     1     7
  2.8928819344673875E-03 a      1528     0    77     1     8
 -2.5542799255894800E-02 a      1529     0    77     1     9
 -7.5931560292831601E-02 a      1530     0    77     1    10
 -1.5039448279662052E-01 a      1531     0    77     1    11
  1.1752292377626557E-01 a      1532     0    77     1    12
 -1.1327492691526644E-01 a      1533     0    77     1    13
 -8.5818737867369654E-02 a      1534     0    77     1    14
  9.5094347423994599E-02 a      1535     0    77     1    15
 -3.1226139705700238E-02 a      1536     0    77     1    16
 -4.9191375717150536E-02 a      1537     0    77     1    17
 -1.9505121606481765E-01 a      1538     0    77     1    18
 -1.7185347819205965E-01 a      1539     0    77     1    19
 -2.6999705271709007E-01 a      1540     0    77     1    20
 -1.3702344042829107E-01 a      1541     0    78     1     1
  1.9014839703528708E-01 a      1542     0    78     1     2
  5.1776372257537704E-03 a      1543     0    78     1     3
  9.6039285425671569E-02 a      1544     0    78     1     4
  5.8542659636359080E-02 a      1545     0    78     1     5
  1.4775998283764907E-01 a      1546     0    78     1     6
 -1.2138721938073466E-02 a      1547     0    78     1     7
  6.1852098583664680E-02 a      1548     0    78     1     8
  1.3650871546325177E-01 a      1549     0    78     1     9
  1.4426711460070515E-01 a      1550     0    78     1    10
  5.3630182590067188E-02 a      1551     0    78     1    11
  1.5323524404730912E-01 a      1552     0    78     1    12
  9.9545579178154705E-03 a      1553     0    78     1    13
  1.1131065913332941E-01 a      1554     0    78     1    14
  9.9143416873617635E-02 a      1555     0    78     1    15
  1.4768026442156082E-01 a      1556     0    78     1    16
 -9.2776742862016412E-02 a      1557     0    78     1    17
 -1.2822332685875865E-01 a      1558     0    78     1    18
  6.9831181925938443E-02 a      1559     0    78     1    19
  2.3003328288008617E-02 a      1560     0    78     1    20
  1.1772507460702764E-01 a      1561     0    79     1     1
 -6.5313403452969349E-02 a      1562     0    79     1     2
  1.3894065913527406E-01 a      1563     0    79     1     3
 -1.2478944531439802E-01 a      1564     0    79     1     4
  1.7014296915640159E-02 a      1565     0    79     1     5
  1.0766934051933648E-01 a      1566     0    79     1     6
 -2.8113018769179474E-02 a      1567     0    79     1     7
  1.3002310415078669E-01 a      1568     0    79     1     8
 -5.8349548694821854E-02 a      1569     0    79     1     9
  1.5814259601670647E-01 a      1570     0    79     1    10
  9.1539612135365517E-02 a      1571     0    79     1    11
  1.6086934372586983E-01 a      1572     0    79     1    12
 -1.5297100747615011E-01 a      1573     0    79     1    13
  1.3713510612778493E-01 a      1574     0    79     1    14
  8.7157911774592284E-02 a      1575     0    79     1    15
  4.3270195869782854E-02 a      1576     0    79     1    16
  3.4052426478986290E-03 a      1577     0    79     1    17
  4.4097417477956306E-02 a      1578     0    79     1    18
  8.8224498170477061E-02 a      1579     0    79     1    19
 -3.2905407433207128E-02 a      1580     0    79     1    20
  6.4833637474092015E-02 a      1581     0    80     1     1
 -1.7071744413298132E-01 a      1582     0    80     1     2
 -1.2061157258739287E-01 a      1583     0    80     1     3
 -3.1904109065745659E-02 a      1584     0    80     1     4
 -1.6167383798095675E-01 a      1585     0    80     1     5
 -6.0146215765592599E-02 a      1586     0    80     1     6
  1.5459334492747137E-01 a      1587     0    80     1     7
 -1.3159077262897928E-01 a      1588     0    80     1     8
  2.0126192965637245E-02 a      1589     0    80     1     9
 -1.2917857486721751E-01 a      1590     0    80     1    10
  1.9991803318280987E-01 a      1591     0    80     1    11
  3.5012166413762257E-03 a      1592     0    80     1    12
  1.1411737965343841E-02 a      1593     0    80     1    13
  4.8934040760298884E-02 a      1594     0    80     1    14
 -5.0464182856743395E-02 a      1595     0    80     1    15
  1.1142209705185482E-01 a      1596     0    80     1    16
 -4.6250728037502888E-02 a      1597     0    80     1    17
  2.1515818723296325E-02 a      1598     0    80     1    18
 -8.8138175103908076E-02 a      1599     0    80     1    19
  1.8101452855474140E-01 a      1600     0    80     1    20
  6.0220343660768146E-03 a      1601     0    81     1     1
 -6.1554532881355317E-02 a      1602     0    81     1     2
 -2.4080659770145632E-01 a      1603     0    81     1     3
 -1.2125113084321580E-01 a      1604     0    81     1     4
 -7.0694354839420858E-03 a      1605     0    81     1     5
  3.7665052719104218E-02 a      1606     0    81     1     6
  4.5696730926636286E-02 a      1607     0    81     1     7
 -1.6978498508598266E-02 a      1608     0    81     1     8
  1.0837182736426253E-01 a      1609     0    81     1     9
 -3.1844818537706232E-01 a      1610     0    81     1    10
 -2.6038679551004876E-02 a      1611     0    81     1    11
  7.5037277310536013E-03 a      1612     0    81     1    12
 -3.0017348788880373E-02 a      1613     0    81     1    13
 -5.7620256721061705E-02 a      1614     0    81     1    14
  1.5922539854609488E-01 a      1615     0    81     1    15
 -3.6880382576111516E-02 a      1616     0    81     1    16
  9.3241923947329372E-02 a      1617     0    81     1    17
  2.0522514977025233E-01 a      1618     0    81     1    18
 -5.2890531605497344E-02 a      1619     0    81     1    19
  2.8390223974842432E-01 a      1620     0    81     1    20
 -1.4217420737322464E-01 a      1621     0    82     1     1
 -2.9564790701602550E-01 a      1622     0    82     1     2
 -1.9282015953855730E-01 a      1623     0    82     1     3
