################################################################################
# Neural network connection values (weights and biases).
################################################################################
# Col  Name       Description
################################################################################
# 1    connection Neural network connection value.
# 2    t          Connection type (a = weight, b = bias).
# 3    index      Index enumerating weights.
# 4    l_s        Starting point layer (end point layer for biases).
# 5    n_s        Starting point neuron in starting layer (end point neuron for biases).
# 6    l_e        End point layer.
# 7    n_e        End point neuron in end layer.
################################################################################
#                      1 2         3     4     5     6     7
#             connection t     index   l_s   n_s   l_e   n_e
############################################################
 -8.8097523817978925E-03 a         1     0     1     1     1
 -2.3854044136150086E-02 a         2     0     1     1     2
 -2.9164696506353710E-01 a         3     0     1     1     3
 -1.4091179457470937E-01 a         4     0     1     1     4
 -1.4070842300389885E-01 a         5     0     1     1     5
 -1.6215739125792381E-01 a         6     0     1     1     6
  7.9124403759340114E-02 a         7     0     1     1     7
  9.4895984981053103E-02 a         8     0     1     1     8
 -3.7111240816064865E-02 a         9     0     1     1     9
 -1.0068319836327821E-01 a        10     0     1     1    10
 -4.8191887027935615E-01 a        11     0     1     1    11
 -3.4390941034345807E-01 a        12     0     1     1    12
  1.8104576393153637E-01 a        13     0     1     1    13
  1.2177614848132147E-01 a        14     0     1     1    14
  2.3553719519436744E-01 a        15     0     1     1    15
 -4.7312289252416977E-02 a        16     0     1     1    16
  5.8758735943620788E-01 a        17     0     1     1    17
 -1.7310926738995796E-02 a        18     0     1     1    18
  2.0247862707394573E-01 a        19     0     1     1    19
  2.3652128510531001E-01 a        20     0     1     1    20
 -6.8954287052300695E-02 a        21     0     2     1     1
  1.1244543337663279E-01 a        22     0     2     1     2
  2.3607707167066205E-01 a        23     0     2     1     3
  2.0485789098861190E-01 a        24     0     2     1     4
 -1.9705469992070798E-01 a        25     0     2     1     5
 -2.1936766388589291E-01 a        26     0     2     1     6
  1.1405755546914463E-01 a        27     0     2     1     7
 -1.8170736307297528E-02 a        28     0     2     1     8
  2.7858278008343262E-01 a        29     0     2     1     9
  2.7319238276108126E-01 a        30     0     2     1    10
  1.7609328443019787E-01 a        31     0     2     1    11
 -1.9165881198787201E-02 a        32     0     2     1    12
 -1.7073061948171944E-01 a        33     0     2     1    13
  9.7958267834281579E-03 a        34     0     2     1    14
  2.8854215133363555E-02 a        35     0     2     1    15
  1.7543055282114181E-01 a        36     0     2     1    16
 -1.9663740701895649E-01 a        37     0     2     1    17
  4.1832740778092268E-03 a        38     0     2     1    18
  1.1604469587983494E-01 a        39     0     2     1    19
 -2.6726826985291963E-01 a        40     0     2     1    20
  2.1523967630223958E-02 a        41     0     3     1     1
 -1.7115211440158751E-01 a        42     0     3     1     2
 -4.7625588685471204E-01 a        43     0     3     1     3
  2.0415968328583469E-02 a        44     0     3     1     4
 -3.2561360401853534E-01 a        45     0     3     1     5
 -9.5352622601731649E-02 a        46     0     3     1     6
  1.5117994630905185E-01 a        47     0     3     1     7
 -6.3943586722470963E-04 a        48     0     3     1     8
 -2.1843428968714290E-01 a        49     0     3     1     9
  2.8063386201021171E-02 a        50     0     3     1    10
 -3.1262452908528943E-01 a        51     0     3     1    11
  2.4335834787281460E-01 a        52     0     3     1    12
  2.5546204863486266E-01 a        53     0     3     1    13
 -2.6720885740763456E-01 a        54     0     3     1    14
 -3.3716896029422344E-01 a        55     0     3     1    15
 -1.0633073349531117E-02 a        56     0     3     1    16
 -2.9217499982633599E-01 a        57     0     3     1    17
 -4.3771859695388654E-01 a        58     0     3     1    18
 -4.7105400702118305E-01 a        59     0     3     1    19
  5.2951224189211492E-02 a        60     0     3     1    20
 -2.7263788577879727E-02 a        61     0     4     1     1
  1.1032042314300235E-01 a        62     0     4     1     2
 -1.8985281543969550E-02 a        63     0     4     1     3
 -3.2397820533859734E-01 a        64     0     4     1     4
 -1.6388355812994984E-01 a        65     0     4     1     5
  5.8055425933277102E-02 a        66     0     4     1     6
 -8.0585810800396576E-02 a        67     0     4     1     7
  1.6873350305598389E-01 a        68     0     4     1     8
  1.2744084166808373E-01 a        69     0     4     1     9
 -1.1891957417054273E-02 a        70     0     4     1    10
  7.2648566125989480E-02 a        71     0     4     1    11
 -2.3748606372550707E-01 a        72     0     4     1    12
 -5.9086729458873395E-02 a        73     0     4     1    13
 -2.2430399102730630E-01 a        74     0     4     1    14
  9.3104456046882805E-02 a        75     0     4     1    15
 -1.0959281833284928E-01 a        76     0     4     1    16
  1.9669016021010852E-01 a        77     0     4     1    17
  1.9648672906210488E-01 a        78     0     4     1    18
 -1.6674173623562996E-01 a        79     0     4     1    19
 -1.0911936708388734E-01 a        80     0     4     1    20
 -3.1296667428766156E-01 a        81     0     5     1     1
  1.5163426408838736E-02 a        82     0     5     1     2
 -1.9192323389959362E-01 a        83     0     5     1     3
 -1.1496360398660824E-01 a        84     0     5     1     4
  3.3724471665668401E-02 a        85     0     5     1     5
 -1.4068933226853066E-02 a        86     0     5     1     6
 -6.6202244868221141E-02 a        87     0     5     1     7
 -3.8642366447036902E-03 a        88     0     5     1     8
 -4.2563305076647420E-02 a        89     0     5     1     9
 -2.1314040706006079E-02 a        90     0     5     1    10
 -9.5016198701048271E-02 a        91     0     5     1    11
 -6.3004540486880020E-02 a        92     0     5     1    12
 -1.8672129791091013E-03 a        93     0     5     1    13
 -5.4766915209100854E-02 a        94     0     5     1    14
  1.7794915498432828E-01 a        95     0     5     1    15
 -4.7469311017694166E-02 a        96     0     5     1    16
  1.2696789755004856E-01 a        97     0     5     1    17
 -7.8605768192499245E-02 a        98     0     5     1    18
 -4.1898704362755876E-02 a        99     0     5     1    19
 -4.1648826106711626E-02 a       100     0     5     1    20
  2.2242971530712299E-01 a       101     0     6     1     1
 -9.6911796710724765E-02 a       102     0     6     1     2
  3.8505199498885290E-01 a       103     0     6     1     3
 -2.2964828387461297E-01 a       104     0     6     1     4
  5.2257961348643300E-02 a       105     0     6     1     5
 -1.2086907847666375E-02 a       106     0     6     1     6
  2.1661971257154074E-02 a       107     0     6     1     7
  1.4530339651179924E-01 a       108     0     6     1     8
  5.7835457756532212E-02 a       109     0     6     1     9
  2.7746855254988323E-01 a       110     0     6     1    10
 -1.3912352973709263E-01 a       111     0     6     1    11
  3.9373183554163332E-01 a       112     0     6     1    12
 -1.3725965384114544E-01 a       113     0     6     1    13
 -7.0400698679556242E-02 a       114     0     6     1    14
  2.0396596805689618E-01 a       115     0     6     1    15
  3.9923533085288655E-02 a       116     0     6     1    16
  4.7110419920035257E-01 a       117     0     6     1    17
 -5.1283294935796322E-02 a       118     0     6     1    18
 -3.1320282193028390E-02 a       119     0     6     1    19
 -1.3390126676168060E-01 a       120     0     6     1    20
 -5.0702027256999696E-02 a       121     0     7     1     1
  5.4355236909706180E-02 a       122     0     7     1     2
 -1.0440113628551062E-01 a       123     0     7     1     3
 -1.7592412462093896E-02 a       124     0     7     1     4
  2.1151263985368346E-02 a       125     0     7     1     5
  2.7936759043138172E-02 a       126     0     7     1     6
  3.9214526313803039E-02 a       127     0     7     1     7
  1.3623252545922279E-01 a       128     0     7     1     8
 -3.4236442271718487E-01 a       129     0     7     1     9
 -7.0908879882923340E-02 a       130     0     7     1    10
  2.6835763677745022E-02 a       131     0     7     1    11
  7.6484270837681168E-02 a       132     0     7     1    12
 -6.2696773362402994E-02 a       133     0     7     1    13
 -2.1008159600657478E-01 a       134     0     7     1    14
  1.0093568629750067E-01 a       135     0     7     1    15
  7.4569080753003697E-02 a       136     0     7     1    16
 -1.3207031638561034E-01 a       137     0     7     1    17
  2.2096699168803716E-01 a       138     0     7     1    18
  7.5774814498143758E-02 a       139     0     7     1    19
  2.8363328038975018E-02 a       140     0     7     1    20
  7.8653228419016175E-02 a       141     0     8     1     1
 -2.7493172220780094E-03 a       142     0     8     1     2
  1.6178804663811174E-02 a       143     0     8     1     3
 -1.4759295933841157E-01 a       144     0     8     1     4
 -1.8207417469641957E-01 a       145     0     8     1     5
 -3.0605330093044066E-02 a       146     0     8     1     6
  1.6212536759352431E-01 a       147     0     8     1     7
  1.6560277902460069E-01 a       148     0     8     1     8
 -2.4951140421729906E-01 a       149     0     8     1     9
 -1.3001945355461986E-01 a       150     0     8     1    10
  1.0512873331845585E-01 a       151     0     8     1    11
 -2.3717297893486344E-01 a       152     0     8     1    12
 -2.5281509739297454E-02 a       153     0     8     1    13
 -5.8166337120346599E-02 a       154     0     8     1    14
 -9.7446851413882873E-02 a       155     0     8     1    15
  1.1293715495392870E-01 a       156     0     8     1    16
 -7.1210199157112505E-02 a       157     0     8     1    17
  1.6361771765202707E-02 a       158     0     8     1    18
  9.1754980221339405E-02 a       159     0     8     1    19
  8.4229465731995801E-02 a       160     0     8     1    20
  1.3262060051575053E-01 a       161     0     9     1     1
 -1.2059880861077465E-01 a       162     0     9     1     2
 -7.0668444587048589E-03 a       163     0     9     1     3
 -4.7772654975570476E-02 a       164     0     9     1     4
  4.6003925485926599E-02 a       165     0     9     1     5
  7.0888631329261579E-03 a       166     0     9     1     6
 -2.9505540366318039E-02 a       167     0     9     1     7
 -1.0001329308654416E-01 a       168     0     9     1     8
 -3.0357356336922875E-01 a       169     0     9     1     9
  1.6858001070512527E-01 a       170     0     9     1    10
 -4.1644295507447388E-02 a       171     0     9     1    11
  8.1034322558950503E-02 a       172     0     9     1    12
  2.1733795382476290E-01 a       173     0     9     1    13
  1.2858671133973840E-01 a       174     0     9     1    14
  1.6434773028423119E-01 a       175     0     9     1    15
  3.3293132711438661E-02 a       176     0     9     1    16
 -1.5287206726665320E-01 a       177     0     9     1    17
 -6.2833640714473712E-02 a       178     0     9     1    18
  1.5219696640933925E-01 a       179     0     9     1    19
  1.0112447131634078E-01 a       180     0     9     1    20
  1.8107299615286115E-01 a       181     0    10     1     1
 -9.6673071211539369E-02 a       182     0    10     1     2
  2.0281638955459405E-01 a       183     0    10     1     3
  3.7541565839644658E-02 a       184     0    10     1     4
 -9.9207020015531985E-03 a       185     0    10     1     5
 -1.9140585281429277E-02 a       186     0    10     1     6
  1.1163206965057178E-02 a       187     0    10     1     7
  5.7553243161578151E-02 a       188     0    10     1     8
 -7.1967210319241068E-02 a       189     0    10     1     9
  9.8961243608621310E-02 a       190     0    10     1    10
  4.0967098526846574E-02 a       191     0    10     1    11
  1.2993601053687581E-01 a       192     0    10     1    12
  4.8300528693099871E-02 a       193     0    10     1    13
 -1.0490926237203674E-02 a       194     0    10     1    14
  2.9947488754991550E-02 a       195     0    10     1    15
 -1.2624226894988541E-01 a       196     0    10     1    16
 -1.2969343905085322E-02 a       197     0    10     1    17
 -7.4250146270029072E-02 a       198     0    10     1    18
  1.8433376352044087E-01 a       199     0    10     1    19
 -1.3326649996230450E-01 a       200     0    10     1    20
 -9.0422386470172200E-02 a       201     0    11     1     1
 -2.7763537693119331E-02 a       202     0    11     1     2
 -1.9616009462451106E-01 a       203     0    11     1     3
  4.9278682094235549E-01 a       204     0    11     1     4
  3.0804762963493812E-02 a       205     0    11     1     5
 -2.0835156020458181E-02 a       206     0    11     1     6
  2.6937021611606871E-01 a       207     0    11     1     7
 -2.3651945048703035E-01 a       208     0    11     1     8
 -1.7975323567025814E-01 a       209     0    11     1     9
  6.4255127089901901E-02 a       210     0    11     1    10
  4.3396858923267367E-01 a       211     0    11     1    11
 -2.6423308014786040E-01 a       212     0    11     1    12
  2.4022839473424126E-01 a       213     0    11     1    13
 -9.1994339474978676E-02 a       214     0    11     1    14
 -1.6773766498387621E-01 a       215     0    11     1    15
 -3.6909714688624390E-02 a       216     0    11     1    16
 -1.8908350326693593E-02 a       217     0    11     1    17
  3.9410649004101718E-02 a       218     0    11     1    18
 -2.1210555415065578E-02 a       219     0    11     1    19
 -1.7298430612759827E-01 a       220     0    11     1    20
  3.4479840329437031E-02 a       221     0    12     1     1
 -1.4041593527049876E-02 a       222     0    12     1     2
 -8.1586809819252218E-02 a       223     0    12     1     3
 -1.1338985845237039E-01 a       224     0    12     1     4
 -1.4274512897809993E-01 a       225     0    12     1     5
  1.2188375692111678E-01 a       226     0    12     1     6
  2.2088562563687927E-01 a       227     0    12     1     7
 -9.7100362124156719E-03 a       228     0    12     1     8
 -7.3384052162272631E-02 a       229     0    12     1     9
  8.0868553556306955E-02 a       230     0    12     1    10
 -2.8190511048200451E-01 a       231     0    12     1    11
  1.1029166179311810E-01 a       232     0    12     1    12
  5.5066183951318091E-02 a       233     0    12     1    13
 -9.4176819630341899E-02 a       234     0    12     1    14
  2.2278969049955091E-01 a       235     0    12     1    15
 -1.8111472203794352E-01 a       236     0    12     1    16
 -1.2312106402887757E-01 a       237     0    12     1    17
 -6.8064379706165648E-02 a       238     0    12     1    18
 -3.6773349032662161E-02 a       239     0    12     1    19
  2.8445182576478371E-02 a       240     0    12     1    20
 -3.8514404379504187E-02 a       241     0    13     1     1
 -3.3794833987731442E-02 a       242     0    13     1     2
  5.3476274159885692E-02 a       243     0    13     1     3
  1.8423816530249833E-02 a       244     0    13     1     4
  9.2541933822760641E-03 a       245     0    13     1     5
 -7.2285910556054113E-03 a       246     0    13     1     6
  7.3495258031264901E-02 a       247     0    13     1     7
 -1.3453600546657984E-01 a       248     0    13     1     8
  2.9595742768633970E-02 a       249     0    13     1     9
 -1.0287154537903663E-01 a       250     0    13     1    10
 -8.0125379149374426E-02 a       251     0    13     1    11
 -5.1235905646551991E-02 a       252     0    13     1    12
  2.4359740459747206E-01 a       253     0    13     1    13
  3.3649991188225816E-04 a       254     0    13     1    14
  2.4581966696679514E-01 a       255     0    13     1    15
 -6.8932910919707158E-02 a       256     0    13     1    16
 -6.5496183918978906E-02 a       257     0    13     1    17
  3.0376332848076276E-01 a       258     0    13     1    18
  1.7504294048618790E-02 a       259     0    13     1    19
 -2.6809049549601860E-01 a       260     0    13     1    20
 -2.3816023061949698E-01 a       261     0    14     1     1
  8.7060550800264383E-02 a       262     0    14     1     2
 -5.5265296041171620E-02 a       263     0    14     1     3
 -2.3111239237941894E-01 a       264     0    14     1     4
 -7.2933710744017685E-03 a       265     0    14     1     5
 -5.1932060460341670E-02 a       266     0    14     1     6
 -1.3308509828026205E-01 a       267     0    14     1     7
 -5.3667901077635687E-02 a       268     0    14     1     8
  5.1224103032729354E-02 a       269     0    14     1     9
 -1.7816875316132286E-01 a       270     0    14     1    10
  1.9110290199242215E-02 a       271     0    14     1    11
 -1.5511977563765435E-03 a       272     0    14     1    12
 -1.2331918399903703E-01 a       273     0    14     1    13
  1.6277103913751501E-01 a       274     0    14     1    14
 -1.3732645100439859E-02 a       275     0    14     1    15
 -3.8941883835628868E-02 a       276     0    14     1    16
  5.9418932952825182E-03 a       277     0    14     1    17
  7.6334605151561527E-02 a       278     0    14     1    18
  1.4967380441525444E-01 a       279     0    14     1    19
  1.3848489170957134E-01 a       280     0    14     1    20
  2.5519417598603800E-01 a       281     0    15     1     1
 -1.4178034332546549E-01 a       282     0    15     1     2
  2.1608236100782793E-01 a       283     0    15     1     3
  2.0076006684441974E-01 a       284     0    15     1     4
  4.5892878250219621E-02 a       285     0    15     1     5
  1.4746114963955936E-01 a       286     0    15     1     6
 -4.0509466600285532E-03 a       287     0    15     1     7
 -1.6399079488092186E-01 a       288     0    15     1     8
 -9.1292502951356005E-02 a       289     0    15     1     9
  8.8027735103088062E-02 a       290     0    15     1    10
 -1.7970142375143169E-01 a       291     0    15     1    11
  9.9298580300018355E-02 a       292     0    15     1    12
 -5.6570824594572626E-02 a       293     0    15     1    13
 -1.5001779821359756E-01 a       294     0    15     1    14
  1.3985584347571189E-01 a       295     0    15     1    15
  1.4707226069447102E-01 a       296     0    15     1    16
  5.1786529410927276E-02 a       297     0    15     1    17
 -2.7736199331323211E-02 a       298     0    15     1    18
 -1.7781082653511082E-01 a       299     0    15     1    19
 -6.4584760815078052E-02 a       300     0    15     1    20
  8.4205662399655505E-04 a       301     0    16     1     1
  2.0632926251619146E-01 a       302     0    16     1     2
 -3.8936686661595210E-01 a       303     0    16     1     3
  4.2299248917260293E-02 a       304     0    16     1     4
  4.8432326408519022E-02 a       305     0    16     1     5
  5.3570734687791950E-02 a       306     0    16     1     6
 -7.3188554417734086E-02 a       307     0    16     1     7
  2.0311614124792690E-01 a       308     0    16     1     8
  6.0343202248645096E-02 a       309     0    16     1     9
 -8.5541643324094002E-02 a       310     0    16     1    10
 -1.6164531277378186E-01 a       311     0    16     1    11
  2.6796394435094014E-02 a       312     0    16     1    12
 -2.8203829282341598E-02 a       313     0    16     1    13
 -5.5799876912742720E-02 a       314     0    16     1    14
 -6.1526066728919096E-02 a       315     0    16     1    15
 -1.4257004421376959E-01 a       316     0    16     1    16
  9.4576905561721721E-03 a       317     0    16     1    17
 -1.2605986541853619E-02 a       318     0    16     1    18
 -1.1326175499852704E-01 a       319     0    16     1    19
  3.0575045760423197E-01 a       320     0    16     1    20
  4.5383744215403025E-02 a       321     0    17     1     1
 -4.3812952876571998E-02 a       322     0    17     1     2
  4.0971602054713446E-01 a       323     0    17     1     3
  7.6724656276857969E-02 a       324     0    17     1     4
 -1.5906869741609500E-01 a       325     0    17     1     5
 -3.0773523161498678E-01 a       326     0    17     1     6
  4.7606389886745142E-02 a       327     0    17     1     7
  2.7975772175012498E-01 a       328     0    17     1     8
  1.4966290256861572E-01 a       329     0    17     1     9
  9.6728926355952677E-02 a       330     0    17     1    10
  2.2606115582994288E-01 a       331     0    17     1    11
 -1.8583888622913572E-01 a       332     0    17     1    12
 -1.1352202083868372E-01 a       333     0    17     1    13
 -5.1755235743576544E-02 a       334     0    17     1    14
  5.5334900265955451E-02 a       335     0    17     1    15
  2.4108695574534381E-01 a       336     0    17     1    16
 -1.9690246028045541E-01 a       337     0    17     1    17
  9.2420463669785166E-02 a       338     0    17     1    18
  2.1134673982336977E-01 a       339     0    17     1    19
 -2.0587914762434620E-01 a       340     0    17     1    20
  1.2559669004916002E-01 a       341     0    18     1     1
  5.5447389635693435E-02 a       342     0    18     1     2
 -1.6200737630957160E-01 a       343     0    18     1     3
 -5.4186848717054065E-02 a       344     0    18     1     4
 -4.8352109997290331E-02 a       345     0    18     1     5
 -5.6507309051650280E-02 a       346     0    18     1     6
 -7.1082465997157659E-02 a       347     0    18     1     7
  2.7579063456050901E-01 a       348     0    18     1     8
  3.9437013443160598E-02 a       349     0    18     1     9
  1.0571546962266830E-01 a       350     0    18     1    10
 -4.4543717876945440E-04 a       351     0    18     1    11
  1.1705725919806698E-02 a       352     0    18     1    12
 -8.4156078160598211E-02 a       353     0    18     1    13
  4.4903881733983977E-02 a       354     0    18     1    14
  9.7303616676424745E-02 a       355     0    18     1    15
 -5.4800951311561916E-02 a       356     0    18     1    16
  3.6332475597552441E-02 a       357     0    18     1    17
 -7.6661325882064826E-02 a       358     0    18     1    18
  9.7552717528148897E-03 a       359     0    18     1    19
  3.1473442383751793E-01 a       360     0    18     1    20
  6.3600716160544524E-02 a       361     0    19     1     1
  1.5671945167844037E-01 a       362     0    19     1     2
  5.6858045153986292E-02 a       363     0    19     1     3
  1.6026551839643288E-01 a       364     0    19     1     4
  1.7479382955067213E-01 a       365     0    19     1     5
 -2.5849424026411503E-03 a       366     0    19     1     6
  1.8088977379063212E-01 a       367     0    19     1     7
 -7.3264825889793994E-02 a       368     0    19     1     8
 -7.6772126108361649E-02 a       369     0    19     1     9
 -1.0566445189063606E-01 a       370     0    19     1    10
  1.3988680506744175E-01 a       371     0    19     1    11
  2.3924510132004922E-01 a       372     0    19     1    12
  6.7852233074427648E-03 a       373     0    19     1    13
  4.0899824798717524E-02 a       374     0    19     1    14
  2.1411413882708488E-01 a       375     0    19     1    15
  1.3644491098726080E-01 a       376     0    19     1    16
 -1.2722287008263569E-01 a       377     0    19     1    17
 -1.4225348916916997E-01 a       378     0    19     1    18
 -1.2356329378970614E-03 a       379     0    19     1    19
  1.1161406751020811E-01 a       380     0    19     1    20
 -1.2685276483247981E-01 a       381     0    20     1     1
  2.3998303603011628E-01 a       382     0    20     1     2
  4.7584962506751240E-02 a       383     0    20     1     3
  9.4128701543844701E-02 a       384     0    20     1     4
 -4.7801723422680853E-02 a       385     0    20     1     5
 -4.8430632825300690E-02 a       386     0    20     1     6
 -1.4273282230668149E-01 a       387     0    20     1     7
 -2.2755040970279181E-01 a       388     0    20     1     8
 -1.5273853415791278E-01 a       389     0    20     1     9
  1.7531550312846095E-01 a       390     0    20     1    10
  1.8453959281501797E-02 a       391     0    20     1    11
 -7.4702343235863611E-02 a       392     0    20     1    12
  4.0915340323414005E-02 a       393     0    20     1    13
  1.0461059108097613E-01 a       394     0    20     1    14
  8.1503246322533293E-02 a       395     0    20     1    15
  1.3042788443225831E-01 a       396     0    20     1    16
  3.5367707945867195E-02 a       397     0    20     1    17
 -5.2192414819799025E-03 a       398     0    20     1    18
  1.5318542304377004E-02 a       399     0    20     1    19
 -5.9306767736696832E-02 a       400     0    20     1    20
 -5.7310966213998275E-02 a       401     0    21     1     1
 -5.9038892956419675E-02 a       402     0    21     1     2
  4.1640312775622312E-01 a       403     0    21     1     3
 -4.3268141216153765E-02 a       404     0    21     1     4
  1.8393274908221030E-01 a       405     0    21     1     5
  2.5756157594876442E-02 a       406     0    21     1     6
  4.0926175581620886E-02 a       407     0    21     1     7
 -1.9350155359562537E-02 a       408     0    21     1     8
 -1.9994139599026295E-02 a       409     0    21     1     9
  8.9447627912021266E-02 a       410     0    21     1    10
  5.2826973927736803E-02 a       411     0    21     1    11
  6.7064624670483325E-02 a       412     0    21     1    12
  1.4968766397726904E-01 a       413     0    21     1    13
 -1.2138347513608264E-02 a       414     0    21     1    14
  6.1288953102983317E-02 a       415     0    21     1    15
  9.3567534734308469E-02 a       416     0    21     1    16
 -6.8081756792089998E-02 a       417     0    21     1    17
 -2.6836061437012632E-01 a       418     0    21     1    18
  9.1083953003177912E-02 a       419     0    21     1    19
  1.6095812395663708E-01 a       420     0    21     1    20
  1.0940862252922203E-02 a       421     0    22     1     1
 -6.7472764267756252E-02 a       422     0    22     1     2
 -9.9588435332279429E-02 a       423     0    22     1     3
  6.4438038768664177E-02 a       424     0    22     1     4
  1.0477202846547662E-01 a       425     0    22     1     5
  9.7064592602018718E-02 a       426     0    22     1     6
 -4.0585424709826026E-02 a       427     0    22     1     7
  1.3282628072647273E-02 a       428     0    22     1     8
 -6.4159336310017814E-02 a       429     0    22     1     9
  4.7904604816650743E-02 a       430     0    22     1    10
  1.3526071660475843E-02 a       431     0    22     1    11
  6.5357608074680523E-02 a       432     0    22     1    12
  1.9019985221711139E-02 a       433     0    22     1    13
 -3.8383785411535878E-02 a       434     0    22     1    14
  1.0631769083141134E-01 a       435     0    22     1    15
  6.6092191622937571E-02 a       436     0    22     1    16
  1.0121089698287242E-01 a       437     0    22     1    17
 -2.6567890180334848E-02 a       438     0    22     1    18
  4.2509846325252003E-02 a       439     0    22     1    19
  6.6427954684175491E-02 a       440     0    22     1    20
 -1.0655701689129678E-01 a       441     0    23     1     1
 -4.9685255886771605E-02 a       442     0    23     1     2
 -3.1365432875118632E-01 a       443     0    23     1     3
 -1.3191305796390839E-02 a       444     0    23     1     4
  2.0022925684728810E-01 a       445     0    23     1     5
  7.4833306888524340E-02 a       446     0    23     1     6
 -2.2020785939305915E-01 a       447     0    23     1     7
  3.6302537837925378E-03 a       448     0    23     1     8
  2.1560242832673007E-01 a       449     0    23     1     9
  4.8142684453712517E-02 a       450     0    23     1    10
 -8.2541928584210042E-02 a       451     0    23     1    11
 -5.4143112742679411E-02 a       452     0    23     1    12
 -1.1080011926791038E-01 a       453     0    23     1    13
  1.9662169881417230E-01 a       454     0    23     1    14
 -2.2184099299112070E-01 a       455     0    23     1    15
 -5.1647676780137326E-02 a       456     0    23     1    16
  1.4427005800447676E-01 a       457     0    23     1    17
  3.1155357623109664E-01 a       458     0    23     1    18
 -3.6111114749622038E-02 a       459     0    23     1    19
 -1.4044618223829211E-01 a       460     0    23     1    20
 -1.2669237829517035E-01 a       461     0    24     1     1
  1.4642812442603854E-02 a       462     0    24     1     2
  6.7305573030133417E-02 a       463     0    24     1     3
  1.3644997773310274E-02 a       464     0    24     1     4
 -4.4733172467190704E-02 a       465     0    24     1     5
 -2.8681243870612347E-03 a       466     0    24     1     6
  6.0652638408237841E-02 a       467     0    24     1     7
 -1.3245224844046383E-01 a       468     0    24     1     8
  1.3502912992746680E-01 a       469     0    24     1     9
 -5.7853465415914254E-02 a       470     0    24     1    10
  1.7373241815704413E-01 a       471     0    24     1    11
 -1.8424162218444909E-01 a       472     0    24     1    12
  3.3277087561075724E-02 a       473     0    24     1    13
 -4.0744800877463051E-02 a       474     0    24     1    14
 -1.5850782282912615E-01 a       475     0    24     1    15
  9.9033799870924838E-02 a       476     0    24     1    16
 -1.0524723648991069E-01 a       477     0    24     1    17
  3.7989343533896928E-02 a       478     0    24     1    18
 -1.5200733082358225E-01 a       479     0    24     1    19
  2.1028456679795257E-01 a       480     0    24     1    20
  9.3537601925102007E-02 a       481     0    25     1     1
  7.7806940388224624E-02 a       482     0    25     1     2
  2.6477659438369139E-01 a       483     0    25     1     3
 -8.4578793544916542E-02 a       484     0    25     1     4
  1.5103208516605346E-01 a       485     0    25     1     5
 -6.7655284069939758E-02 a       486     0    25     1     6
  6.0998758863881591E-02 a       487     0    25     1     7
 -1.2668393014026315E-02 a       488     0    25     1     8
 -1.6156771539792433E-01 a       489     0    25     1     9
 -1.5903616728608327E-01 a       490     0    25     1    10
 -1.6713752171356921E-01 a       491     0    25     1    11
  5.7457423501767704E-02 a       492     0    25     1    12
  1.0600693519555464E-02 a       493     0    25     1    13
 -2.6677825943525368E-02 a       494     0    25     1    14
 -4.6044604073883548E-02 a       495     0    25     1    15
 -1.5653570889522914E-01 a       496     0    25     1    16
 -4.7534362444240509E-02 a       497     0    25     1    17
 -1.0140443359777483E-01 a       498     0    25     1    18
 -5.8382546267244172E-02 a       499     0    25     1    19
  2.2069285264930516E-02 a       500     0    25     1    20
  2.6294990913172219E-02 a       501     0    26     1     1
 -7.4864270263179600E-02 a       502     0    26     1     2
 -7.3713985077129396E-02 a       503     0    26     1     3
  2.7722281638750407E-01 a       504     0    26     1     4
  1.0287873409877109E-01 a       505     0    26     1     5
  7.8477579939068426E-02 a       506     0    26     1     6
 -1.0429254929981549E-02 a       507     0    26     1     7
  2.0353179747507204E-02 a       508     0    26     1     8
 -2.8532250172295903E-01 a       509     0    26     1     9
 -4.3210142009376062E-01 a       510     0    26     1    10
  1.4324932725115000E-02 a       511     0    26     1    11
  1.9977429719676179E-01 a       512     0    26     1    12
  1.3267389375968580E-01 a       513     0    26     1    13
 -3.8435896594330571E-01 a       514     0    26     1    14
  3.0366806399026364E-01 a       515     0    26     1    15
 -2.0875337787013701E-01 a       516     0    26     1    16
 -1.3492968186517870E-01 a       517     0    26     1    17
 -4.0848034685834728E-01 a       518     0    26     1    18
 -4.6781640584298602E-02 a       519     0    26     1    19
 -8.2349199194209251E-03 a       520     0    26     1    20
 -8.7363943823716830E-02 a       521     0    27     1     1
  1.5184403446523527E-02 a       522     0    27     1     2
 -4.4247431349522602E-02 a       523     0    27     1     3
  3.2398389907763303E-01 a       524     0    27     1     4
 -2.6677307591225309E-02 a       525     0    27     1     5
 -3.1984012376755459E-02 a       526     0    27     1     6
 -1.1950440547952790E-02 a       527     0    27     1     7
 -2.8632098714071543E-02 a       528     0    27     1     8
  7.6765491708511130E-02 a       529     0    27     1     9
 -4.2041073687032408E-02 a       530     0    27     1    10
 -1.0797592242580503E-01 a       531     0    27     1    11
 -9.4590433273105210E-03 a       532     0    27     1    12
 -1.1919135070441425E-01 a       533     0    27     1    13
 -1.7611356912086953E-01 a       534     0    27     1    14
 -2.1881487947640421E-01 a       535     0    27     1    15
  2.7956788853519647E-02 a       536     0    27     1    16
 -5.4016073094243597E-02 a       537     0    27     1    17
  4.2570317459349229E-02 a       538     0    27     1    18
 -6.1466518730074027E-02 a       539     0    27     1    19
 -1.8026218929698165E-01 a       540     0    27     1    20
 -9.6613832096667809E-02 a       541     0    28     1     1
 -3.9435559180726686E-02 a       542     0    28     1     2
 -1.2330138443637946E-01 a       543     0    28     1     3
 -1.8510966482666302E-01 a       544     0    28     1     4
 -1.0823069794957557E-01 a       545     0    28     1     5
 -7.7533117605743884E-02 a       546     0    28     1     6
 -7.3472200254439211E-03 a       547     0    28     1     7
  1.5610186318102950E-01 a       548     0    28     1     8
  6.7835407228071021E-02 a       549     0    28     1     9
 -2.9461956574406138E-02 a       550     0    28     1    10
  5.3469356230985622E-02 a       551     0    28     1    11
 -3.3177120152648754E-01 a       552     0    28     1    12
 -8.7260922898735896E-02 a       553     0    28     1    13
  2.5886090427708303E-02 a       554     0    28     1    14
 -3.3438492678029924E-02 a       555     0    28     1    15
  7.6639912315810632E-02 a       556     0    28     1    16
 -1.2362878435227634E-01 a       557     0    28     1    17
  4.9691347368535949E-01 a       558     0    28     1    18
 -6.8189982760181742E-03 a       559     0    28     1    19
 -2.4418002579787396E-01 a       560     0    28     1    20
 -1.2158937919356329E-01 a       561     0    29     1     1
  8.9554956085568127E-02 a       562     0    29     1     2
 -8.3695550439503649E-02 a       563     0    29     1     3
 -2.0914486953805672E-01 a       564     0    29     1     4
 -9.3956976499606756E-02 a       565     0    29     1     5
 -3.7026320537026473E-02 a       566     0    29     1     6
  4.0972591864723830E-02 a       567     0    29     1     7
  2.7470716906448694E-01 a       568     0    29     1     8
  1.4615766434277955E-01 a       569     0    29     1     9
 -4.3235699560961523E-02 a       570     0    29     1    10
  6.3538665155142351E-02 a       571     0    29     1    11
  4.7082378682190514E-02 a       572     0    29     1    12
  4.1148641776705033E-02 a       573     0    29     1    13
  5.2483298205008196E-02 a       574     0    29     1    14
  1.7993441349776496E-01 a       575     0    29     1    15
  3.2099150406275412E-01 a       576     0    29     1    16
 -2.0307855182581608E-01 a       577     0    29     1    17
 -6.9017221921979455E-02 a       578     0    29     1    18
  3.7601649812464007E-02 a       579     0    29     1    19
  2.2402143489887608E-01 a       580     0    29     1    20
 -4.4107221813703669E-02 a       581     0    30     1     1
  7.8770824845235302E-02 a       582     0    30     1     2
 -6.1511113078575708E-02 a       583     0    30     1     3
 -3.7177123424995233E-02 a       584     0    30     1     4
  6.8549903377697452E-02 a       585     0    30     1     5
  1.8646949649222175E-01 a       586     0    30     1     6
 -2.3257799421122716E-01 a       587     0    30     1     7
 -1.0214993038253763E-01 a       588     0    30     1     8
  8.7920395894259845E-02 a       589     0    30     1     9
  1.5621865887223535E-01 a       590     0    30     1    10
 -3.9963771871059303E-02 a       591     0    30     1    11
  5.9052312518688532E-02 a       592     0    30     1    12
  1.6503199930957765E-02 a       593     0    30     1    13
  8.4739977725161314E-02 a       594     0    30     1    14
  1.2337473942514438E-01 a       595     0    30     1    15
  1.7202233467287825E-01 a       596     0    30     1    16
  7.5639259567860911E-02 a       597     0    30     1    17
 -5.2501619361592214E-02 a       598     0    30     1    18
  1.4240907037858810E-01 a       599     0    30     1    19
 -5.8248047131586704E-03 a       600     0    30     1    20
  1.1106078462786487E-01 a       601     0    31     1     1
 -2.3643983804271157E-01 a       602     0    31     1     2
  3.2981612527522780E-01 a       603     0    31     1     3
  2.3770166113697616E-01 a       604     0    31     1     4
  4.0730926547895195E-02 a       605     0    31     1     5
 -1.1787427779846214E-01 a       606     0    31     1     6
  1.8582034530843555E-01 a       607     0    31     1     7
 -2.1192581215776357E-01 a       608     0    31     1     8
 -8.7389532753719912E-02 a       609     0    31     1     9
  1.8862811941486288E-01 a       610     0    31     1    10
 -2.1485541123841320E-02 a       611     0    31     1    11
  3.5896407216122289E-01 a       612     0    31     1    12
  8.2666747407184230E-02 a       613     0    31     1    13
 -1.1141362728246092E-01 a       614     0    31     1    14
  2.9246113533027684E-01 a       615     0    31     1    15
  1.4075486480258007E-01 a       616     0    31     1    16
 -6.0579377451690536E-02 a       617     0    31     1    17
 -4.6376323591232921E-01 a       618     0    31     1    18
  1.2034823272104406E-01 a       619     0    31     1    19
  1.7102209203868055E-01 a       620     0    31     1    20
 -1.6920510674288161E-01 a       621     0    32     1     1
  9.2043762822959549E-02 a       622     0    32     1     2
  2.1299979488921539E-02 a       623     0    32     1     3
 -3.3288139385409053E-02 a       624     0    32     1     4
  2.7776273608117394E-02 a       625     0    32     1     5
  1.1468060413032109E-01 a       626     0    32     1     6
 -1.8604891335961604E-01 a       627     0    32     1     7
 -4.9735495728552050E-03 a       628     0    32     1     8
  2.8572458241088609E-02 a       629     0    32     1     9
  6.6394163907320058E-02 a       630     0    32     1    10
  2.8413448960418181E-01 a       631     0    32     1    11
  3.3736251311477353E-02 a       632     0    32     1    12
  5.1571265786005731E-02 a       633     0    32     1    13
  1.5758416201563147E-01 a       634     0    32     1    14
  1.2829352187563108E-02 a       635     0    32     1    15
  1.2091261931873156E-02 a       636     0    32     1    16
  3.6499553460962086E-01 a       637     0    32     1    17
 -3.2437867699015542E-02 a       638     0    32     1    18
 -1.7153755812908754E-02 a       639     0    32     1    19
  7.0163944179853763E-02 a       640     0    32     1    20
 -6.0063908334142470E-02 a       641     0    33     1     1
  1.0329313843623024E-01 a       642     0    33     1     2
 -3.0762822335593037E-01 a       643     0    33     1     3
 -4.2016117672955550E-01 a       644     0    33     1     4
 -1.6343803478910190E-01 a       645     0    33     1     5
 -5.0581156315090615E-02 a       646     0    33     1     6
 -2.2384210719072515E-02 a       647     0    33     1     7
  4.6436655220035553E-02 a       648     0    33     1     8
  1.7260963659489428E-01 a       649     0    33     1     9
  3.2273157291785753E-01 a       650     0    33     1    10
 -1.8341413490771535E-01 a       651     0    33     1    11
 -1.0797763228618626E-01 a       652     0    33     1    12
 -9.1467302949134036E-02 a       653     0    33     1    13
  3.6099544089902386E-01 a       654     0    33     1    14
 -4.8535394014639681E-02 a       655     0    33     1    15
 -1.0467851719615649E-01 a       656     0    33     1    16
 -1.5687183723324563E-01 a       657     0    33     1    17
  2.4886938182563179E-01 a       658     0    33     1    18
 -7.3058790033766044E-02 a       659     0    33     1    19
  4.8141110467714243E-02 a       660     0    33     1    20
  1.0033321911579208E-02 a       661     0    34     1     1
 -1.0197594730733566E-02 a       662     0    34     1     2
  6.0967467841648366E-02 a       663     0    34     1     3
  3.6390712723769855E-02 a       664     0    34     1     4
  1.3852606436306447E-01 a       665     0    34     1     5
 -3.7280313886960230E-02 a       666     0    34     1     6
  8.4528618555253010E-02 a       667     0    34     1     7
 -1.6906181208943671E-01 a       668     0    34     1     8
  2.0239776542652844E-02 a       669     0    34     1     9
 -3.1042792744499836E-02 a       670     0    34     1    10
 -1.0909176632437484E-01 a       671     0    34     1    11
 -1.7303795664230685E-02 a       672     0    34     1    12
 -5.2401889130200260E-02 a       673     0    34     1    13
 -1.2416111706613055E-01 a       674     0    34     1    14
  1.4470641801691253E-02 a       675     0    34     1    15
 -1.4390800706091067E-01 a       676     0    34     1    16
  2.2295830178195258E-01 a       677     0    34     1    17
 -7.7200404642252069E-03 a       678     0    34     1    18
  3.6553576243085202E-02 a       679     0    34     1    19
  7.9618756454618730E-02 a       680     0    34     1    20
 -2.5298553954394765E-01 a       681     0    35     1     1
  1.0681055800769849E-01 a       682     0    35     1     2
  3.1952388042093445E-02 a       683     0    35     1     3
 -1.5930425799856510E-01 a       684     0    35     1     4
  2.6613397311654868E-01 a       685     0    35     1     5
 -4.8073104837295509E-02 a       686     0    35     1     6
 -1.3590875453373608E-01 a       687     0    35     1     7
 -3.0581886429723749E-02 a       688     0    35     1     8
 -5.4030464283826636E-02 a       689     0    35     1     9
  1.9994625699476947E-02 a       690     0    35     1    10
  2.8978919387596631E-02 a       691     0    35     1    11
 -9.2803987150500825E-02 a       692     0    35     1    12
 -1.1887917815026783E-01 a       693     0    35     1    13
  8.5970831943389558E-02 a       694     0    35     1    14
  4.3692066283245838E-02 a       695     0    35     1    15
 -7.3868037659654287E-02 a       696     0    35     1    16
  2.4370408137715505E-01 a       697     0    35     1    17
  2.5360857072001547E-01 a       698     0    35     1    18
  1.0041120071564529E-01 a       699     0    35     1    19
  7.5446591978530278E-02 a       700     0    35     1    20
 -2.0187645187491071E-01 a       701     0    36     1     1
 -4.9015596058297951E-02 a       702     0    36     1     2
  2.0652471525045521E-01 a       703     0    36     1     3
  2.1533873137778095E-01 a       704     0    36     1     4
  3.0852158205753616E-01 a       705     0    36     1     5
  2.5653255407376602E-01 a       706     0    36     1     6
 -2.1767383432114565E-01 a       707     0    36     1     7
  1.3842609234509348E-01 a       708     0    36     1     8
 -1.1686633492378021E-01 a       709     0    36     1     9
 -3.0707128482808060E-01 a       710     0    36     1    10
  1.9962578701653086E-01 a       711     0    36     1    11
  1.7071397978074199E-01 a       712     0    36     1    12
  2.1635023328033134E-01 a       713     0    36     1    13
 -3.6011796790035649E-01 a       714     0    36     1    14
  3.6591087006511806E-02 a       715     0    36     1    15
  8.3612654255607266E-02 a       716     0    36     1    16
 -1.2438195295598643E-01 a       717     0    36     1    17
 -6.0258261714101236E-01 a       718     0    36     1    18
 -4.6150634399220640E-03 a       719     0    36     1    19
  2.2869295082248944E-01 a       720     0    36     1    20
  9.9820070450157825E-02 a       721     0    37     1     1
 -4.9948952677010321E-02 a       722     0    37     1     2
  1.5805135019218266E-03 a       723     0    37     1     3
  1.4695701152270224E-01 a       724     0    37     1     4
  7.7837393261243198E-02 a       725     0    37     1     5
  5.1925277636690914E-02 a       726     0    37     1     6
 -3.8677502406985185E-03 a       727     0    37     1     7
  3.5255929102119381E-04 a       728     0    37     1     8
 -5.2610478274609358E-02 a       729     0    37     1     9
 -4.8118247394882657E-02 a       730     0    37     1    10
 -2.3717099923005480E-01 a       731     0    37     1    11
 -1.6980181011983009E-02 a       732     0    37     1    12
 -3.8986237918155739E-02 a       733     0    37     1    13
 -2.2000791381019050E-01 a       734     0    37     1    14
 -2.2065261068474795E-01 a       735     0    37     1    15
  1.7757892574289996E-03 a       736     0    37     1    16
 -2.0695980136722106E-01 a       737     0    37     1    17
 -1.9286092801540797E-02 a       738     0    37     1    18
  7.0812141348281080E-02 a       739     0    37     1    19
 -9.9628655044730799E-02 a       740     0    37     1    20
  6.1812238376935058E-02 a       741     0    38     1     1
  1.1343965767692625E-01 a       742     0    38     1     2
 -2.4745962200567492E-01 a       743     0    38     1     3
 -2.0481769737643982E-01 a       744     0    38     1     4
  3.8290372788374168E-02 a       745     0    38     1     5
 -2.8216926237192758E-02 a       746     0    38     1     6
 -1.8239626199290937E-01 a       747     0    38     1     7
 -3.4288762506877395E-02 a       748     0    38     1     8
 -4.4939720456722385E-02 a       749     0    38     1     9
  1.0493704248060516E-01 a       750     0    38     1    10
 -1.9293615686924481E-01 a       751     0    38     1    11
 -3.5646680626348787E-01 a       752     0    38     1    12
 -2.8808116546961332E-01 a       753     0    38     1    13
  1.0996661839934566E-01 a       754     0    38     1    14
 -2.9869321230472934E-01 a       755     0    38     1    15
 -2.4390115479945357E-01 a       756     0    38     1    16
  1.6272592336289238E-01 a       757     0    38     1    17
  8.2154465538717691E-01 a       758     0    38     1    18
  1.0201429900935258E-01 a       759     0    38     1    19
 -3.1481962933232044E-01 a       760     0    38     1    20
  8.2649455214838685E-02 a       761     0    39     1     1
 -1.0132173354330289E-01 a       762     0    39     1     2
 -1.2218286078950574E-01 a       763     0    39     1     3
  1.4080829870323600E-01 a       764     0    39     1     4
  4.0424351316992541E-02 a       765     0    39     1     5
  6.7539274404435676E-02 a       766     0    39     1     6
 -1.9431839906563256E-01 a       767     0    39     1     7
 -2.1600703365492073E-02 a       768     0    39     1     8
 -1.1877890627695586E-01 a       769     0    39     1     9
  1.3744840397285801E-01 a       770     0    39     1    10
  1.8132351837933679E-02 a       771     0    39     1    11
  1.5982665982925401E-01 a       772     0    39     1    12
 -2.9528827301143153E-02 a       773     0    39     1    13
 -4.6610050491323676E-02 a       774     0    39     1    14
  8.5847751831511655E-03 a       775     0    39     1    15
  6.8003812780000616E-02 a       776     0    39     1    16
  5.2491618478114642E-02 a       777     0    39     1    17
 -1.0052549270124267E-01 a       778     0    39     1    18
  1.0711352286102779E-01 a       779     0    39     1    19
 -1.4417984091073138E-01 a       780     0    39     1    20
 -9.2798372247029096E-02 a       781     0    40     1     1
 -1.7882133099427981E-03 a       782     0    40     1     2
 -5.4898525663543710E-02 a       783     0    40     1     3
 -9.4992438390122974E-02 a       784     0    40     1     4
 -1.0736216985348841E-01 a       785     0    40     1     5
  8.8016883905947099E-02 a       786     0    40     1     6
 -9.2122651737642988E-02 a       787     0    40     1     7
  4.2300150862406335E-02 a       788     0    40     1     8
  9.2095836945113002E-02 a       789     0    40     1     9
 -3.8158673139390142E-03 a       790     0    40     1    10
 -5.4724640764901619E-02 a       791     0    40     1    11
 -3.7532420100859464E-02 a       792     0    40     1    12
  4.3630461183295451E-02 a       793     0    40     1    13
  8.0331009515397650E-02 a       794     0    40     1    14
 -1.7651424464001547E-01 a       795     0    40     1    15
  5.9975415006568659E-02 a       796     0    40     1    16
 -3.4635157387081961E-01 a       797     0    40     1    17
  1.0896231459042862E-02 a       798     0    40     1    18
 -1.1548225028876287E-01 a       799     0    40     1    19
 -9.7977619348292577E-02 a       800     0    40     1    20
  2.2062399872608651E-01 a       801     0    41     1     1
  9.9756392890438953E-04 a       802     0    41     1     2
 -3.6101243090358524E-02 a       803     0    41     1     3
  1.3772427081820210E-01 a       804     0    41     1     4
  5.8493055653127478E-02 a       805     0    41     1     5
 -1.2255275162090845E-01 a       806     0    41     1     6
  1.0870156568221136E-01 a       807     0    41     1     7
 -1.5838090848016295E-01 a       808     0    41     1     8
 -5.6274656788812209E-02 a       809     0    41     1     9
 -2.8206509038404003E-02 a       810     0    41     1    10
 -4.1535713820231426E-02 a       811     0    41     1    11
  7.8175249368581431E-02 a       812     0    41     1    12
 -7.4898957691327775E-02 a       813     0    41     1    13
  1.5062261435848612E-01 a       814     0    41     1    14
 -2.3775008681281951E-02 a       815     0    41     1    15
  8.8584572584430574E-02 a       816     0    41     1    16
  3.3180139990464769E-01 a       817     0    41     1    17
  6.0086315493405956E-02 a       818     0    41     1    18
  1.1168304301557061E-01 a       819     0    41     1    19
 -7.0752768844350902E-02 a       820     0    41     1    20
 -1.3928885631955062E-01 a       821     0    42     1     1
  8.1583938850876225E-02 a       822     0    42     1     2
  3.6053294448612017E-03 a       823     0    42     1     3
 -6.3684708578529720E-03 a       824     0    42     1     4
 -4.8973986384958028E-02 a       825     0    42     1     5
 -1.5068657070002239E-02 a       826     0    42     1     6
 -5.6663877194605980E-03 a       827     0    42     1     7
  5.4535870315269748E-02 a       828     0    42     1     8
  1.2233956164593114E-01 a       829     0    42     1     9
  6.4762892539274100E-03 a       830     0    42     1    10
  2.3423549575538699E-01 a       831     0    42     1    11
 -5.8249701602864088E-03 a       832     0    42     1    12
  7.2619571471810862E-03 a       833     0    42     1    13
  1.7449251796794085E-01 a       834     0    42     1    14
  1.3621156945169008E-01 a       835     0    42     1    15
 -1.0848384242561336E-02 a       836     0    42     1    16
  1.8804170132465164E-01 a       837     0    42     1    17
  1.7397014533111280E-02 a       838     0    42     1    18
 -9.3317684381734239E-02 a       839     0    42     1    19
  1.1817083287541655E-01 a       840     0    42     1    20
  1.3406257144942979E-01 a       841     0    43     1     1
 -8.1262982334016163E-03 a       842     0    43     1     2
 -2.2914873712267112E-02 a       843     0    43     1     3
 -2.5335962487254220E-02 a       844     0    43     1     4
 -8.6778466600146348E-02 a       845     0    43     1     5
  5.2178886158442623E-03 a       846     0    43     1     6
  1.1822422012581783E-01 a       847     0    43     1     7
  1.1378189474640261E-01 a       848     0    43     1     8
  1.0752895312235231E-01 a       849     0    43     1     9
 -7.7349559033480397E-02 a       850     0    43     1    10
  3.0348006552711713E-02 a       851     0    43     1    11
 -1.3047720880917086E-02 a       852     0    43     1    12
  6.8785780579820335E-02 a       853     0    43     1    13
  1.0466754726500684E-02 a       854     0    43     1    14
 -5.1160537304333752E-02 a       855     0    43     1    15
  6.8272965848919134E-02 a       856     0    43     1    16
 -7.2617548862440651E-02 a       857     0    43     1    17
 -1.6080688345445715E-01 a       858     0    43     1    18
 -6.5897130234419662E-02 a       859     0    43     1    19
  9.8466518662343374E-03 a       860     0    43     1    20
  2.4077431734622112E-01 a       861     0    44     1     1
 -4.6362835313315823E-02 a       862     0    44     1     2
  3.4624319874219801E-02 a       863     0    44     1     3
 -1.1932091938768995E-01 a       864     0    44     1     4
 -6.8201996287011610E-02 a       865     0    44     1     5
 -6.2108554993609393E-02 a       866     0    44     1     6
  1.5275724442624122E-01 a       867     0    44     1     7
  1.2052525443521307E-01 a       868     0    44     1     8
 -3.0157657797881519E-05 a       869     0    44     1     9
 -1.2034799103161584E-01 a       870     0    44     1    10
  7.1601562673865651E-02 a       871     0    44     1    11
 -1.7775317044786115E-01 a       872     0    44     1    12
  3.5689786240424834E-02 a       873     0    44     1    13
  6.5662249418493773E-02 a       874     0    44     1    14
 -6.1511601412120302E-02 a       875     0    44     1    15
 -4.2100870911028890E-02 a       876     0    44     1    16
  1.9823523489284212E-01 a       877     0    44     1    17
  9.1341192657277789E-02 a       878     0    44     1    18
  3.0984532469130251E-02 a       879     0    44     1    19
 -7.6408907979046703E-02 a       880     0    44     1    20
  1.0230217430844575E-01 a       881     0    45     1     1
  9.4004022188340988E-02 a       882     0    45     1     2
  6.2672375765922231E-02 a       883     0    45     1     3
  2.9247257002124823E-02 a       884     0    45     1     4
 -4.7850661044463803E-02 a       885     0    45     1     5
 -6.9406783314315268E-02 a       886     0    45     1     6
  1.5425500825288621E-01 a       887     0    45     1     7
  4.4210864857392999E-02 a       888     0    45     1     8
 -5.5083150566728113E-02 a       889     0    45     1     9
 -4.1573498639256620E-02 a       890     0    45     1    10
 -3.2709486668742196E-02 a       891     0    45     1    11
 -3.8128130434602774E-02 a       892     0    45     1    12
  2.7034726863166488E-02 a       893     0    45     1    13
  3.0738492699683821E-02 a       894     0    45     1    14
  6.3567252393645080E-03 a       895     0    45     1    15
 -1.3155882588551429E-01 a       896     0    45     1    16
 -2.3738819113325807E-01 a       897     0    45     1    17
  2.5944882625522039E-02 a       898     0    45     1    18
 -1.1084045058495846E-02 a       899     0    45     1    19
  1.3401731543802073E-01 a       900     0    45     1    20
 -7.6806080461733608E-02 a       901     0    46     1     1
 -9.3100049330345838E-02 a       902     0    46     1     2
  1.0413968205943352E-01 a       903     0    46     1     3
  2.1063990950092734E-01 a       904     0    46     1     4
  3.5729093693466933E-02 a       905     0    46     1     5
  6.9669650120462792E-02 a       906     0    46     1     6
  5.4045322063558471E-02 a       907     0    46     1     7
  8.4639823232218622E-02 a       908     0    46     1     8
  9.6082859959798025E-02 a       909     0    46     1     9
 -9.5195359221959736E-02 a       910     0    46     1    10
  1.4104726225128636E-01 a       911     0    46     1    11
  1.1021385952185984E-01 a       912     0    46     1    12
  8.6050055122879499E-02 a       913     0    46     1    13
 -2.8055713822998984E-01 a       914     0    46     1    14
 -7.7713437178007341E-02 a       915     0    46     1    15
  1.5238237444884506E-01 a       916     0    46     1    16
 -3.2784300234965597E-01 a       917     0    46     1    17
 -3.6802427658642750E-01 a       918     0    46     1    18
 -1.3192866981480994E-01 a       919     0    46     1    19
  1.8394664585253798E-01 a       920     0    46     1    20
  6.1265487409634015E-02 a       921     0    47     1     1
 -4.5920876514254381E-02 a       922     0    47     1     2
 -8.2903227010228495E-02 a       923     0    47     1     3
  5.6097605934765093E-02 a       924     0    47     1     4
 -2.1911497095310855E-02 a       925     0    47     1     5
 -1.2046926848992232E-02 a       926     0    47     1     6
  2.2601476279737333E-02 a       927     0    47     1     7
 -7.5561323331234317E-02 a       928     0    47     1     8
 -7.2637310100671398E-02 a       929     0    47     1     9
 -8.5984743112916106E-03 a       930     0    47     1    10
 -1.3333438559132071E-01 a       931     0    47     1    11
  2.7337633444311091E-02 a       932     0    47     1    12
 -1.7190386357344933E-02 a       933     0    47     1    13
 -1.1427726533527165E-01 a       934     0    47     1    14
 -9.7598579971111557E-02 a       935     0    47     1    15
  9.1328693354397160E-03 a       936     0    47     1    16
 -1.2687750905579706E-01 a       937     0    47     1    17
  9.1057044556947745E-03 a       938     0    47     1    18
 -1.3484867091073051E-03 a       939     0    47     1    19
 -1.1289549119584165E-01 a       940     0    47     1    20
 -2.7576997621708579E-02 a       941     0    48     1     1
  2.8340730545048178E-02 a       942     0    48     1     2
 -3.0716463339553141E-01 a       943     0    48     1     3
 -1.1964030344049091E-01 a       944     0    48     1     4
 -6.1049453470872962E-02 a       945     0    48     1     5
 -6.3168018094651252E-02 a       946     0    48     1     6
 -6.9779166674234158E-02 a       947     0    48     1     7
 -5.1427558188203257E-02 a       948     0    48     1     8
  1.3680340344708008E-02 a       949     0    48     1     9
  1.9256603257212879E-01 a       950     0    48     1    10
 -9.3607857630526051E-02 a       951     0    48     1    11
 -1.1143981908975141E-01 a       952     0    48     1    12
 -1.9230515094258074E-01 a       953     0    48     1    13
  1.3790152416988269E-01 a       954     0    48     1    14
 -4.9188662661648640E-02 a       955     0    48     1    15
 -1.8900571426920787E-01 a       956     0    48     1    16
  1.2404024463872006E-01 a       957     0    48     1    17
  3.7994526539644757E-01 a       958     0    48     1    18
 -2.8712337440736850E-03 a       959     0    48     1    19
 -1.6056257858423295E-01 a       960     0    48     1    20
  5.4568034539065086E-02 a       961     0    49     1     1
 -5.6724672062929367E-02 a       962     0    49     1     2
 -1.0409634092865694E-01 a       963     0    49     1     3
 -2.2196077917870215E-02 a       964     0    49     1     4
  9.0889958877613641E-02 a       965     0    49     1     5
 -2.3764884615209248E-02 a       966     0    49     1     6
 -3.4826292374053457E-02 a       967     0    49     1     7
 -9.1964326761209622E-02 a       968     0    49     1     8
 -7.8473549716567129E-02 a       969     0    49     1     9
  3.6754312237330507E-02 a       970     0    49     1    10
 -5.2664273438773120E-02 a       971     0    49     1    11
  1.3164433462681568E-01 a       972     0    49     1    12
 -2.7572414246704847E-02 a       973     0    49     1    13
 -5.1973418772925252E-02 a       974     0    49     1    14
  7.5970326230845736E-03 a       975     0    49     1    15
 -4.1139174942039433E-02 a       976     0    49     1    16
 -2.3015135238672180E-01 a       977     0    49     1    17
 -1.5200150864963655E-01 a       978     0    49     1    18
  4.5744610419126523E-02 a       979     0    49     1    19
  1.7792357960163950E-02 a       980     0    49     1    20
 -5.0516834893665815E-03 a       981     0    50     1     1
 -2.4067144015977843E-02 a       982     0    50     1     2
 -1.8978939462972302E-01 a       983     0    50     1     3
  9.3015149990368501E-02 a       984     0    50     1     4
  8.8932994920649881E-03 a       985     0    50     1     5
  7.0511194054526882E-02 a       986     0    50     1     6
 -8.2946678290341344E-02 a       987     0    50     1     7
  5.4955843085013382E-02 a       988     0    50     1     8
  1.0498450446512338E-01 a       989     0    50     1     9
  7.6215717277668529E-02 a       990     0    50     1    10
  8.1869527764258238E-02 a       991     0    50     1    11
 -1.4312851667982849E-02 a       992     0    50     1    12
 -5.9361614294235608E-02 a       993     0    50     1    13
 -9.7929767779681168E-02 a       994     0    50     1    14
 -1.7542911731270111E-01 a       995     0    50     1    15
 -1.4366858348746785E-04 a       996     0    50     1    16
 -1.0632889407391678E-01 a       997     0    50     1    17
 -1.6606991434598338E-02 a       998     0    50     1    18
  3.8315523339896150E-02 a       999     0    50     1    19
 -4.7156700508592345E-02 a      1000     0    50     1    20
  1.3610423898561608E-01 a      1001     0    51     1     1
  1.5423520756809930E-01 a      1002     0    51     1     2
 -2.8305104298903655E-01 a      1003     0    51     1     3
  8.7060191945565107E-02 a      1004     0    51     1     4
  1.1706281795644219E-01 a      1005     0    51     1     5
 -5.3984728500542069E-02 a      1006     0    51     1     6
 -1.3886021747421667E-01 a      1007     0    51     1     7
 -1.9826897682771905E-01 a      1008     0    51     1     8
 -2.2499163474866685E-01 a      1009     0    51     1     9
  1.1911533512486512E-02 a      1010     0    51     1    10
 -1.3470742688080037E-01 a      1011     0    51     1    11
  1.7045725070957773E-01 a      1012     0    51     1    12
 -2.3945381402448457E-01 a      1013     0    51     1    13
  1.5394460989975470E-01 a      1014     0    51     1    14
 -1.9100476334772049E-01 a      1015     0    51     1    15
 -2.4070501443237305E-01 a      1016     0    51     1    16
  2.0523763299446332E-01 a      1017     0    51     1    17
 -2.4327770247903857E-01 a      1018     0    51     1    18
 -1.1352578091537029E-01 a      1019     0    51     1    19
 -2.6321458306297163E-01 a      1020     0    51     1    20
 -1.2877666466591589E-01 a      1021     0    52     1     1
 -1.0518118081535260E-01 a      1022     0    52     1     2
 -1.4142206541467930E-01 a      1023     0    52     1     3
 -9.5339206909643759E-02 a      1024     0    52     1     4
 -1.4797855972988391E-01 a      1025     0    52     1     5
 -6.2355068369134403E-02 a      1026     0    52     1     6
 -5.2030293449972630E-03 a      1027     0    52     1     7
 -9.1649583594735268E-02 a      1028     0    52     1     8
 -2.1274559944046774E-03 a      1029     0    52     1     9
 -2.4694152251067644E-03 a      1030     0    52     1    10
  2.2625990085415504E-03 a      1031     0    52     1    11
  2.4558598609716770E-01 a      1032     0    52     1    12
 -1.8528412396829508E-01 a      1033     0    52     1    13
  2.9844150841391602E-02 a      1034     0    52     1    14
  1.5981460086235766E-01 a      1035     0    52     1    15
 -1.7465974015124225E-01 a      1036     0    52     1    16
 -6.1990350404073927E-02 a      1037     0    52     1    17
 -4.5367321668439553E-01 a      1038     0    52     1    18
 -1.6298217700017012E-01 a      1039     0    52     1    19
  4.9552387537552901E-02 a      1040     0    52     1    20
 -2.1603901194021113E-02 a      1041     0    53     1     1
  1.4888300606040411E-01 a      1042     0    53     1     2
  8.4518812126572773E-01 a      1043     0    53     1     3
 -1.4016606270567974E-01 a      1044     0    53     1     4
 -4.4607465042106409E-01 a      1045     0    53     1     5
  7.8245101834761355E-02 a      1046     0    53     1     6
 -2.5433348862754174E-01 a      1047     0    53     1     7
 -7.8668034985189345E-02 a      1048     0    53     1     8
 -3.1361653603741220E-02 a      1049     0    53     1     9
 -3.1946915055217973E-01 a      1050     0    53     1    10
  1.4784803355660206E-01 a      1051     0    53     1    11
 -6.5014868243278331E-02 a      1052     0    53     1    12
  1.7791808498607389E-01 a      1053     0    53     1    13
 -1.8557412347357979E-01 a      1054     0    53     1    14
  3.1946564746009376E-02 a      1055     0    53     1    15
 -6.4758285052096506E-02 a      1056     0    53     1    16
  2.9186149544151625E-02 a      1057     0    53     1    17
  1.6693159649725331E-01 a      1058     0    53     1    18
  3.4367710206450984E-02 a      1059     0    53     1    19
 -2.5655527816100226E-01 a      1060     0    53     1    20
 -2.4581652236298859E-01 a      1061     0    54     1     1
 -4.1341071504359235E-02 a      1062     0    54     1     2
  8.9501041829178687E-03 a      1063     0    54     1     3
  2.6243356385891875E-01 a      1064     0    54     1     4
  3.0877181424739504E-02 a      1065     0    54     1     5
 -1.7725263922797690E-01 a      1066     0    54     1     6
  1.0014310622163512E-01 a      1067     0    54     1     7
 -1.2177754675068903E-01 a      1068     0    54     1     8
  1.2234062953380384E-02 a      1069     0    54     1     9
 -5.8302459446590175E-02 a      1070     0    54     1    10
  8.4037142290974646E-03 a      1071     0    54     1    11
  5.2316316898954551E-01 a      1072     0    54     1    12
  2.1632564683175909E-01 a      1073     0    54     1    13
  6.2031791814940007E-01 a      1074     0    54     1    14
  2.9952415516961683E-01 a      1075     0    54     1    15
  1.6283417913512460E-01 a      1076     0    54     1    16
 -2.5383796042051310E-01 a      1077     0    54     1    17
 -4.4901378770611189E-01 a      1078     0    54     1    18
  3.0660132465768214E-01 a      1079     0    54     1    19
 -2.2206608681406603E-01 a      1080     0    54     1    20
 -6.5446407869521300E-02 a      1081     0    55     1     1
 -5.7878340281960865E-02 a      1082     0    55     1     2
  2.0711696241685981E-01 a      1083     0    55     1     3
 -5.0877621373456534E-02 a      1084     0    55     1     4
 -1.1531339545939488E-01 a      1085     0    55     1     5
 -2.2555876564409445E-02 a      1086     0    55     1     6
 -2.2969205189561200E-02 a      1087     0    55     1     7
 -5.2182192712093185E-02 a      1088     0    55     1     8
 -1.2491343255597328E-02 a      1089     0    55     1     9
  1.3845707470771626E-01 a      1090     0    55     1    10
 -2.4514035413223292E-01 a      1091     0    55     1    11
 -4.5879772788147664E-02 a      1092     0    55     1    12
  1.6163609347244961E-02 a      1093     0    55     1    13
 -1.1816755955568171E-01 a      1094     0    55     1    14
  1.2769924127934690E-01 a      1095     0    55     1    15
  1.8165616351338740E-01 a      1096     0    55     1    16
  1.5120691326240371E-01 a      1097     0    55     1    17
  1.9735259581581149E-01 a      1098     0    55     1    18
  1.0913031331335787E-01 a      1099     0    55     1    19
 -7.6380319465990498E-02 a      1100     0    55     1    20
  2.8159732436261287E-01 a      1101     0    56     1     1
 -1.5395959092516431E-01 a      1102     0    56     1     2
 -1.0903038516838447E-01 a      1103     0    56     1     3
 -1.0555396145662426E-02 a      1104     0    56     1     4
  2.1322214536813289E-01 a      1105     0    56     1     5
  1.6566807230417788E-01 a      1106     0    56     1     6
  1.1338081606222587E-01 a      1107     0    56     1     7
 -2.3508864560122064E-01 a      1108     0    56     1     8
  2.2289575029171418E-01 a      1109     0    56     1     9
 -1.4472456722239763E-01 a      1110     0    56     1    10
  1.5119905651569541E-02 a      1111     0    56     1    11
 -5.8551687191106903E-03 a      1112     0    56     1    12
 -4.2666286310917664E-02 a      1113     0    56     1    13
  1.6497015134299686E-01 a      1114     0    56     1    14
 -7.7450466441603263E-02 a      1115     0    56     1    15
  5.6946929081465245E-02 a      1116     0    56     1    16
  1.5434509004698863E-01 a      1117     0    56     1    17
 -9.6668034693956892E-02 a      1118     0    56     1    18
 -5.4892024864895680E-02 a      1119     0    56     1    19
  1.6471478614830271E-01 a      1120     0    56     1    20
 -2.4969782901524876E-01 a      1121     0    57     1     1
 -6.2450426640595351E-04 a      1122     0    57     1     2
  1.4884653853249022E-01 a      1123     0    57     1     3
 -1.2000113877989636E-01 a      1124     0    57     1     4
 -2.5819443707118833E-01 a      1125     0    57     1     5
 -2.9610935093276670E-04 a      1126     0    57     1     6
 -1.0585426566204080E-01 a      1127     0    57     1     7
  1.1313247669342215E-01 a      1128     0    57     1     8
 -6.7917983356973518E-03 a      1129     0    57     1     9
  7.5187899336691580E-02 a      1130     0    57     1    10
  1.1469532002123582E-01 a      1131     0    57     1    11
 -3.4584286693488953E-02 a      1132     0    57     1    12
 -2.7177541259464633E-01 a      1133     0    57     1    13
  2.0158846990073900E-01 a      1134     0    57     1    14
 -1.7248171949117755E-01 a      1135     0    57     1    15
  6.6086686786252527E-02 a      1136     0    57     1    16
 -1.0160608115780884E-01 a      1137     0    57     1    17
  1.4167021932708268E-01 a      1138     0    57     1    18
  2.6025330708213862E-01 a      1139     0    57     1    19
 -1.0538744114285259E-01 a      1140     0    57     1    20
  8.9019391677735676E-02 a      1141     0    58     1     1
  4.7264082864792731E-03 a      1142     0    58     1     2
 -1.0021130217014776E-01 a      1143     0    58     1     3
  1.4032778203515558E-01 a      1144     0    58     1     4
 -5.7315372676559236E-02 a      1145     0    58     1     5
 -2.2759926878610170E-02 a      1146     0    58     1     6
 -1.8246654203711618E-01 a      1147     0    58     1     7
  8.6343267754849420E-02 a      1148     0    58     1     8
  1.3668631228621020E-01 a      1149     0    58     1     9
 -6.2965959374646552E-02 a      1150     0    58     1    10
  1.1872491968040759E-01 a      1151     0    58     1    11
 -1.1666882939458474E-01 a      1152     0    58     1    12
  4.2859685146617303E-02 a      1153     0    58     1    13
 -1.2303536577764790E-01 a      1154     0    58     1    14
  1.4456756976899315E-01 a      1155     0    58     1    15
 -2.0879673386932768E-01 a      1156     0    58     1    16
 -1.2231265502565994E-01 a      1157     0    58     1    17
 -6.7465873703289089E-02 a      1158     0    58     1    18
  6.6517894285494997E-02 a      1159     0    58     1    19
 -1.6009313025057506E-01 a      1160     0    58     1    20
 -2.1536004406305173E-01 a      1161     0    59     1     1
  1.0102557073001536E-01 a      1162     0    59     1     2
  1.6660096124415710E-01 a      1163     0    59     1     3
 -1.0005488583963633E-01 a      1164     0    59     1     4
  8.3495366858776301E-02 a      1165     0    59     1     5
  1.1467176270782641E-01 a      1166     0    59     1     6
  5.1349041179423848E-04 a      1167     0    59     1     7
 -6.3141095137989808E-02 a      1168     0    59     1     8
  1.1663665234912339E-01 a      1169     0    59     1     9
  1.3286955057415240E-01 a      1170     0    59     1    10
  1.0013505280152026E-01 a      1171     0    59     1    11
  1.6994404419263288E-02 a      1172     0    59     1    12
 -1.3912800913451812E-01 a      1173     0    59     1    13
  2.6154850539236957E-02 a      1174     0    59     1    14
  1.5529954828996298E-01 a      1175     0    59     1    15
 -1.9477647409441282E-01 a      1176     0    59     1    16
 -1.9317500471529958E-01 a      1177     0    59     1    17
  1.4442539796263440E-01 a      1178     0    59     1    18
 -1.6600175027794833E-01 a      1179     0    59     1    19
  2.2227802131504715E-01 a      1180     0    59     1    20
  6.1946034167215835E-02 a      1181     0    60     1     1
 -2.1023440682695189E-02 a      1182     0    60     1     2
  4.6970504190016893E-01 a      1183     0    60     1     3
  1.0281948238848804E-01 a      1184     0    60     1     4
 -3.5995058202973956E-01 a      1185     0    60     1     5
 -1.2784456577845396E-02 a      1186     0    60     1     6
  1.7074052960540698E-01 a      1187     0    60     1     7
  1.4627723972424481E-01 a      1188     0    60     1     8
 -3.7731027964921532E-01 a      1189     0    60     1     9
  1.8805427679463155E-02 a      1190     0    60     1    10
  3.0404235435380310E-02 a      1191     0    60     1    11
  1.0225533824499632E-01 a      1192     0    60     1    12
  1.5632321346118244E-01 a      1193     0    60     1    13
  1.1627357953028412E-01 a      1194     0    60     1    14
  1.9550886840876083E-01 a      1195     0    60     1    15
  2.8630457296355011E-01 a      1196     0    60     1    16
 -2.0099205407937648E-01 a      1197     0    60     1    17
 -9.5436566745588994E-02 a      1198     0    60     1    18
  9.7341878879247612E-02 a      1199     0    60     1    19
  3.3315849441084289E-02 a      1200     0    60     1    20
  2.0131607781370348E-01 a      1201     0    61     1     1
 -7.6059538538266511E-02 a      1202     0    61     1     2
  3.5905651391679297E-02 a      1203     0    61     1     3
  3.6706929639248265E-01 a      1204     0    61     1     4
 -1.0990768191820788E-01 a      1205     0    61     1     5
 -7.5031363826371988E-02 a      1206     0    61     1     6
  6.2084527911865667E-02 a      1207     0    61     1     7
  1.2286950280401697E-01 a      1208     0    61     1     8
 -2.9283053131160725E-01 a      1209     0    61     1     9
 -4.1121697166869205E-02 a      1210     0    61     1    10
  5.2505147528468334E-02 a      1211     0    61     1    11
  1.1384021805959358E-02 a      1212     0    61     1    12
  6.6063646153960379E-03 a      1213     0    61     1    13
  4.2825575533564386E-01 a      1214     0    61     1    14
  2.5625495344902766E-01 a      1215     0    61     1    15
 -8.9975875427407551E-02 a      1216     0    61     1    16
  3.1241780869801297E-02 a      1217     0    61     1    17
  1.7455621428022997E-01 a      1218     0    61     1    18
 -1.0351211683434955E-01 a      1219     0    61     1    19
 -6.1369591595489353E-02 a      1220     0    61     1    20
 -1.7185962873254884E-01 a      1221     0    62     1     1
 -3.6506443406640977E-02 a      1222     0    62     1     2
 -5.1265845898701423E-04 a      1223     0    62     1     3
  5.4043906077057141E-02 a      1224     0    62     1     4
 -2.2711611848378017E-02 a      1225     0    62     1     5
  6.6429274969789898E-02 a      1226     0    62     1     6
 -2.1656551785213815E-03 a      1227     0    62     1     7
 -1.5240385154803507E-01 a      1228     0    62     1     8
 -3.2430092985410705E-02 a      1229     0    62     1     9
  3.1931876087882498E-02 a      1230     0    62     1    10
  2.8934517000342382E-02 a      1231     0    62     1    11
  5.7878304119130038E-02 a      1232     0    62     1    12
 -6.0222909914641215E-02 a      1233     0    62     1    13
 -1.6672176470421085E-01 a      1234     0    62     1    14
  1.4225552472236719E-01 a      1235     0    62     1    15
  1.0977347363410432E-01 a      1236     0    62     1    16
  1.6578173108424993E-01 a      1237     0    62     1    17
 -1.2690031096382282E-01 a      1238     0    62     1    18
 -2.0362089860184016E-01 a      1239     0    62     1    19
  9.0997134924938036E-02 a      1240     0    62     1    20
  1.4525003558624319E-01 a      1241     0    63     1     1
 -1.6322328948025064E-01 a      1242     0    63     1     2
  9.4583114400236576E-02 a      1243     0    63     1     3
 -2.8665034037686631E-02 a      1244     0    63     1     4
 -1.6369322342627207E-02 a      1245     0    63     1     5
  9.7797696039555668E-02 a      1246     0    63     1     6
  2.4171242470029327E-02 a      1247     0    63     1     7
  7.9146788272272658E-02 a      1248     0    63     1     8
 -1.3601947168491216E-01 a      1249     0    63     1     9
  9.9833344052220913E-02 a      1250     0    63     1    10
 -5.5231464354819571E-02 a      1251     0    63     1    11
 -1.2288930439361430E-01 a      1252     0    63     1    12
  8.7470258251301350E-02 a      1253     0    63     1    13
 -4.8284148634035330E-02 a      1254     0    63     1    14
  8.4839110359169398E-02 a      1255     0    63     1    15
 -1.3942164573880514E-01 a      1256     0    63     1    16
 -1.4178037973894905E-01 a      1257     0    63     1    17
 -3.8503750670693317E-02 a      1258     0    63     1    18
  3.7608242791314424E-02 a      1259     0    63     1    19
  6.2732887901317605E-02 a      1260     0    63     1    20
  6.8468897898259509E-02 a      1261     0    64     1     1
 -7.2550494109177577E-02 a      1262     0    64     1     2
 -2.5341426624626615E-02 a      1263     0    64     1     3
  9.6758514618881838E-02 a      1264     0    64     1     4
 -2.5542906776698732E-01 a      1265     0    64     1     5
 -4.5933086059149640E-03 a      1266     0    64     1     6
 -4.0122707175017251E-02 a      1267     0    64     1     7
  9.8701567452402439E-02 a      1268     0    64     1     8
  1.0881485909730912E-01 a      1269     0    64     1     9
  1.3400429935907224E-01 a      1270     0    64     1    10
  3.3406740357056250E-02 a      1271     0    64     1    11
 -9.5407619197371507E-02 a      1272     0    64     1    12
  7.9325759470249738E-02 a      1273     0    64     1    13
  6.8856177481549388E-02 a      1274     0    64     1    14
  3.0113191649870887E-02 a      1275     0    64     1    15
 -1.2212668046033164E-01 a      1276     0    64     1    16
  5.4902453805765077E-02 a      1277     0    64     1    17
  2.2800548944665788E-01 a      1278     0    64     1    18
 -1.4475176838815046E-01 a      1279     0    64     1    19
 -9.5785763352921896E-02 a      1280     0    64     1    20
 -4.8370661623427520E-02 a      1281     0    65     1     1
 -4.4522035269290161E-03 a      1282     0    65     1     2
 -6.8230561495533040E-02 a      1283     0    65     1     3
  6.0732908841395164E-02 a      1284     0    65     1     4
  2.2482784396874442E-01 a      1285     0    65     1     5
  3.5768296813294569E-02 a      1286     0    65     1     6
 -2.5111351218290060E-02 a      1287     0    65     1     7
 -9.1981683352764326E-02 a      1288     0    65     1     8
 -3.4370875816069638E-02 a      1289     0    65     1     9
  4.6256574197428471E-02 a      1290     0    65     1    10
 -1.8136555025039736E-02 a      1291     0    65     1    11
  6.9880882745138283E-03 a      1292     0    65     1    12
 -2.0812145176992633E-01 a      1293     0    65     1    13
  1.0579330068239540E-01 a      1294     0    65     1    14
 -2.5470373510370223E-02 a      1295     0    65     1    15
  1.1840994170878912E-01 a      1296     0    65     1    16
  8.1636636254195774E-02 a      1297     0    65     1    17
 -5.9220592076445804E-02 a      1298     0    65     1    18
  1.2443325476817665E-01 a      1299     0    65     1    19
  1.5017445370067056E-01 a      1300     0    65     1    20
 -2.1778766233127814E-01 a      1301     0    66     1     1
 -6.1549968067981284E-02 a      1302     0    66     1     2
  1.8504981199379297E-01 a      1303     0    66     1     3
 -2.5697844529724295E-01 a      1304     0    66     1     4
  1.7156458339212791E-01 a      1305     0    66     1     5
 -2.8661399040263734E-02 a      1306     0    66     1     6
  2.4750715103219076E-01 a      1307     0    66     1     7
 -3.2431952498519226E-02 a      1308     0    66     1     8
 -7.7226996170661463E-02 a      1309     0    66     1     9
  8.8234756013399043E-02 a      1310     0    66     1    10
  9.7639135022877743E-02 a      1311     0    66     1    11
 -1.1453312148863491E-02 a      1312     0    66     1    12
 -9.8390665305464874E-03 a      1313     0    66     1    13
 -1.6430353609426671E-01 a      1314     0    66     1    14
 -8.8499889179093183E-02 a      1315     0    66     1    15
 -7.9947901905176200E-02 a      1316     0    66     1    16
 -8.1814026800855574E-02 a      1317     0    66     1    17
  6.1014081885321947E-01 a      1318     0    66     1    18
  6.1224505774734074E-02 a      1319     0    66     1    19
 -1.3347404338610822E-01 a      1320     0    66     1    20
  1.4399008472241379E-01 a      1321     0    67     1     1
 -4.4445126779172207E-02 a      1322     0    67     1     2
  1.2987820322766924E-01 a      1323     0    67     1     3
  2.8928576307031278E-01 a      1324     0    67     1     4
 -1.6980358789091446E-01 a      1325     0    67     1     5
  1.0056282027628194E-01 a      1326     0    67     1     6
  4.8498315271127211E-02 a      1327     0    67     1     7
  4.3667401698726199E-01 a      1328     0    67     1     8
  5.6297519418550775E-02 a      1329     0    67     1     9
 -1.9787317383404873E-02 a      1330     0    67     1    10
  2.1648664125443573E-01 a      1331     0    67     1    11
 -1.2975927038287507E-02 a      1332     0    67     1    12
  1.5661404431557466E-01 a      1333     0    67     1    13
  1.9592434153790014E-01 a      1334     0    67     1    14
  1.1354166642454764E-02 a      1335     0    67     1    15
 -9.1967046149953768E-02 a      1336     0    67     1    16
 -1.7546266362885532E-01 a      1337     0    67     1    17
 -1.6392312641842519E-01 a      1338     0    67     1    18
 -2.6757127690122628E-01 a      1339     0    67     1    19
 -7.5074254735630883E-02 a      1340     0    67     1    20
 -1.8166664520171288E-01 a      1341     0    68     1     1
  1.9086923773705290E-02 a      1342     0    68     1     2
 -3.2600309158665614E-01 a      1343     0    68     1     3
 -2.3763623762143644E-02 a      1344     0    68     1     4
  2.7003567703937742E-01 a      1345     0    68     1     5
  6.6862428517748526E-02 a      1346     0    68     1     6
 -2.8641843634061928E-02 a      1347     0    68     1     7
 -1.8496105906769447E-01 a      1348     0    68     1     8
  1.0503969829269819E-01 a      1349     0    68     1     9
 -1.9674852562763923E-01 a      1350     0    68     1    10
  1.2745088399157642E-01 a      1351     0    68     1    11
 -1.0454759526591433E-01 a      1352     0    68     1    12
  2.9168087943651377E-01 a      1353     0    68     1    13
 -2.9581206292065747E-03 a      1354     0    68     1    14
  1.1408339060932363E-01 a      1355     0    68     1    15
 -1.5002304264686192E-01 a      1356     0    68     1    16
  1.4224257619773975E-01 a      1357     0    68     1    17
  4.3047776903265191E-03 a      1358     0    68     1    18
 -2.8480348496933441E-02 a      1359     0    68     1    19
  2.2837077327462929E-02 a      1360     0    68     1    20
 -1.7274919636361824E-01 a      1361     0    69     1     1
  3.1000398258752573E-02 a      1362     0    69     1     2
 -1.0476369486282761E-01 a      1363     0    69     1     3
 -1.3717442800923429E-01 a      1364     0    69     1     4
  9.5359122440534835E-02 a      1365     0    69     1     5
 -1.9276340363079997E-01 a      1366     0    69     1     6
  2.3807072830695632E-02 a      1367     0    69     1     7
  2.6266012418145825E-02 a      1368     0    69     1     8
 -1.5171703170833056E-01 a      1369     0    69     1     9
 -4.0350612002228933E-02 a      1370     0    69     1    10
 -2.4388632474853697E-01 a      1371     0    69     1    11
  2.6649478335685650E-02 a      1372     0    69     1    12
  8.9114793354224493E-04 a      1373     0    69     1    13
  1.2873923655787173E-01 a      1374     0    69     1    14
  2.5631900614605074E-01 a      1375     0    69     1    15
 -1.1873004320684190E-01 a      1376     0    69     1    16
 -1.4012459188026796E-01 a      1377     0    69     1    17
 -3.0291435885157768E-02 a      1378     0    69     1    18
  1.3913186046606063E-01 a      1379     0    69     1    19
 -1.4815013275397185E-01 a      1380     0    69     1    20
  2.2731854885559621E-01 a      1381     0    70     1     1
  8.1344639912476091E-02 a      1382     0    70     1     2
  7.4607811413881425E-02 a      1383     0    70     1     3
  3.7274391151210805E-02 a      1384     0    70     1     4
  7.3102841222419015E-02 a      1385     0    70     1     5
 -1.4817142946689194E-01 a      1386     0    70     1     6
  2.1910942010906029E-01 a      1387     0    70     1     7
 -1.1523631848629895E-01 a      1388     0    70     1     8
 -1.0568315397916579E-01 a      1389     0    70     1     9
 -4.4033927175311502E-02 a      1390     0    70     1    10
 -1.7251441017776903E-01 a      1391     0    70     1    11
  9.2593127858403915E-02 a      1392     0    70     1    12
  9.7575306083902344E-02 a      1393     0    70     1    13
 -1.1923268551630962E-01 a      1394     0    70     1    14
 -3.0783607618145670E-01 a      1395     0    70     1    15
 -2.8898637412268229E-03 a      1396     0    70     1    16
  1.0652540196570559E-01 a      1397     0    70     1    17
 -2.6052050328373189E-01 a      1398     0    70     1    18
  8.7980676799516946E-02 a      1399     0    70     1    19
  1.4379546863688869E-01 a      1400     0    70     1    20
 -1.4908337661673496E-01 a      1401     0    71     1     1
  1.1775466120856901E-01 a      1402     0    71     1     2
 -1.3530585869247538E-02 a      1403     0    71     1     3
  1.8094588189870400E-01 a      1404     0    71     1     4
 -1.8921689486679713E-01 a      1405     0    71     1     5
 -3.6157199479605842E-02 a      1406     0    71     1     6
  1.7733804910744891E-01 a      1407     0    71     1     7
  1.0304896021363867E-01 a      1408     0    71     1     8
  1.3692722759765844E-01 a      1409     0    71     1     9
 -1.5312502049471285E-01 a      1410     0    71     1    10
  1.2151232982194249E-01 a      1411     0    71     1    11
 -6.0079269489217636E-02 a      1412     0    71     1    12
  1.4643187378182718E-01 a      1413     0    71     1    13
 -2.7940959076545736E-02 a      1414     0    71     1    14
 -8.7097225379259430E-02 a      1415     0    71     1    15
  3.8741959216020840E-02 a      1416     0    71     1    16
  1.3013728549295475E-01 a      1417     0    71     1    17
  8.6790229571390876E-02 a      1418     0    71     1    18
 -3.6283591251073999E-02 a      1419     0    71     1    19
  9.3204678906936012E-02 a      1420     0    71     1    20
 -9.8048446133427572E-02 a      1421     0    72     1     1
  5.6647883970732012E-02 a      1422     0    72     1     2
 -5.5857609407194538E-02 a      1423     0    72     1     3
  1.0049109924180626E-01 a      1424     0    72     1     4
  9.6370456928451351E-02 a      1425     0    72     1     5
 -6.7551044435629398E-02 a      1426     0    72     1     6
  1.4248944953450299E-02 a      1427     0    72     1     7
  1.0575579515761090E-01 a      1428     0    72     1     8
 -5.1471557753561707E-02 a      1429     0    72     1     9
  4.3663017228417929E-02 a      1430     0    72     1    10
 -2.5333357220880959E-01 a      1431     0    72     1    11
 -6.1678507263385057E-02 a      1432     0    72     1    12
  8.4644687617969297E-02 a      1433     0    72     1    13
  3.7917579011537583E-01 a      1434     0    72     1    14
  2.1221171938735903E-01 a      1435     0    72     1    15
  1.0567256527728849E-02 a      1436     0    72     1    16
  1.8768257102494454E-01 a      1437     0    72     1    17
  2.1725461430417317E-01 a      1438     0    72     1    18
 -2.1122823344127717E-01 a      1439     0    72     1    19
 -4.6385445637775677E-02 a      1440     0    72     1    20
  6.8847313338611826E-02 a      1441     0    73     1     1
 -6.5497080894037231E-04 a      1442     0    73     1     2
  9.2138248862831396E-02 a      1443     0    73     1     3
  6.9867168442014266E-02 a      1444     0    73     1     4
  2.1209484470307494E-01 a      1445     0    73     1     5
  9.0446817127534149E-02 a      1446     0    73     1     6
 -9.3587948995914438E-02 a      1447     0    73     1     7
 -3.0826872232013203E-01 a      1448     0    73     1     8
 -1.1180221622726680E-01 a      1449     0    73     1     9
  1.1401273707693854E-01 a      1450     0    73     1    10
  2.6382648030885492E-01 a      1451     0    73     1    11
  1.6753773633605043E-02 a      1452     0    73     1    12
 -1.4512563529292111E-01 a      1453     0    73     1    13
 -6.5704290783674610E-02 a      1454     0    73     1    14
 -1.1734425395429737E-01 a      1455     0    73     1    15
  4.6837644209641437E-03 a      1456     0    73     1    16
  1.5108342761873733E-01 a      1457     0    73     1    17
  1.3669461360290366E-01 a      1458     0    73     1    18
 -1.0326557842835363E-01 a      1459     0    73     1    19
 -2.0295951942545390E-01 a      1460     0    73     1    20
 -1.9149436310425233E-01 a      1461     0    74     1     1
  2.1903216090878319E-01 a      1462     0    74     1     2
  9.3998296490975311E-02 a      1463     0    74     1     3
  2.1858670580760575E-01 a      1464     0    74     1     4
 -3.2295494424923694E-02 a      1465     0    74     1     5
 -1.2526068165513635E-01 a      1466     0    74     1     6
  2.2361690811247162E-01 a      1467     0    74     1     7
 -7.0830884829666596E-02 a      1468     0    74     1     8
  1.2263382275542227E-01 a      1469     0    74     1     9
 -1.7720738271106634E-01 a      1470     0    74     1    10
  5.8761540161283432E-03 a      1471     0    74     1    11
 -3.9975849249673734E-02 a      1472     0    74     1    12
 -1.3803254776764412E-01 a      1473     0    74     1    13
 -3.3497160075122399E-02 a      1474     0    74     1    14
 -2.4031789736462660E-02 a      1475     0    74     1    15
  7.8022708313367869E-02 a      1476     0    74     1    16
  1.6264770553319338E-01 a      1477     0    74     1    17
  1.8470256533279991E-01 a      1478     0    74     1    18
 -1.8814963868884590E-01 a      1479     0    74     1    19
  6.4337810756278629E-03 a      1480     0    74     1    20
 -1.5141207868093530E-02 a      1481     0    75     1     1
  3.9567761468142969E-02 a      1482     0    75     1     2
 -5.1766344570563705E-01 a      1483     0    75     1     3
  2.0066085853383681E-01 a      1484     0    75     1     4
  2.5425026159392361E-01 a      1485     0    75     1     5
  1.2920742907647234E-01 a      1486     0    75     1     6
 -1.8630036520761322E-02 a      1487     0    75     1     7
 -4.9213353034729307E-01 a      1488     0    75     1     8
 -5.5601097777435514E-02 a      1489     0    75     1     9
  1.4655334252646200E-02 a      1490     0    75     1    10
 -1.4415045288097489E-01 a      1491     0    75     1    11
  1.6485170737897173E-01 a      1492     0    75     1    12
  6.0132461085451979E-03 a      1493     0    75     1    13
  3.3910987171710092E-03 a      1494     0    75     1    14
  5.2835104689409843E-02 a      1495     0    75     1    15
 -3.4465398415194970E-01 a      1496     0    75     1    16
 -5.0499748687406731E-01 a      1497     0    75     1    17
 -9.6316344270434978E-02 a      1498     0    75     1    18
 -3.7196535276306027E-03 a      1499     0    75     1    19
 -1.2372951718912760E-01 a      1500     0    75     1    20
  1.2431577824350714E-02 a      1501     0    76     1     1
 -1.1924080599684819E-01 a      1502     0    76     1     2
  1.0677003871613350E-01 a      1503     0    76     1     3
 -3.3329958247726992E-02 a      1504     0    76     1     4
 -1.4424986702620354E-01 a      1505     0    76     1     5
 -1.9982021874643408E-01 a      1506     0    76     1     6
  1.5364696802724964E-01 a      1507     0    76     1     7
 -1.7806077555126334E-02 a      1508     0    76     1     8
 -1.7703503997725004E-01 a      1509     0    76     1     9
  3.4641857437439451E-02 a      1510     0    76     1    10
 -3.0418216567319016E-02 a      1511     0    76     1    11
  1.0292027563426778E-01 a      1512     0    76     1    12
  4.0057151725527221E-02 a      1513     0    76     1    13
  3.6661734309077837E-01 a      1514     0    76     1    14
 -1.6680257215093763E-02 a      1515     0    76     1    15
  5.6949008325444882E-02 a      1516     0    76     1    16
 -3.8532845420695135E-02 a      1517     0    76     1    17
  4.3816545579044096E-02 a      1518     0    76     1    18
 -3.7627228424687034E-02 a      1519     0    76     1    19
 -1.9631316183965120E-01 a      1520     0    76     1    20
  4.7157976937541096E-03 a      1521     0    77     1     1
  4.0492394209300141E-02 a      1522     0    77     1     2
  2.3751854431788380E-01 a      1523     0    77     1     3
 -8.0731146461580972E-02 a      1524     0    77     1     4
  3.6346110301810210E-02 a      1525     0    77     1     5
 -4.5468947139762177E-02 a      1526     0    77     1     6
  1.1980895689961181E-03 a      1527     0    77     1     7
  1.7834151995661274E-01 a      1528     0    77     1     8
 -7.7975037577154196E-02 a      1529     0    77     1     9
  3.6408881045507456E-02 a      1530     0    77     1    10
 -1.2623639690513194E-01 a      1531     0    77     1    11
 -1.0644616929929043E-02 a      1532     0    77     1    12
  2.3988103255719254E-01 a      1533     0    77     1    13
  2.3337896649037856E-01 a      1534     0    77     1    14
  5.9861598556227276E-03 a      1535     0    77     1    15
 -2.7236220885143683E-02 a      1536     0    77     1    16
 -1.2160818025978803E-01 a      1537     0    77     1    17
  9.7274796032616739E-02 a      1538     0    77     1    18
  9.7845303252370883E-02 a      1539     0    77     1    19
 -1.7686636539093506E-01 a      1540     0    77     1    20
  1.2825699851614131E-01 a      1541     0    78     1     1
  9.9064133586864209E-02 a      1542     0    78     1     2
 -6.5216484939676855E-02 a      1543     0    78     1     3
 -1.3625400027185020E-01 a      1544     0    78     1     4
  1.1732498617480133E-01 a      1545     0    78     1     5
  1.1608456783459904E-01 a      1546     0    78     1     6
  1.2699103477788953E-01 a      1547     0    78     1     7
 -2.0841728967098128E-02 a      1548     0    78     1     8
 -1.0377913418233044E-01 a      1549     0    78     1     9
  1.2278310846354612E-01 a      1550     0    78     1    10
 -1.9806894239709433E-01 a      1551     0    78     1    11
  5.0951696102532369E-02 a      1552     0    78     1    12
  6.3059683856325752E-02 a      1553     0    78     1    13
 -1.8211782238701128E-02 a      1554     0    78     1    14
  1.3547517097741662E-02 a      1555     0    78     1    15
 -2.1342947479761840E-01 a      1556     0    78     1    16
 -9.7897679095029541E-02 a      1557     0    78     1    17
 -1.4327259623616187E-01 a      1558     0    78     1    18
  7.1885954587322123E-02 a      1559     0    78     1    19
 -2.2035758932289431E-01 a      1560     0    78     1    20
 -1.3629618297254220E-01 a      1561     0    79     1     1
  3.6205863524533012E-02 a      1562     0    79     1     2
  1.9768302131069792E-02 a      1563     0    79     1     3
  8.3751456678395411E-02 a      1564     0    79     1     4
 -1.9420190641198584E-01 a      1565     0    79     1     5
  1.1752024632927646E-02 a      1566     0    79     1     6
  2.8615396461650089E-01 a      1567     0    79     1     7
 -1.0888514734519548E-02 a      1568     0    79     1     8
  1.8510775145193228E-01 a      1569     0    79     1     9
 -1.3569030511482547E-01 a      1570     0    79     1    10
  1.7875435479492152E-01 a      1571     0    79     1    11
  1.1048660278503766E-01 a      1572     0    79     1    12
 -1.3739579138061461E-01 a      1573     0    79     1    13
  3.9672643684276849E-03 a      1574     0    79     1    14
  1.2049098554030202E-01 a      1575     0    79     1    15
 -2.7930789952421715E-02 a      1576     0    79     1    16
 -1.3191471169541172E-01 a      1577     0    79     1    17
 -2.1977391158619988E-01 a      1578     0    79     1    18
  5.4538469544780990E-02 a      1579     0    79     1    19
  9.9685077550032947E-02 a      1580     0    79     1    20
 -4.1807914060358678E-02 a      1581     0    80     1     1
  2.5003389407286140E-02 a      1582     0    80     1     2
 -6.8742184717276264E-02 a      1583     0    80     1     3
  6.8842230044309560E-02 a      1584     0    80     1     4
 -4.9333218808542613E-02 a      1585     0    80     1     5
 -6.9948754724372925E-02 a      1586     0    80     1     6
  7.3358605010808209E-02 a      1587     0    80     1     7
 -9.2551260356251219E-02 a      1588     0    80     1     8
  2.2296552036805503E-01 a      1589     0    80     1     9
 -9.1389149880841639E-02 a      1590     0    80     1    10
  1.7798524512310418E-01 a      1591     0    80     1    11
  3.7134644178870815E-02 a      1592     0    80     1    12
  7.9077675684918011E-02 a      1593     0    80     1    13
 -1.3182877387039454E-01 a      1594     0    80     1    14
  1.8648077925012763E-01 a      1595     0    80     1    15
 -7.3257657600658303E-03 a      1596     0    80     1    16
  1.3218757337351514E-01 a      1597     0    80     1    17
  1.6792951513570169E-02 a      1598     0    80     1    18
 -1.7856122332859273E-01 a      1599     0    80     1    19
 -2.0329543350624121E-01 a      1600     0    80     1    20
  4.3626983121934276E-01 a      1601     0    81     1     1
 -5.3222861461266047E-01 a      1602     0    81     1     2
  4.2227890484615122E-01 a      1603     0    81     1     3
 -1.3402534446589046E-01 a      1604     0    81     1     4
 -3.2133269016285271E-01 a      1605     0    81     1     5
  2.9241520509720655E-02 a      1606     0    81     1     6
  3.6091431621342007E-01 a      1607     0    81     1     7
  9.8345688657415359E-02 a      1608     0    81     1     8
  5.4880179534045093E-01 a      1609     0    81     1     9
  3.7299431211266576E-01 a      1610     0    81     1    10
  1.3078389766202561E-01 a      1611     0    81     1    11
  1.6897128520917643E-02 a      1612     0    81     1    12
  3.4722160275876968E-01 a      1613     0    81     1    13
  7.6061240710491876E-02 a      1614     0    81     1    14
 -9.4041586064474117E-02 a      1615     0    81     1    15
 -1.6882932867082659E-01 a      1616     0    81     1    16
  2.6585726063331046E-02 a      1617     0    81     1    17
 -3.1369962132410956E-01 a      1618     0    81     1    18
 -1.0969771150451973E-01 a      1619     0    81     1    19
 -2.3614393693667982E-02 a      1620     0    81     1    20
 -1.2635500935628102E-01 a      1621     0    82     1     1
 -1.5539977248563119E-01 a      1622     0    82     1     2
  3.2363684860478725E-01 a      1623     0    82     1     3
