################################################################################
# Neural network connection values (weights and biases).
################################################################################
# Col  Name       Description
################################################################################
# 1    connection Neural network connection value.
# 2    t          Connection type (a = weight, b = bias).
# 3    index      Index enumerating weights.
# 4    l_s        Starting point layer (end point layer for biases).
# 5    n_s        Starting point neuron in starting layer (end point neuron for biases).
# 6    l_e        End point layer.
# 7    n_e        End point neuron in end layer.
################################################################################
#                      1 2         3     4     5     6     7
#             connection t     index   l_s   n_s   l_e   n_e
############################################################
 -5.7265301954688475E-01 a         1     0     1     1     1
 -3.6874092339028504E-02 a         2     0     1     1     2
 -2.5044538334400140E-01 a         3     0     1     1     3
 -3.4600850602379785E-01 a         4     0     1     1     4
  2.6269601790341779E-01 a         5     0     1     1     5
 -4.7846377431273755E-02 a         6     0     1     1     6
 -2.9295281804681939E-01 a         7     0     1     1     7
  7.0565085053840404E-02 a         8     0     1     1     8
  2.1899931147024929E-01 a         9     0     1     1     9
 -8.0644431140384193E-02 a        10     0     1     1    10
  1.9817976495471945E-01 a        11     0     1     1    11
 -8.0391932735471960E-01 a        12     0     1     1    12
  3.6637348459589092E-01 a        13     0     1     1    13
 -3.8002854938108777E-01 a        14     0     1     1    14
 -5.0505682884642586E-03 a        15     0     1     1    15
  8.6551673567590581E-02 a        16     0     1     1    16
  4.9444131447910121E-02 a        17     0     1     1    17
 -2.0614104538948044E-01 a        18     0     1     1    18
  3.7822308996769866E-01 a        19     0     1     1    19
  1.7824683341602870E-01 a        20     0     1     1    20
 -9.9520962131480914E-02 a        21     0     2     1     1
 -2.9439015666734969E-01 a        22     0     2     1     2
 -2.8477305895134691E-01 a        23     0     2     1     3
  2.5827263588641181E-02 a        24     0     2     1     4
  1.3930381355876051E-01 a        25     0     2     1     5
  2.3169014997785981E-01 a        26     0     2     1     6
  4.1279023506570656E-01 a        27     0     2     1     7
 -1.6761902729235043E-02 a        28     0     2     1     8
 -2.2279608031893347E-01 a        29     0     2     1     9
  5.8213719876961090E-01 a        30     0     2     1    10
  2.6313281850582775E-02 a        31     0     2     1    11
  3.7630752044293952E-01 a        32     0     2     1    12
  9.7252189372857734E-02 a        33     0     2     1    13
  2.0959783747876445E-01 a        34     0     2     1    14
  9.2430692182525295E-02 a        35     0     2     1    15
 -2.2762678800404536E-02 a        36     0     2     1    16
 -2.5349082129319384E-01 a        37     0     2     1    17
  1.9497258920250454E-01 a        38     0     2     1    18
 -2.2953504858178306E-01 a        39     0     2     1    19
 -9.8017936138799708E-02 a        40     0     2     1    20
  4.0904513512921936E-01 a        41     0     3     1     1
 -2.2927293364395582E-01 a        42     0     3     1     2
 -3.9327083354857340E-01 a        43     0     3     1     3
 -2.1707325374776312E-01 a        44     0     3     1     4
 -1.0245732655500243E-01 a        45     0     3     1     5
 -1.8847727904263317E-01 a        46     0     3     1     6
  9.0823250073022152E-02 a        47     0     3     1     7
  4.1864161632147207E-02 a        48     0     3     1     8
  2.4537259895255251E-01 a        49     0     3     1     9
  4.2030782290668145E-02 a        50     0     3     1    10
  1.2477075133535130E-01 a        51     0     3     1    11
 -2.6799486291735924E-02 a        52     0     3     1    12
  2.1802192236435064E-01 a        53     0     3     1    13
 -7.6414384063105065E-02 a        54     0     3     1    14
 -1.8395272218651537E-01 a        55     0     3     1    15
 -1.5716495742397346E-01 a        56     0     3     1    16
 -1.4870356935467782E-01 a        57     0     3     1    17
  3.3454788172320649E-01 a        58     0     3     1    18
 -3.0107657493974616E-01 a        59     0     3     1    19
  2.9634987263020585E-01 a        60     0     3     1    20
  2.5323822688583258E-01 a        61     0     4     1     1
 -9.2073503767924975E-02 a        62     0     4     1     2
  3.3463381085672553E-02 a        63     0     4     1     3
  8.2980896616219588E-02 a        64     0     4     1     4
  1.2923703406296438E-01 a        65     0     4     1     5
  8.1766813469102556E-02 a        66     0     4     1     6
 -3.9346489828260625E-02 a        67     0     4     1     7
  2.5580710213639524E-01 a        68     0     4     1     8
 -4.1066031624060688E-02 a        69     0     4     1     9
  1.6909289322863456E-02 a        70     0     4     1    10
  2.8694432371293421E-01 a        71     0     4     1    11
  1.6263645174357408E-01 a        72     0     4     1    12
 -1.1336639982689982E-01 a        73     0     4     1    13
  1.7108880080295916E-01 a        74     0     4     1    14
 -3.4175125679679358E-01 a        75     0     4     1    15
  2.6239359929051072E-02 a        76     0     4     1    16
  6.6986378267829855E-02 a        77     0     4     1    17
  2.5656479897376011E-01 a        78     0     4     1    18
 -1.7685259964195824E-01 a        79     0     4     1    19
 -6.7550000148416833E-02 a        80     0     4     1    20
 -9.5074170455691415E-02 a        81     0     5     1     1
  2.1251497398842634E-02 a        82     0     5     1     2
  1.0567298464172295E-01 a        83     0     5     1     3
  4.2837969880581209E-02 a        84     0     5     1     4
 -1.8963167311065350E-02 a        85     0     5     1     5
  8.3433158108656119E-02 a        86     0     5     1     6
 -2.8838749796130565E-02 a        87     0     5     1     7
  2.9420337767960686E-02 a        88     0     5     1     8
  9.7453531558342119E-03 a        89     0     5     1     9
 -1.1340132492352673E-01 a        90     0     5     1    10
 -7.9547377274402073E-02 a        91     0     5     1    11
 -3.1912644070476122E-02 a        92     0     5     1    12
  3.8456706424346940E-02 a        93     0     5     1    13
 -2.3532743371466141E-02 a        94     0     5     1    14
  1.7869719441622445E-01 a        95     0     5     1    15
 -8.4044214034348832E-03 a        96     0     5     1    16
 -3.7613947962089783E-01 a        97     0     5     1    17
 -9.8283363149550149E-02 a        98     0     5     1    18
 -1.1210932646689314E-01 a        99     0     5     1    19
  1.3713726287749217E-01 a       100     0     5     1    20
  3.0082824567868538E-01 a       101     0     6     1     1
  3.6624131977615210E-01 a       102     0     6     1     2
 -5.3458429381189865E-01 a       103     0     6     1     3
 -2.2058627351292520E-01 a       104     0     6     1     4
 -3.5513180742617632E-02 a       105     0     6     1     5
 -1.0843953058265483E-01 a       106     0     6     1     6
 -2.0194259029116582E-01 a       107     0     6     1     7
  5.0136165181768000E-02 a       108     0     6     1     8
  4.3006025265844516E-02 a       109     0     6     1     9
 -1.6138904595825745E-01 a       110     0     6     1    10
 -3.3939946502432228E-01 a       111     0     6     1    11
  1.1182189548302128E+00 a       112     0     6     1    12
 -8.5013347688332630E-01 a       113     0     6     1    13
  4.5917498684351556E-02 a       114     0     6     1    14
 -4.3614171882866576E-01 a       115     0     6     1    15
 -2.6180454184876750E-01 a       116     0     6     1    16
  7.4617805221801281E-01 a       117     0     6     1    17
 -1.4865556491501319E-01 a       118     0     6     1    18
 -4.2083171884618437E-01 a       119     0     6     1    19
 -2.8679831599493538E-01 a       120     0     6     1    20
  1.7084301066986951E-01 a       121     0     7     1     1
 -1.0979728628468554E-02 a       122     0     7     1     2
  1.3347872581814535E-01 a       123     0     7     1     3
 -2.0974439294591040E-02 a       124     0     7     1     4
  3.0481938663554514E-01 a       125     0     7     1     5
 -2.0507085725040153E-01 a       126     0     7     1     6
 -5.7124417922330095E-01 a       127     0     7     1     7
 -2.3958990043636111E-01 a       128     0     7     1     8
  1.5828281926318252E-01 a       129     0     7     1     9
 -1.1295662038532170E-01 a       130     0     7     1    10
  2.1410780903173765E-01 a       131     0     7     1    11
 -2.4880043412366323E-01 a       132     0     7     1    12
 -1.7597536216513723E-01 a       133     0     7     1    13
  2.6703015029593280E-01 a       134     0     7     1    14
  3.0945315925340572E-01 a       135     0     7     1    15
 -1.6344652248092176E-01 a       136     0     7     1    16
  4.9428068798255925E-02 a       137     0     7     1    17
  2.0273750198791718E-01 a       138     0     7     1    18
 -3.1783879411740573E-02 a       139     0     7     1    19
  9.6533120719412530E-02 a       140     0     7     1    20
 -3.6114813383702205E-01 a       141     0     8     1     1
 -3.5883165501417409E-02 a       142     0     8     1     2
  2.2234459464849160E-01 a       143     0     8     1     3
  1.3642993770363468E-01 a       144     0     8     1     4
 -2.6474193836621408E-02 a       145     0     8     1     5
  7.6216724397489277E-02 a       146     0     8     1     6
 -2.5497018705217905E-01 a       147     0     8     1     7
  1.0388818237163580E-01 a       148     0     8     1     8
 -4.8133192844965039E-01 a       149     0     8     1     9
  8.8746647309375336E-03 a       150     0     8     1    10
 -8.3939598931482548E-02 a       151     0     8     1    11
 -1.8783671669465812E-01 a       152     0     8     1    12
 -5.7028435199580430E-01 a       153     0     8     1    13
  1.5165076659956317E-01 a       154     0     8     1    14
  4.7147210805103629E-01 a       155     0     8     1    15
 -9.5436425869840386E-02 a       156     0     8     1    16
  1.7028814292262406E-01 a       157     0     8     1    17
 -3.3101477974625315E-01 a       158     0     8     1    18
 -3.5401998777507104E-02 a       159     0     8     1    19
 -7.8039222427537108E-02 a       160     0     8     1    20
 -1.8895737502078216E-01 a       161     0     9     1     1
  1.1053634703301934E-01 a       162     0     9     1     2
  1.6226485198245580E-01 a       163     0     9     1     3
 -1.7420111713545156E-01 a       164     0     9     1     4
 -2.0299960396110020E-01 a       165     0     9     1     5
 -6.5885975931491716E-02 a       166     0     9     1     6
  5.8996485158570214E-02 a       167     0     9     1     7
 -1.7003538483740829E-01 a       168     0     9     1     8
 -1.3059803840718673E-01 a       169     0     9     1     9
 -8.3191087366660338E-02 a       170     0     9     1    10
  1.0427140609089512E-01 a       171     0     9     1    11
 -1.0422146875458020E-01 a       172     0     9     1    12
  1.9090665140411807E-02 a       173     0     9     1    13
 -1.4557553950016197E-01 a       174     0     9     1    14
  6.2961591779306506E-02 a       175     0     9     1    15
 -1.3946142228437849E-01 a       176     0     9     1    16
  6.3882251963548228E-02 a       177     0     9     1    17
  1.1616038881197795E-01 a       178     0     9     1    18
  1.1443756934528157E-01 a       179     0     9     1    19
 -1.2614230003753226E-02 a       180     0     9     1    20
  2.5921080989358775E-01 a       181     0    10     1     1
  4.9266483167006180E-02 a       182     0    10     1     2
 -1.4410270550516413E-01 a       183     0    10     1     3
 -1.3634565864320582E-02 a       184     0    10     1     4
  7.7637010722051675E-02 a       185     0    10     1     5
  1.9022022044622250E-02 a       186     0    10     1     6
 -3.9354125993570063E-02 a       187     0    10     1     7
 -1.3284777723371738E-01 a       188     0    10     1     8
 -1.7428957180274279E-01 a       189     0    10     1     9
 -7.8317504437054222E-02 a       190     0    10     1    10
 -3.4054892559805316E-02 a       191     0    10     1    11
 -2.0014827533862963E-02 a       192     0    10     1    12
  2.5822300452859801E-02 a       193     0    10     1    13
  2.4302499080819731E-01 a       194     0    10     1    14
  1.6969215269131924E-02 a       195     0    10     1    15
  1.6112158274746682E-01 a       196     0    10     1    16
 -6.6984160268542614E-03 a       197     0    10     1    17
  1.0647665658500761E-01 a       198     0    10     1    18
 -7.6499721533075660E-02 a       199     0    10     1    19
 -9.5922324625075508E-02 a       200     0    10     1    20
 -4.1704268816861656E-01 a       201     0    11     1     1
  2.8810889698688568E-02 a       202     0    11     1     2
 -2.5893709843437841E-02 a       203     0    11     1     3
  6.3514977990571597E-02 a       204     0    11     1     4
  4.7029562777379003E-01 a       205     0    11     1     5
  5.6996922014098617E-02 a       206     0    11     1     6
  1.5294824074424812E-01 a       207     0    11     1     7
  5.2318933601117823E-01 a       208     0    11     1     8
  1.3717474288831916E-01 a       209     0    11     1     9
 -2.1452563241026698E-01 a       210     0    11     1    10
  6.6156550749360110E-02 a       211     0    11     1    11
 -4.5954784032905244E-01 a       212     0    11     1    12
  1.8631015306187493E-02 a       213     0    11     1    13
 -4.2956938586104865E-01 a       214     0    11     1    14
  1.4203816680503362E-01 a       215     0    11     1    15
 -7.4222122635204599E-02 a       216     0    11     1    16
  3.7603766982733711E-02 a       217     0    11     1    17
  3.4729922079417955E-02 a       218     0    11     1    18
  1.9226461056641281E-01 a       219     0    11     1    19
 -2.6572173902600055E-01 a       220     0    11     1    20
  4.8304928836589262E-01 a       221     0    12     1     1
 -3.1129814236684370E-03 a       222     0    12     1     2
  1.9969028196158489E-01 a       223     0    12     1     3
  2.5073078591458720E-01 a       224     0    12     1     4
 -2.6401494052711277E-01 a       225     0    12     1     5
  1.7374683811536445E-01 a       226     0    12     1     6
 -5.2045755471994670E-01 a       227     0    12     1     7
 -7.1924587002847429E-02 a       228     0    12     1     8
 -5.5129103331997015E-03 a       229     0    12     1     9
 -5.1582450922079348E-01 a       230     0    12     1    10
  7.0854940855559923E-03 a       231     0    12     1    11
 -3.8383768420305719E-01 a       232     0    12     1    12
 -3.3791983111597595E-01 a       233     0    12     1    13
  1.5479749780371968E-01 a       234     0    12     1    14
  2.0372483261265808E-02 a       235     0    12     1    15
  1.2500254214022824E-01 a       236     0    12     1    16
  6.8190820474215275E-01 a       237     0    12     1    17
  2.5883837486697669E-01 a       238     0    12     1    18
 -2.4411583060526001E-02 a       239     0    12     1    19
  4.9173609168937860E-01 a       240     0    12     1    20
 -1.9256687073835824E-02 a       241     0    13     1     1
  1.1194648406552063E-01 a       242     0    13     1     2
  2.1689111014701956E-01 a       243     0    13     1     3
  5.1161424449509163E-01 a       244     0    13     1     4
 -3.4939623261352193E-01 a       245     0    13     1     5
  9.2366821966218537E-02 a       246     0    13     1     6
 -1.0241600494851225E-03 a       247     0    13     1     7
  3.2202888463474083E-01 a       248     0    13     1     8
 -9.8815046048049318E-02 a       249     0    13     1     9
  7.0726400166006981E-02 a       250     0    13     1    10
  6.1803800581380578E-03 a       251     0    13     1    11
 -1.5646627797373971E-01 a       252     0    13     1    12
  3.7219407858484316E-01 a       253     0    13     1    13
  6.2232423593415021E-01 a       254     0    13     1    14
  8.4595274591079989E-02 a       255     0    13     1    15
  2.2864481655742422E-01 a       256     0    13     1    16
  5.7152697518915485E-01 a       257     0    13     1    17
  1.2034225782049514E-01 a       258     0    13     1    18
  3.1390676758992014E-01 a       259     0    13     1    19
 -1.7099840427124684E-02 a       260     0    13     1    20
  1.3425282373961264E-03 a       261     0    14     1     1
  1.1310202630380574E-01 a       262     0    14     1     2
 -1.6695502554899722E-01 a       263     0    14     1     3
 -4.4000990999533196E-01 a       264     0    14     1     4
 -7.9513148877125434E-02 a       265     0    14     1     5
  9.2764234459240300E-02 a       266     0    14     1     6
  4.7538862933934500E-02 a       267     0    14     1     7
 -2.3658525934602878E-01 a       268     0    14     1     8
  1.0845011185249975E-01 a       269     0    14     1     9
  2.0266881762436906E-02 a       270     0    14     1    10
 -9.9501465941245912E-02 a       271     0    14     1    11
 -1.8089381565979329E-01 a       272     0    14     1    12
 -4.7602731042163523E-03 a       273     0    14     1    13
  1.2425290332359298E-01 a       274     0    14     1    14
  2.5777684173061133E-01 a       275     0    14     1    15
  1.9296617340241341E-02 a       276     0    14     1    16
  2.3206808554680731E-02 a       277     0    14     1    17
 -2.0896792392728089E-01 a       278     0    14     1    18
  2.4821863675415951E-01 a       279     0    14     1    19
 -1.0772277363477989E-01 a       280     0    14     1    20
 -5.1891465341737594E-02 a       281     0    15     1     1
 -8.1672813273324069E-02 a       282     0    15     1     2
 -6.5246578274926123E-02 a       283     0    15     1     3
  1.4610180322205393E-02 a       284     0    15     1     4
  6.9154207690734215E-02 a       285     0    15     1     5
 -2.9246992807807317E-02 a       286     0    15     1     6
 -5.5852831923044514E-02 a       287     0    15     1     7
 -1.9143994269458706E-01 a       288     0    15     1     8
 -2.3098926547698301E-01 a       289     0    15     1     9
 -2.0246197025627626E-02 a       290     0    15     1    10
  6.0521539387051342E-02 a       291     0    15     1    11
  1.2075219320067725E-01 a       292     0    15     1    12
 -8.3558253521016937E-02 a       293     0    15     1    13
 -9.1228242751469915E-02 a       294     0    15     1    14
  1.4420105447290332E-01 a       295     0    15     1    15
 -1.5447527414089288E-01 a       296     0    15     1    16
  8.8334992383084482E-02 a       297     0    15     1    17
 -7.8275302632214341E-02 a       298     0    15     1    18
  2.9682234283271464E-01 a       299     0    15     1    19
  1.3294249169751051E-02 a       300     0    15     1    20
  1.1426227895516755E-01 a       301     0    16     1     1
  4.9216522440894750E-01 a       302     0    16     1     2
 -8.1478735841175665E-01 a       303     0    16     1     3
 -1.5104182392998025E-01 a       304     0    16     1     4
 -5.7020540526302610E-01 a       305     0    16     1     5
 -1.5646613960744329E-01 a       306     0    16     1     6
 -2.1309822708376010E-02 a       307     0    16     1     7
 -1.4778044582007457E-01 a       308     0    16     1     8
  2.1961754767855149E-01 a       309     0    16     1     9
  1.7862564842788718E-02 a       310     0    16     1    10
  2.2368094819993245E-02 a       311     0    16     1    11
  2.3924791054216496E-01 a       312     0    16     1    12
 -4.0453490102795675E-01 a       313     0    16     1    13
  4.6278941809842328E-01 a       314     0    16     1    14
 -1.1058313084996452E-01 a       315     0    16     1    15
  6.9430646651609737E-02 a       316     0    16     1    16
  5.7702341723226669E-01 a       317     0    16     1    17
 -5.6481754158015547E-02 a       318     0    16     1    18
 -1.7912667723248546E-01 a       319     0    16     1    19
 -2.2379817194815868E-01 a       320     0    16     1    20
  2.1775147000991041E-01 a       321     0    17     1     1
 -1.4508944194860360E-01 a       322     0    17     1     2
  2.5056532831623141E-01 a       323     0    17     1     3
  1.9582276394615816E-01 a       324     0    17     1     4
 -2.5007555501553282E-02 a       325     0    17     1     5
 -1.0550767971105412E-02 a       326     0    17     1     6
 -3.0075895129239000E-01 a       327     0    17     1     7
  4.3417567505641363E-01 a       328     0    17     1     8
  1.7803982034967311E-01 a       329     0    17     1     9
 -2.2231582898247046E-01 a       330     0    17     1    10
  3.0705502462311469E-02 a       331     0    17     1    11
 -1.5753669222651973E-01 a       332     0    17     1    12
  1.4828932711904139E-01 a       333     0    17     1    13
 -1.4515339259490383E-02 a       334     0    17     1    14
 -3.0340951801329713E-01 a       335     0    17     1    15
  3.4368257980116929E-01 a       336     0    17     1    16
 -1.7780947245020209E-01 a       337     0    17     1    17
 -2.5691797166973229E-01 a       338     0    17     1    18
 -1.8312668305664986E-01 a       339     0    17     1    19
  1.8945422003339410E-01 a       340     0    17     1    20
  4.0627092390906644E-01 a       341     0    18     1     1
 -6.4075337132684873E-01 a       342     0    18     1     2
  1.0188226308794018E-01 a       343     0    18     1     3
  3.9289689370580229E-02 a       344     0    18     1     4
 -4.2740636522853048E-01 a       345     0    18     1     5
 -1.2127614922425489E-01 a       346     0    18     1     6
 -4.9167650319280463E-02 a       347     0    18     1     7
  2.2015343326237302E-01 a       348     0    18     1     8
 -5.3469063282602036E-01 a       349     0    18     1     9
  1.9750508074760109E-01 a       350     0    18     1    10
  1.1976705789898927E-01 a       351     0    18     1    11
  1.0154476247872347E-01 a       352     0    18     1    12
 -4.5157157497069458E-02 a       353     0    18     1    13
 -1.2541126843226807E-01 a       354     0    18     1    14
 -2.9045058887681957E-01 a       355     0    18     1    15
 -3.4516137652734563E-01 a       356     0    18     1    16
  7.6731940469633386E-02 a       357     0    18     1    17
 -9.9411941472182089E-02 a       358     0    18     1    18
 -2.3330998668607000E-01 a       359     0    18     1    19
  2.5748442166217683E-01 a       360     0    18     1    20
 -1.7519402089293581E-01 a       361     0    19     1     1
  1.5053415027805572E-01 a       362     0    19     1     2
 -3.4112010076078836E-02 a       363     0    19     1     3
  1.9909375671476226E-01 a       364     0    19     1     4
 -1.4018859487309843E-01 a       365     0    19     1     5
  1.3095469039440658E-01 a       366     0    19     1     6
 -8.1161166448072877E-02 a       367     0    19     1     7
 -2.3301318364440249E-01 a       368     0    19     1     8
 -1.1049812725119181E-01 a       369     0    19     1     9
 -1.1087239805875820E-01 a       370     0    19     1    10
 -1.2895816840647159E-01 a       371     0    19     1    11
  8.2593192555628595E-02 a       372     0    19     1    12
 -6.0925589159183079E-02 a       373     0    19     1    13
  3.2700006276122856E-01 a       374     0    19     1    14
 -3.3885073501072033E-01 a       375     0    19     1    15
  2.6296808701772245E-01 a       376     0    19     1    16
  4.0710525822485577E-02 a       377     0    19     1    17
  6.5108095191227927E-02 a       378     0    19     1    18
  5.6759855903580021E-02 a       379     0    19     1    19
 -1.9539743337649362E-02 a       380     0    19     1    20
 -7.3340138909649244E-02 a       381     0    20     1     1
 -1.0440932999872357E-01 a       382     0    20     1     2
 -2.6758613340826426E-01 a       383     0    20     1     3
  9.0264418782378467E-02 a       384     0    20     1     4
  1.1394807827428420E-01 a       385     0    20     1     5
  1.2054809317086035E-01 a       386     0    20     1     6
  7.2915931725206981E-03 a       387     0    20     1     7
 -2.3879633302773370E-02 a       388     0    20     1     8
  1.2405044634280039E-01 a       389     0    20     1     9
  3.2653274656876778E-02 a       390     0    20     1    10
  5.3248084347596019E-03 a       391     0    20     1    11
 -6.7462651088974869E-03 a       392     0    20     1    12
 -1.9023662280568378E-02 a       393     0    20     1    13
  1.2437021186368174E-02 a       394     0    20     1    14
  9.0253406631682617E-02 a       395     0    20     1    15
 -1.1367205345672980E-02 a       396     0    20     1    16
  2.0001304304744606E-02 a       397     0    20     1    17
 -2.9826726837344827E-02 a       398     0    20     1    18
 -1.6521539441337244E-01 a       399     0    20     1    19
  1.3119140063780721E-01 a       400     0    20     1    20
 -3.8162446892317370E-01 a       401     0    21     1     1
  1.0453663362599923E-01 a       402     0    21     1     2
  7.5497614827275258E-03 a       403     0    21     1     3
 -1.6162119215525098E-01 a       404     0    21     1     4
  3.6634483453148242E-01 a       405     0    21     1     5
 -6.3736886801480513E-02 a       406     0    21     1     6
  4.8922594001744674E-02 a       407     0    21     1     7
  5.5012407011524700E-01 a       408     0    21     1     8
 -8.2568420998375427E-02 a       409     0    21     1     9
  9.0410393235351105E-02 a       410     0    21     1    10
 -1.8338517332281307E-01 a       411     0    21     1    11
 -3.5728216066410162E-01 a       412     0    21     1    12
 -4.2346446777462979E-02 a       413     0    21     1    13
 -2.8518571416431826E-01 a       414     0    21     1    14
 -6.2528842677037533E-01 a       415     0    21     1    15
  5.0953777470776979E-02 a       416     0    21     1    16
  2.8236665103509895E-01 a       417     0    21     1    17
  1.1406561650055294E-01 a       418     0    21     1    18
  1.6512707233860624E-01 a       419     0    21     1    19
 -2.9035573079994392E-01 a       420     0    21     1    20
  9.7949718485011751E-03 a       421     0    22     1     1
  2.0022451309281425E-01 a       422     0    22     1     2
  3.2268493505084139E-01 a       423     0    22     1     3
 -5.4769388821414078E-01 a       424     0    22     1     4
 -1.8896259741248872E-01 a       425     0    22     1     5
 -4.5524617991871746E-01 a       426     0    22     1     6
  2.3503256000741143E-01 a       427     0    22     1     7
  2.1539846177555183E-01 a       428     0    22     1     8
 -4.2768914589627594E-01 a       429     0    22     1     9
 -2.7448923434586175E-01 a       430     0    22     1    10
 -9.4702089724364544E-02 a       431     0    22     1    11
  2.5804567701980800E-02 a       432     0    22     1    12
  1.1131923691575776E-01 a       433     0    22     1    13
 -3.9373106863374041E-01 a       434     0    22     1    14
  2.4984781169700698E-01 a       435     0    22     1    15
  1.7701297785730066E-01 a       436     0    22     1    16
 -9.3850673414220787E-01 a       437     0    22     1    17
 -1.8231025832183984E-01 a       438     0    22     1    18
  2.8357093854485804E-01 a       439     0    22     1    19
 -8.5038741231756740E-02 a       440     0    22     1    20
  4.2725021729193714E-02 a       441     0    23     1     1
 -7.5797089571177534E-02 a       442     0    23     1     2
  2.8587367339040060E-01 a       443     0    23     1     3
  1.7955335635614780E-01 a       444     0    23     1     4
 -3.3761758588425353E-02 a       445     0    23     1     5
 -7.4300202882497279E-02 a       446     0    23     1     6
 -4.8007593761615597E-01 a       447     0    23     1     7
  2.4503317067785774E-01 a       448     0    23     1     8
 -2.3595684130734459E-01 a       449     0    23     1     9
 -1.1092011957429500E-01 a       450     0    23     1    10
 -1.8644793020004082E-02 a       451     0    23     1    11
  5.9105963300057358E-02 a       452     0    23     1    12
  3.0739232412029468E-02 a       453     0    23     1    13
  1.9316772205634011E-01 a       454     0    23     1    14
  4.8563650419885757E-01 a       455     0    23     1    15
  1.3429080677080187E-02 a       456     0    23     1    16
 -5.6544872282819258E-01 a       457     0    23     1    17
 -7.3186351718246806E-02 a       458     0    23     1    18
 -5.8173872303201653E-02 a       459     0    23     1    19
  3.6671100111726285E-01 a       460     0    23     1    20
  3.6099012521905262E-02 a       461     0    24     1     1
  7.5275105252687546E-02 a       462     0    24     1     2
 -3.9598376147189328E-02 a       463     0    24     1     3
 -1.4346718215220483E-01 a       464     0    24     1     4
 -6.4608737625104593E-02 a       465     0    24     1     5
  1.7031368497620269E-01 a       466     0    24     1     6
  2.5750784862137097E-02 a       467     0    24     1     7
  1.5012545257116056E-01 a       468     0    24     1     8
 -6.3012002162129932E-02 a       469     0    24     1     9
  1.8693212878078305E-02 a       470     0    24     1    10
  1.5184785282658755E-01 a       471     0    24     1    11
  7.3607535535954116E-02 a       472     0    24     1    12
  7.6267153502024461E-03 a       473     0    24     1    13
  1.1916896996017150E-02 a       474     0    24     1    14
  5.8215024057097896E-03 a       475     0    24     1    15
  1.1695691876804906E-02 a       476     0    24     1    16
  8.8644822417993721E-03 a       477     0    24     1    17
  2.1811423842415127E-02 a       478     0    24     1    18
 -4.9426805902176657E-02 a       479     0    24     1    19
 -1.8567841673379476E-01 a       480     0    24     1    20
 -6.0731986328206734E-02 a       481     0    25     1     1
 -9.7749490170264602E-02 a       482     0    25     1     2
 -1.0797209013007405E-02 a       483     0    25     1     3
  2.3732582149643702E-02 a       484     0    25     1     4
  2.1416624068102191E-01 a       485     0    25     1     5
  3.8287904337291630E-02 a       486     0    25     1     6
 -1.1844158090067504E-01 a       487     0    25     1     7
 -2.2243405396152452E-01 a       488     0    25     1     8
 -5.3724627186259831E-02 a       489     0    25     1     9
 -2.3759533845223529E-02 a       490     0    25     1    10
 -3.9942452570715187E-02 a       491     0    25     1    11
 -6.5846651050438451E-02 a       492     0    25     1    12
 -6.8268865797435865E-02 a       493     0    25     1    13
  1.3315072417318063E-01 a       494     0    25     1    14
 -8.5786566902073633E-02 a       495     0    25     1    15
 -2.0567326168786879E-01 a       496     0    25     1    16
 -1.7363977287520457E-01 a       497     0    25     1    17
 -8.0144358040003985E-02 a       498     0    25     1    18
  1.1930030437234378E-01 a       499     0    25     1    19
  6.2391530339660724E-02 a       500     0    25     1    20
 -2.1558366752823530E-01 a       501     0    26     1     1
  5.9081061862273154E-01 a       502     0    26     1     2
 -5.9489132069986328E-01 a       503     0    26     1     3
  1.3536757522218618E-01 a       504     0    26     1     4
 -3.7187815480277592E-01 a       505     0    26     1     5
  3.6391788043051307E-02 a       506     0    26     1     6
 -6.5280306366379021E-02 a       507     0    26     1     7
 -6.4143852683626615E-02 a       508     0    26     1     8
  3.5744398947288725E-01 a       509     0    26     1     9
  2.5666331662163838E-01 a       510     0    26     1    10
 -1.2568871413334387E-01 a       511     0    26     1    11
  1.3722664713982591E-01 a       512     0    26     1    12
 -1.8589237767233996E-01 a       513     0    26     1    13
  1.8839718141422118E-01 a       514     0    26     1    14
 -4.6007614605987129E-01 a       515     0    26     1    15
  1.6615635890117303E-01 a       516     0    26     1    16
 -2.3736096112764150E-02 a       517     0    26     1    17
 -1.5224747547818773E-01 a       518     0    26     1    18
 -3.8268469700577440E-01 a       519     0    26     1    19
 -9.7682784997317890E-02 a       520     0    26     1    20
  2.9602046758407580E-01 a       521     0    27     1     1
 -1.7516956705402684E-01 a       522     0    27     1     2
  6.8398746972407637E-02 a       523     0    27     1     3
  1.8637794805510385E-01 a       524     0    27     1     4
  4.0041114232033321E-03 a       525     0    27     1     5
  2.3262479470614850E-01 a       526     0    27     1     6
 -3.3240665923925483E-01 a       527     0    27     1     7
 -1.5736323081064851E-01 a       528     0    27     1     8
  1.1341062131099021E-01 a       529     0    27     1     9
 -1.8646738572362334E-02 a       530     0    27     1    10
  2.4964666450503860E-02 a       531     0    27     1    11
 -3.3579089080259555E-02 a       532     0    27     1    12
 -1.1363173901140930E-01 a       533     0    27     1    13
  2.3896223993491675E-01 a       534     0    27     1    14
  2.6019324645700628E-02 a       535     0    27     1    15
 -1.0086789638029044E-01 a       536     0    27     1    16
 -3.3908575518734752E-01 a       537     0    27     1    17
  2.6496183270962764E-01 a       538     0    27     1    18
  2.4498063018731026E-01 a       539     0    27     1    19
 -1.8505625927471587E-03 a       540     0    27     1    20
  3.5617721626727111E-01 a       541     0    28     1     1
 -5.4864376512324287E-01 a       542     0    28     1     2
  4.5889150539099482E-01 a       543     0    28     1     3
 -4.9098475151832022E-02 a       544     0    28     1     4
  9.1750837120004730E-02 a       545     0    28     1     5
 -1.7193596681711076E-01 a       546     0    28     1     6
 -1.4964087730966871E-01 a       547     0    28     1     7
  3.5005901917261345E-01 a       548     0    28     1     8
 -5.7584780005310121E-01 a       549     0    28     1     9
 -4.0070133168748345E-01 a       550     0    28     1    10
  2.7576804944355376E-01 a       551     0    28     1    11
  5.4680459997704343E-02 a       552     0    28     1    12
  1.3347590320223984E-01 a       553     0    28     1    13
 -6.0952770002553044E-02 a       554     0    28     1    14
  5.6864296135618353E-01 a       555     0    28     1    15
 -3.0774960698473147E-01 a       556     0    28     1    16
 -4.0847434613944472E-01 a       557     0    28     1    17
  3.1253334967597593E-02 a       558     0    28     1    18
  6.2908650909288300E-01 a       559     0    28     1    19
  1.9996969271614715E-01 a       560     0    28     1    20
 -7.9122946830334120E-02 a       561     0    29     1     1
  1.5462970156955144E-01 a       562     0    29     1     2
 -3.5963457486774653E-01 a       563     0    29     1     3
  1.2803598273781207E-02 a       564     0    29     1     4
  1.7723457181634167E-01 a       565     0    29     1     5
 -2.0009599240207940E-01 a       566     0    29     1     6
 -2.3354720918445962E-01 a       567     0    29     1     7
 -2.9974211532204614E-01 a       568     0    29     1     8
 -2.2363668907381082E-01 a       569     0    29     1     9
  1.2504054627724298E-01 a       570     0    29     1    10
 -1.4018607746590750E-01 a       571     0    29     1    11
 -7.9497311335104154E-02 a       572     0    29     1    12
 -1.3661672928260346E-01 a       573     0    29     1    13
  5.0053795731138814E-02 a       574     0    29     1    14
  8.2460669459289301E-02 a       575     0    29     1    15
 -1.0588799531502713E-02 a       576     0    29     1    16
 -2.9405537639961943E-01 a       577     0    29     1    17
 -6.4092845244222416E-02 a       578     0    29     1    18
 -5.3474329959877470E-02 a       579     0    29     1    19
  1.1917341627648594E-01 a       580     0    29     1    20
  2.4019480369104557E-01 a       581     0    30     1     1
 -2.0966257253887205E-01 a       582     0    30     1     2
  6.2753694617260811E-02 a       583     0    30     1     3
 -4.9077102920315564E-02 a       584     0    30     1     4
 -1.7695544039110840E-02 a       585     0    30     1     5
 -1.5634947824461029E-01 a       586     0    30     1     6
 -8.3613008619848037E-02 a       587     0    30     1     7
 -4.3077363197940336E-03 a       588     0    30     1     8
 -3.3643261737891528E-01 a       589     0    30     1     9
  4.5207608382821632E-02 a       590     0    30     1    10
  1.4197261333167879E-01 a       591     0    30     1    11
 -4.2451121666424063E-02 a       592     0    30     1    12
  1.4032167706012197E-03 a       593     0    30     1    13
 -9.5056780563826909E-02 a       594     0    30     1    14
  3.5365148235727700E-01 a       595     0    30     1    15
 -7.4671254557339792E-02 a       596     0    30     1    16
 -4.1569435637194085E-01 a       597     0    30     1    17
  6.5247150974438367E-02 a       598     0    30     1    18
  2.2980053742152293E-01 a       599     0    30     1    19
  1.0347784743389962E-01 a       600     0    30     1    20
 -1.2731789039539754E-01 a       601     0    31     1     1
  8.4721209271961403E-02 a       602     0    31     1     2
  1.2075161038155294E-01 a       603     0    31     1     3
 -2.4787032987387825E-02 a       604     0    31     1     4
 -1.5391154369109095E-01 a       605     0    31     1     5
  1.7658698625786107E-02 a       606     0    31     1     6
  6.4964716216699026E-02 a       607     0    31     1     7
 -1.9909685656687590E-02 a       608     0    31     1     8
 -3.8425120406177199E-01 a       609     0    31     1     9
  1.5277568562850871E-01 a       610     0    31     1    10
 -3.7227515728551252E-03 a       611     0    31     1    11
 -8.2044893363056717E-02 a       612     0    31     1    12
 -5.9854129094335596E-03 a       613     0    31     1    13
  6.8818987838899462E-02 a       614     0    31     1    14
 -3.1404937186137398E-02 a       615     0    31     1    15
 -2.4407414979368186E-02 a       616     0    31     1    16
  3.7699629354924047E-01 a       617     0    31     1    17
  2.0651350926200229E-01 a       618     0    31     1    18
 -1.0763328156389153E-01 a       619     0    31     1    19
 -1.9367487738725839E-01 a       620     0    31     1    20
 -1.6740606224961785E-01 a       621     0    32     1     1
  9.6449764130667470E-02 a       622     0    32     1     2
  2.3629695413077738E-02 a       623     0    32     1     3
 -8.6371910977599570E-03 a       624     0    32     1     4
 -1.7564993665147316E-01 a       625     0    32     1     5
 -2.2305549454871532E-01 a       626     0    32     1     6
 -8.6123788375280352E-03 a       627     0    32     1     7
  3.5657866698850182E-01 a       628     0    32     1     8
  1.3348991158630030E-01 a       629     0    32     1     9
  3.7848662603947725E-01 a       630     0    32     1    10
 -1.1700000524887356E-01 a       631     0    32     1    11
 -1.8924803895697639E-01 a       632     0    32     1    12
 -9.0569863112709911E-03 a       633     0    32     1    13
 -1.3830170560452984E-01 a       634     0    32     1    14
 -7.7693511802515870E-03 a       635     0    32     1    15
  1.5296354522746931E-02 a       636     0    32     1    16
  1.8336980116729165E-01 a       637     0    32     1    17
 -8.5444578283906517E-02 a       638     0    32     1    18
 -4.8991358455270151E-01 a       639     0    32     1    19
  9.9323487650455136E-02 a       640     0    32     1    20
  3.5851310133310388E-01 a       641     0    33     1     1
 -1.4204281580573458E-01 a       642     0    33     1     2
  2.7039036965085961E-01 a       643     0    33     1     3
 -1.9146474295318625E-01 a       644     0    33     1     4
  3.4571842345343100E-02 a       645     0    33     1     5
 -3.8923157441738021E-01 a       646     0    33     1     6
 -1.6387679206083045E-01 a       647     0    33     1     7
  5.6531656967475541E-01 a       648     0    33     1     8
 -4.4329363776867532E-02 a       649     0    33     1     9
 -9.8427656234451131E-03 a       650     0    33     1    10
  1.0290600384044027E-01 a       651     0    33     1    11
 -7.1383685776508915E-02 a       652     0    33     1    12
  7.1141193346305571E-03 a       653     0    33     1    13
 -1.3147289398860199E-01 a       654     0    33     1    14
  1.7468472808818875E-01 a       655     0    33     1    15
 -1.7046283526727025E-02 a       656     0    33     1    16
 -3.4029514305795094E-01 a       657     0    33     1    17
  1.5083776058711101E-01 a       658     0    33     1    18
  3.5767119858628287E-02 a       659     0    33     1    19
  2.2116600578223686E-01 a       660     0    33     1    20
 -1.9166614234060900E-01 a       661     0    34     1     1
  3.7029291413867960E-02 a       662     0    34     1     2
  8.0768364714971050E-02 a       663     0    34     1     3
  1.6623567306297455E-02 a       664     0    34     1     4
 -1.1655520596815791E-01 a       665     0    34     1     5
  3.9978095065901498E-01 a       666     0    34     1     6
  1.1749777247370863E-01 a       667     0    34     1     7
 -2.1288540940919345E-01 a       668     0    34     1     8
  7.5140695578585548E-02 a       669     0    34     1     9
 -2.2155950948941147E-01 a       670     0    34     1    10
 -1.8573557200555016E-01 a       671     0    34     1    11
 -3.1381008457805719E-02 a       672     0    34     1    12
  5.6043107995606037E-02 a       673     0    34     1    13
  1.4504945576878484E-01 a       674     0    34     1    14
 -6.0334713433989474E-02 a       675     0    34     1    15
  1.1641068845073765E-01 a       676     0    34     1    16
 -3.8481197372102288E-01 a       677     0    34     1    17
 -1.6403176848432324E-01 a       678     0    34     1    18
  1.2065953058700059E-01 a       679     0    34     1    19
 -6.6553793751368842E-02 a       680     0    34     1    20
 -4.1597500095343652E-02 a       681     0    35     1     1
  9.7540507025222351E-02 a       682     0    35     1     2
  7.8636697716603296E-02 a       683     0    35     1     3
  6.7296929624457045E-03 a       684     0    35     1     4
  9.4640000680159195E-03 a       685     0    35     1     5
 -1.2671774131692906E-01 a       686     0    35     1     6
 -8.2022342595164444E-02 a       687     0    35     1     7
  3.4274869645042660E-01 a       688     0    35     1     8
 -2.2115499559078527E-02 a       689     0    35     1     9
 -2.0077779903669118E-01 a       690     0    35     1    10
  5.4839224509081040E-02 a       691     0    35     1    11
 -1.4799159180745723E-02 a       692     0    35     1    12
 -5.8714560215339856E-02 a       693     0    35     1    13
 -1.4671290342463056E-01 a       694     0    35     1    14
  1.3869413724688917E-01 a       695     0    35     1    15
 -2.1421011500664502E-01 a       696     0    35     1    16
  2.2201008959319332E-01 a       697     0    35     1    17
  6.8699087243878160E-02 a       698     0    35     1    18
  4.6305540689452779E-02 a       699     0    35     1    19
 -3.2453987991579039E-04 a       700     0    35     1    20
 -3.8312331555868030E-02 a       701     0    36     1     1
  4.3589124720783723E-01 a       702     0    36     1     2
 -8.8526634017616623E-02 a       703     0    36     1     3
  6.8744650507988891E-02 a       704     0    36     1     4
 -7.6270489058003946E-02 a       705     0    36     1     5
  6.1547078709287890E-02 a       706     0    36     1     6
 -1.5986260659131613E-01 a       707     0    36     1     7
 -1.4841887878208576E-01 a       708     0    36     1     8
  4.3456627954736784E-03 a       709     0    36     1     9
  4.9039410692064113E-02 a       710     0    36     1    10
 -3.2506697773257170E-01 a       711     0    36     1    11
  1.5151423300840799E-01 a       712     0    36     1    12
 -4.0524473216909558E-02 a       713     0    36     1    13
 -6.2337583881527277E-02 a       714     0    36     1    14
 -1.7308137300222387E-01 a       715     0    36     1    15
  2.0878235751918306E-01 a       716     0    36     1    16
 -4.7953336544882469E-01 a       717     0    36     1    17
 -1.6393812652873072E-01 a       718     0    36     1    18
 -1.3914447588178142E-01 a       719     0    36     1    19
 -7.0925257932073715E-02 a       720     0    36     1    20
  9.0604583200241604E-02 a       721     0    37     1     1
  4.5930337559341748E-02 a       722     0    37     1     2
 -2.3181258267944364E-02 a       723     0    37     1     3
 -1.6795612619656727E-01 a       724     0    37     1     4
  1.8890118845212878E-01 a       725     0    37     1     5
 -2.5178091446483564E-01 a       726     0    37     1     6
 -3.9778360980601071E-02 a       727     0    37     1     7
  5.0056208594312590E-01 a       728     0    37     1     8
 -3.4806163323622469E-01 a       729     0    37     1     9
 -4.5822741545149825E-01 a       730     0    37     1    10
  1.1514364859105915E-01 a       731     0    37     1    11
  1.3946072594220416E-01 a       732     0    37     1    12
  1.8575699120871631E-03 a       733     0    37     1    13
 -1.2923860525103456E-01 a       734     0    37     1    14
 -1.6351670501915641E-01 a       735     0    37     1    15
 -1.6835895072461027E-01 a       736     0    37     1    16
 -4.4942050465710914E-01 a       737     0    37     1    17
  2.3722288411679004E-02 a       738     0    37     1    18
  5.0563664343918246E-01 a       739     0    37     1    19
  7.7089476707253692E-03 a       740     0    37     1    20
  2.1818518518870123E-01 a       741     0    38     1     1
 -3.5534668621950105E-01 a       742     0    38     1     2
  2.1450658837358649E-01 a       743     0    38     1     3
  1.7230867685324547E-01 a       744     0    38     1     4
 -5.1685910485664815E-02 a       745     0    38     1     5
 -1.4113753197041778E-01 a       746     0    38     1     6
 -3.2723716786457913E-01 a       747     0    38     1     7
  7.4183814931946601E-01 a       748     0    38     1     8
 -6.1311424614681953E-01 a       749     0    38     1     9
 -2.1086428928315548E-01 a       750     0    38     1    10
  2.1710632147313166E-01 a       751     0    38     1    11
 -4.3290649634858978E-02 a       752     0    38     1    12
  8.4904299322084056E-02 a       753     0    38     1    13
  1.4150370569308329E-01 a       754     0    38     1    14
  2.6250233475938978E-01 a       755     0    38     1    15
 -5.0508528684854490E-02 a       756     0    38     1    16
 -4.7692600718643968E-01 a       757     0    38     1    17
  8.2713336234401039E-02 a       758     0    38     1    18
  4.3716574035486327E-01 a       759     0    38     1    19
  4.7524527900795845E-02 a       760     0    38     1    20
  1.8697710046824779E-02 a       761     0    39     1     1
  4.5993141832326015E-02 a       762     0    39     1     2
 -1.8217165050217857E-01 a       763     0    39     1     3
  6.5739926417988245E-02 a       764     0    39     1     4
  1.5226818454080848E-01 a       765     0    39     1     5
 -1.5052906151955467E-01 a       766     0    39     1     6
 -7.6070114559258550E-02 a       767     0    39     1     7
 -5.3404012581987131E-03 a       768     0    39     1     8
  2.5375473280065005E-02 a       769     0    39     1     9
  3.4040901924256922E-01 a       770     0    39     1    10
 -6.4108842044998823E-02 a       771     0    39     1    11
  8.6718711953659183E-02 a       772     0    39     1    12
 -5.9750219049974844E-02 a       773     0    39     1    13
 -7.7148680322916705E-02 a       774     0    39     1    14
 -2.4102170399806017E-01 a       775     0    39     1    15
  1.3749300003232705E-02 a       776     0    39     1    16
 -2.8673668964331578E-01 a       777     0    39     1    17
  4.2170129451228860E-02 a       778     0    39     1    18
 -2.7168131102848170E-01 a       779     0    39     1    19
 -5.7414791320596612E-02 a       780     0    39     1    20
  1.2244280389289948E-01 a       781     0    40     1     1
 -1.9205684503541406E-01 a       782     0    40     1     2
  9.4261348792471292E-02 a       783     0    40     1     3
 -3.8925567461788213E-02 a       784     0    40     1     4
  1.0032029453704729E-01 a       785     0    40     1     5
 -1.4620057308263532E-01 a       786     0    40     1     6
  1.2108203752629370E-02 a       787     0    40     1     7
  3.6348435736024226E-01 a       788     0    40     1     8
  1.3778933672469070E-02 a       789     0    40     1     9
 -7.7524612498459777E-03 a       790     0    40     1    10
  8.3184359905877664E-02 a       791     0    40     1    11
  1.5483956412510400E-01 a       792     0    40     1    12
 -4.3683070418545243E-03 a       793     0    40     1    13
 -1.8970209435678728E-01 a       794     0    40     1    14
  6.2375735898291845E-02 a       795     0    40     1    15
 -8.3171195057249209E-02 a       796     0    40     1    16
  2.1584882011601766E-01 a       797     0    40     1    17
  1.1606164113360858E-02 a       798     0    40     1    18
  3.8278897897237762E-02 a       799     0    40     1    19
  5.1542318719522903E-02 a       800     0    40     1    20
 -1.5245705604778401E-01 a       801     0    41     1     1
 -1.0958461173324947E-01 a       802     0    41     1     2
 -1.0778309879458593E-01 a       803     0    41     1     3
 -1.2952043688054589E-02 a       804     0    41     1     4
 -3.4939746849424608E-02 a       805     0    41     1     5
  5.1105931972538078E-02 a       806     0    41     1     6
  1.6884621920343135E-01 a       807     0    41     1     7
 -2.6188371297488799E-01 a       808     0    41     1     8
  2.2055611256332242E-01 a       809     0    41     1     9
  4.7434400979915546E-02 a       810     0    41     1    10
  2.0974677194138924E-01 a       811     0    41     1    11
 -1.6316917380272425E-01 a       812     0    41     1    12
 -1.4198063954588840E-03 a       813     0    41     1    13
  9.2580345685670917E-02 a       814     0    41     1    14
 -8.5951200560114613E-02 a       815     0    41     1    15
 -1.0375375995866240E-01 a       816     0    41     1    16
 -1.7718226916547175E-01 a       817     0    41     1    17
  8.0024058452410327E-02 a       818     0    41     1    18
 -1.2358567475476209E-01 a       819     0    41     1    19
 -5.2470165895528526E-02 a       820     0    41     1    20
  4.9989680262737153E-02 a       821     0    42     1     1
 -7.4499553892122636E-02 a       822     0    42     1     2
  3.2278887072742690E-01 a       823     0    42     1     3
 -1.3061926240371949E-01 a       824     0    42     1     4
  2.2258721472922283E-02 a       825     0    42     1     5
 -6.5195060186604495E-02 a       826     0    42     1     6
 -1.9580866517736420E-01 a       827     0    42     1     7
  1.5229611490964270E-01 a       828     0    42     1     8
 -7.4638173692535351E-02 a       829     0    42     1     9
 -5.8015325588730605E-02 a       830     0    42     1    10
  1.1977158304636724E-01 a       831     0    42     1    11
  1.6173908647106575E-01 a       832     0    42     1    12
 -1.9009839125484294E-02 a       833     0    42     1    13
  5.6138968046531706E-03 a       834     0    42     1    14
  5.4738282600839898E-02 a       835     0    42     1    15
  4.6881444175664380E-02 a       836     0    42     1    16
 -7.5401076779447795E-02 a       837     0    42     1    17
  1.6326672165897707E-01 a       838     0    42     1    18
  2.9468998384610445E-01 a       839     0    42     1    19
  1.3454109881637049E-02 a       840     0    42     1    20
  2.6783754262136056E-01 a       841     0    43     1     1
  8.8982452280182867E-02 a       842     0    43     1     2
  1.7670917472751280E-01 a       843     0    43     1     3
 -2.1783754205694869E-01 a       844     0    43     1     4
 -1.4537219635651000E-01 a       845     0    43     1     5
 -4.4241921780994808E-01 a       846     0    43     1     6
  4.3695734661028947E-02 a       847     0    43     1     7
  5.4218946175037908E-01 a       848     0    43     1     8
 -1.0175439215557022E-02 a       849     0    43     1     9
  2.3429975995661734E-01 a       850     0    43     1    10
  1.0281717077864407E-01 a       851     0    43     1    11
 -5.6630700865419735E-02 a       852     0    43     1    12
 -4.6697098612306732E-02 a       853     0    43     1    13
 -2.1755120597922434E-01 a       854     0    43     1    14
  9.6484792763329968E-02 a       855     0    43     1    15
 -1.7198489919149698E-01 a       856     0    43     1    16
  2.7406484978961648E-01 a       857     0    43     1    17
  2.4221159443938337E-01 a       858     0    43     1    18
 -1.8922628922053004E-02 a       859     0    43     1    19
  3.9016851088164300E-02 a       860     0    43     1    20
 -2.1799179400609461E-02 a       861     0    44     1     1
  5.8091632456267819E-02 a       862     0    44     1     2
 -2.3730931443144221E-01 a       863     0    44     1     3
 -1.5740074650936994E-01 a       864     0    44     1     4
  1.9995786817408767E-01 a       865     0    44     1     5
  1.6106224147902110E-01 a       866     0    44     1     6
  4.1157070485653549E-02 a       867     0    44     1     7
 -3.9541500405938490E-01 a       868     0    44     1     8
 -1.4125972674292822E-01 a       869     0    44     1     9
 -2.7129659050939153E-01 a       870     0    44     1    10
 -1.0434236765327808E-01 a       871     0    44     1    11
 -7.7384303330714263E-02 a       872     0    44     1    12
  3.1741139690511580E-02 a       873     0    44     1    13
  2.0178431606469421E-01 a       874     0    44     1    14
  4.8369888300028685E-01 a       875     0    44     1    15
  5.7592114472847636E-02 a       876     0    44     1    16
 -5.6160811311785591E-04 a       877     0    44     1    17
 -2.0109931645942897E-01 a       878     0    44     1    18
  1.8584520314866934E-01 a       879     0    44     1    19
  1.4598176969873652E-01 a       880     0    44     1    20
 -2.4718246518979362E-04 a       881     0    45     1     1
  7.9587890107322187E-02 a       882     0    45     1     2
 -1.5951112352180796E-01 a       883     0    45     1     3
 -1.3039857394229507E-02 a       884     0    45     1     4
  2.9927681857982717E-02 a       885     0    45     1     5
  1.4606020870417015E-02 a       886     0    45     1     6
  1.7754133929001870E-02 a       887     0    45     1     7
  7.3251387570221149E-02 a       888     0    45     1     8
  7.2036133447746328E-02 a       889     0    45     1     9
  1.9596176204850818E-01 a       890     0    45     1    10
 -1.8326462019944315E-01 a       891     0    45     1    11
 -9.6879648012849456E-02 a       892     0    45     1    12
 -4.8072114810304260E-02 a       893     0    45     1    13
  3.0147516879378330E-02 a       894     0    45     1    14
  5.7676825950816100E-02 a       895     0    45     1    15
 -2.2823738562231168E-02 a       896     0    45     1    16
  4.0734164639210951E-01 a       897     0    45     1    17
 -1.0758321653571897E-02 a       898     0    45     1    18
 -1.8010371517982129E-01 a       899     0    45     1    19
 -1.8502340689723899E-02 a       900     0    45     1    20
  1.8126145099952218E-01 a       901     0    46     1     1
  2.3614410178267312E-01 a       902     0    46     1     2
  1.1914939348783646E-01 a       903     0    46     1     3
 -2.0535183168329724E-02 a       904     0    46     1     4
 -1.3435884673976028E-01 a       905     0    46     1     5
 -1.2368706824979724E-01 a       906     0    46     1     6
 -1.7751948977817206E-01 a       907     0    46     1     7
  1.8374019286171955E-01 a       908     0    46     1     8
 -5.6232729827081063E-01 a       909     0    46     1     9
  5.3076553127814168E-02 a       910     0    46     1    10
 -1.5622381598496851E-01 a       911     0    46     1    11
  2.4818031224233764E-02 a       912     0    46     1    12
 -2.0390377073898243E-02 a       913     0    46     1    13
  7.7041366165729866E-03 a       914     0    46     1    14
  3.0343797897055175E-01 a       915     0    46     1    15
  3.7327535711542251E-02 a       916     0    46     1    16
  6.1979024476507716E-02 a       917     0    46     1    17
  2.7393797591605280E-02 a       918     0    46     1    18
  7.0354772984195985E-02 a       919     0    46     1    19
 -4.6481640949576578E-03 a       920     0    46     1    20
 -1.3940025927656126E-02 a       921     0    47     1     1
 -3.3579827724196813E-02 a       922     0    47     1     2
  8.3377040006148373E-02 a       923     0    47     1     3
  1.2772856438045188E-01 a       924     0    47     1     4
 -1.9153570025224798E-01 a       925     0    47     1     5
 -7.3627442210783709E-03 a       926     0    47     1     6
 -7.0633060985697507E-02 a       927     0    47     1     7
  3.0480258098285213E-03 a       928     0    47     1     8
 -1.6249923090623794E-01 a       929     0    47     1     9
  2.1242595193860397E-01 a       930     0    47     1    10
 -3.4513731793907577E-02 a       931     0    47     1    11
 -1.8244985043950940E-01 a       932     0    47     1    12
 -2.0369949609224270E-02 a       933     0    47     1    13
  7.0474426541680499E-02 a       934     0    47     1    14
 -1.0695939965728851E-01 a       935     0    47     1    15
 -2.6596715569235669E-02 a       936     0    47     1    16
  1.2574069720895109E-02 a       937     0    47     1    17
 -4.4995415379020867E-03 a       938     0    47     1    18
 -5.5821902284371359E-02 a       939     0    47     1    19
 -1.0503091585991836E-02 a       940     0    47     1    20
  4.1096232922807861E-02 a       941     0    48     1     1
 -2.1500849484648513E-01 a       942     0    48     1     2
  2.0132073884454998E-01 a       943     0    48     1     3
  1.2946375615832190E-01 a       944     0    48     1     4
 -6.5017606184087376E-02 a       945     0    48     1     5
  2.2950399013803375E-02 a       946     0    48     1     6
 -3.0682494791015202E-01 a       947     0    48     1     7
  2.9579259152177040E-01 a       948     0    48     1     8
 -3.5087227124722364E-01 a       949     0    48     1     9
 -2.0135600454480249E-01 a       950     0    48     1    10
  6.1705220944206857E-02 a       951     0    48     1    11
 -3.6025761756806336E-02 a       952     0    48     1    12
  4.8060389371508250E-02 a       953     0    48     1    13
  1.6322441256115358E-01 a       954     0    48     1    14
 -1.8784084877194357E-01 a       955     0    48     1    15
  1.1576109401221070E-01 a       956     0    48     1    16
 -5.8873049819876955E-01 a       957     0    48     1    17
  1.3554219063115743E-02 a       958     0    48     1    18
  2.3132988467126928E-01 a       959     0    48     1    19
  8.6553017388169159E-02 a       960     0    48     1    20
 -9.9131005332070088E-02 a       961     0    49     1     1
 -1.6799767113443671E-02 a       962     0    49     1     2
  8.1384532339338206E-02 a       963     0    49     1     3
  1.0185713665992924E-01 a       964     0    49     1     4
 -7.4448425075665098E-02 a       965     0    49     1     5
  6.6315989223715455E-02 a       966     0    49     1     6
  4.5638880408944628E-02 a       967     0    49     1     7
  1.0713007820437280E-01 a       968     0    49     1     8
  3.9531639938877750E-01 a       969     0    49     1     9
  2.3256955515404756E-01 a       970     0    49     1    10
 -7.7287230659798048E-02 a       971     0    49     1    11
  8.5557999385458966E-02 a       972     0    49     1    12
 -4.7247360341754571E-02 a       973     0    49     1    13
 -1.2663735783054345E-01 a       974     0    49     1    14
 -4.4614973117577628E-01 a       975     0    49     1    15
 -1.1409700882008570E-02 a       976     0    49     1    16
 -1.3515352649057469E-01 a       977     0    49     1    17
  5.7441152658647347E-02 a       978     0    49     1    18
 -2.8670473037884137E-01 a       979     0    49     1    19
 -1.2702953937363906E-01 a       980     0    49     1    20
  9.3893239138050213E-02 a       981     0    50     1     1
 -9.3514104534824019E-02 a       982     0    50     1     2
  6.0104079155872438E-02 a       983     0    50     1     3
  2.9004030166027449E-02 a       984     0    50     1     4
  5.5921511554966712E-02 a       985     0    50     1     5
 -8.4685351035124576E-02 a       986     0    50     1     6
  3.7370378398347684E-02 a       987     0    50     1     7
  3.4743883922587609E-01 a       988     0    50     1     8
  3.2507120451674552E-02 a       989     0    50     1     9
 -2.4492312730093994E-02 a       990     0    50     1    10
  1.0061554007993179E-01 a       991     0    50     1    11
  1.2889400955874894E-01 a       992     0    50     1    12
 -2.7762507798972019E-02 a       993     0    50     1    13
 -1.9070292869237218E-01 a       994     0    50     1    14
  1.5378995391715462E-02 a       995     0    50     1    15
 -1.1181657962731284E-01 a       996     0    50     1    16
  1.0548248313696620E+00 a       997     0    50     1    17
  5.6811604681971793E-02 a       998     0    50     1    18
  4.0802866575478857E-03 a       999     0    50     1    19
  6.5337528027548247E-02 a      1000     0    50     1    20
  1.6459996376483421E-01 a      1001     0    51     1     1
  1.0436131728304604E-01 a      1002     0    51     1     2
  4.1193918277573967E-02 a      1003     0    51     1     3
 -8.5371032964691299E-02 a      1004     0    51     1     4
 -3.4421806678467426E-01 a      1005     0    51     1     5
 -3.5059203726567151E-02 a      1006     0    51     1     6
 -6.8281321244238607E-02 a      1007     0    51     1     7
 -8.8317684364387680E-02 a      1008     0    51     1     8
 -4.5211667705552183E-01 a      1009     0    51     1     9
  2.2578428485061691E-01 a      1010     0    51     1    10
  5.2133509979638989E-02 a      1011     0    51     1    11
  1.1320382904436732E-01 a      1012     0    51     1    12
  3.4671155141626747E-01 a      1013     0    51     1    13
  2.8804859807780436E-01 a      1014     0    51     1    14
  3.0401464957198775E-02 a      1015     0    51     1    15
  9.0124505077853675E-02 a      1016     0    51     1    16
 -2.1634745503668865E-01 a      1017     0    51     1    17
 -1.6077233853036291E-02 a      1018     0    51     1    18
  1.8730282903513232E-01 a      1019     0    51     1    19
  5.6797898590850204E-01 a      1020     0    51     1    20
 -3.1585052059523910E-01 a      1021     0    52     1     1
  5.6041521798083298E-02 a      1022     0    52     1     2
 -2.9547308348597540E-01 a      1023     0    52     1     3
  5.2888823796078888E-01 a      1024     0    52     1     4
 -3.4699226465621968E-01 a      1025     0    52     1     5
  1.2915951723238511E-01 a      1026     0    52     1     6
  4.5597577257858729E-01 a      1027     0    52     1     7
 -3.1000180509781711E-01 a      1028     0    52     1     8
 -3.3811634254106349E-01 a      1029     0    52     1     9
 -3.6981914063612842E-02 a      1030     0    52     1    10
  8.9268029906447069E-02 a      1031     0    52     1    11
 -5.7566688242365299E-02 a      1032     0    52     1    12
  9.8319099663295537E-02 a      1033     0    52     1    13
  5.6983127785615528E-01 a      1034     0    52     1    14
  1.4045975601311156E-01 a      1035     0    52     1    15
 -3.6165113043749905E-02 a      1036     0    52     1    16
  5.9505035469057066E-01 a      1037     0    52     1    17
 -1.5497747063895764E-01 a      1038     0    52     1    18
  3.6987725683907326E-02 a      1039     0    52     1    19
 -1.1135007750613793E-01 a      1040     0    52     1    20
  4.4963537677750007E-02 a      1041     0    53     1     1
 -7.0723691769838148E-01 a      1042     0    53     1     2
  2.7458284658426202E-01 a      1043     0    53     1     3
 -4.4851666109974664E-01 a      1044     0    53     1     4
  5.2431651458236062E-01 a      1045     0    53     1     5
  3.3810664076144005E-02 a      1046     0    53     1     6
 -2.3293658056717979E-02 a      1047     0    53     1     7
 -6.7719383717841286E-01 a      1048     0    53     1     8
  5.2245907235509637E-01 a      1049     0    53     1     9
 -8.2624368376387147E-01 a      1050     0    53     1    10
 -8.7793811085628481E-01 a      1051     0    53     1    11
 -2.8176643572638693E-01 a      1052     0    53     1    12
 -4.3853566908033587E-01 a      1053     0    53     1    13
  2.5952073639213799E-02 a      1054     0    53     1    14
  4.2114110188797993E-01 a      1055     0    53     1    15
  2.2518371937785588E-02 a      1056     0    53     1    16
 -3.1431154633388725E-01 a      1057     0    53     1    17
  1.0555958702242217E-01 a      1058     0    53     1    18
  2.3020830452075250E-01 a      1059     0    53     1    19
 -1.7053118808878009E-01 a      1060     0    53     1    20
 -1.6345959536002183E-01 a      1061     0    54     1     1
 -1.1358083066013552E-01 a      1062     0    54     1     2
  2.5945345315748791E-01 a      1063     0    54     1     3
 -4.6401303425000173E-01 a      1064     0    54     1     4
 -2.0549066779830655E-01 a      1065     0    54     1     5
 -4.8271040636893976E-02 a      1066     0    54     1     6
 -1.3066409362104794E-01 a      1067     0    54     1     7
  1.7579347632962089E-01 a      1068     0    54     1     8
 -5.5487512558245380E-03 a      1069     0    54     1     9
  6.2114583260887125E-02 a      1070     0    54     1    10
 -1.4338055620325832E-01 a      1071     0    54     1    11
  4.1495578004268167E-02 a      1072     0    54     1    12
 -8.7295375333595798E-02 a      1073     0    54     1    13
 -3.8194883946144093E-02 a      1074     0    54     1    14
 -8.0152163482678632E-02 a      1075     0    54     1    15
 -1.5520699219676973E-01 a      1076     0    54     1    16
 -1.7644110618375120E-01 a      1077     0    54     1    17
 -1.4300372012132323E-01 a      1078     0    54     1    18
 -1.6519986619413449E-01 a      1079     0    54     1    19
  1.7210346010125038E-01 a      1080     0    54     1    20
 -4.1357231528488490E-02 a      1081     0    55     1     1
 -7.9837402352811712E-02 a      1082     0    55     1     2
  5.8450696865937339E-02 a      1083     0    55     1     3
 -7.7159830697136292E-02 a      1084     0    55     1     4
  1.3608694675698026E-02 a      1085     0    55     1     5
 -3.3835927684481180E-03 a      1086     0    55     1     6
  7.1554766922486773E-02 a      1087     0    55     1     7
  4.8994652940252119E-02 a      1088     0    55     1     8
  2.0260806107350146E-01 a      1089     0    55     1     9
 -6.7766266768651925E-02 a      1090     0    55     1    10
 -1.2753872608286670E-01 a      1091     0    55     1    11
 -2.3512285958305090E-01 a      1092     0    55     1    12
 -3.5712619953810094E-02 a      1093     0    55     1    13
 -1.9165839376936014E-02 a      1094     0    55     1    14
  1.4412962006818353E-01 a      1095     0    55     1    15
 -5.3108790362231637E-02 a      1096     0    55     1    16
  3.9151436129084310E-01 a      1097     0    55     1    17
 -1.3110552306092904E-01 a      1098     0    55     1    18
 -9.6186825944498150E-02 a      1099     0    55     1    19
  1.0853507112496974E-01 a      1100     0    55     1    20
 -9.6904612755129502E-02 a      1101     0    56     1     1
  4.7354283276919407E-01 a      1102     0    56     1     2
 -2.1946989580139453E-01 a      1103     0    56     1     3
 -3.4139472668730819E-01 a      1104     0    56     1     4
  9.3973425826513829E-02 a      1105     0    56     1     5
  6.7998013632504595E-01 a      1106     0    56     1     6
  1.1288935920242993E-01 a      1107     0    56     1     7
 -4.6484199334645354E-01 a      1108     0    56     1     8
 -2.4894125471255743E-01 a      1109     0    56     1     9
  1.4513689718604153E-01 a      1110     0    56     1    10
 -4.6554730118734261E-01 a      1111     0    56     1    11
 -2.0037248542769029E-01 a      1112     0    56     1    12
 -3.2124607100127989E-01 a      1113     0    56     1    13
  7.4882075164852666E-02 a      1114     0    56     1    14
  1.6792634730307696E-01 a      1115     0    56     1    15
 -2.0669075619333485E-01 a      1116     0    56     1    16
 -2.4284369698810856E-01 a      1117     0    56     1    17
 -3.0481024962885700E-01 a      1118     0    56     1    18
  6.5510981311231356E-02 a      1119     0    56     1    19
  1.1474415913115167E-01 a      1120     0    56     1    20
 -2.1343505081415290E-01 a      1121     0    57     1     1
  3.2573488732129374E-01 a      1122     0    57     1     2
  1.7416268115859983E-02 a      1123     0    57     1     3
 -1.1176986087919452E-01 a      1124     0    57     1     4
  2.7441299005989495E-01 a      1125     0    57     1     5
  1.6692025234993951E-01 a      1126     0    57     1     6
  4.9034128847664981E-03 a      1127     0    57     1     7
  1.2984071831103783E-01 a      1128     0    57     1     8
 -9.7425728204826284E-02 a      1129     0    57     1     9
  9.7802305266862899E-02 a      1130     0    57     1    10
  2.5416057222217892E-01 a      1131     0    57     1    11
  2.2156718534720510E-02 a      1132     0    57     1    12
  2.2911330191539900E-01 a      1133     0    57     1    13
  3.2553427574961873E-02 a      1134     0    57     1    14
 -4.6575770464539690E-01 a      1135     0    57     1    15
  1.3208782522211321E-01 a      1136     0    57     1    16
 -3.9591558675449035E-01 a      1137     0    57     1    17
 -3.1233667146285837E-01 a      1138     0    57     1    18
  2.2887360802338741E-01 a      1139     0    57     1    19
 -8.5749830599275545E-02 a      1140     0    57     1    20
  7.0546156831517146E-02 a      1141     0    58     1     1
  8.9197608789024885E-02 a      1142     0    58     1     2
 -4.3182983102964249E-02 a      1143     0    58     1     3
 -2.7414684196499567E-01 a      1144     0    58     1     4
 -2.0950375621316325E-01 a      1145     0    58     1     5
 -1.3492733973231830E-01 a      1146     0    58     1     6
  2.2643551118784297E-01 a      1147     0    58     1     7
 -1.0256500496171926E-01 a      1148     0    58     1     8
 -1.3342184928548298E-01 a      1149     0    58     1     9
 -1.6938562052693565E-01 a      1150     0    58     1    10
 -3.2325455772191557E-02 a      1151     0    58     1    11
  1.2087949071070461E-01 a      1152     0    58     1    12
  2.1363831361517904E-01 a      1153     0    58     1    13
 -2.8773656568433909E-01 a      1154     0    58     1    14
  3.8132410955946675E-02 a      1155     0    58     1    15
 -5.2723289976694698E-01 a      1156     0    58     1    16
 -2.4817455855318823E-01 a      1157     0    58     1    17
  2.8898415528626886E-01 a      1158     0    58     1    18
 -7.8796518449546341E-02 a      1159     0    58     1    19
  6.0543782234914668E-02 a      1160     0    58     1    20
  2.1437292388325584E-02 a      1161     0    59     1     1
  1.1677413272341853E-02 a      1162     0    59     1     2
 -9.2941482339153697E-02 a      1163     0    59     1     3
 -2.5247584761065367E-01 a      1164     0    59     1     4
  8.5831889763128000E-02 a      1165     0    59     1     5
 -1.6974070352263554E-01 a      1166     0    59     1     6
  5.3549586893226454E-02 a      1167     0    59     1     7
  1.6029185171399424E-01 a      1168     0    59     1     8
  1.7298155269478083E-01 a      1169     0    59     1     9
  1.3314759098024478E-01 a      1170     0    59     1    10
 -1.7761421453954671E-01 a      1171     0    59     1    11
 -1.9618135849158494E-03 a      1172     0    59     1    12
  2.8093016908711476E-02 a      1173     0    59     1    13
  3.3472030135273806E-02 a      1174     0    59     1    14
 -4.3492786063513679E-02 a      1175     0    59     1    15
 -5.1654058480626236E-02 a      1176     0    59     1    16
  3.2141884148797223E-01 a      1177     0    59     1    17
  4.3953145217867876E-02 a      1178     0    59     1    18
 -8.1585001960297540E-02 a      1179     0    59     1    19
 -1.0996249537545824E-01 a      1180     0    59     1    20
 -5.1361101089421234E-02 a      1181     0    60     1     1
  2.2926665485635164E-01 a      1182     0    60     1     2
  9.4031485157053923E-02 a      1183     0    60     1     3
  5.0855386104725409E-01 a      1184     0    60     1     4
  1.8577628845406594E-01 a      1185     0    60     1     5
  4.3787894508014175E-01 a      1186     0    60     1     6
 -1.5449404937508810E-02 a      1187     0    60     1     7
  3.4307873073821084E-02 a      1188     0    60     1     8
  5.3668185998745743E-01 a      1189     0    60     1     9
  2.3686985655822326E-01 a      1190     0    60     1    10
  1.2518021643735949E-01 a      1191     0    60     1    11
  1.8884324588249640E-01 a      1192     0    60     1    12
  4.9783098961853139E-01 a      1193     0    60     1    13
 -2.6375430280146239E-01 a      1194     0    60     1    14
 -2.0346833143651782E-01 a      1195     0    60     1    15
 -1.3504681930442605E-01 a      1196     0    60     1    16
  2.2921874857461225E-01 a      1197     0    60     1    17
  1.2524216992569781E-01 a      1198     0    60     1    18
  1.2206271698852177E-01 a      1199     0    60     1    19
 -1.5544363924107256E-02 a      1200     0    60     1    20
 -2.7182202006723832E-01 a      1201     0    61     1     1
 -7.5747095181109919E-02 a      1202     0    61     1     2
  1.3837378109857171E-01 a      1203     0    61     1     3
  1.4789929892765202E-01 a      1204     0    61     1     4
 -1.4468978172754946E-02 a      1205     0    61     1     5
  4.2763965225372574E-01 a      1206     0    61     1     6
 -7.1379818463072731E-02 a      1207     0    61     1     7
 -1.8978410986616445E-01 a      1208     0    61     1     8
  2.4971051911445625E-02 a      1209     0    61     1     9
 -4.4709922210729708E-01 a      1210     0    61     1    10
 -8.6481353384881152E-02 a      1211     0    61     1    11
 -1.4160237767024919E-01 a      1212     0    61     1    12
 -1.9761856403032874E-01 a      1213     0    61     1    13
 -2.6851689432109449E-01 a      1214     0    61     1    14
 -3.2866271984820272E-01 a      1215     0    61     1    15
 -3.0893799150820500E-01 a      1216     0    61     1    16
 -2.2808500782433369E-01 a      1217     0    61     1    17
  6.9107478958074196E-03 a      1218     0    61     1    18
  1.2321243209878693E-01 a      1219     0    61     1    19
  1.3036801099882392E-01 a      1220     0    61     1    20
 -6.8237557196485249E-02 a      1221     0    62     1     1
  1.1985371557316805E-02 a      1222     0    62     1     2
  1.0648648570701923E-01 a      1223     0    62     1     3
  9.7598080337953901E-03 a      1224     0    62     1     4
  8.2209293690041083E-02 a      1225     0    62     1     5
  1.2454383775356466E-01 a      1226     0    62     1     6
 -1.5809089375086907E-01 a      1227     0    62     1     7
  1.3765662301609363E-01 a      1228     0    62     1     8
  1.3261071615621403E-01 a      1229     0    62     1     9
  1.0733370661596482E-01 a      1230     0    62     1    10
 -6.7323730940372969E-03 a      1231     0    62     1    11
 -7.3638761506705872E-03 a      1232     0    62     1    12
 -4.8236057323889032E-02 a      1233     0    62     1    13
 -9.1604543796027643E-02 a      1234     0    62     1    14
 -2.5420930097488731E-01 a      1235     0    62     1    15
 -2.1762813355598504E-01 a      1236     0    62     1    16
  4.4336098800375107E-01 a      1237     0    62     1    17
  2.6005846551906853E-02 a      1238     0    62     1    18
 -1.7206573307106529E-01 a      1239     0    62     1    19
  1.8024207264433045E-01 a      1240     0    62     1    20
 -2.1708181215965069E-02 a      1241     0    63     1     1
 -6.5589073955574465E-02 a      1242     0    63     1     2
 -2.2453477829586221E-01 a      1243     0    63     1     3
  3.3786724806196343E-02 a      1244     0    63     1     4
  6.9937392064293363E-02 a      1245     0    63     1     5
 -1.2941939185351506E-02 a      1246     0    63     1     6
  6.6594742887701577E-02 a      1247     0    63     1     7
 -9.2160110356796096E-02 a      1248     0    63     1     8
  1.4745779787264321E-01 a      1249     0    63     1     9
  4.6956210939165008E-02 a      1250     0    63     1    10
  1.1393642146963407E-02 a      1251     0    63     1    11
 -1.0286628613476416E-01 a      1252     0    63     1    12
 -3.1755766110404371E-02 a      1253     0    63     1    13
 -7.2183841571119040E-02 a      1254     0    63     1    14
  3.4190250568610948E-02 a      1255     0    63     1    15
  1.1609136215058866E-02 a      1256     0    63     1    16
  2.7071870712217588E-01 a      1257     0    63     1    17
 -2.3084320834191211E-02 a      1258     0    63     1    18
 -7.5960363232754596E-02 a      1259     0    63     1    19
  8.4171757210750209E-02 a      1260     0    63     1    20
  6.5552174047374470E-02 a      1261     0    64     1     1
 -2.4581292738096099E-02 a      1262     0    64     1     2
 -8.3602186063152797E-02 a      1263     0    64     1     3
  9.2005658587572481E-02 a      1264     0    64     1     4
  9.2348685144939657E-02 a      1265     0    64     1     5
 -4.5873067320144303E-02 a      1266     0    64     1     6
  7.8506302971514980E-02 a      1267     0    64     1     7
  2.4097516835205038E-01 a      1268     0    64     1     8
 -1.0982283143873323E-01 a      1269     0    64     1     9
  3.3325840613676772E-02 a      1270     0    64     1    10
 -4.7557175775365314E-02 a      1271     0    64     1    11
  1.7774256463420821E-01 a      1272     0    64     1    12
 -7.0076235046084817E-02 a      1273     0    64     1    13
 -4.5199982510091205E-02 a      1274     0    64     1    14
  6.2544456271190291E-02 a      1275     0    64     1    15
 -1.0200688368241481E-01 a      1276     0    64     1    16
  1.1636360806207463E-01 a      1277     0    64     1    17
  4.8663059203056025E-02 a      1278     0    64     1    18
 -2.7762454158842670E-01 a      1279     0    64     1    19
  2.1433318717110957E-02 a      1280     0    64     1    20
  5.8500242439795846E-02 a      1281     0    65     1     1
 -1.6540651348893199E-02 a      1282     0    65     1     2
  1.4098642282814319E-01 a      1283     0    65     1     3
 -1.0472871495920230E-01 a      1284     0    65     1     4
 -5.8824294916530774E-02 a      1285     0    65     1     5
  1.1338482259375279E-01 a      1286     0    65     1     6
 -1.9032540302290162E-02 a      1287     0    65     1     7
 -7.8727792287829224E-02 a      1288     0    65     1     8
 -4.6136800335998027E-02 a      1289     0    65     1     9
  1.2364729964449515E-01 a      1290     0    65     1    10
  1.9104464735992102E-02 a      1291     0    65     1    11
 -3.4581739117971612E-02 a      1292     0    65     1    12
  3.5430336369818627E-02 a      1293     0    65     1    13
  4.9868731697803453E-02 a      1294     0    65     1    14
 -2.2918023344963417E-01 a      1295     0    65     1    15
 -4.6781202510026029E-02 a      1296     0    65     1    16
 -3.1629367603513737E-02 a      1297     0    65     1    17
  6.2785216229346671E-02 a      1298     0    65     1    18
 -9.2961329606534526E-02 a      1299     0    65     1    19
 -4.4844991134024730E-02 a      1300     0    65     1    20
  3.7627563353804633E-01 a      1301     0    66     1     1
 -4.0863988384921929E-01 a      1302     0    66     1     2
  1.9684461105506554E-01 a      1303     0    66     1     3
 -1.3446934173405017E-01 a      1304     0    66     1     4
 -4.1786924733368830E-01 a      1305     0    66     1     5
 -1.4206075815242930E-01 a      1306     0    66     1     6
 -1.5604953285330858E-01 a      1307     0    66     1     7
 -2.3181453609579541E-01 a      1308     0    66     1     8
 -3.5243845197139706E-01 a      1309     0    66     1     9
  1.4397212403544585E-01 a      1310     0    66     1    10
  2.8034892597955785E-01 a      1311     0    66     1    11
  5.9573553348971897E-01 a      1312     0    66     1    12
 -2.9958552761148527E-01 a      1313     0    66     1    13
  1.9997055754832074E-01 a      1314     0    66     1    14
 -5.3918697168593710E-02 a      1315     0    66     1    15
 -1.5150136901639372E-01 a      1316     0    66     1    16
 -3.8964731341091258E-01 a      1317     0    66     1    17
  3.4768020186734877E-01 a      1318     0    66     1    18
 -4.5568573838169646E-01 a      1319     0    66     1    19
 -4.6613161689061999E-01 a      1320     0    66     1    20
  8.3500173284169116E-02 a      1321     0    67     1     1
 -1.4635559784310342E-01 a      1322     0    67     1     2
 -4.6309046058859721E-01 a      1323     0    67     1     3
 -2.9383293863166998E-01 a      1324     0    67     1     4
 -3.4277774991124249E-01 a      1325     0    67     1     5
  2.5019500982643512E-02 a      1326     0    67     1     6
 -3.1278881855515994E-01 a      1327     0    67     1     7
 -6.5370936657932963E-02 a      1328     0    67     1     8
  1.3569327097864800E-01 a      1329     0    67     1     9
  4.6514416466155839E-04 a      1330     0    67     1    10
  1.2234837386934386E-02 a      1331     0    67     1    11
 -1.6606986200532164E-01 a      1332     0    67     1    12
  3.3010791257994304E-01 a      1333     0    67     1    13
  5.2042458144240045E-01 a      1334     0    67     1    14
  3.9465578990818367E-01 a      1335     0    67     1    15
  1.9185991447600595E-01 a      1336     0    67     1    16
  8.2171385659010876E-01 a      1337     0    67     1    17
  1.8457219977487169E-01 a      1338     0    67     1    18
  9.9378032894572574E-02 a      1339     0    67     1    19
  6.3214075957142124E-02 a      1340     0    67     1    20
  1.8940855872990600E-01 a      1341     0    68     1     1
  2.5813479596270150E-01 a      1342     0    68     1     2
  1.1580570189312654E-01 a      1343     0    68     1     3
 -3.4457597689141517E-01 a      1344     0    68     1     4
  6.5025711040697723E-02 a      1345     0    68     1     5
 -8.5036942450692127E-02 a      1346     0    68     1     6
  3.6816839214909197E-01 a      1347     0    68     1     7
  2.6686628421605552E-01 a      1348     0    68     1     8
 -2.5174619596110009E-01 a      1349     0    68     1     9
  1.1576094504983307E+00 a      1350     0    68     1    10
  4.9824132073357796E-01 a      1351     0    68     1    11
  1.7626986030080873E-02 a      1352     0    68     1    12
  1.2125807683926868E+00 a      1353     0    68     1    13
 -4.7783275441409911E-01 a      1354     0    68     1    14
  6.4122926639997191E-02 a      1355     0    68     1    15
  4.4755632349846364E-01 a      1356     0    68     1    16
 -3.8595643920924733E-01 a      1357     0    68     1    17
  1.8305622788310383E-01 a      1358     0    68     1    18
  1.6487669986164608E-01 a      1359     0    68     1    19
 -3.5561131322546646E-01 a      1360     0    68     1    20
  9.1410040677073631E-02 a      1361     0    69     1     1
 -3.2259853628349704E-02 a      1362     0    69     1     2
 -4.4151417544551173E-02 a      1363     0    69     1     3
  3.5922285922157508E-02 a      1364     0    69     1     4
  1.3508296232054287E-01 a      1365     0    69     1     5
 -2.7920674951272384E-01 a      1366     0    69     1     6
 -1.8045544566457769E-01 a      1367     0    69     1     7
  1.1895383878145231E-01 a      1368     0    69     1     8
  1.0189403497593240E-01 a      1369     0    69     1     9
  2.8809060436634528E-02 a      1370     0    69     1    10
 -1.1196252994972601E-01 a      1371     0    69     1    11
  2.0186930773958114E-01 a      1372     0    69     1    12
  7.4313338045811611E-02 a      1373     0    69     1    13
  5.7012670630318292E-02 a      1374     0    69     1    14
 -2.2892763255675522E-02 a      1375     0    69     1    15
  2.6920867875117965E-01 a      1376     0    69     1    16
  1.6003762875713198E-01 a      1377     0    69     1    17
  4.2756839400151868E-02 a      1378     0    69     1    18
  9.7372267206082733E-02 a      1379     0    69     1    19
 -1.3129351621255961E-01 a      1380     0    69     1    20
  6.1650220232205143E-02 a      1381     0    70     1     1
  2.7323504069356452E-01 a      1382     0    70     1     2
  1.9517006119810315E-01 a      1383     0    70     1     3
  3.3764318741021856E-02 a      1384     0    70     1     4
 -9.5829391583833162E-02 a      1385     0    70     1     5
 -2.0440178782518650E-01 a      1386     0    70     1     6
 -4.8303559382286913E-02 a      1387     0    70     1     7
 -5.6433619943405164E-02 a      1388     0    70     1     8
 -1.6676243119463530E-01 a      1389     0    70     1     9
  5.2570639760436008E-02 a      1390     0    70     1    10
 -6.9001117106215319E-04 a      1391     0    70     1    11
  2.4529603119305307E-01 a      1392     0    70     1    12
  2.0689605194091176E-01 a      1393     0    70     1    13
 -2.5135795866370136E-01 a      1394     0    70     1    14
 -4.6864853056461341E-02 a      1395     0    70     1    15
  2.3534314350572980E-01 a      1396     0    70     1    16
 -2.1251766297327876E-01 a      1397     0    70     1    17
  9.0129292805042491E-02 a      1398     0    70     1    18
  2.9680509381259323E-02 a      1399     0    70     1    19
 -4.7335334923704557E-02 a      1400     0    70     1    20
 -2.4050546958219371E-01 a      1401     0    71     1     1
  6.6553482126042757E-02 a      1402     0    71     1     2
 -1.3403741635098435E-01 a      1403     0    71     1     3
  7.8307890180830952E-02 a      1404     0    71     1     4
 -4.5628333182507905E-02 a      1405     0    71     1     5
  6.8095601833398856E-02 a      1406     0    71     1     6
 -1.0037928842890603E-01 a      1407     0    71     1     7
  2.7100935301463985E-01 a      1408     0    71     1     8
  4.1518230629494207E-01 a      1409     0    71     1     9
 -1.8267446078486047E-01 a      1410     0    71     1    10
  1.4460596188489319E-01 a      1411     0    71     1    11
  3.2131395515097694E-02 a      1412     0    71     1    12
  4.7527938329503340E-02 a      1413     0    71     1    13
  1.9704319658092120E-03 a      1414     0    71     1    14
 -7.6920455602760396E-02 a      1415     0    71     1    15
 -7.0653236453391347E-02 a      1416     0    71     1    16
  2.6367378025612696E-02 a      1417     0    71     1    17
  2.8276483675425046E-01 a      1418     0    71     1    18
 -1.4579480554543400E-01 a      1419     0    71     1    19
 -1.1197515377532294E-01 a      1420     0    71     1    20
  1.4655113558566404E-02 a      1421     0    72     1     1
 -4.9900933758158655E-03 a      1422     0    72     1     2
 -3.0614227569264207E-01 a      1423     0    72     1     3
 -3.8825452147341449E-01 a      1424     0    72     1     4
 -9.2017668268862957E-02 a      1425     0    72     1     5
 -7.6253102987672069E-03 a      1426     0    72     1     6
  4.2312595073196868E-01 a      1427     0    72     1     7
  1.3800677158580194E-01 a      1428     0    72     1     8
 -5.7320499004316927E-01 a      1429     0    72     1     9
  1.9215511656005399E-01 a      1430     0    72     1    10
  4.4603855387861230E-01 a      1431     0    72     1    11
 -1.8015026973775550E-01 a      1432     0    72     1    12
  7.0191534862049779E-02 a      1433     0    72     1    13
 -1.1566535033577845E-01 a      1434     0    72     1    14
  8.6188445408890535E-02 a      1435     0    72     1    15
 -1.4650717969228967E-02 a      1436     0    72     1    16
  4.7995436167220372E-02 a      1437     0    72     1    17
 -2.5887136330357341E-01 a      1438     0    72     1    18
 -1.2096376174889696E-01 a      1439     0    72     1    19
 -3.0320418856168246E-01 a      1440     0    72     1    20
  1.1844332616452138E-01 a      1441     0    73     1     1
 -9.8998816094568759E-02 a      1442     0    73     1     2
  1.4934664424338032E-01 a      1443     0    73     1     3
 -3.1273798730913911E-02 a      1444     0    73     1     4
  1.7469267184300066E-01 a      1445     0    73     1     5
  1.6323579835033141E-02 a      1446     0    73     1     6
  1.7397705964502790E-02 a      1447     0    73     1     7
 -2.2919522887305224E-01 a      1448     0    73     1     8
  4.2123507943847713E-02 a      1449     0    73     1     9
  1.3803346086351001E-01 a      1450     0    73     1    10
  1.2077724700440729E-03 a      1451     0    73     1    11
 -2.6832486720132654E-02 a      1452     0    73     1    12
 -6.4209272168469458E-02 a      1453     0    73     1    13
 -9.0323722825846262E-02 a      1454     0    73     1    14
  9.7162539180018950E-02 a      1455     0    73     1    15
  1.4246335965438786E-01 a      1456     0    73     1    16
  8.8665594041701587E-02 a      1457     0    73     1    17
 -2.7004184102587803E-02 a      1458     0    73     1    18
  1.4625958094247710E-01 a      1459     0    73     1    19
 -1.1040121573030606E-01 a      1460     0    73     1    20
  2.4890927352748591E-02 a      1461     0    74     1     1
 -6.0651792304996364E-02 a      1462     0    74     1     2
  1.7240770228996816E-01 a      1463     0    74     1     3
 -1.2908755939494590E-01 a      1464     0    74     1     4
 -1.0744496646322428E-01 a      1465     0    74     1     5
 -2.2896775479993210E-02 a      1466     0    74     1     6
 -2.7892561695672120E-02 a      1467     0    74     1     7
 -8.7602269599311486E-02 a      1468     0    74     1     8
  4.5214243435631657E-02 a      1469     0    74     1     9
 -3.5271158418504950E-02 a      1470     0    74     1    10
 -9.2520917497921646E-03 a      1471     0    74     1    11
  6.8733818543724789E-02 a      1472     0    74     1    12
 -1.5863746578347535E-02 a      1473     0    74     1    13
 -3.3939672895774814E-01 a      1474     0    74     1    14
 -4.4861701455774880E-02 a      1475     0    74     1    15
 -8.6362182939928478E-02 a      1476     0    74     1    16
  2.5659179212454786E-01 a      1477     0    74     1    17
 -1.7586828937800494E-01 a      1478     0    74     1    18
  1.0314105358746311E-02 a      1479     0    74     1    19
  9.0562596864287873E-02 a      1480     0    74     1    20
 -4.3410835332186773E-02 a      1481     0    75     1     1
  4.2805934371209192E-01 a      1482     0    75     1     2
 -1.8989749565202466E-01 a      1483     0    75     1     3
 -2.3349936842382776E-01 a      1484     0    75     1     4
 -1.7856497629643317E-01 a      1485     0    75     1     5
  1.7175404006080694E-01 a      1486     0    75     1     6
 -2.1793950412251084E-01 a      1487     0    75     1     7
  6.4539714391722344E-04 a      1488     0    75     1     8
 -9.7522217827543722E-01 a      1489     0    75     1     9
 -1.3709019674806067E-01 a      1490     0    75     1    10
 -3.0146799233776861E-01 a      1491     0    75     1    11
  1.3256914975738696E-01 a      1492     0    75     1    12
 -1.0759812531751103E+00 a      1493     0    75     1    13
  9.0262020929858944E-01 a      1494     0    75     1    14
  1.1393587740954503E-01 a      1495     0    75     1    15
  3.1348735168771907E-01 a      1496     0    75     1    16
 -2.6164504090057444E-01 a      1497     0    75     1    17
 -2.6340729633926224E-01 a      1498     0    75     1    18
  2.4591501781079669E-01 a      1499     0    75     1    19
  4.7718077032768830E-01 a      1500     0    75     1    20
  1.5826043256543340E-01 a      1501     0    76     1     1
  1.7037757120030646E-02 a      1502     0    76     1     2
  3.0594736043898382E-02 a      1503     0    76     1     3
 -1.8744741590188529E-01 a      1504     0    76     1     4
  1.0687722744568678E-01 a      1505     0    76     1     5
 -1.8557731642949488E-01 a      1506     0    76     1     6
 -2.7975776006230087E-02 a      1507     0    76     1     7
 -1.2898826589522666E-01 a      1508     0    76     1     8
 -1.5491635613213955E-01 a      1509     0    76     1     9
 -1.1630667689481645E-01 a      1510     0    76     1    10
  8.4598943763438406E-02 a      1511     0    76     1    11
  1.2511420893882496E-02 a      1512     0    76     1    12
  1.6240202534961409E-01 a      1513     0    76     1    13
 -2.5414987876368000E-01 a      1514     0    76     1    14
 -2.5050257168317325E-01 a      1515     0    76     1    15
  5.4396419564437443E-02 a      1516     0    76     1    16
  1.0470986420641526E-01 a      1517     0    76     1    17
 -1.4341507938155684E-01 a      1518     0    76     1    18
 -4.9918899285986577E-02 a      1519     0    76     1    19
  1.1084347417179355E-01 a      1520     0    76     1    20
 -8.2822226388561460E-02 a      1521     0    77     1     1
 -9.4181376102063646E-02 a      1522     0    77     1     2
 -1.3805413637404607E-01 a      1523     0    77     1     3
  9.3285334720611929E-02 a      1524     0    77     1     4
  8.3606585406316908E-02 a      1525     0    77     1     5
  1.4513931257653895E-02 a      1526     0    77     1     6
  2.0406446528485697E-01 a      1527     0    77     1     7
 -8.1564396513421039E-02 a      1528     0    77     1     8
  8.0134569047853044E-02 a      1529     0    77     1     9
 -6.1026531808704480E-02 a      1530     0    77     1    10
  2.5570564022415022E-02 a      1531     0    77     1    11
  2.3134237122101259E-01 a      1532     0    77     1    12
 -2.4961498418829331E-02 a      1533     0    77     1    13
  6.6197235584913999E-02 a      1534     0    77     1    14
 -1.9479303169682199E-01 a      1535     0    77     1    15
  3.0681115117221897E-01 a      1536     0    77     1    16
 -9.7851246383705275E-03 a      1537     0    77     1    17
 -1.0024167536441006E-01 a      1538     0    77     1    18
  1.0913777710113932E-01 a      1539     0    77     1    19
 -7.3615941347473873E-02 a      1540     0    77     1    20
  1.4083929131805232E-02 a      1541     0    78     1     1
  3.5988933682149657E-02 a      1542     0    78     1     2
  2.1762281912178688E-01 a      1543     0    78     1     3
 -7.5442936214461770E-02 a      1544     0    78     1     4
 -5.4616983421709661E-02 a      1545     0    78     1     5
 -8.4266482818337665E-02 a      1546     0    78     1     6
 -2.2635978857538971E-01 a      1547     0    78     1     7
 -1.9594634069422759E-01 a      1548     0    78     1     8
 -9.0932363833282959E-02 a      1549     0    78     1     9
 -1.3349648695212338E-01 a      1550     0    78     1    10
  2.1221161296360067E-01 a      1551     0    78     1    11
 -4.5859283121966819E-02 a      1552     0    78     1    12
 -3.3128819676149107E-03 a      1553     0    78     1    13
  3.8675878844295263E-02 a      1554     0    78     1    14
  6.3088659195301598E-03 a      1555     0    78     1    15
 -2.4329941639665315E-02 a      1556     0    78     1    16
  2.4434831523083908E-01 a      1557     0    78     1    17
  6.1034443355440383E-03 a      1558     0    78     1    18
  7.2920846961370633E-02 a      1559     0    78     1    19
  1.0295145940098595E-01 a      1560     0    78     1    20
  3.1135846532098527E-02 a      1561     0    79     1     1
  3.9377813033063779E-02 a      1562     0    79     1     2
 -2.5406079469594645E-01 a      1563     0    79     1     3
 -1.4238728811562715E-01 a      1564     0    79     1     4
  2.4441253578504310E-01 a      1565     0    79     1     5
  1.0899088256690860E-01 a      1566     0    79     1     6
 -9.8503426894631790E-02 a      1567     0    79     1     7
  1.6256018233565814E-01 a      1568     0    79     1     8
 -9.0473963215904785E-02 a      1569     0    79     1     9
  5.5869252337397632E-03 a      1570     0    79     1    10
 -1.9011840939423572E-02 a      1571     0    79     1    11
 -5.9782507038710186E-02 a      1572     0    79     1    12
  5.6815324786685988E-02 a      1573     0    79     1    13
 -1.9463285209904513E-01 a      1574     0    79     1    14
 -2.1015917094948364E-01 a      1575     0    79     1    15
  8.5417291275608306E-02 a      1576     0    79     1    16
  3.0579293026416848E-01 a      1577     0    79     1    17
 -3.1796518627507799E-02 a      1578     0    79     1    18
  2.1816706403721155E-02 a      1579     0    79     1    19
  1.3611338070194439E-02 a      1580     0    79     1    20
  6.8968421492424520E-02 a      1581     0    80     1     1
 -7.1235486305074230E-02 a      1582     0    80     1     2
 -2.2722247038252327E-01 a      1583     0    80     1     3
  2.2807315305731293E-01 a      1584     0    80     1     4
  2.0758217952389157E-01 a      1585     0    80     1     5
 -6.0327198208643726E-02 a      1586     0    80     1     6
  3.1526296638960991E-02 a      1587     0    80     1     7
 -3.4492958514051195E-02 a      1588     0    80     1     8
  1.4462672019087753E-02 a      1589     0    80     1     9
  1.6641180288413082E-01 a      1590     0    80     1    10
 -8.4538125640851239E-02 a      1591     0    80     1    11
  2.1809961216483398E-01 a      1592     0    80     1    12
 -7.1490862361672014E-02 a      1593     0    80     1    13
 -1.2586273139655368E-01 a      1594     0    80     1    14
  6.5450862006901867E-02 a      1595     0    80     1    15
  5.7527579228156864E-02 a      1596     0    80     1    16
  1.6372976771592756E-02 a      1597     0    80     1    17
 -3.6920069713190097E-02 a      1598     0    80     1    18
  1.1652209473413926E-02 a      1599     0    80     1    19
  1.2363552622219791E-01 a      1600     0    80     1    20
  1.1291128958372487E-01 a      1601     0    81     1     1
  3.1227249256064304E-02 a      1602     0    81     1     2
 -6.2553823861139022E-04 a      1603     0    81     1     3
  1.9272186393745791E-01 a      1604     0    81     1     4
 -7.8083179822057480E-02 a      1605     0    81     1     5
 -9.9322883479754532E-03 a      1606     0    81     1     6
  2.2555121626972158E-01 a      1607     0    81     1     7
  1.5570176075600931E-01 a      1608     0    81     1     8
  8.7377185133479834E-02 a      1609     0    81     1     9
  9.3897225639782561E-02 a      1610     0    81     1    10
 -2.0701850096482611E-02 a      1611     0    81     1    11
 -1.3039997138580356E-01 a      1612     0    81     1    12
 -5.2992979638136352E-02 a      1613     0    81     1    13
  3.9586044823044347E-01 a      1614     0    81     1    14
  7.7967468381247865E-02 a      1615     0    81     1    15
  2.6280841030415103E-01 a      1616     0    81     1    16
 -1.7815691928363872E-01 a      1617     0    81     1    17
  5.7523086759436487E-02 a      1618     0    81     1    18
  6.7671791675995588E-02 a      1619     0    81     1    19
 -2.4505861355372871E-01 a      1620     0    81     1    20
 -5.6448884165460778E-01 a      1621     0    82     1     1
  5.2082189571201983E-02 a      1622     0    82     1     2
  9.5680201614159341E-02 a      1623     0    82     1     3
