################################################################################
# Neural network connection values (weights and biases).
################################################################################
# Col  Name       Description
################################################################################
# 1    connection Neural network connection value.
# 2    t          Connection type (a = weight, b = bias).
# 3    index      Index enumerating weights.
# 4    l_s        Starting point layer (end point layer for biases).
# 5    n_s        Starting point neuron in starting layer (end point neuron for biases).
# 6    l_e        End point layer.
# 7    n_e        End point neuron in end layer.
################################################################################
#                      1 2         3     4     5     6     7
#             connection t     index   l_s   n_s   l_e   n_e
############################################################
 -5.3005705672407553E-02 a         1     0     1     1     1
  5.4083225958518111E-02 a         2     0     1     1     2
  1.3708577157008148E-01 a         3     0     1     1     3
  1.4078014278522196E-02 a         4     0     1     1     4
 -7.4329689173419075E-02 a         5     0     1     1     5
 -2.0668822867394139E-02 a         6     0     1     1     6
  1.4081101876138236E-01 a         7     0     1     1     7
  1.0656037354263055E-02 a         8     0     1     1     8
  4.9376040527852848E-02 a         9     0     1     1     9
 -7.9625165422416420E-04 a        10     0     1     1    10
  2.7914197845808807E-02 a        11     0     1     1    11
  1.1702313666793428E-02 a        12     0     1     1    12
  6.9386718060190583E-03 a        13     0     1     1    13
 -2.2406524044683674E-02 a        14     0     1     1    14
  1.2259092543391714E-01 a        15     0     1     1    15
 -6.1684604972768821E-02 a        16     0     1     1    16
  7.5492954966097175E-02 a        17     0     1     1    17
 -2.7050868543625879E-02 a        18     0     1     1    18
 -6.6029416601890961E-02 a        19     0     1     1    19
  7.2166254998290283E-02 a        20     0     1     1    20
  4.8847612850135530E-02 a        21     0     2     1     1
 -7.7579535103920079E-03 a        22     0     2     1     2
  6.6944024640336070E-03 a        23     0     2     1     3
  5.9350381421228088E-02 a        24     0     2     1     4
  6.3860051125539469E-02 a        25     0     2     1     5
  4.9639568361502726E-03 a        26     0     2     1     6
 -2.0516823870399470E-01 a        27     0     2     1     7
 -1.1790257181082917E-01 a        28     0     2     1     8
 -2.1966335736979543E-02 a        29     0     2     1     9
  1.4991152674781119E-01 a        30     0     2     1    10
  1.8552794890012797E-01 a        31     0     2     1    11
 -4.4397431435605129E-02 a        32     0     2     1    12
 -4.1044921013676447E-02 a        33     0     2     1    13
 -8.2165227006828403E-03 a        34     0     2     1    14
 -7.3927127711529567E-02 a        35     0     2     1    15
  1.8634637540361345E-02 a        36     0     2     1    16
 -3.7979790023817739E-02 a        37     0     2     1    17
 -1.9035889985286819E-01 a        38     0     2     1    18
 -7.3163989180260861E-02 a        39     0     2     1    19
 -1.3401349946843036E-01 a        40     0     2     1    20
  6.3573114564522706E-02 a        41     0     3     1     1
 -4.3683946314249163E-02 a        42     0     3     1     2
 -1.0309622696315048E-01 a        43     0     3     1     3
  3.8883844303076857E-03 a        44     0     3     1     4
  1.1667784747471936E-01 a        45     0     3     1     5
  7.7962872811823000E-02 a        46     0     3     1     6
  1.1389497745598313E-01 a        47     0     3     1     7
  8.5229694320395094E-02 a        48     0     3     1     8
 -1.5218375922585586E-01 a        49     0     3     1     9
 -1.3272599510480180E-02 a        50     0     3     1    10
  2.5486394105649287E-02 a        51     0     3     1    11
  3.2361698282112938E-02 a        52     0     3     1    12
  8.4440233329480530E-02 a        53     0     3     1    13
 -1.0535426284779137E-01 a        54     0     3     1    14
  8.8249699446593347E-02 a        55     0     3     1    15
 -2.1599879951723189E-01 a        56     0     3     1    16
 -3.6854407191203330E-02 a        57     0     3     1    17
  5.3548325363989784E-02 a        58     0     3     1    18
 -1.4523146053072774E-02 a        59     0     3     1    19
 -6.1105623343704799E-02 a        60     0     3     1    20
 -1.1550987157288875E-02 a        61     0     4     1     1
  3.5404598863983200E-02 a        62     0     4     1     2
  6.0126447452376948E-02 a        63     0     4     1     3
 -1.5096243847936585E-03 a        64     0     4     1     4
  1.7504439566566526E-01 a        65     0     4     1     5
  9.9752724234365667E-02 a        66     0     4     1     6
 -8.1370713205084169E-02 a        67     0     4     1     7
  7.3810023631961569E-02 a        68     0     4     1     8
 -4.1933072614907162E-02 a        69     0     4     1     9
 -7.5100616020771047E-02 a        70     0     4     1    10
 -6.1774166752479993E-02 a        71     0     4     1    11
  5.0537445944913807E-02 a        72     0     4     1    12
 -5.3348529437210496E-02 a        73     0     4     1    13
 -8.9232131484736604E-02 a        74     0     4     1    14
  1.3712320030568406E-01 a        75     0     4     1    15
 -8.1863772949547067E-02 a        76     0     4     1    16
 -1.1969806616658119E-01 a        77     0     4     1    17
  1.1357579842906310E-02 a        78     0     4     1    18
 -6.8938998181584263E-02 a        79     0     4     1    19
  1.4799535576984410E-01 a        80     0     4     1    20
  7.1943045566536412E-02 a        81     0     5     1     1
 -1.2913889336462042E-01 a        82     0     5     1     2
  1.6427266923492148E-01 a        83     0     5     1     3
  4.1230795626735726E-02 a        84     0     5     1     4
  2.5064831145357186E-01 a        85     0     5     1     5
 -8.1328389343864951E-02 a        86     0     5     1     6
  1.4080627333744255E-02 a        87     0     5     1     7
 -2.3091595211344040E-01 a        88     0     5     1     8
  1.1918729028532232E-01 a        89     0     5     1     9
  1.3837340262660497E-01 a        90     0     5     1    10
 -2.6736396925420380E-01 a        91     0     5     1    11
  4.3138120379340589E-02 a        92     0     5     1    12
 -1.9888381778340777E-01 a        93     0     5     1    13
 -6.6538242585034921E-02 a        94     0     5     1    14
 -5.6931123255893300E-02 a        95     0     5     1    15
  8.6444201917770386E-02 a        96     0     5     1    16
  3.2093462268819435E-02 a        97     0     5     1    17
  6.1339766459074137E-02 a        98     0     5     1    18
  1.5965088156013507E-01 a        99     0     5     1    19
  7.0308772198016456E-02 a       100     0     5     1    20
 -1.5306320189687142E-01 a       101     0     6     1     1
 -1.2394403064373231E-01 a       102     0     6     1     2
  1.5957331032758419E-02 a       103     0     6     1     3
 -1.4596741687373926E-01 a       104     0     6     1     4
 -4.7496236403356235E-02 a       105     0     6     1     5
 -1.5799165392939618E-01 a       106     0     6     1     6
 -1.1836636450065380E-01 a       107     0     6     1     7
 -3.2524250849124359E-01 a       108     0     6     1     8
 -2.1086403729017541E-02 a       109     0     6     1     9
  1.6066750811746960E-01 a       110     0     6     1    10
  2.1769228323376161E-02 a       111     0     6     1    11
 -6.0171355025818746E-02 a       112     0     6     1    12
  2.9629200774900027E-02 a       113     0     6     1    13
  1.6048346422552534E-01 a       114     0     6     1    14
 -7.5482463627137980E-02 a       115     0     6     1    15
 -4.0664192974580918E-02 a       116     0     6     1    16
  1.6565833270200497E-01 a       117     0     6     1    17
 -2.0529541955373973E-01 a       118     0     6     1    18
 -1.1948657779579390E-01 a       119     0     6     1    19
 -8.2055002396589860E-02 a       120     0     6     1    20
 -8.0852901922567263E-02 a       121     0     7     1     1
 -8.6532195262889536E-02 a       122     0     7     1     2
 -6.4843345007969538E-02 a       123     0     7     1     3
 -6.3128519563692281E-02 a       124     0     7     1     4
  3.6874123368336987E-03 a       125     0     7     1     5
 -7.1690646376524475E-02 a       126     0     7     1     6
 -1.7269127704706644E-01 a       127     0     7     1     7
  8.2629455236888680E-02 a       128     0     7     1     8
 -3.6432100412478893E-02 a       129     0     7     1     9
 -3.2785930329341212E-02 a       130     0     7     1    10
 -1.4939277840568568E-01 a       131     0     7     1    11
 -7.4715742273398583E-02 a       132     0     7     1    12
  2.2432151134682171E-01 a       133     0     7     1    13
 -1.1469756334618451E-01 a       134     0     7     1    14
 -1.6973397188149472E-01 a       135     0     7     1    15
 -6.1020595643723939E-02 a       136     0     7     1    16
  6.1684337275635111E-02 a       137     0     7     1    17
 -1.3033813183178683E-01 a       138     0     7     1    18
 -6.6876654521445561E-02 a       139     0     7     1    19
  1.6103814870163197E-01 a       140     0     7     1    20
 -1.0545873454476347E-01 a       141     0     8     1     1
 -1.6716251267848516E-02 a       142     0     8     1     2
  9.7558974738901294E-02 a       143     0     8     1     3
  5.1301617431907878E-02 a       144     0     8     1     4
  7.9994823359123314E-03 a       145     0     8     1     5
  4.4297764855219628E-02 a       146     0     8     1     6
  3.2873634878472273E-02 a       147     0     8     1     7
 -1.6493255098129028E-02 a       148     0     8     1     8
  6.9656507725449082E-02 a       149     0     8     1     9
  1.4593136613851032E-02 a       150     0     8     1    10
  1.0267912766010093E-01 a       151     0     8     1    11
 -3.9349434962990870E-02 a       152     0     8     1    12
 -2.5617644638244449E-02 a       153     0     8     1    13
  4.1662284677750842E-02 a       154     0     8     1    14
 -1.4925025311664358E-01 a       155     0     8     1    15
  1.2203396833683768E-01 a       156     0     8     1    16
 -5.3460291425296590E-02 a       157     0     8     1    17
 -7.0039130238676070E-02 a       158     0     8     1    18
  9.1504921788217244E-02 a       159     0     8     1    19
 -6.7850409547028520E-02 a       160     0     8     1    20
 -3.1518455816043463E-02 a       161     0     9     1     1
  2.8811036181000102E-02 a       162     0     9     1     2
 -1.6686668950084765E-01 a       163     0     9     1     3
 -1.5434693619538881E-01 a       164     0     9     1     4
 -1.8978120578327634E-01 a       165     0     9     1     5
 -1.4422050281878845E-02 a       166     0     9     1     6
 -5.3224615541006152E-02 a       167     0     9     1     7
 -5.9102714109603244E-02 a       168     0     9     1     8
  5.3206076521745402E-02 a       169     0     9     1     9
  5.8169746885975877E-03 a       170     0     9     1    10
  1.8644564635622546E-01 a       171     0     9     1    11
 -1.2977493040422983E-01 a       172     0     9     1    12
  1.3266777713348449E-01 a       173     0     9     1    13
  5.7527551249002939E-02 a       174     0     9     1    14
 -2.2414362631744514E-01 a       175     0     9     1    15
  1.0889653625421629E-01 a       176     0     9     1    16
 -5.5553489807894105E-03 a       177     0     9     1    17
  7.6782175315088616E-02 a       178     0     9     1    18
  1.3430993390006296E-01 a       179     0     9     1    19
 -4.8924115141028221E-02 a       180     0     9     1    20
 -2.1273984583419434E-01 a       181     0    10     1     1
 -2.3091112991421428E-01 a       182     0    10     1     2
  2.6325965242768215E-02 a       183     0    10     1     3
 -7.7615645747400666E-02 a       184     0    10     1     4
  9.6908850124934623E-02 a       185     0    10     1     5
  1.6156870236180487E-01 a       186     0    10     1     6
 -1.2216911354554440E-01 a       187     0    10     1     7
 -8.5732429957258841E-02 a       188     0    10     1     8
  1.3238044764825777E-02 a       189     0    10     1     9
  8.3883527369483887E-02 a       190     0    10     1    10
 -2.3667336514014262E-01 a       191     0    10     1    11
  1.7435281659272708E-01 a       192     0    10     1    12
  9.9577763457532845E-02 a       193     0    10     1    13
 -1.6174961881660710E-01 a       194     0    10     1    14
 -6.0194774429862610E-02 a       195     0    10     1    15
  1.1286959468160879E-01 a       196     0    10     1    16
  1.0637100944096883E-01 a       197     0    10     1    17
 -2.0837432621835503E-01 a       198     0    10     1    18
 -1.4661026015902770E-01 a       199     0    10     1    19
 -4.4974326578732911E-02 a       200     0    10     1    20
 -1.4527128899181521E-01 a       201     0    11     1     1
  8.1760928901157312E-02 a       202     0    11     1     2
  4.8643080377313991E-02 a       203     0    11     1     3
  1.5077549456266376E-01 a       204     0    11     1     4
  1.3047634687493497E-02 a       205     0    11     1     5
  2.5060968824078354E-02 a       206     0    11     1     6
  1.5787426651370934E-01 a       207     0    11     1     7
  1.4375740070531044E-02 a       208     0    11     1     8
  1.0407096655694879E-01 a       209     0    11     1     9
  1.4959433015024312E-01 a       210     0    11     1    10
  1.0790700459477599E-01 a       211     0    11     1    11
 -3.5104041297551465E-02 a       212     0    11     1    12
 -3.4077519448339373E-02 a       213     0    11     1    13
 -3.3087893898368713E-02 a       214     0    11     1    14
  2.6379949751028348E-01 a       215     0    11     1    15
  1.7867912417496298E-01 a       216     0    11     1    16
  4.4986852175855641E-01 a       217     0    11     1    17
  1.1121303498238913E-01 a       218     0    11     1    18
 -1.3185520502643289E-01 a       219     0    11     1    19
 -8.5650695455535983E-02 a       220     0    11     1    20
 -7.7217177971364667E-02 a       221     0    12     1     1
 -8.5920367511932799E-02 a       222     0    12     1     2
  1.7904239408474570E-01 a       223     0    12     1     3
  1.3230602050894624E-01 a       224     0    12     1     4
  3.9408811432064178E-02 a       225     0    12     1     5
  1.1702006730678810E-01 a       226     0    12     1     6
 -1.4061448968957788E-02 a       227     0    12     1     7
 -1.5994406801815031E-01 a       228     0    12     1     8
  2.7861373526250059E-02 a       229     0    12     1     9
 -5.7872028973455530E-02 a       230     0    12     1    10
  7.0096513369004243E-02 a       231     0    12     1    11
  2.6737516016112112E-01 a       232     0    12     1    12
  1.6914985571093066E-01 a       233     0    12     1    13
  1.5970709049807338E-01 a       234     0    12     1    14
 -1.0901559370280824E-01 a       235     0    12     1    15
 -3.3808802346782262E-02 a       236     0    12     1    16
 -7.8017100097125244E-02 a       237     0    12     1    17
  2.9841493002913916E-01 a       238     0    12     1    18
 -8.1545933349390975E-02 a       239     0    12     1    19
 -1.7718304968564988E-01 a       240     0    12     1    20
  1.0002287241751313E-01 a       241     0    13     1     1
 -5.2866383128523558E-03 a       242     0    13     1     2
 -4.6399326484526018E-03 a       243     0    13     1     3
 -1.5665059218770977E-01 a       244     0    13     1     4
 -1.6131721031283980E-01 a       245     0    13     1     5
 -7.0416718322130534E-02 a       246     0    13     1     6
 -1.4469222047348473E-01 a       247     0    13     1     7
 -5.8548486329732967E-02 a       248     0    13     1     8
  1.8331803624598403E-01 a       249     0    13     1     9
 -3.5027340226732498E-02 a       250     0    13     1    10
 -1.4890868662768436E-01 a       251     0    13     1    11
  1.2346676611387239E-02 a       252     0    13     1    12
 -6.0458080004107510E-02 a       253     0    13     1    13
 -3.7791078187067874E-02 a       254     0    13     1    14
 -5.9642386692677435E-02 a       255     0    13     1    15
 -9.2195173646923756E-02 a       256     0    13     1    16
 -9.8620999960408306E-03 a       257     0    13     1    17
  7.1979311736427964E-02 a       258     0    13     1    18
 -4.1536226970876611E-02 a       259     0    13     1    19
  7.8247571097725441E-02 a       260     0    13     1    20
  7.1162621324312558E-02 a       261     0    14     1     1
  1.2539863299884112E-02 a       262     0    14     1     2
 -7.8923361711415937E-02 a       263     0    14     1     3
  2.4176413792673668E-01 a       264     0    14     1     4
  5.3115165637114985E-02 a       265     0    14     1     5
 -5.9681513523580663E-02 a       266     0    14     1     6
  3.9410237009671639E-02 a       267     0    14     1     7
  1.2605295086076859E-01 a       268     0    14     1     8
 -1.0346568883942313E-01 a       269     0    14     1     9
  6.4038912132316786E-02 a       270     0    14     1    10
 -1.1417602073928469E-01 a       271     0    14     1    11
  3.1194498368558614E-03 a       272     0    14     1    12
  1.4567195586142648E-01 a       273     0    14     1    13
  2.0589011388931017E-02 a       274     0    14     1    14
 -1.1709577729241243E-01 a       275     0    14     1    15
 -1.0238722167056411E-02 a       276     0    14     1    16
  1.9022467422682496E-01 a       277     0    14     1    17
  1.4861420819214194E-01 a       278     0    14     1    18
 -8.5947273181187570E-02 a       279     0    14     1    19
 -1.2056211946423964E-01 a       280     0    14     1    20
  1.7905234458368086E-01 a       281     0    15     1     1
 -2.0186477001923042E-01 a       282     0    15     1     2
  2.2804290520849796E-01 a       283     0    15     1     3
 -1.4185568085040329E-01 a       284     0    15     1     4
 -1.3397548197036790E-01 a       285     0    15     1     5
 -1.8604321107020846E-01 a       286     0    15     1     6
  1.4986050841627133E-02 a       287     0    15     1     7
 -2.4627861627835895E-02 a       288     0    15     1     8
 -1.9780895433221157E-01 a       289     0    15     1     9
 -1.0988774547271504E-01 a       290     0    15     1    10
  8.9203239582425556E-02 a       291     0    15     1    11
 -1.4454593299809848E-01 a       292     0    15     1    12
  2.9915381938539543E-02 a       293     0    15     1    13
  7.2895771361242034E-02 a       294     0    15     1    14
 -1.1690795280167400E-01 a       295     0    15     1    15
 -9.8070685325809363E-03 a       296     0    15     1    16
 -2.8163905576671217E-01 a       297     0    15     1    17
  4.4085407703264370E-02 a       298     0    15     1    18
 -8.2926453714372475E-02 a       299     0    15     1    19
 -1.9475859553447777E-01 a       300     0    15     1    20
 -1.2380091813197130E-01 a       301     0    16     1     1
  5.3174174169660311E-02 a       302     0    16     1     2
  2.1731257609291518E-01 a       303     0    16     1     3
 -1.7621497284984022E-01 a       304     0    16     1     4
 -2.2851618119003861E-01 a       305     0    16     1     5
 -3.0006538799192739E-01 a       306     0    16     1     6
  2.9137469906717395E-01 a       307     0    16     1     7
 -6.4268696210077442E-02 a       308     0    16     1     8
  7.8565397111138094E-02 a       309     0    16     1     9
  1.6183325206881582E-01 a       310     0    16     1    10
  3.8635096798869850E-01 a       311     0    16     1    11
 -1.5354610215733885E-01 a       312     0    16     1    12
  1.2186043435304986E-01 a       313     0    16     1    13
  3.4865676350137254E-01 a       314     0    16     1    14
  1.8819907143194997E-01 a       315     0    16     1    15
 -1.1671251236440770E-01 a       316     0    16     1    16
  3.7208827506449488E-01 a       317     0    16     1    17
 -1.6048725309291148E-01 a       318     0    16     1    18
 -2.0521918461975777E-01 a       319     0    16     1    19
 -3.4063967551725118E-02 a       320     0    16     1    20
  1.0774466600868421E-02 a       321     0    17     1     1
 -6.9425781852756052E-02 a       322     0    17     1     2
 -4.9048553430507524E-03 a       323     0    17     1     3
 -1.2514966153369145E-01 a       324     0    17     1     4
 -1.6449773490751252E-01 a       325     0    17     1     5
 -1.0774137946083466E-01 a       326     0    17     1     6
  2.1593829562633129E-01 a       327     0    17     1     7
 -1.6701416027576892E-02 a       328     0    17     1     8
 -4.9812493484648619E-02 a       329     0    17     1     9
  2.6620835448607906E-03 a       330     0    17     1    10
 -1.3294707826084803E-01 a       331     0    17     1    11
 -8.7820704497383259E-02 a       332     0    17     1    12
 -1.8736409808058346E-01 a       333     0    17     1    13
 -1.0879606294504161E-01 a       334     0    17     1    14
  2.4773019046665748E-01 a       335     0    17     1    15
 -1.8540346618721573E-02 a       336     0    17     1    16
  1.5840118832744451E-01 a       337     0    17     1    17
  6.1440467418399931E-02 a       338     0    17     1    18
  1.4147052954496311E-01 a       339     0    17     1    19
 -1.0112479413962799E-01 a       340     0    17     1    20
 -3.2749195661694775E-03 a       341     0    18     1     1
 -1.0862940918691012E-01 a       342     0    18     1     2
  1.2729903499684347E-01 a       343     0    18     1     3
  8.9258548738660824E-03 a       344     0    18     1     4
 -3.9021775268687393E-02 a       345     0    18     1     5
  1.2073774797341430E-01 a       346     0    18     1     6
  1.1296622879512166E-01 a       347     0    18     1     7
 -5.3849252825759905E-02 a       348     0    18     1     8
 -9.4177317924330137E-02 a       349     0    18     1     9
  4.8632874816460170E-02 a       350     0    18     1    10
 -1.2242690239051299E-01 a       351     0    18     1    11
 -8.2780275085203199E-03 a       352     0    18     1    12
  8.7741341987268406E-02 a       353     0    18     1    13
  2.6265007407690606E-03 a       354     0    18     1    14
 -4.3626769600785174E-02 a       355     0    18     1    15
  1.4994657143759163E-01 a       356     0    18     1    16
 -1.0428758988138061E-01 a       357     0    18     1    17
 -9.3424144705777507E-02 a       358     0    18     1    18
  9.2365283030134304E-02 a       359     0    18     1    19
  5.6416202453175128E-02 a       360     0    18     1    20
 -9.1957334799397869E-02 a       361     0    19     1     1
  8.8681370864398409E-02 a       362     0    19     1     2
 -1.3586454169295889E-01 a       363     0    19     1     3
 -5.5714134904799574E-02 a       364     0    19     1     4
  1.2211507430297203E-01 a       365     0    19     1     5
 -9.9699227361813303E-02 a       366     0    19     1     6
 -2.8642485576303563E-02 a       367     0    19     1     7
  1.8536789191428302E-01 a       368     0    19     1     8
 -1.3986528103325985E-01 a       369     0    19     1     9
  1.6084226357491866E-02 a       370     0    19     1    10
  9.8089703724286631E-02 a       371     0    19     1    11
 -5.2678352867292465E-02 a       372     0    19     1    12
 -6.6359272408026873E-02 a       373     0    19     1    13
  1.6475572198989469E-01 a       374     0    19     1    14
  1.4221548896800676E-01 a       375     0    19     1    15
  7.0565858791864819E-02 a       376     0    19     1    16
  2.1001756748463532E-01 a       377     0    19     1    17
  1.9489304662817031E-01 a       378     0    19     1    18
  5.3400199048842328E-02 a       379     0    19     1    19
  3.5500489401711899E-01 a       380     0    19     1    20
 -2.3124445699490120E-01 a       381     0    20     1     1
  1.2363039512113318E-01 a       382     0    20     1     2
  1.7952113377712631E-01 a       383     0    20     1     3
 -5.3481445469995378E-02 a       384     0    20     1     4
 -1.5920390776728749E-01 a       385     0    20     1     5
 -1.4690148192300606E-01 a       386     0    20     1     6
 -1.0520892579477203E-01 a       387     0    20     1     7
 -1.3475855217053434E-01 a       388     0    20     1     8
  1.7572652046748174E-01 a       389     0    20     1     9
  5.1821865357221129E-02 a       390     0    20     1    10
 -1.9385117850092229E-01 a       391     0    20     1    11
  1.1915308581647406E-01 a       392     0    20     1    12
  1.3661123875354017E-01 a       393     0    20     1    13
  2.8760015693060065E-01 a       394     0    20     1    14
 -9.4510689184508140E-02 a       395     0    20     1    15
 -1.4450323468735485E-01 a       396     0    20     1    16
 -2.6193089410513782E-02 a       397     0    20     1    17
 -7.7083397791197050E-02 a       398     0    20     1    18
 -8.4632092180764062E-02 a       399     0    20     1    19
  3.2910594462098257E-02 a       400     0    20     1    20
 -2.8222859935534118E-02 a       401     0    21     1     1
  5.0817240078778270E-03 a       402     0    21     1     2
  5.8744904031055444E-02 a       403     0    21     1     3
  5.9631145978464056E-02 a       404     0    21     1     4
 -9.3353240312652325E-02 a       405     0    21     1     5
 -1.5154325704181697E-02 a       406     0    21     1     6
 -1.0639698346257014E-01 a       407     0    21     1     7
  6.1564937875157023E-02 a       408     0    21     1     8
  1.3881371897932898E-01 a       409     0    21     1     9
  1.6495655272608092E-01 a       410     0    21     1    10
  3.2873388840704293E-01 a       411     0    21     1    11
 -1.8512958132156099E-01 a       412     0    21     1    12
 -7.4611836683537228E-03 a       413     0    21     1    13
  8.4435475633861251E-02 a       414     0    21     1    14
 -4.1408071310951915E-02 a       415     0    21     1    15
  1.1677264537221263E-01 a       416     0    21     1    16
  4.3008131399989002E-01 a       417     0    21     1    17
  2.1136040156411410E-02 a       418     0    21     1    18
 -2.9271213124141182E-01 a       419     0    21     1    19
 -1.9088568733569453E-01 a       420     0    21     1    20
 -9.8419535121464757E-02 a       421     0    22     1     1
 -3.0171188579483005E-02 a       422     0    22     1     2
 -8.5081836171182534E-02 a       423     0    22     1     3
 -1.0401276564181192E-01 a       424     0    22     1     4
  1.6303605288240813E-01 a       425     0    22     1     5
  1.4987589034742710E-02 a       426     0    22     1     6
 -1.1791877258919599E-01 a       427     0    22     1     7
 -2.3028533107247962E-01 a       428     0    22     1     8
  1.2410511012493625E-01 a       429     0    22     1     9
 -4.6301881310355716E-02 a       430     0    22     1    10
  2.1517819142229812E-02 a       431     0    22     1    11
  4.9261755056582361E-02 a       432     0    22     1    12
  9.7463118635721227E-02 a       433     0    22     1    13
 -8.2743432055938024E-02 a       434     0    22     1    14
 -9.3919802553220369E-02 a       435     0    22     1    15
 -2.1318315243535467E-02 a       436     0    22     1    16
  3.1897632678039379E-03 a       437     0    22     1    17
  2.0163455775016166E-02 a       438     0    22     1    18
 -1.9462946739655321E-01 a       439     0    22     1    19
  3.2964050826384567E-02 a       440     0    22     1    20
 -9.6624201602298343E-03 a       441     0    23     1     1
 -3.3678525199381824E-02 a       442     0    23     1     2
  2.6915269243501727E-01 a       443     0    23     1     3
 -9.5407900463766279E-02 a       444     0    23     1     4
 -1.7090927536055620E-01 a       445     0    23     1     5
  6.9201009383026590E-02 a       446     0    23     1     6
  5.4125189938687819E-02 a       447     0    23     1     7
 -2.6543129033954144E-01 a       448     0    23     1     8
  2.4143423700106106E-01 a       449     0    23     1     9
 -1.9027143185201427E-02 a       450     0    23     1    10
 -7.9198164829326304E-02 a       451     0    23     1    11
  2.9456681209813103E-02 a       452     0    23     1    12
  1.3797005139944130E-01 a       453     0    23     1    13
 -1.3997665364259673E-01 a       454     0    23     1    14
 -2.1080873862412688E-01 a       455     0    23     1    15
 -1.0001736147333459E-02 a       456     0    23     1    16
 -2.3668406132030578E-01 a       457     0    23     1    17
 -5.6737653652913625E-02 a       458     0    23     1    18
 -2.6196409949418120E-01 a       459     0    23     1    19
 -1.2917993486352733E-01 a       460     0    23     1    20
 -2.1061976731992831E-02 a       461     0    24     1     1
  1.3499202170962643E-01 a       462     0    24     1     2
 -4.3073584497616300E-02 a       463     0    24     1     3
  1.7170709833382472E-01 a       464     0    24     1     4
  4.4157069007501208E-02 a       465     0    24     1     5
  6.2501127014847752E-02 a       466     0    24     1     6
  4.1574300147659664E-03 a       467     0    24     1     7
  2.2423455525503047E-01 a       468     0    24     1     8
  1.2726042051742553E-02 a       469     0    24     1     9
 -1.8540776636356671E-01 a       470     0    24     1    10
  1.7518409561070580E-01 a       471     0    24     1    11
 -1.8122742787550930E-01 a       472     0    24     1    12
  1.9682520613882131E-02 a       473     0    24     1    13
 -9.4155654535127087E-02 a       474     0    24     1    14
 -1.2930465597298715E-01 a       475     0    24     1    15
  7.4886180087690671E-02 a       476     0    24     1    16
  1.3024424738613458E-01 a       477     0    24     1    17
 -1.2425638573630412E-02 a       478     0    24     1    18
  3.7279433882578233E-02 a       479     0    24     1    19
  8.5285769663550434E-02 a       480     0    24     1    20
  9.6488137121528428E-02 a       481     0    25     1     1
  6.3895320360263116E-02 a       482     0    25     1     2
 -3.1934670631694889E-02 a       483     0    25     1     3
  2.2925181866952354E-01 a       484     0    25     1     4
 -1.5344669109163414E-01 a       485     0    25     1     5
 -2.2850522139848628E-01 a       486     0    25     1     6
 -1.4778037350191747E-01 a       487     0    25     1     7
 -8.2039086501316721E-02 a       488     0    25     1     8
 -3.8210652086684040E-02 a       489     0    25     1     9
 -1.0928148090575923E-01 a       490     0    25     1    10
 -6.3449044088582096E-02 a       491     0    25     1    11
  3.0872210095818805E-02 a       492     0    25     1    12
 -5.1401896695777105E-02 a       493     0    25     1    13
 -7.0468780641239390E-02 a       494     0    25     1    14
  1.9898237322544732E-01 a       495     0    25     1    15
  1.2977141357816843E-01 a       496     0    25     1    16
 -1.5436589690323410E-01 a       497     0    25     1    17
 -7.5780261841037685E-02 a       498     0    25     1    18
 -3.0148988521750264E-01 a       499     0    25     1    19
 -3.2578023507636855E-01 a       500     0    25     1    20
  2.4216127349201731E-02 a       501     0    26     1     1
 -1.9687933260273426E-02 a       502     0    26     1     2
  5.5647986116028371E-02 a       503     0    26     1     3
 -6.3064405382404723E-02 a       504     0    26     1     4
  3.1608348972289237E-02 a       505     0    26     1     5
 -1.0783922751769703E-01 a       506     0    26     1     6
 -3.2765618041459159E-02 a       507     0    26     1     7
  9.0602720452217941E-02 a       508     0    26     1     8
  7.5460606549059756E-02 a       509     0    26     1     9
  6.1185753107935610E-04 a       510     0    26     1    10
  1.6644023088265836E-01 a       511     0    26     1    11
 -6.3532212910797484E-02 a       512     0    26     1    12
 -5.1086465093199467E-02 a       513     0    26     1    13
  2.1646325915838824E-01 a       514     0    26     1    14
  4.8566480852126274E-02 a       515     0    26     1    15
 -5.6897583164511940E-02 a       516     0    26     1    16
  3.8431245214727738E-02 a       517     0    26     1    17
 -5.0014124498747967E-02 a       518     0    26     1    18
 -9.0703304123488770E-03 a       519     0    26     1    19
 -1.1047034601371719E-01 a       520     0    26     1    20
 -9.5814793031757620E-02 a       521     0    27     1     1
 -1.9972701602819762E-02 a       522     0    27     1     2
  1.7189022406463339E-01 a       523     0    27     1     3
  1.2475606854769418E-01 a       524     0    27     1     4
 -9.2915810523676520E-02 a       525     0    27     1     5
 -9.3541661009029206E-02 a       526     0    27     1     6
 -2.4410274126106215E-02 a       527     0    27     1     7
 -1.2516396354624168E-01 a       528     0    27     1     8
 -4.0740675180338352E-02 a       529     0    27     1     9
 -9.8445151803606148E-02 a       530     0    27     1    10
  6.6199908232863119E-02 a       531     0    27     1    11
  4.9101537926427914E-02 a       532     0    27     1    12
  2.3513089562485434E-01 a       533     0    27     1    13
 -1.7450676440928253E-01 a       534     0    27     1    14
 -1.2099675837454085E-01 a       535     0    27     1    15
  5.9305754267192604E-02 a       536     0    27     1    16
 -1.8081080019842755E-01 a       537     0    27     1    17
  1.4745161935095785E-01 a       538     0    27     1    18
 -4.1636262387187558E-03 a       539     0    27     1    19
  7.5303124177870717E-02 a       540     0    27     1    20
  3.8173552547589570E-02 a       541     0    28     1     1
 -7.6850826762669439E-02 a       542     0    28     1     2
  2.9824909272764849E-01 a       543     0    28     1     3
 -6.0276989727709590E-02 a       544     0    28     1     4
 -3.5685204701941586E-01 a       545     0    28     1     5
 -6.9746987125352350E-02 a       546     0    28     1     6
 -1.3364016403058165E-01 a       547     0    28     1     7
 -7.2945621240314007E-02 a       548     0    28     1     8
 -5.4102630618988734E-02 a       549     0    28     1     9
 -1.5780717458408713E-02 a       550     0    28     1    10
 -2.8443266420458868E-01 a       551     0    28     1    11
 -2.5811337561948675E-02 a       552     0    28     1    12
 -1.0644595302960361E-03 a       553     0    28     1    13
  4.1740245744688764E-02 a       554     0    28     1    14
 -6.6907902692644308E-02 a       555     0    28     1    15
 -4.8375171042712009E-02 a       556     0    28     1    16
 -1.4250484702908678E-01 a       557     0    28     1    17
 -2.6540306626515853E-01 a       558     0    28     1    18
 -7.9684769502793490E-02 a       559     0    28     1    19
  7.5985141263180738E-04 a       560     0    28     1    20
  1.5445866567770607E-02 a       561     0    29     1     1
  6.6454946006660270E-02 a       562     0    29     1     2
 -2.1086868258125102E-01 a       563     0    29     1     3
  1.1628204324134250E-01 a       564     0    29     1     4
 -2.9177743696648679E-02 a       565     0    29     1     5
 -8.0534465833395616E-02 a       566     0    29     1     6
 -6.8534357190971673E-02 a       567     0    29     1     7
  1.8384310922562305E-01 a       568     0    29     1     8
 -4.5409201021223040E-02 a       569     0    29     1     9
  1.8259179604785516E-01 a       570     0    29     1    10
  1.4970885521799149E-01 a       571     0    29     1    11
  8.4647823157960406E-02 a       572     0    29     1    12
  1.9965910005972182E-01 a       573     0    29     1    13
  2.9647145075974946E-01 a       574     0    29     1    14
 -8.6954095120785422E-03 a       575     0    29     1    15
  1.2629410165409322E-01 a       576     0    29     1    16
  3.1678105146076846E-01 a       577     0    29     1    17
  1.6287628690735090E-01 a       578     0    29     1    18
 -1.2462784551264362E-01 a       579     0    29     1    19
 -1.8712513043420620E-01 a       580     0    29     1    20
 -1.5647929271043723E-01 a       581     0    30     1     1
 -2.1067212051089174E-01 a       582     0    30     1     2
  2.7974074541661464E-01 a       583     0    30     1     3
 -9.2318027719025475E-02 a       584     0    30     1     4
 -4.4939336046754659E-02 a       585     0    30     1     5
  1.0870214000471437E-01 a       586     0    30     1     6
 -2.1855485457679652E-01 a       587     0    30     1     7
 -1.8921187126933903E-02 a       588     0    30     1     8
 -7.6716802962821837E-02 a       589     0    30     1     9
 -8.7795800159330972E-03 a       590     0    30     1    10
  2.3305774610213676E-02 a       591     0    30     1    11
 -8.9549020410629274E-02 a       592     0    30     1    12
  1.9671879194677559E-02 a       593     0    30     1    13
  5.5227113018051169E-03 a       594     0    30     1    14
 -6.9860382518664596E-02 a       595     0    30     1    15
 -2.5290252419040565E-01 a       596     0    30     1    16
 -4.6478251198283069E-02 a       597     0    30     1    17
 -1.2679889320839239E-02 a       598     0    30     1    18
  7.8293800180284381E-02 a       599     0    30     1    19
 -6.1329495331644140E-02 a       600     0    30     1    20
  3.9687082497841052E-02 a       601     0    31     1     1
 -7.9194818115734852E-02 a       602     0    31     1     2
 -6.0391189181954644E-02 a       603     0    31     1     3
 -1.7975884193653927E-02 a       604     0    31     1     4
  1.4171518431648233E-01 a       605     0    31     1     5
  8.0614856345449293E-02 a       606     0    31     1     6
  9.5524706486347546E-02 a       607     0    31     1     7
  4.4503510478622048E-02 a       608     0    31     1     8
  9.5717489938313111E-02 a       609     0    31     1     9
  1.5065792320491822E-01 a       610     0    31     1    10
  4.1059236559005097E-01 a       611     0    31     1    11
 -2.0552885906858903E-01 a       612     0    31     1    12
 -1.4845847978309745E-01 a       613     0    31     1    13
  9.5047298827381901E-02 a       614     0    31     1    14
 -2.3531122580871332E-02 a       615     0    31     1    15
 -6.3593146792657498E-02 a       616     0    31     1    16
  2.4848524233556810E-01 a       617     0    31     1    17
 -1.2473595465563068E-02 a       618     0    31     1    18
 -8.6110627114131422E-02 a       619     0    31     1    19
 -3.1102938454955670E-02 a       620     0    31     1    20
 -8.4248414402914543E-02 a       621     0    32     1     1
  1.2360973146790587E-01 a       622     0    32     1     2
  9.2064440294126160E-04 a       623     0    32     1     3
 -1.3813718490917423E-01 a       624     0    32     1     4
  6.4497736944929024E-02 a       625     0    32     1     5
 -6.7401308317659128E-02 a       626     0    32     1     6
 -8.1441216439666134E-02 a       627     0    32     1     7
 -6.5869710653196537E-02 a       628     0    32     1     8
 -1.6616051779377568E-04 a       629     0    32     1     9
 -1.0149289213709292E-02 a       630     0    32     1    10
  1.3045245793452426E-02 a       631     0    32     1    11
 -1.2323787028651448E-01 a       632     0    32     1    12
 -7.0685030784918723E-02 a       633     0    32     1    13
  8.2065784470594760E-02 a       634     0    32     1    14
 -1.0844397540345871E-03 a       635     0    32     1    15
 -2.0768507708032774E-01 a       636     0    32     1    16
  5.9132920942593731E-02 a       637     0    32     1    17
  1.0386783313323213E-02 a       638     0    32     1    18
  4.6901149399310317E-02 a       639     0    32     1    19
  2.4914707791028065E-01 a       640     0    32     1    20
  6.5313648272147650E-03 a       641     0    33     1     1
  8.3508439632889744E-02 a       642     0    33     1     2
  2.1858022578757388E-01 a       643     0    33     1     3
  4.0234625728790066E-02 a       644     0    33     1     4
 -3.4971867957424702E-01 a       645     0    33     1     5
 -7.7053156793940758E-02 a       646     0    33     1     6
  6.9903152846966840E-02 a       647     0    33     1     7
 -1.7334975297186953E-01 a       648     0    33     1     8
  1.5275895327413708E-01 a       649     0    33     1     9
 -6.9175224181428421E-02 a       650     0    33     1    10
 -1.2761762590390199E-01 a       651     0    33     1    11
  8.3136976309818533E-02 a       652     0    33     1    12
  2.2831200083411504E-01 a       653     0    33     1    13
  3.2860723839770060E-02 a       654     0    33     1    14
 -1.9169987236615556E-02 a       655     0    33     1    15
  8.9976495321321570E-02 a       656     0    33     1    16
 -7.8246412254888154E-02 a       657     0    33     1    17
 -1.8605410915171018E-02 a       658     0    33     1    18
 -2.3246019659299250E-01 a       659     0    33     1    19
 -9.1266887695709328E-02 a       660     0    33     1    20
  2.6164651778642557E-02 a       661     0    34     1     1
 -1.0563439100143622E-01 a       662     0    34     1     2
  1.5759757220747078E-01 a       663     0    34     1     3
 -5.6940526046841557E-02 a       664     0    34     1     4
 -7.5852837477722923E-02 a       665     0    34     1     5
 -8.6043619551234782E-02 a       666     0    34     1     6
 -2.3865852712676331E-02 a       667     0    34     1     7
 -3.6120300515197615E-02 a       668     0    34     1     8
  3.6058062227560368E-02 a       669     0    34     1     9
 -6.2362690087183648E-02 a       670     0    34     1    10
  3.4097500336934414E-02 a       671     0    34     1    11
 -1.2875613591337579E-01 a       672     0    34     1    12
 -1.5325833855127868E-01 a       673     0    34     1    13
 -1.6045283443493444E-02 a       674     0    34     1    14
  1.3533398474557064E-02 a       675     0    34     1    15
 -1.2591267798050290E-01 a       676     0    34     1    16
 -6.0488236364348469E-02 a       677     0    34     1    17
 -4.0711268549255546E-02 a       678     0    34     1    18
 -1.2008776278456970E-01 a       679     0    34     1    19
 -3.5780470823908492E-02 a       680     0    34     1    20
  7.3164060428395211E-02 a       681     0    35     1     1
 -1.4573596679560416E-02 a       682     0    35     1     2
 -5.7720379871673971E-02 a       683     0    35     1     3
 -1.1750890320684512E-01 a       684     0    35     1     4
 -1.4976590419044553E-01 a       685     0    35     1     5
 -1.5280513748356292E-01 a       686     0    35     1     6
  1.2828408238729189E-01 a       687     0    35     1     7
 -3.0002191719741323E-02 a       688     0    35     1     8
  1.3284383175657191E-01 a       689     0    35     1     9
 -6.0607329551225012E-02 a       690     0    35     1    10
 -2.5473777884828203E-01 a       691     0    35     1    11
 -1.7612099887789532E-03 a       692     0    35     1    12
 -3.8959444476109058E-02 a       693     0    35     1    13
  1.2960294865125704E-01 a       694     0    35     1    14
 -5.9012705305955628E-02 a       695     0    35     1    15
 -9.9924137597997495E-02 a       696     0    35     1    16
  4.6485118561310566E-02 a       697     0    35     1    17
  7.5492411612733706E-02 a       698     0    35     1    18
  5.5717454241340225E-02 a       699     0    35     1    19
 -2.8541137507933451E-01 a       700     0    35     1    20
 -2.3283265476887437E-02 a       701     0    36     1     1
  3.3298379324858428E-02 a       702     0    36     1     2
  7.6409801013602299E-02 a       703     0    36     1     3
 -1.0219254088378553E-01 a       704     0    36     1     4
  6.7511083785061529E-02 a       705     0    36     1     5
  4.9432881291874876E-02 a       706     0    36     1     6
 -1.1629303933987821E-01 a       707     0    36     1     7
  5.6030144969965681E-02 a       708     0    36     1     8
  5.9981854351615640E-02 a       709     0    36     1     9
 -6.8773719729632116E-02 a       710     0    36     1    10
  1.0734547782298907E-01 a       711     0    36     1    11
 -1.0453987429033781E-01 a       712     0    36     1    12
 -1.4473122856804568E-01 a       713     0    36     1    13
  1.6554361782170393E-01 a       714     0    36     1    14
  8.8614833056257059E-02 a       715     0    36     1    15
 -9.8528967990561794E-02 a       716     0    36     1    16
 -1.0798923505360467E-01 a       717     0    36     1    17
 -1.7773464710393030E-01 a       718     0    36     1    18
 -1.8295272141170205E-01 a       719     0    36     1    19
  1.1716041849571538E-02 a       720     0    36     1    20
 -3.1574210430419650E-02 a       721     0    37     1     1
 -1.6014414930525028E-01 a       722     0    37     1     2
  1.1798822141636910E-01 a       723     0    37     1     3
 -1.5884316846660243E-01 a       724     0    37     1     4
 -6.1915438905478855E-02 a       725     0    37     1     5
  6.2917177854652756E-02 a       726     0    37     1     6
  3.4913701533053017E-02 a       727     0    37     1     7
 -1.8184236118215014E-02 a       728     0    37     1     8
  9.0013811381248712E-02 a       729     0    37     1     9
 -2.7093104125350952E-02 a       730     0    37     1    10
 -9.5341413672733716E-02 a       731     0    37     1    11
  6.9212370770061265E-03 a       732     0    37     1    12
  7.0248216199729319E-02 a       733     0    37     1    13
 -6.5936674057511802E-02 a       734     0    37     1    14
  2.0980644328925022E-02 a       735     0    37     1    15
 -2.0851532083668253E-01 a       736     0    37     1    16
 -4.6205665131702364E-02 a       737     0    37     1    17
 -1.0465792610839314E-01 a       738     0    37     1    18
  1.2778260980565218E-01 a       739     0    37     1    19
  6.1799744339906829E-02 a       740     0    37     1    20
  9.1583711092340481E-02 a       741     0    38     1     1
 -3.0709962202007834E-02 a       742     0    38     1     2
  3.4338169533533186E-01 a       743     0    38     1     3
 -1.1123433769133467E-01 a       744     0    38     1     4
 -2.1687613628898567E-01 a       745     0    38     1     5
 -5.5772546459882687E-02 a       746     0    38     1     6
 -3.3945776817761765E-03 a       747     0    38     1     7
 -4.7422183986009510E-02 a       748     0    38     1     8
  8.4062105269969517E-02 a       749     0    38     1     9
  1.6332917331820639E-02 a       750     0    38     1    10
 -7.6374010748751262E-02 a       751     0    38     1    11
 -1.1526547822431941E-01 a       752     0    38     1    12
 -3.7431760734781654E-02 a       753     0    38     1    13
  2.6076756340011272E-02 a       754     0    38     1    14
 -5.3592777580597301E-02 a       755     0    38     1    15
  1.4046662527939735E-01 a       756     0    38     1    16
 -3.4333719680517322E-02 a       757     0    38     1    17
 -1.1712764401580347E-01 a       758     0    38     1    18
 -1.1864588922806751E-01 a       759     0    38     1    19
  9.9516360449172295E-02 a       760     0    38     1    20
 -5.0447975288206375E-02 a       761     0    39     1     1
  9.5199700917952046E-02 a       762     0    39     1     2
 -1.3684333821725717E-01 a       763     0    39     1     3
 -4.3327099243184305E-03 a       764     0    39     1     4
  7.8199563432974392E-02 a       765     0    39     1     5
  1.0351382759834706E-01 a       766     0    39     1     6
  3.7768953552171122E-02 a       767     0    39     1     7
  8.0145658301272529E-02 a       768     0    39     1     8
 -4.8914023038134267E-02 a       769     0    39     1     9
 -9.2959747688667396E-03 a       770     0    39     1    10
 -1.6876354256838880E-02 a       771     0    39     1    11
  1.5238630219291031E-02 a       772     0    39     1    12
  2.9422636615002818E-02 a       773     0    39     1    13
  1.2251905301861324E-01 a       774     0    39     1    14
  1.9191958024694481E-02 a       775     0    39     1    15
  6.4751081717978790E-02 a       776     0    39     1    16
  1.1954219042318907E-01 a       777     0    39     1    17
  4.9704934634955851E-03 a       778     0    39     1    18
 -1.3137280309781032E-02 a       779     0    39     1    19
  2.4573890298426843E-02 a       780     0    39     1    20
  2.8017353027185891E-02 a       781     0    40     1     1
 -2.8439924672769980E-03 a       782     0    40     1     2
 -1.0184916755007416E-02 a       783     0    40     1     3
  9.4490688478267484E-02 a       784     0    40     1     4
  3.2430430576714932E-03 a       785     0    40     1     5
  3.6986529676356440E-02 a       786     0    40     1     6
  7.8942249291023947E-02 a       787     0    40     1     7
  9.2087740052474679E-02 a       788     0    40     1     8
 -1.5302115095215940E-01 a       789     0    40     1     9
 -5.2404357957504706E-02 a       790     0    40     1    10
  4.0100071014545985E-03 a       791     0    40     1    11
 -1.6250109378040126E-02 a       792     0    40     1    12
 -3.1061671706272730E-02 a       793     0    40     1    13
  4.7058038197868086E-02 a       794     0    40     1    14
  7.5189333163702106E-03 a       795     0    40     1    15
  1.6648588667913231E-01 a       796     0    40     1    16
 -5.4688610185668243E-02 a       797     0    40     1    17
  2.3116081832457010E-02 a       798     0    40     1    18
 -2.6447820494433066E-01 a       799     0    40     1    19
 -2.7579304242263430E-02 a       800     0    40     1    20
 -2.2765811949919064E-02 a       801     0    41     1     1
 -4.8836387701140321E-02 a       802     0    41     1     2
  1.8302622279117353E-01 a       803     0    41     1     3
  1.1828257931456988E-01 a       804     0    41     1     4
 -1.4964339140654326E-01 a       805     0    41     1     5
 -2.1609611637992122E-02 a       806     0    41     1     6
  1.2788088387213140E-01 a       807     0    41     1     7
 -1.0756073201998023E-01 a       808     0    41     1     8
  9.8322442980400521E-02 a       809     0    41     1     9
  1.2957890128947333E-01 a       810     0    41     1    10
  9.3871809860230040E-02 a       811     0    41     1    11
  9.1764004871100653E-03 a       812     0    41     1    12
  2.4859449654703134E-01 a       813     0    41     1    13
  1.2590381775297155E-01 a       814     0    41     1    14
 -5.9190900046566887E-02 a       815     0    41     1    15
  3.6204391592952398E-02 a       816     0    41     1    16
  4.8684318136914477E-02 a       817     0    41     1    17
 -9.1103271169361122E-02 a       818     0    41     1    18
 -1.2928623926922805E-01 a       819     0    41     1    19
 -8.3467155185330544E-02 a       820     0    41     1    20
 -1.1362508375428852E-03 a       821     0    42     1     1
  4.2235251501386115E-02 a       822     0    42     1     2
 -1.3563348355353178E-01 a       823     0    42     1     3
  7.7148591578889175E-02 a       824     0    42     1     4
  3.8741677657463981E-02 a       825     0    42     1     5
 -5.5529920255112794E-03 a       826     0    42     1     6
 -7.2468813921353251E-02 a       827     0    42     1     7
  1.4633521790040194E-01 a       828     0    42     1     8
 -1.0161218837171687E-01 a       829     0    42     1     9
 -1.7857638411513888E-01 a       830     0    42     1    10
  1.9009596221749921E-02 a       831     0    42     1    11
 -4.5252427617608962E-02 a       832     0    42     1    12
 -9.3568288463941302E-02 a       833     0    42     1    13
  7.1486310868667358E-02 a       834     0    42     1    14
 -1.2605208563783463E-01 a       835     0    42     1    15
  6.2553619458100673E-02 a       836     0    42     1    16
  1.0808622198304499E-01 a       837     0    42     1    17
  2.3200484121742665E-01 a       838     0    42     1    18
 -1.4063977537767616E-01 a       839     0    42     1    19
 -2.0940836874322336E-01 a       840     0    42     1    20
 -9.5169704316441298E-02 a       841     0    43     1     1
 -2.8483979568867054E-02 a       842     0    43     1     2
  3.6201370267814684E-02 a       843     0    43     1     3
 -7.6056072573892228E-02 a       844     0    43     1     4
 -2.7266222093584791E-01 a       845     0    43     1     5
 -1.0026065826773910E-01 a       846     0    43     1     6
 -1.2889091510927297E-01 a       847     0    43     1     7
 -1.2908227331355002E-01 a       848     0    43     1     8
  6.7537772551134911E-02 a       849     0    43     1     9
 -1.9814417219087662E-02 a       850     0    43     1    10
 -1.1977419857798992E-01 a       851     0    43     1    11
 -1.7808923459233576E-02 a       852     0    43     1    12
 -2.2498850361694345E-02 a       853     0    43     1    13
  7.6319213089649937E-02 a       854     0    43     1    14
  4.1591157319511511E-02 a       855     0    43     1    15
 -7.1443153689715336E-02 a       856     0    43     1    16
 -1.0013732490423589E-01 a       857     0    43     1    17
  2.1043569244344480E-02 a       858     0    43     1    18
 -1.5102957237805983E-01 a       859     0    43     1    19
 -1.1505095412762435E-01 a       860     0    43     1    20
  3.0565148310254732E-02 a       861     0    44     1     1
 -9.4766070194596722E-02 a       862     0    44     1     2
  5.3489830625839910E-02 a       863     0    44     1     3
 -3.9835561028419390E-02 a       864     0    44     1     4
 -4.6460173875750382E-02 a       865     0    44     1     5
 -1.1740398575957287E-01 a       866     0    44     1     6
 -1.3183472034358654E-01 a       867     0    44     1     7
 -3.6666582859607513E-02 a       868     0    44     1     8
  3.8547966780044483E-02 a       869     0    44     1     9
  1.2192761990629882E-02 a       870     0    44     1    10
  5.2470836979928520E-02 a       871     0    44     1    11
  1.2652080078537152E-02 a       872     0    44     1    12
 -3.2686879152380374E-02 a       873     0    44     1    13
 -5.2384576124398306E-02 a       874     0    44     1    14
 -2.4798673422961919E-02 a       875     0    44     1    15
 -1.6696743452065371E-01 a       876     0    44     1    16
 -5.4133997741185616E-02 a       877     0    44     1    17
  3.0830654277527222E-02 a       878     0    44     1    18
  1.8447154228213566E-02 a       879     0    44     1    19
 -9.2611449587769623E-02 a       880     0    44     1    20
 -4.3155114304030275E-02 a       881     0    45     1     1
  1.4249698495223688E-03 a       882     0    45     1     2
  1.3977937572459668E-02 a       883     0    45     1     3
 -1.3991242164255015E-02 a       884     0    45     1     4
 -5.3938843670961918E-02 a       885     0    45     1     5
  3.4191717062237628E-02 a       886     0    45     1     6
  1.4980529944284629E-01 a       887     0    45     1     7
 -4.0562788666324553E-02 a       888     0    45     1     8
  8.4795561272460684E-02 a       889     0    45     1     9
  3.1519932374261171E-02 a       890     0    45     1    10
 -8.8350570225605943E-03 a       891     0    45     1    11
  1.0439872942460493E-02 a       892     0    45     1    12
  1.4239412882958832E-01 a       893     0    45     1    13
 -7.6295673395547270E-02 a       894     0    45     1    14
 -2.0276879881664312E-02 a       895     0    45     1    15
 -7.6863821902791174E-02 a       896     0    45     1    16
  3.2790217558757405E-02 a       897     0    45     1    17
  5.5078921488106329E-02 a       898     0    45     1    18
  2.4482940247296478E-01 a       899     0    45     1    19
 -1.0992764598352357E-01 a       900     0    45     1    20
  3.9197620376059672E-02 a       901     0    46     1     1
  6.2471131148922367E-02 a       902     0    46     1     2
  2.1364074065244143E-01 a       903     0    46     1     3
 -1.8323882347028919E-01 a       904     0    46     1     4
 -1.2600599744507981E-01 a       905     0    46     1     5
  1.9300848665011049E-02 a       906     0    46     1     6
  2.4157025082808775E-01 a       907     0    46     1     7
  5.4561268045345147E-02 a       908     0    46     1     8
  1.7318699553744141E-01 a       909     0    46     1     9
 -2.4586785694917053E-03 a       910     0    46     1    10
  2.7240040203326560E-01 a       911     0    46     1    11
 -1.7831325929862143E-01 a       912     0    46     1    12
 -3.2173919859688753E-02 a       913     0    46     1    13
  1.4384430387257127E-01 a       914     0    46     1    14
 -1.5539755515593395E-02 a       915     0    46     1    15
 -8.8250389650214645E-02 a       916     0    46     1    16
 -8.6629578666157035E-03 a       917     0    46     1    17
 -1.2955505600571912E-01 a       918     0    46     1    18
 -1.8900841026664228E-01 a       919     0    46     1    19
  9.3876042138769406E-02 a       920     0    46     1    20
  1.3671839674832528E-01 a       921     0    47     1     1
  2.2018373237861545E-03 a       922     0    47     1     2
 -3.3212812327166767E-02 a       923     0    47     1     3
 -7.3174058539277095E-02 a       924     0    47     1     4
  5.0114695129965220E-02 a       925     0    47     1     5
  1.0065379083252465E-02 a       926     0    47     1     6
 -2.1205394735150183E-02 a       927     0    47     1     7
 -8.5860522027107668E-03 a       928     0    47     1     8
 -5.0563066844468742E-02 a       929     0    47     1     9
 -9.9348944702610326E-02 a       930     0    47     1    10
 -6.0226742739570641E-02 a       931     0    47     1    11
 -7.1657407208324767E-02 a       932     0    47     1    12
 -8.1791359144976150E-02 a       933     0    47     1    13
  3.8122284321769569E-02 a       934     0    47     1    14
  1.3385568971629522E-01 a       935     0    47     1    15
  4.6400568411408870E-03 a       936     0    47     1    16
  1.1724785621252153E-01 a       937     0    47     1    17
  6.4201420916344815E-02 a       938     0    47     1    18
  6.1876201604536621E-02 a       939     0    47     1    19
 -3.3788574417775502E-01 a       940     0    47     1    20
  7.3001136459979021E-02 a       941     0    48     1     1
  2.9940939932275274E-02 a       942     0    48     1     2
  1.8116830310442061E-01 a       943     0    48     1     3
 -1.7042023312954287E-02 a       944     0    48     1     4
 -5.3545108558387976E-02 a       945     0    48     1     5
  8.0381220652931060E-03 a       946     0    48     1     6
 -9.3355211452016747E-03 a       947     0    48     1     7
  1.7788191647240919E-02 a       948     0    48     1     8
  5.8035784443353895E-02 a       949     0    48     1     9
 -2.7886438915073782E-04 a       950     0    48     1    10
  2.4227956259069459E-02 a       951     0    48     1    11
 -3.9787016600505841E-02 a       952     0    48     1    12
  5.3615694043300077E-02 a       953     0    48     1    13
  4.9970000981506661E-03 a       954     0    48     1    14
 -1.0647058179894114E-01 a       955     0    48     1    15
  1.0325886359043972E-01 a       956     0    48     1    16
  8.8655059103850867E-02 a       957     0    48     1    17
 -6.9683773188807224E-02 a       958     0    48     1    18
 -6.8349929041964491E-02 a       959     0    48     1    19
  5.4373928107046407E-03 a       960     0    48     1    20
 -2.7878152365884264E-02 a       961     0    49     1     1
  8.3984411639235451E-02 a       962     0    49     1     2
  5.1955144104744819E-02 a       963     0    49     1     3
  1.3623642108980033E-01 a       964     0    49     1     4
 -9.3975480970473035E-02 a       965     0    49     1     5
  7.6889926326238461E-03 a       966     0    49     1     6
  2.3122403970182802E-02 a       967     0    49     1     7
  1.2985953573634987E-01 a       968     0    49     1     8
 -4.6814370214290212E-02 a       969     0    49     1     9
 -1.0437501525663072E-01 a       970     0    49     1    10
  6.5801860157060736E-03 a       971     0    49     1    11
 -1.2749436543375250E-02 a       972     0    49     1    12
  9.0607895998679508E-02 a       973     0    49     1    13
  1.5319010072697403E-01 a       974     0    49     1    14
 -1.4944319606266080E-02 a       975     0    49     1    15
 -3.0588080814081573E-02 a       976     0    49     1    16
  2.9174641117811703E-02 a       977     0    49     1    17
 -1.0557668342686734E-01 a       978     0    49     1    18
 -1.6028230074502597E-01 a       979     0    49     1    19
  3.6673590859816689E-02 a       980     0    49     1    20
  3.9116463548313305E-03 a       981     0    50     1     1
  2.2223571672054639E-02 a       982     0    50     1     2
  5.1637726247778973E-02 a       983     0    50     1     3
 -8.4122461788280097E-03 a       984     0    50     1     4
 -4.9651775595638707E-02 a       985     0    50     1     5
 -1.1188970026096003E-02 a       986     0    50     1     6
 -8.1630051334857998E-02 a       987     0    50     1     7
  3.0876845154813773E-02 a       988     0    50     1     8
 -5.3162228027701687E-03 a       989     0    50     1     9
 -9.9264958702201478E-02 a       990     0    50     1    10
 -1.6946143396520993E-02 a       991     0    50     1    11
 -1.5039857410528833E-02 a       992     0    50     1    12
  1.4621566358960810E-02 a       993     0    50     1    13
 -3.1354017442288048E-03 a       994     0    50     1    14
 -5.4416586804008189E-02 a       995     0    50     1    15
 -4.5387335940014983E-02 a       996     0    50     1    16
 -1.9835875667775318E-03 a       997     0    50     1    17
  4.9373313028295692E-03 a       998     0    50     1    18
 -6.0603587065723538E-02 a       999     0    50     1    19
  1.0476160383000147E-01 a      1000     0    50     1    20
 -1.0150550067127995E-01 a      1001     0    51     1     1
 -1.6583781420646126E-01 a      1002     0    51     1     2
  2.3255027329499506E-01 a      1003     0    51     1     3
 -6.5008975105527445E-02 a      1004     0    51     1     4
 -1.3499984866150047E-01 a      1005     0    51     1     5
  1.9998816852941259E-03 a      1006     0    51     1     6
 -3.9273073495818215E-03 a      1007     0    51     1     7
 -5.1052054693371866E-02 a      1008     0    51     1     8
  2.4188185726247405E-01 a      1009     0    51     1     9
 -1.7229302305112654E-01 a      1010     0    51     1    10
 -4.8685140503793065E-02 a      1011     0    51     1    11
 -8.8690964653842547E-02 a      1012     0    51     1    12
 -3.1305920033104850E-01 a      1013     0    51     1    13
  1.0228160484821246E-01 a      1014     0    51     1    14
 -1.1384056397059013E-01 a      1015     0    51     1    15
  3.9180380864962075E-02 a      1016     0    51     1    16
 -2.5360222821357092E-01 a      1017     0    51     1    17
 -8.2574260723083812E-02 a      1018     0    51     1    18
 -2.4286071575552845E-01 a      1019     0    51     1    19
 -1.4524128440718485E-02 a      1020     0    51     1    20
  4.8295999134086540E-02 a      1021     0    52     1     1
  7.9045162355222784E-02 a      1022     0    52     1     2
  7.2819031662288522E-02 a      1023     0    52     1     3
 -1.8035170744544438E-01 a      1024     0    52     1     4
 -1.4588804311259629E-01 a      1025     0    52     1     5
  2.1872869243463872E-01 a      1026     0    52     1     6
  9.3627173649623613E-02 a      1027     0    52     1     7
 -9.6837647801202853E-02 a      1028     0    52     1     8
  9.0333977129820262E-02 a      1029     0    52     1     9
  8.3553479658465810E-02 a      1030     0    52     1    10
  1.2037066126211213E-01 a      1031     0    52     1    11
 -1.2329574592000997E-01 a      1032     0    52     1    12
 -1.0161201657480339E-02 a      1033     0    52     1    13
 -3.0525618378630333E-02 a      1034     0    52     1    14
 -7.5103714886560285E-02 a      1035     0    52     1    15
  5.2089228126812215E-02 a      1036     0    52     1    16
 -1.5068300420018414E-02 a      1037     0    52     1    17
 -3.8931688732254943E-02 a      1038     0    52     1    18
  2.8337297097658656E-02 a      1039     0    52     1    19
  1.1714982168877450E-01 a      1040     0    52     1    20
 -7.9336548267661122E-02 a      1041     0    53     1     1
  3.9607562677526222E-02 a      1042     0    53     1     2
 -5.1720996009252139E-02 a      1043     0    53     1     3
  6.1683002281707901E-02 a      1044     0    53     1     4
 -4.4982985064406220E-02 a      1045     0    53     1     5
 -1.0550582345441728E-01 a      1046     0    53     1     6
  1.2879696599112458E-01 a      1047     0    53     1     7
 -2.7128621378685224E-02 a      1048     0    53     1     8
 -9.9304557056718534E-02 a      1049     0    53     1     9
 -2.7796910144687530E-02 a      1050     0    53     1    10
 -1.6505619708183587E-02 a      1051     0    53     1    11
 -7.1517674017059232E-02 a      1052     0    53     1    12
 -9.7919207419564329E-03 a      1053     0    53     1    13
 -5.8654852555075035E-02 a      1054     0    53     1    14
 -1.0524404462711133E-02 a      1055     0    53     1    15
 -1.2346324492838606E-01 a      1056     0    53     1    16
  3.4931874892978221E-01 a      1057     0    53     1    17
  8.5281340839661962E-02 a      1058     0    53     1    18
  7.5758309266784216E-02 a      1059     0    53     1    19
  2.3445330535837650E-01 a      1060     0    53     1    20
  1.0695512944367067E-01 a      1061     0    54     1     1
 -1.7556488417127338E-02 a      1062     0    54     1     2
 -7.2600938007872429E-02 a      1063     0    54     1     3
  1.7688415614100714E-01 a      1064     0    54     1     4
  1.9449682629801529E-01 a      1065     0    54     1     5
  1.0655043998873336E-01 a      1066     0    54     1     6
  5.5601142723490933E-02 a      1067     0    54     1     7
  5.0337207895054678E-02 a      1068     0    54     1     8
 -3.9950554573823675E-02 a      1069     0    54     1     9
  9.0845060892405294E-02 a      1070     0    54     1    10
  5.9441215201148805E-02 a      1071     0    54     1    11
  7.0066158233725043E-02 a      1072     0    54     1    12
 -2.9761024222059472E-02 a      1073     0    54     1    13
  1.9671391931773623E-03 a      1074     0    54     1    14
 -1.0748477389162847E-01 a      1075     0    54     1    15
  1.4020848401003674E-01 a      1076     0    54     1    16
  1.1820221509134805E-01 a      1077     0    54     1    17
 -7.0474168203385534E-02 a      1078     0    54     1    18
 -8.5389799064006358E-02 a      1079     0    54     1    19
 -1.6811408820288373E-01 a      1080     0    54     1    20
  8.7169499883140003E-02 a      1081     0    55     1     1
  8.4675674559702180E-02 a      1082     0    55     1     2
  6.1657242901017262E-02 a      1083     0    55     1     3
 -1.9089745759973156E-01 a      1084     0    55     1     4
 -6.8102224130748623E-02 a      1085     0    55     1     5
  8.5261136382126970E-02 a      1086     0    55     1     6
 -3.8735553362095443E-02 a      1087     0    55     1     7
  1.6386042486223416E-02 a      1088     0    55     1     8
  6.0205379285897226E-02 a      1089     0    55     1     9
  1.1077775271026737E-01 a      1090     0    55     1    10
  3.0283300034227176E-02 a      1091     0    55     1    11
  8.1388309590282749E-03 a      1092     0    55     1    12
  4.8495799461685959E-02 a      1093     0    55     1    13
 -7.3542611145780604E-02 a      1094     0    55     1    14
 -9.9527127151562186E-02 a      1095     0    55     1    15
 -2.1616260055671584E-02 a      1096     0    55     1    16
  6.7287669470321609E-02 a      1097     0    55     1    17
 -1.3622761199813155E-01 a      1098     0    55     1    18
 -4.3675322076162136E-03 a      1099     0    55     1    19
  8.1534472716374803E-02 a      1100     0    55     1    20
 -5.3785084872149079E-02 a      1101     0    56     1     1
 -1.0615974796081250E-01 a      1102     0    56     1     2
 -1.1389323533974071E-02 a      1103     0    56     1     3
 -9.8076863600151082E-02 a      1104     0    56     1     4
  9.5378422236766357E-03 a      1105     0    56     1     5
 -3.9604232155333915E-02 a      1106     0    56     1     6
  1.1638004520553208E-01 a      1107     0    56     1     7
  1.6024017754547729E-01 a      1108     0    56     1     8
  5.5300334252409357E-02 a      1109     0    56     1     9
  1.1958779764289575E-01 a      1110     0    56     1    10
 -1.2388812313274769E-01 a      1111     0    56     1    11
 -1.1306385980682690E-01 a      1112     0    56     1    12
 -1.5290356242005396E-01 a      1113     0    56     1    13
  7.2393212022673126E-02 a      1114     0    56     1    14
 -5.6214645331374317E-02 a      1115     0    56     1    15
 -1.2543230619003226E-01 a      1116     0    56     1    16
  1.0325422237875026E-01 a      1117     0    56     1    17
 -3.7987427325945448E-02 a      1118     0    56     1    18
  2.3260313746040345E-01 a      1119     0    56     1    19
 -4.9917901665091309E-02 a      1120     0    56     1    20
 -4.7944274166827503E-03 a      1121     0    57     1     1
  3.5934667956765656E-02 a      1122     0    57     1     2
 -1.5156249549910103E-01 a      1123     0    57     1     3
 -1.4639835354762054E-01 a      1124     0    57     1     4
 -1.2602008655202859E-01 a      1125     0    57     1     5
 -1.6377962632206849E-02 a      1126     0    57     1     6
 -2.2092818134500074E-02 a      1127     0    57     1     7
 -1.5154156947400048E-02 a      1128     0    57     1     8
  1.4764786288169032E-01 a      1129     0    57     1     9
 -2.2891149754283580E-02 a      1130     0    57     1    10
 -1.1380789653390906E-02 a      1131     0    57     1    11
 -1.3593423489120687E-01 a      1132     0    57     1    12
 -7.1897110895817476E-02 a      1133     0    57     1    13
  1.0013650841453574E-01 a      1134     0    57     1    14
  1.4141338285496635E-01 a      1135     0    57     1    15
  1.2342066306491625E-01 a      1136     0    57     1    16
 -2.2140090319061836E-01 a      1137     0    57     1    17
 -6.9519234907431296E-02 a      1138     0    57     1    18
 -1.0934446163672613E-01 a      1139     0    57     1    19
  3.7911303816082473E-02 a      1140     0    57     1    20
  1.7742417039807445E-01 a      1141     0    58     1     1
  1.5052766607598358E-01 a      1142     0    58     1     2
  1.5958848370700052E-01 a      1143     0    58     1     3
  1.4406342974341355E-01 a      1144     0    58     1     4
 -1.5198385408527026E-01 a      1145     0    58     1     5
  2.5732042161774449E-01 a      1146     0    58     1     6
 -5.4988690184351215E-02 a      1147     0    58     1     7
  1.3703226423974058E-01 a      1148     0    58     1     8
 -3.4651738805020968E-02 a      1149     0    58     1     9
  4.2588446985159373E-02 a      1150     0    58     1    10
 -5.4528062045561994E-02 a      1151     0    58     1    11
  9.6211893935779488E-02 a      1152     0    58     1    12
  3.1332576342257362E-01 a      1153     0    58     1    13
 -1.5250821367529441E-01 a      1154     0    58     1    14
  5.1256739722356719E-02 a      1155     0    58     1    15
  6.3163518196167917E-02 a      1156     0    58     1    16
  4.4126611988422139E-02 a      1157     0    58     1    17
 -9.1241672315007127E-02 a      1158     0    58     1    18
 -9.9296552148639097E-02 a      1159     0    58     1    19
 -9.6421364500489617E-02 a      1160     0    58     1    20
 -1.2574176867784373E-01 a      1161     0    59     1     1
  2.1056349857802260E-03 a      1162     0    59     1     2
 -4.2955992278503830E-02 a      1163     0    59     1     3
  1.0726478222385398E-01 a      1164     0    59     1     4
 -3.6497040712809088E-03 a      1165     0    59     1     5
 -7.6837894030083204E-02 a      1166     0    59     1     6
  1.9671176857894729E-01 a      1167     0    59     1     7
  4.8637241533976576E-02 a      1168     0    59     1     8
 -2.6550601129180142E-03 a      1169     0    59     1     9
  8.6636542544777664E-02 a      1170     0    59     1    10
 -7.3897439423537652E-03 a      1171     0    59     1    11
  1.9705686888726551E-02 a      1172     0    59     1    12
 -1.0788960647838103E-01 a      1173     0    59     1    13
  2.8825713002688300E-02 a      1174     0    59     1    14
 -1.4285027331328823E-02 a      1175     0    59     1    15
  3.9712798716311865E-02 a      1176     0    59     1    16
  1.1503966133282166E-01 a      1177     0    59     1    17
  1.5040305026776956E-02 a      1178     0    59     1    18
 -1.7568923750017970E-01 a      1179     0    59     1    19
 -2.1347230746888099E-01 a      1180     0    59     1    20
 -9.3784322250295760E-02 a      1181     0    60     1     1
  5.5010341532551604E-02 a      1182     0    60     1     2
  3.9166809172241059E-02 a      1183     0    60     1     3
  1.0586544339515634E-01 a      1184     0    60     1     4
 -4.8211734529519119E-03 a      1185     0    60     1     5
 -1.7263406778268906E-02 a      1186     0    60     1     6
  2.1530254205999227E-01 a      1187     0    60     1     7
  9.7074984361314690E-02 a      1188     0    60     1     8
  1.9110628460373633E-02 a      1189     0    60     1     9
 -7.4729655533232769E-02 a      1190     0    60     1    10
 -1.5310085896841705E-01 a      1191     0    60     1    11
  5.1740462750553655E-02 a      1192     0    60     1    12
  4.7462145963413065E-03 a      1193     0    60     1    13
  8.8828825007008075E-02 a      1194     0    60     1    14
 -9.0845704939687022E-02 a      1195     0    60     1    15
  1.0068317114228340E-01 a      1196     0    60     1    16
 -9.9443715293789259E-02 a      1197     0    60     1    17
  6.8718722584131905E-02 a      1198     0    60     1    18
 -6.1284450241727344E-02 a      1199     0    60     1    19
  1.9348505295185905E-01 a      1200     0    60     1    20
  1.2432403219238981E-02 a      1201     0    61     1     1
 -3.1195365157853920E-02 a      1202     0    61     1     2
  3.4177193334378976E-03 a      1203     0    61     1     3
  2.0808546760612154E-02 a      1204     0    61     1     4
 -9.0069999672830997E-02 a      1205     0    61     1     5
 -1.6418815765350128E-01 a      1206     0    61     1     6
 -3.5242107572566420E-02 a      1207     0    61     1     7
  2.8626795160801684E-02 a      1208     0    61     1     8
  4.5330004076338465E-04 a      1209     0    61     1     9
 -6.4654825496598289E-02 a      1210     0    61     1    10
 -1.6085688903163012E-01 a      1211     0    61     1    11
 -2.8013923212827217E-02 a      1212     0    61     1    12
 -6.8298983454816636E-02 a      1213     0    61     1    13
  1.6759452722023599E-01 a      1214     0    61     1    14
  1.1022409510602056E-01 a      1215     0    61     1    15
 -1.3458523082787013E-02 a      1216     0    61     1    16
  2.0782608737578270E-01 a      1217     0    61     1    17
 -4.3223482583741327E-02 a      1218     0    61     1    18
  1.4300382802999162E-01 a      1219     0    61     1    19
 -2.6057039640122320E-01 a      1220     0    61     1    20
 -4.8245486802755137E-02 a      1221     0    62     1     1
 -3.3586923956462254E-02 a      1222     0    62     1     2
 -6.4833633676462832E-02 a      1223     0    62     1     3
  1.0891854729737900E-01 a      1224     0    62     1     4
 -7.0617901190026325E-02 a      1225     0    62     1     5
 -1.0738502157993385E-01 a      1226     0    62     1     6
  1.6034214151555004E-01 a      1227     0    62     1     7
 -3.3316264545720661E-02 a      1228     0    62     1     8
  1.1277219349026899E-03 a      1229     0    62     1     9
 -4.8287852115050961E-02 a      1230     0    62     1    10
  1.6528095198520684E-01 a      1231     0    62     1    11
 -1.4450097128764432E-02 a      1232     0    62     1    12
 -4.0994585641459934E-02 a      1233     0    62     1    13
  1.2410408891474169E-01 a      1234     0    62     1    14
  1.6221562647428281E-01 a      1235     0    62     1    15
 -1.0748220033683721E-01 a      1236     0    62     1    16
 -1.6381218797553504E-01 a      1237     0    62     1    17
  3.7481895334336053E-02 a      1238     0    62     1    18
  3.4524229267409431E-02 a      1239     0    62     1    19
  1.1956993489583705E-01 a      1240     0    62     1    20
 -5.0114575553463894E-02 a      1241     0    63     1     1
 -2.0077452221479723E-02 a      1242     0    63     1     2
 -3.0146130411898120E-02 a      1243     0    63     1     3
 -5.3269169442532113E-02 a      1244     0    63     1     4
 -1.2184074967579873E-01 a      1245     0    63     1     5
 -4.7046269536325944E-02 a      1246     0    63     1     6
 -2.6335442714302826E-01 a      1247     0    63     1     7
 -1.1419246377171897E-01 a      1248     0    63     1     8
  2.3424326977381778E-02 a      1249     0    63     1     9
  2.1910451011120304E-02 a      1250     0    63     1    10
  1.2715038648649059E-02 a      1251     0    63     1    11
 -1.1755912757669150E-02 a      1252     0    63     1    12
  7.8685107924262223E-03 a      1253     0    63     1    13
  4.2728502315330805E-02 a      1254     0    63     1    14
  2.6222597779080384E-02 a      1255     0    63     1    15
 -1.5677598087958594E-01 a      1256     0    63     1    16
 -5.4813038998504690E-02 a      1257     0    63     1    17
 -5.7660131074500347E-02 a      1258     0    63     1    18
 -5.7467206217647240E-02 a      1259     0    63     1    19
  1.0781571888354646E-01 a      1260     0    63     1    20
 -1.8808841641011181E-02 a      1261     0    64     1     1
  5.5665024338696575E-05 a      1262     0    64     1     2
  1.3464664161552103E-01 a      1263     0    64     1     3
 -4.2810094526595441E-02 a      1264     0    64     1     4
 -1.7298707098998925E-01 a      1265     0    64     1     5
  5.9667198938356578E-02 a      1266     0    64     1     6
 -2.1257594140652876E-02 a      1267     0    64     1     7
  1.1875319632889184E-01 a      1268     0    64     1     8
  2.4882198672436715E-02 a      1269     0    64     1     9
 -2.1810769786405915E-01 a      1270     0    64     1    10
  6.6401353693249024E-02 a      1271     0    64     1    11
 -8.4079211192525746E-02 a      1272     0    64     1    12
 -4.9262415072881170E-02 a      1273     0    64     1    13
  1.3165911930188555E-02 a      1274     0    64     1    14
 -1.7809288896384366E-02 a      1275     0    64     1    15
 -3.3906787829880786E-01 a      1276     0    64     1    16
  2.5682534413657193E-01 a      1277     0    64     1    17
 -1.0675969845339685E-01 a      1278     0    64     1    18
 -6.9731296563908224E-02 a      1279     0    64     1    19
  1.6662410549618978E-01 a      1280     0    64     1    20
  1.6747695299351033E-02 a      1281     0    65     1     1
 -1.1753727103348188E-02 a      1282     0    65     1     2
 -1.9320273090992582E-01 a      1283     0    65     1     3
  5.6227255730687653E-02 a      1284     0    65     1     4
  8.2421602339671135E-02 a      1285     0    65     1     5
  2.1562397269819517E-01 a      1286     0    65     1     6
 -7.8879244037515089E-02 a      1287     0    65     1     7
 -8.3134928885040760E-02 a      1288     0    65     1     8
  1.7092424078481444E-01 a      1289     0    65     1     9
 -3.2916162021178023E-02 a      1290     0    65     1    10
  5.8124014439466638E-02 a      1291     0    65     1    11
 -6.0217898554975353E-03 a      1292     0    65     1    12
  1.7164575671647239E-01 a      1293     0    65     1    13
  8.9904689991276279E-02 a      1294     0    65     1    14
  1.9304567832371877E-01 a      1295     0    65     1    15
  1.4316322702104015E-01 a      1296     0    65     1    16
 -1.4013302918502898E-01 a      1297     0    65     1    17
 -7.0938950043902604E-02 a      1298     0    65     1    18
  6.0354240640154877E-02 a      1299     0    65     1    19
 -1.5415669395357492E-01 a      1300     0    65     1    20
  6.3586627446937785E-02 a      1301     0    66     1     1
  8.5636824893680741E-02 a      1302     0    66     1     2
  2.3794702034136969E-01 a      1303     0    66     1     3
  3.2471747003193097E-03 a      1304     0    66     1     4
 -1.4731083533482722E-01 a      1305     0    66     1     5
 -2.3532352613109590E-02 a      1306     0    66     1     6
  1.4887523881736459E-01 a      1307     0    66     1     7
  1.0718580229223637E-01 a      1308     0    66     1     8
  1.1382198230774630E-02 a      1309     0    66     1     9
 -1.2165354163110091E-01 a      1310     0    66     1    10
  6.8120175834695165E-02 a      1311     0    66     1    11
  3.4727383144895221E-02 a      1312     0    66     1    12
 -8.7392574113303784E-02 a      1313     0    66     1    13
 -1.6448894690377455E-01 a      1314     0    66     1    14
  1.3640372336591178E-01 a      1315     0    66     1    15
 -2.3129035695229150E-01 a      1316     0    66     1    16
  1.3662002303527143E-01 a      1317     0    66     1    17
 -2.1681234953504236E-01 a      1318     0    66     1    18
 -2.2879143307802127E-01 a      1319     0    66     1    19
  2.4996426122516052E-01 a      1320     0    66     1    20
 -5.5733188846637416E-02 a      1321     0    67     1     1
 -1.2413654248630128E-01 a      1322     0    67     1     2
  2.8369804864531561E-01 a      1323     0    67     1     3
  4.4537017379549439E-02 a      1324     0    67     1     4
  1.2721099498408481E-01 a      1325     0    67     1     5
 -5.4339961277467527E-02 a      1326     0    67     1     6
 -2.0338600575773313E-01 a      1327     0    67     1     7
 -5.2380620134007953E-02 a      1328     0    67     1     8
  2.0618558509942195E-01 a      1329     0    67     1     9
  2.7310591979451548E-01 a      1330     0    67     1    10
  1.8658887877161710E-02 a      1331     0    67     1    11
  1.0998088533345458E-02 a      1332     0    67     1    12
 -1.3529017010002964E-01 a      1333     0    67     1    13
 -2.8997897543727197E-01 a      1334     0    67     1    14
 -8.5285528821737372E-02 a      1335     0    67     1    15
 -1.0272584026642657E-01 a      1336     0    67     1    16
 -4.5746153905637389E-02 a      1337     0    67     1    17
 -2.1643473588819973E-01 a      1338     0    67     1    18
  1.2804074511069838E-01 a      1339     0    67     1    19
 -1.0185848047272208E-01 a      1340     0    67     1    20
  1.3814156703329056E-01 a      1341     0    68     1     1
  4.3707930667548744E-02 a      1342     0    68     1     2
  3.0084361397000877E-02 a      1343     0    68     1     3
 -4.2084896208035835E-02 a      1344     0    68     1     4
  6.1368641504037084E-02 a      1345     0    68     1     5
  7.9912828586490847E-03 a      1346     0    68     1     6
 -1.7099118017908834E-02 a      1347     0    68     1     7
  1.6437996467644514E-01 a      1348     0    68     1     8
 -2.6874098539107960E-01 a      1349     0    68     1     9
  9.0193437662233367E-02 a      1350     0    68     1    10
 -2.2003561529769239E-01 a      1351     0    68     1    11
  9.5097176221103797E-03 a      1352     0    68     1    12
  2.8549175978825211E-03 a      1353     0    68     1    13
  1.6286444029124053E-01 a      1354     0    68     1    14
  1.9656213494949876E-01 a      1355     0    68     1    15
 -8.9067583465123248E-03 a      1356     0    68     1    16
 -3.4418162298961869E-01 a      1357     0    68     1    17
 -1.6157652430115924E-01 a      1358     0    68     1    18
 -3.3703309184746283E-03 a      1359     0    68     1    19
  8.8761028580513809E-02 a      1360     0    68     1    20
 -8.4912799416373239E-02 a      1361     0    69     1     1
 -2.2195687665180180E-01 a      1362     0    69     1     2
 -4.2310796727560518E-03 a      1363     0    69     1     3
 -2.0703278140691136E-01 a      1364     0    69     1     4
  6.9717004555893095E-02 a      1365     0    69     1     5
  1.9186822367829863E-02 a      1366     0    69     1     6
  6.2413055362134102E-02 a      1367     0    69     1     7
 -1.6139797539163800E-01 a      1368     0    69     1     8
  8.7313141920152701E-02 a      1369     0    69     1     9
  5.4198682124555676E-02 a      1370     0    69     1    10
 -6.1257182954380845E-02 a      1371     0    69     1    11
  2.0059976291223129E-02 a      1372     0    69     1    12
 -1.9373041942243121E-02 a      1373     0    69     1    13
 -1.0681103562374884E-01 a      1374     0    69     1    14
 -2.0494510416173162E-01 a      1375     0    69     1    15
 -2.8330365224698106E-01 a      1376     0    69     1    16
  5.1318188049598437E-02 a      1377     0    69     1    17
  1.6987401341012485E-02 a      1378     0    69     1    18
  5.4483005502029239E-02 a      1379     0    69     1    19
 -2.0252565077034954E-01 a      1380     0    69     1    20
 -4.8471170716774412E-02 a      1381     0    70     1     1
  1.8038316354509155E-03 a      1382     0    70     1     2
  9.1341780330442796E-02 a      1383     0    70     1     3
 -8.8871988463853552E-02 a      1384     0    70     1     4
 -1.5051394267100201E-02 a      1385     0    70     1     5
  1.6435877307300870E-01 a      1386     0    70     1     6
 -5.9384074761612065E-03 a      1387     0    70     1     7
  6.4205140664510538E-02 a      1388     0    70     1     8
 -5.0765422441565393E-02 a      1389     0    70     1     9
 -3.7284916088070524E-02 a      1390     0    70     1    10
 -5.2183831795565641E-02 a      1391     0    70     1    11
 -1.6347078751393171E-01 a      1392     0    70     1    12
  7.1745118767548716E-02 a      1393     0    70     1    13
 -1.1211603609415736E-01 a      1394     0    70     1    14
 -6.4813052369518023E-02 a      1395     0    70     1    15
  1.5793833063914881E-01 a      1396     0    70     1    16
  7.1870939556441485E-02 a      1397     0    70     1    17
  1.9731419797296540E-01 a      1398     0    70     1    18
  7.4514000270665279E-02 a      1399     0    70     1    19
  2.0386136537448637E-02 a      1400     0    70     1    20
  1.3780815045186220E-01 a      1401     0    71     1     1
  8.7539110687023802E-02 a      1402     0    71     1     2
 -1.6552073897485256E-01 a      1403     0    71     1     3
  5.3186940415768076E-03 a      1404     0    71     1     4
 -8.9674144978233283E-02 a      1405     0    71     1     5
  1.6875012911566131E-01 a      1406     0    71     1     6
 -2.3503381527749147E-02 a      1407     0    71     1     7
 -2.1931713730849056E-01 a      1408     0    71     1     8
 -1.4284668933238764E-01 a      1409     0    71     1     9
 -1.6467974541415117E-03 a      1410     0    71     1    10
  6.5773032844375731E-02 a      1411     0    71     1    11
 -2.6800503344673203E-02 a      1412     0    71     1    12
  2.2271845459060327E-03 a      1413     0    71     1    13
  2.0615881506179418E-01 a      1414     0    71     1    14
  2.6605773439888201E-02 a      1415     0    71     1    15
  3.2804090966896141E-02 a      1416     0    71     1    16
 -5.3714041765798477E-02 a      1417     0    71     1    17
  2.1628659160767416E-01 a      1418     0    71     1    18
 -3.7018744971089920E-03 a      1419     0    71     1    19
 -6.9733819070098291E-02 a      1420     0    71     1    20
 -4.5073377565184904E-03 a      1421     0    72     1     1
  2.4814667662997926E-02 a      1422     0    72     1     2
  1.4690531228117854E-02 a      1423     0    72     1     3
 -2.1310697547740212E-01 a      1424     0    72     1     4
  3.5854178875254689E-02 a      1425     0    72     1     5
  6.0148003460676086E-02 a      1426     0    72     1     6
  1.1963684422000738E-01 a      1427     0    72     1     7
 -5.9086824689224750E-02 a      1428     0    72     1     8
 -1.1081280099158598E-01 a      1429     0    72     1     9
  1.3252770896639127E-01 a      1430     0    72     1    10
  1.0154431865297052E-01 a      1431     0    72     1    11
  1.4854411321072172E-01 a      1432     0    72     1    12
 -1.1543163870857440E-01 a      1433     0    72     1    13
  1.3237793878297512E-02 a      1434     0    72     1    14
  1.9060075835146476E-01 a      1435     0    72     1    15
 -5.0534790866598789E-02 a      1436     0    72     1    16
 -4.5040574545032958E-03 a      1437     0    72     1    17
  1.1194939196752918E-01 a      1438     0    72     1    18
 -1.9052388797588937E-01 a      1439     0    72     1    19
 -1.7056194876272349E-01 a      1440     0    72     1    20
 -3.8705564486579552E-02 a      1441     0    73     1     1
 -1.6394443163826630E-01 a      1442     0    73     1     2
 -8.8315167473245360E-02 a      1443     0    73     1     3
  4.8529358147536526E-03 a      1444     0    73     1     4
 -8.3526363408770489E-03 a      1445     0    73     1     5
  5.6165728415977667E-02 a      1446     0    73     1     6
 -2.7772687793709283E-01 a      1447     0    73     1     7
  3.3285270984852261E-02 a      1448     0    73     1     8
 -7.2744557517043631E-02 a      1449     0    73     1     9
 -1.7897173238461847E-01 a      1450     0    73     1    10
  2.4705273061791055E-02 a      1451     0    73     1    11
 -1.8133622166145139E-01 a      1452     0    73     1    12
 -8.7545399475486382E-02 a      1453     0    73     1    13
 -4.1916018896805768E-02 a      1454     0    73     1    14
 -1.8325669974202377E-01 a      1455     0    73     1    15
 -1.0583295119681850E-01 a      1456     0    73     1    16
  3.3685223181378149E-02 a      1457     0    73     1    17
  4.7005357400732514E-02 a      1458     0    73     1    18
  4.6553829203127520E-02 a      1459     0    73     1    19
 -3.4600101012015751E-02 a      1460     0    73     1    20
  1.9667510070977415E-01 a      1461     0    74     1     1
 -1.4863923516505489E-01 a      1462     0    74     1     2
  2.1963167956185167E-01 a      1463     0    74     1     3
  2.4403573286377314E-01 a      1464     0    74     1     4
 -8.4208636602028084E-02 a      1465     0    74     1     5
 -4.8786248854144877E-02 a      1466     0    74     1     6
 -1.7247409024977910E-02 a      1467     0    74     1     7
 -8.6493989456294246E-02 a      1468     0    74     1     8
 -1.5264470490161203E-01 a      1469     0    74     1     9
 -1.1694811823203353E-01 a      1470     0    74     1    10
  8.2605132350032529E-02 a      1471     0    74     1    11
 -1.7083305521953879E-01 a      1472     0    74     1    12
  2.6253224869298708E-01 a      1473     0    74     1    13
  1.2295301900163408E-01 a      1474     0    74     1    14
  1.1303566948181271E-01 a      1475     0    74     1    15
 -6.2773223341341777E-02 a      1476     0    74     1    16
 -8.0203014930660108E-02 a      1477     0    74     1    17
 -5.7459600047097645E-02 a      1478     0    74     1    18
 -1.5312286263671440E-01 a      1479     0    74     1    19
  1.0671618813890603E-01 a      1480     0    74     1    20
  1.0761651864094982E-02 a      1481     0    75     1     1
 -4.0434280661320640E-02 a      1482     0    75     1     2
  2.9872783886951533E-02 a      1483     0    75     1     3
 -1.0644436784259377E-01 a      1484     0    75     1     4
 -1.1357786403822989E-01 a      1485     0    75     1     5
  8.4930285566908958E-02 a      1486     0    75     1     6
 -8.7481149590186810E-02 a      1487     0    75     1     7
 -7.6399230934342838E-02 a      1488     0    75     1     8
  1.4981449603405572E-01 a      1489     0    75     1     9
 -1.2727246141365865E-02 a      1490     0    75     1    10
  1.4928409183854949E-01 a      1491     0    75     1    11
 -2.3887244054079926E-02 a      1492     0    75     1    12
  2.8138585034630731E-01 a      1493     0    75     1    13
  8.6781421600041250E-02 a      1494     0    75     1    14
  7.4978862579849384E-02 a      1495     0    75     1    15
  1.3156607847960638E-02 a      1496     0    75     1    16
 -5.5408355315440472E-02 a      1497     0    75     1    17
 -4.0152671705305863E-02 a      1498     0    75     1    18
  4.6660634220981177E-02 a      1499     0    75     1    19
 -1.5236494521686944E-01 a      1500     0    75     1    20
  4.7286880240018099E-02 a      1501     0    76     1     1
  1.9565922179796878E-02 a      1502     0    76     1     2
  4.0983625629455699E-03 a      1503     0    76     1     3
  1.8432850671921305E-01 a      1504     0    76     1     4
 -5.7335803165746114E-03 a      1505     0    76     1     5
  1.0126069198350247E-01 a      1506     0    76     1     6
  2.5920010111975256E-02 a      1507     0    76     1     7
  2.3782063616147125E-02 a      1508     0    76     1     8
 -1.0189163280767358E-01 a      1509     0    76     1     9
 -1.0360163867723705E-01 a      1510     0    76     1    10
  1.6428490177101216E-02 a      1511     0    76     1    11
  1.3773903197328280E-01 a      1512     0    76     1    12
 -1.4301740284953909E-01 a      1513     0    76     1    13
 -1.9661553953988589E-01 a      1514     0    76     1    14
  1.5542990904188680E-01 a      1515     0    76     1    15
  1.4469340900144287E-01 a      1516     0    76     1    16
 -2.3947239637808540E-01 a      1517     0    76     1    17
  5.8389957393704499E-02 a      1518     0    76     1    18
 -4.5137305974227777E-02 a      1519     0    76     1    19
  8.6406098630109687E-02 a      1520     0    76     1    20
  4.4392579566560939E-02 a      1521     0    77     1     1
 -1.1005855811602064E-01 a      1522     0    77     1     2
 -1.4932797839353651E-01 a      1523     0    77     1     3
  4.1452528095805513E-03 a      1524     0    77     1     4
  1.1988242676718114E-01 a      1525     0    77     1     5
  8.3091922315822964E-02 a      1526     0    77     1     6
  1.0757952327751619E-01 a      1527     0    77     1     7
  1.4440400022667571E-01 a      1528     0    77     1     8
  1.1427637446504256E-01 a      1529     0    77     1     9
  8.7937796016147263E-02 a      1530     0    77     1    10
 -2.1953428473423259E-02 a      1531     0    77     1    11
  9.9598910709568514E-02 a      1532     0    77     1    12
 -1.1682191173357651E-01 a      1533     0    77     1    13
 -7.4610228549929589E-02 a      1534     0    77     1    14
  2.1491590768965212E-02 a      1535     0    77     1    15
 -2.0420236926333352E-01 a      1536     0    77     1    16
  2.6327459370118567E-01 a      1537     0    77     1    17
  1.3569969584351107E-02 a      1538     0    77     1    18
 -2.7466633950444387E-02 a      1539     0    77     1    19
  1.8158611652833184E-01 a      1540     0    77     1    20
 -4.2559538205495337E-02 a      1541     0    78     1     1
  4.4115639154427774E-02 a      1542     0    78     1     2
  7.0935060189939336E-02 a      1543     0    78     1     3
 -6.1469069384792852E-02 a      1544     0    78     1     4
  3.8186697244479421E-02 a      1545     0    78     1     5
  4.3891595152164998E-03 a      1546     0    78     1     6
  8.9763566162957567E-02 a      1547     0    78     1     7
  3.6028331331145892E-02 a      1548     0    78     1     8
 -3.5097422000735989E-03 a      1549     0    78     1     9
 -3.0250227315907333E-02 a      1550     0    78     1    10
  4.4299878021165140E-02 a      1551     0    78     1    11
  1.8197328776101734E-02 a      1552     0    78     1    12
  9.6515521190421158E-02 a      1553     0    78     1    13
 -3.3978170713422082E-03 a      1554     0    78     1    14
 -2.8219248159473111E-02 a      1555     0    78     1    15
 -7.6579947999929718E-02 a      1556     0    78     1    16
 -4.0484760884757200E-02 a      1557     0    78     1    17
  2.8176011341961429E-02 a      1558     0    78     1    18
 -2.5124833390910823E-03 a      1559     0    78     1    19
 -1.8463973552070431E-01 a      1560     0    78     1    20
  7.9688069978728224E-02 a      1561     0    79     1     1
 -3.0320937401015692E-02 a      1562     0    79     1     2
  2.1741319071434631E-02 a      1563     0    79     1     3
  5.4200903899697291E-02 a      1564     0    79     1     4
  1.4008574882245034E-01 a      1565     0    79     1     5
  6.9281141688436701E-02 a      1566     0    79     1     6
  7.3071410172265649E-02 a      1567     0    79     1     7
  5.3715549404794248E-02 a      1568     0    79     1     8
 -1.0873482999262848E-02 a      1569     0    79     1     9
  8.2936062394978208E-02 a      1570     0    79     1    10
 -1.0170501378423286E-01 a      1571     0    79     1    11
  1.0899104035238789E-01 a      1572     0    79     1    12
  3.8186686807267563E-02 a      1573     0    79     1    13
 -1.2272706335244557E-01 a      1574     0    79     1    14
 -1.2246205014550177E-02 a      1575     0    79     1    15
  1.3407241676485748E-01 a      1576     0    79     1    16
 -1.0790792207419297E-01 a      1577     0    79     1    17
  5.2187373597397439E-02 a      1578     0    79     1    18
  9.5800501375530367E-02 a      1579     0    79     1    19
  2.2180630898203456E-02 a      1580     0    79     1    20
 -1.0769599231865543E-01 a      1581     0    80     1     1
  5.0936231611611170E-02 a      1582     0    80     1     2
  1.3883253726489109E-01 a      1583     0    80     1     3
  1.5297943389175708E-01 a      1584     0    80     1     4
 -7.1557759793166156E-02 a      1585     0    80     1     5
 -1.8580915096618864E-01 a      1586     0    80     1     6
 -1.8793266655528709E-01 a      1587     0    80     1     7
  1.5999012439318253E-01 a      1588     0    80     1     8
 -2.5210253515915598E-01 a      1589     0    80     1     9
 -9.0898061266912605E-02 a      1590     0    80     1    10
 -3.3083424610639539E-02 a      1591     0    80     1    11
 -1.2040881604085316E-01 a      1592     0    80     1    12
 -2.0114761367998560E-01 a      1593     0    80     1    13
  4.1538804017010609E-03 a      1594     0    80     1    14
 -2.0506351244527252E-01 a      1595     0    80     1    15
 -8.5730532726564293E-02 a      1596     0    80     1    16
 -3.1999012867504728E-02 a      1597     0    80     1    17
  2.1102121159353546E-01 a      1598     0    80     1    18
 -3.7382784671488735E-02 a      1599     0    80     1    19
  1.6573278149434700E-01 a      1600     0    80     1    20
 -1.0944979729521563E-02 a      1601     0    81     1     1
 -1.0701252798051612E-01 a      1602     0    81     1     2
 -2.7423180090002247E-02 a      1603     0    81     1     3
 -1.1630105946943867E-01 a      1604     0    81     1     4
 -3.6438509371930300E-02 a      1605     0    81     1     5
  5.9240325967139427E-02 a      1606     0    81     1     6
  1.5668700897939652E-01 a      1607     0    81     1     7
 -7.5934008390416571E-02 a      1608     0    81     1     8
  7.6730186485643559E-02 a      1609     0    81     1     9
  4.5865661746041841E-02 a      1610     0    81     1    10
 -1.2335708360984401E-01 a      1611     0    81     1    11
  1.2291592728567100E-02 a      1612     0    81     1    12
 -2.3759198811729505E-02 a      1613     0    81     1    13
 -3.5372503405248085E-02 a      1614     0    81     1    14
 -9.1332909027034542E-03 a      1615     0    81     1    15
  4.4244293812976170E-02 a      1616     0    81     1    16
 -8.8807475024420213E-02 a      1617     0    81     1    17
  1.0163376939775783E-01 a      1618     0    81     1    18
  9.9344129132580006E-02 a      1619     0    81     1    19
 -2.6754625741149212E-02 a      1620     0    81     1    20
  1.1472154448105161E-01 a      1621     0    82     1     1
  9.3158812359956794E-02 a      1622     0    82     1     2
 -4.5824183994202058E-02 a      1623     0    82     1     3
