################################################################################
# Neural network connection values (weights and biases).
################################################################################
# Col  Name       Description
################################################################################
# 1    connection Neural network connection value.
# 2    t          Connection type (a = weight, b = bias).
# 3    index      Index enumerating weights.
# 4    l_s        Starting point layer (end point layer for biases).
# 5    n_s        Starting point neuron in starting layer (end point neuron for biases).
# 6    l_e        End point layer.
# 7    n_e        End point neuron in end layer.
################################################################################
#                      1 2         3     4     5     6     7
#             connection t     index   l_s   n_s   l_e   n_e
############################################################
  3.0485888907813352E-01 a         1     0     1     1     1
  2.0550784456600569E-02 a         2     0     1     1     2
  3.0306834433653524E-02 a         3     0     1     1     3
  2.2946532918160503E-01 a         4     0     1     1     4
 -2.3894935957348776E-01 a         5     0     1     1     5
  7.2333116948174292E-02 a         6     0     1     1     6
 -5.0179043692718112E-02 a         7     0     1     1     7
  1.4365777227503285E-01 a         8     0     1     1     8
  2.6062001843503289E-02 a         9     0     1     1     9
  1.8521934602492712E-01 a        10     0     1     1    10
 -8.7224925675909490E-02 a        11     0     1     1    11
  4.9595571425214685E-01 a        12     0     1     1    12
  2.3817830897703559E-02 a        13     0     1     1    13
  6.6304207465133214E-02 a        14     0     1     1    14
 -8.9526948459676667E-02 a        15     0     1     1    15
 -4.8518356451288863E-01 a        16     0     1     1    16
 -2.1908788006865454E-01 a        17     0     1     1    17
  6.3991374059773287E-02 a        18     0     1     1    18
 -2.1912970273690635E-01 a        19     0     1     1    19
 -1.0834514634661969E-01 a        20     0     1     1    20
  1.5491231062878277E-01 a        21     0     2     1     1
  7.1722935543011387E-02 a        22     0     2     1     2
  6.0516300538428221E-02 a        23     0     2     1     3
 -7.9653188806218134E-02 a        24     0     2     1     4
  3.0076246486754343E-01 a        25     0     2     1     5
 -5.1395399295013144E-01 a        26     0     2     1     6
  1.5135181426038603E-02 a        27     0     2     1     7
 -7.0462017602840946E-02 a        28     0     2     1     8
 -3.6164142163011843E-02 a        29     0     2     1     9
 -1.1631825038781175E-01 a        30     0     2     1    10
  2.0272555203211978E-01 a        31     0     2     1    11
  8.0453526752240323E-02 a        32     0     2     1    12
  2.4277405215476702E-01 a        33     0     2     1    13
 -3.2520973229012889E-01 a        34     0     2     1    14
  1.3816048019512273E-01 a        35     0     2     1    15
 -3.4233499019571473E-01 a        36     0     2     1    16
  3.4006249116317616E-01 a        37     0     2     1    17
  4.1857547632751274E-01 a        38     0     2     1    18
 -3.7388789208400031E-01 a        39     0     2     1    19
  1.2963316278821388E-01 a        40     0     2     1    20
  8.5657495933904282E-01 a        41     0     3     1     1
 -9.7040185070583110E-02 a        42     0     3     1     2
 -2.0175834085310207E-01 a        43     0     3     1     3
 -7.1242591674326755E-02 a        44     0     3     1     4
  3.7478481530020896E-01 a        45     0     3     1     5
  1.9027146179919002E-01 a        46     0     3     1     6
  1.7292507388366438E-01 a        47     0     3     1     7
 -1.3871024048643241E-01 a        48     0     3     1     8
 -5.6958394928637279E-01 a        49     0     3     1     9
 -6.3012348549716080E-01 a        50     0     3     1    10
 -3.9001777786412173E-01 a        51     0     3     1    11
 -5.4172597399480871E-01 a        52     0     3     1    12
  4.5376972572956109E-01 a        53     0     3     1    13
 -6.3172672600186108E-01 a        54     0     3     1    14
  1.3252394357075720E-01 a        55     0     3     1    15
  3.6739363816448584E-01 a        56     0     3     1    16
  5.8893520242172204E-01 a        57     0     3     1    17
 -4.5677805082327899E-01 a        58     0     3     1    18
 -3.5503982507632315E-01 a        59     0     3     1    19
 -3.2548835410321436E-01 a        60     0     3     1    20
  6.5392692963449517E-02 a        61     0     4     1     1
  2.4953428724773942E-02 a        62     0     4     1     2
  8.1213082041348611E-02 a        63     0     4     1     3
 -2.7830379409622467E-02 a        64     0     4     1     4
  2.8347536908114063E-01 a        65     0     4     1     5
  1.9014303028258958E-01 a        66     0     4     1     6
  2.7877485695540222E-01 a        67     0     4     1     7
 -1.9374177781171500E-01 a        68     0     4     1     8
 -2.7677642403907670E-02 a        69     0     4     1     9
 -1.9025564480776902E-01 a        70     0     4     1    10
  2.1420966482524895E-01 a        71     0     4     1    11
  6.6123351199621094E-02 a        72     0     4     1    12
 -2.4410344156615407E-01 a        73     0     4     1    13
  4.2035971283404291E-02 a        74     0     4     1    14
  3.7540729200811501E-01 a        75     0     4     1    15
 -5.8682363295755088E-02 a        76     0     4     1    16
 -4.7698514721000583E-02 a        77     0     4     1    17
 -1.9419773258665677E-02 a        78     0     4     1    18
 -8.6934419350320985E-04 a        79     0     4     1    19
 -4.5516431330460815E-02 a        80     0     4     1    20
  7.2306304849100306E-02 a        81     0     5     1     1
 -3.3313610083287447E-02 a        82     0     5     1     2
  1.3737136784214798E-01 a        83     0     5     1     3
  2.3237882362724654E-02 a        84     0     5     1     4
  1.8625978745627295E-01 a        85     0     5     1     5
 -1.4464581861050776E-01 a        86     0     5     1     6
 -2.1406489521021521E-01 a        87     0     5     1     7
 -7.3345492940924323E-02 a        88     0     5     1     8
 -9.3888560833942244E-02 a        89     0     5     1     9
 -1.4771096356952743E-01 a        90     0     5     1    10
 -1.2637147385930966E-01 a        91     0     5     1    11
 -1.7094214672101432E-01 a        92     0     5     1    12
  1.1906911808430932E-01 a        93     0     5     1    13
  1.5898683806334679E-01 a        94     0     5     1    14
  1.7141021842286576E-03 a        95     0     5     1    15
  2.1395338477211981E-01 a        96     0     5     1    16
  2.8820608320790222E-02 a        97     0     5     1    17
 -7.8324412420354303E-02 a        98     0     5     1    18
 -1.3606618240560876E-02 a        99     0     5     1    19
  5.8895957883980159E-02 a       100     0     5     1    20
 -3.9296823605421777E-01 a       101     0     6     1     1
 -1.3909744729259338E-01 a       102     0     6     1     2
 -6.6152023949420297E-02 a       103     0     6     1     3
 -1.1998978386743018E+00 a       104     0     6     1     4
  6.4300393750535006E-02 a       105     0     6     1     5
  7.1364164793056184E-01 a       106     0     6     1     6
  7.0751770737911623E-01 a       107     0     6     1     7
  1.6916050468676478E+00 a       108     0     6     1     8
 -5.6734435169102794E-02 a       109     0     6     1     9
 -3.5985301987577994E-01 a       110     0     6     1    10
  3.1445898413199252E-01 a       111     0     6     1    11
 -4.1178743083869512E-01 a       112     0     6     1    12
  1.0809564705389293E-02 a       113     0     6     1    13
 -2.2131008789672263E-01 a       114     0     6     1    14
  1.7908930255717789E-01 a       115     0     6     1    15
  7.8790623095747830E-02 a       116     0     6     1    16
  2.3412949965028149E-01 a       117     0     6     1    17
 -1.7781192107761465E-01 a       118     0     6     1    18
  5.2812341905116977E-01 a       119     0     6     1    19
 -5.1172578034723792E-01 a       120     0     6     1    20
 -1.8631283991561420E-01 a       121     0     7     1     1
 -1.1731370622737559E-01 a       122     0     7     1     2
 -2.1153038044029665E-01 a       123     0     7     1     3
  1.6209503373157494E-01 a       124     0     7     1     4
  6.2516812601009691E-02 a       125     0     7     1     5
 -6.3575923389566150E-02 a       126     0     7     1     6
 -8.8986219007908027E-02 a       127     0     7     1     7
  6.5992334736643538E-02 a       128     0     7     1     8
  1.0597148415238911E-01 a       129     0     7     1     9
  2.8607654400178567E-01 a       130     0     7     1    10
  5.0560823628224102E-02 a       131     0     7     1    11
  1.5806354563321931E-01 a       132     0     7     1    12
  1.5734792425665201E-01 a       133     0     7     1    13
  1.3563794209977437E-01 a       134     0     7     1    14
 -4.7816685392353370E-01 a       135     0     7     1    15
  2.2196081847082597E-01 a       136     0     7     1    16
 -5.1129814699598852E-01 a       137     0     7     1    17
 -4.1930590799978246E-01 a       138     0     7     1    18
  1.7833549487912459E-01 a       139     0     7     1    19
  4.8155206766033132E-02 a       140     0     7     1    20
 -3.2092429107645160E-01 a       141     0     8     1     1
 -8.1795830666651348E-01 a       142     0     8     1     2
  3.8401766045103497E-01 a       143     0     8     1     3
  3.3508475361147727E-01 a       144     0     8     1     4
 -4.1689877112735657E-01 a       145     0     8     1     5
 -1.0833788297984228E+00 a       146     0     8     1     6
  2.0172615667071675E-01 a       147     0     8     1     7
 -4.6214951450170916E-01 a       148     0     8     1     8
  1.0292993291278101E+00 a       149     0     8     1     9
 -7.8892077211336759E-02 a       150     0     8     1    10
  4.5826998020799647E-01 a       151     0     8     1    11
 -7.0739260661029291E-01 a       152     0     8     1    12
 -5.1960367523690465E-01 a       153     0     8     1    13
  8.4786696418296903E-01 a       154     0     8     1    14
 -6.5143155263150698E-01 a       155     0     8     1    15
 -4.6737706217998048E-01 a       156     0     8     1    16
 -3.0969020957294889E-02 a       157     0     8     1    17
 -1.9031848636511114E-01 a       158     0     8     1    18
  4.8040747161972575E-01 a       159     0     8     1    19
 -3.5176206992125991E-01 a       160     0     8     1    20
  2.9263259189778534E-01 a       161     0     9     1     1
  2.0255233637323378E-01 a       162     0     9     1     2
 -5.0863018751509899E-02 a       163     0     9     1     3
 -2.8766957042926211E-01 a       164     0     9     1     4
 -8.7286508242336469E-02 a       165     0     9     1     5
  9.9384411529534783E-02 a       166     0     9     1     6
  1.8800914334320276E-01 a       167     0     9     1     7
  9.4142499182816766E-02 a       168     0     9     1     8
  1.3723374046722800E-01 a       169     0     9     1     9
  1.5714746443848800E-02 a       170     0     9     1    10
  1.2525751047145026E-01 a       171     0     9     1    11
 -2.6544619087798430E-02 a       172     0     9     1    12
 -1.8658341904549716E-01 a       173     0     9     1    13
  2.2824062912333065E-01 a       174     0     9     1    14
  1.9654609848810084E-01 a       175     0     9     1    15
 -1.5827481879531129E-02 a       176     0     9     1    16
 -3.1340905578094595E-02 a       177     0     9     1    17
  7.9335322701692995E-02 a       178     0     9     1    18
  6.3055061106498514E-02 a       179     0     9     1    19
 -1.2051216806921729E-01 a       180     0     9     1    20
 -1.4076767648971039E-01 a       181     0    10     1     1
  7.3206162319625519E-03 a       182     0    10     1     2
  1.2322526591610274E-01 a       183     0    10     1     3
  3.0038746842215851E-02 a       184     0    10     1     4
 -3.5603018378955359E-01 a       185     0    10     1     5
  9.6083113640517415E-02 a       186     0    10     1     6
  1.3989827153093209E-01 a       187     0    10     1     7
  1.5377964378455435E-02 a       188     0    10     1     8
  3.5439551022307579E-02 a       189     0    10     1     9
  1.3464905040210537E-01 a       190     0    10     1    10
  9.7880821309052776E-02 a       191     0    10     1    11
  4.1763623523412181E-02 a       192     0    10     1    12
 -3.0547980863064489E-01 a       193     0    10     1    13
  7.7543982478862124E-03 a       194     0    10     1    14
 -1.2366901020445528E-01 a       195     0    10     1    15
 -2.4349253653652100E-01 a       196     0    10     1    16
 -2.6393069184106707E-02 a       197     0    10     1    17
 -8.7860384157425281E-02 a       198     0    10     1    18
 -5.8285391240431188E-02 a       199     0    10     1    19
  9.1620745422833022E-02 a       200     0    10     1    20
  3.8888200855357852E-01 a       201     0    11     1     1
  8.3793458765408710E-02 a       202     0    11     1     2
 -2.2672375106602430E-01 a       203     0    11     1     3
  4.0973449498917364E-01 a       204     0    11     1     4
  1.6969713833923105E-02 a       205     0    11     1     5
 -1.6827958985326719E-01 a       206     0    11     1     6
 -3.2503081669374534E-01 a       207     0    11     1     7
 -1.8371928848483301E+00 a       208     0    11     1     8
  5.2982500311099752E-02 a       209     0    11     1     9
  1.4383329464900138E-01 a       210     0    11     1    10
 -1.6233898646521441E-01 a       211     0    11     1    11
  2.0053522794051643E-01 a       212     0    11     1    12
  1.3327966282753347E-02 a       213     0    11     1    13
 -2.1955651620173282E-04 a       214     0    11     1    14
 -1.7011454302549181E-01 a       215     0    11     1    15
 -9.9851952967189087E-02 a       216     0    11     1    16
 -2.8750775041673537E-01 a       217     0    11     1    17
  4.0248629392949398E-01 a       218     0    11     1    18
 -4.1935684841181337E-01 a       219     0    11     1    19
  7.2493137076188607E-01 a       220     0    11     1    20
  3.6409135459868747E-01 a       221     0    12     1     1
 -4.2033427022158276E-01 a       222     0    12     1     2
 -2.3068730175021832E-01 a       223     0    12     1     3
  2.4272815734928715E-01 a       224     0    12     1     4
 -5.9031443138852405E-02 a       225     0    12     1     5
  3.4124924971002807E-02 a       226     0    12     1     6
 -2.8732681471102267E-01 a       227     0    12     1     7
  1.6365648536099658E-01 a       228     0    12     1     8
 -1.9055401524191613E-02 a       229     0    12     1     9
  1.2885312711672856E-01 a       230     0    12     1    10
 -2.0801003986828540E-01 a       231     0    12     1    11
 -2.0591478586564793E-01 a       232     0    12     1    12
  1.2534604520508963E-01 a       233     0    12     1    13
  5.2130184426516124E-01 a       234     0    12     1    14
  1.1290119406001332E-01 a       235     0    12     1    15
  2.8002104063004302E-01 a       236     0    12     1    16
  1.8702491379408603E-01 a       237     0    12     1    17
 -2.1756875080378510E-01 a       238     0    12     1    18
  1.3856158062757692E-02 a       239     0    12     1    19
  1.0996491775470099E-01 a       240     0    12     1    20
  6.1197837002146711E-02 a       241     0    13     1     1
  1.9893442434631400E-01 a       242     0    13     1     2
  1.3735046728937206E-01 a       243     0    13     1     3
 -1.5053285414142004E-01 a       244     0    13     1     4
 -1.6135987194774520E-01 a       245     0    13     1     5
  2.5384079933973458E-01 a       246     0    13     1     6
  8.1185333574561924E-02 a       247     0    13     1     7
  8.4624568270883882E-02 a       248     0    13     1     8
 -1.0992442098005392E-01 a       249     0    13     1     9
  1.2606214821047193E-01 a       250     0    13     1    10
 -3.0691033118039529E-01 a       251     0    13     1    11
  2.8709134207574021E-02 a       252     0    13     1    12
  3.6011138606247878E-01 a       253     0    13     1    13
 -6.9274040721307872E-01 a       254     0    13     1    14
  3.4611875823467414E-01 a       255     0    13     1    15
  1.8924247891524421E-01 a       256     0    13     1    16
  3.1615680803595647E-01 a       257     0    13     1    17
 -6.8237064161313010E-01 a       258     0    13     1    18
 -2.2036728137887121E-01 a       259     0    13     1    19
  2.4440711689396868E-01 a       260     0    13     1    20
 -1.3470777502072737E-01 a       261     0    14     1     1
 -4.1101502458404382E-03 a       262     0    14     1     2
 -1.6283516631901335E-01 a       263     0    14     1     3
  1.8216491043706459E-01 a       264     0    14     1     4
 -9.7076496509397717E-02 a       265     0    14     1     5
  7.5919436332187867E-02 a       266     0    14     1     6
 -8.4005253958977871E-02 a       267     0    14     1     7
 -1.1428765254860560E-02 a       268     0    14     1     8
 -1.9928330668550873E-01 a       269     0    14     1     9
 -1.6359755152249367E-01 a       270     0    14     1    10
  9.7463126710700856E-02 a       271     0    14     1    11
  7.5499254071167227E-02 a       272     0    14     1    12
  3.2004008523289169E-02 a       273     0    14     1    13
 -3.9684796019125203E-02 a       274     0    14     1    14
  7.4649242743705768E-02 a       275     0    14     1    15
  6.7316234168029301E-02 a       276     0    14     1    16
 -1.0528875386222630E-01 a       277     0    14     1    17
  1.2213056294973272E-01 a       278     0    14     1    18
 -3.4809461409108307E-03 a       279     0    14     1    19
 -7.9562461785672639E-02 a       280     0    14     1    20
  1.0802308702683036E-01 a       281     0    15     1     1
 -5.2678607066310001E-02 a       282     0    15     1     2
 -3.2270100739191170E-02 a       283     0    15     1     3
 -2.3049069395406002E-01 a       284     0    15     1     4
 -1.2605677250878775E-01 a       285     0    15     1     5
  8.4231939705906755E-02 a       286     0    15     1     6
  1.4633633907565141E-01 a       287     0    15     1     7
 -9.7908554748534840E-02 a       288     0    15     1     8
 -6.2378428609089216E-02 a       289     0    15     1     9
 -1.1386053718882100E-01 a       290     0    15     1    10
  1.1528494746822331E-01 a       291     0    15     1    11
 -2.4875489633081879E-01 a       292     0    15     1    12
  9.7336924921629757E-03 a       293     0    15     1    13
  1.2814741079240155E-01 a       294     0    15     1    14
  1.7786253161630022E-01 a       295     0    15     1    15
 -1.9283500602066228E-01 a       296     0    15     1    16
  1.4899355235923381E-01 a       297     0    15     1    17
 -2.3596062717888622E-01 a       298     0    15     1    18
  6.4830577256478755E-02 a       299     0    15     1    19
  8.4642272563249632E-02 a       300     0    15     1    20
 -1.4128099799514673E-01 a       301     0    16     1     1
 -1.8953973118694406E-01 a       302     0    16     1     2
  1.8116654045269065E-01 a       303     0    16     1     3
 -1.4063017362352476E-01 a       304     0    16     1     4
  1.5612284871307755E-01 a       305     0    16     1     5
  8.6181628254823978E-02 a       306     0    16     1     6
  4.0779559540568089E-01 a       307     0    16     1     7
  1.2794634346202218E+00 a       308     0    16     1     8
 -3.7870754534718482E-01 a       309     0    16     1     9
 -8.8141291485720696E-02 a       310     0    16     1    10
 -6.3711920838355196E-02 a       311     0    16     1    11
  1.4125130044475925E-01 a       312     0    16     1    12
  8.1348751108399661E-02 a       313     0    16     1    13
  2.0155468308392051E-02 a       314     0    16     1    14
 -2.5182695417086598E-01 a       315     0    16     1    15
 -1.4410076356270304E-01 a       316     0    16     1    16
 -4.0961932591978270E-03 a       317     0    16     1    17
  1.8176770825624181E-01 a       318     0    16     1    18
  3.0769934302026875E-01 a       319     0    16     1    19
 -1.7545263783762008E-01 a       320     0    16     1    20
  5.6057097196798945E-02 a       321     0    17     1     1
  3.2449413072863348E-01 a       322     0    17     1     2
  2.9881040142039128E-02 a       323     0    17     1     3
  3.6935685361497994E-01 a       324     0    17     1     4
  1.7464799113061372E-01 a       325     0    17     1     5
 -8.0605824123279463E-02 a       326     0    17     1     6
  4.2541351313135423E-01 a       327     0    17     1     7
 -2.0520062833187214E-01 a       328     0    17     1     8
 -5.4019678705508847E-02 a       329     0    17     1     9
  1.2221833632886894E-01 a       330     0    17     1    10
  3.5189662360634072E-01 a       331     0    17     1    11
  1.9001621945259721E-02 a       332     0    17     1    12
 -1.2856386161393618E-01 a       333     0    17     1    13
 -1.2333009579784340E-01 a       334     0    17     1    14
  2.2372206210000090E-01 a       335     0    17     1    15
  1.0143376417090552E-01 a       336     0    17     1    16
 -4.0094806666710496E-02 a       337     0    17     1    17
  4.9150218943900648E-01 a       338     0    17     1    18
  3.4982823906148464E-01 a       339     0    17     1    19
  1.2755249629707885E-01 a       340     0    17     1    20
 -1.4675567215025906E-02 a       341     0    18     1     1
  5.5322840514092080E-02 a       342     0    18     1     2
 -3.7709272477381567E-01 a       343     0    18     1     3
  1.8393200957151784E-01 a       344     0    18     1     4
 -2.2707132396675667E-01 a       345     0    18     1     5
 -5.4637366478952443E-01 a       346     0    18     1     6
  1.0920373032503732E-01 a       347     0    18     1     7
 -8.1266496268601593E-02 a       348     0    18     1     8
  6.6132500296205532E-01 a       349     0    18     1     9
  1.4462739747715569E-01 a       350     0    18     1    10
 -3.9395261888587239E-02 a       351     0    18     1    11
 -3.8803746360454217E-01 a       352     0    18     1    12
 -3.6043480695368230E-01 a       353     0    18     1    13
  2.0621814609261394E-01 a       354     0    18     1    14
  6.9955431227262457E-02 a       355     0    18     1    15
 -1.2004434713973951E-01 a       356     0    18     1    16
  2.9956891514202849E-01 a       357     0    18     1    17
 -2.2104765909614913E-02 a       358     0    18     1    18
  6.4210900274116856E-02 a       359     0    18     1    19
 -6.5843855913380334E-01 a       360     0    18     1    20
  2.5254894090832977E-02 a       361     0    19     1     1
 -5.6565584785039091E-02 a       362     0    19     1     2
  1.1886006986886145E-01 a       363     0    19     1     3
 -2.7297770118274661E-01 a       364     0    19     1     4
  2.0934407607955238E-01 a       365     0    19     1     5
  1.8255675011451828E-02 a       366     0    19     1     6
 -1.3884883807256487E-01 a       367     0    19     1     7
  1.3339948594356679E-01 a       368     0    19     1     8
  6.7032525873874690E-02 a       369     0    19     1     9
  5.5006567482327268E-02 a       370     0    19     1    10
 -1.2506765006342474E-01 a       371     0    19     1    11
  1.5675569572880760E-01 a       372     0    19     1    12
  1.1571031192182418E-01 a       373     0    19     1    13
 -1.4870737038599438E-01 a       374     0    19     1    14
 -1.1035960009878351E-02 a       375     0    19     1    15
  6.3327416580068061E-02 a       376     0    19     1    16
  3.4240959849345706E-02 a       377     0    19     1    17
 -4.8231069296480444E-01 a       378     0    19     1    18
  4.1741852846453459E-02 a       379     0    19     1    19
  1.7005959887945515E-01 a       380     0    19     1    20
 -8.3136991776889796E-02 a       381     0    20     1     1
 -5.8489594805103857E-03 a       382     0    20     1     2
 -9.6121849869020684E-02 a       383     0    20     1     3
 -3.8027102058673053E-02 a       384     0    20     1     4
 -1.3070989613728362E-01 a       385     0    20     1     5
 -8.2547506641478322E-02 a       386     0    20     1     6
  1.2194328926282651E-01 a       387     0    20     1     7
 -1.0517332681509824E-01 a       388     0    20     1     8
  4.5424579635211702E-02 a       389     0    20     1     9
  6.6596700733616593E-02 a       390     0    20     1    10
  9.9955192838292101E-02 a       391     0    20     1    11
  7.1369890799191940E-02 a       392     0    20     1    12
 -1.9838668523398661E-01 a       393     0    20     1    13
  8.8994508528707061E-03 a       394     0    20     1    14
  2.2485250264517581E-01 a       395     0    20     1    15
  9.0186575516535653E-02 a       396     0    20     1    16
  7.6336254642462908E-02 a       397     0    20     1    17
 -9.0510889384303864E-02 a       398     0    20     1    18
 -4.0442618844306590E-02 a       399     0    20     1    19
  6.7621075823420765E-02 a       400     0    20     1    20
  2.3215650003154475E-01 a       401     0    21     1     1
  4.7409440755097676E-02 a       402     0    21     1     2
  1.1967634753824268E-02 a       403     0    21     1     3
 -4.1457512547861264E-01 a       404     0    21     1     4
 -8.9598010713524329E-02 a       405     0    21     1     5
  5.0977140911934571E-01 a       406     0    21     1     6
  3.6032148896720649E-02 a       407     0    21     1     7
 -5.2595475379632450E-01 a       408     0    21     1     8
  3.3916628821832988E-02 a       409     0    21     1     9
 -8.7081139217648595E-02 a       410     0    21     1    10
  5.3711961739722744E-02 a       411     0    21     1    11
 -1.6815393432140702E-01 a       412     0    21     1    12
  2.6674525204363472E-02 a       413     0    21     1    13
 -9.7700988588088761E-02 a       414     0    21     1    14
 -6.4766799947248085E-02 a       415     0    21     1    15
  1.3553735646111802E-02 a       416     0    21     1    16
 -3.5267234028057570E-01 a       417     0    21     1    17
  6.1895440175169007E-02 a       418     0    21     1    18
  1.1259217826410568E-01 a       419     0    21     1    19
  8.7706428062932662E-02 a       420     0    21     1    20
  2.0941283483922565E-01 a       421     0    22     1     1
  1.9585840427609611E-02 a       422     0    22     1     2
 -2.1721298924597418E-01 a       423     0    22     1     3
 -3.1128216677297027E-01 a       424     0    22     1     4
 -3.2336141768755333E-01 a       425     0    22     1     5
  1.0834450677964751E-01 a       426     0    22     1     6
 -1.1156296681304645E-01 a       427     0    22     1     7
  1.0897765389360618E-01 a       428     0    22     1     8
  6.1445981196371596E-02 a       429     0    22     1     9
 -3.6175813495950275E-02 a       430     0    22     1    10
 -9.4198248768033080E-02 a       431     0    22     1    11
  5.4062183551336594E-02 a       432     0    22     1    12
  1.6415435395282804E-01 a       433     0    22     1    13
 -1.5033426714551720E-01 a       434     0    22     1    14
  6.3499573026343403E-02 a       435     0    22     1    15
 -1.4942476954521728E-03 a       436     0    22     1    16
  5.6735904134930671E-03 a       437     0    22     1    17
 -2.0311248419900854E-01 a       438     0    22     1    18
  7.3931446185757532E-02 a       439     0    22     1    19
 -1.0803287719348270E-01 a       440     0    22     1    20
 -6.0067717666367232E-02 a       441     0    23     1     1
 -2.5172949486996726E-01 a       442     0    23     1     2
 -7.9024553562701771E-02 a       443     0    23     1     3
  2.4248756440252114E-01 a       444     0    23     1     4
  6.0146000918432932E-02 a       445     0    23     1     5
 -3.1357806189585807E-02 a       446     0    23     1     6
 -8.3671191824988334E-02 a       447     0    23     1     7
 -9.3819766925672163E-02 a       448     0    23     1     8
  1.1072969238282094E-02 a       449     0    23     1     9
  9.0749600833432878E-02 a       450     0    23     1    10
  3.2369708975751657E-02 a       451     0    23     1    11
  8.0880923076710895E-02 a       452     0    23     1    12
  1.0329849542377402E-01 a       453     0    23     1    13
 -1.2343183678699148E-01 a       454     0    23     1    14
  3.2405666103875630E-01 a       455     0    23     1    15
  1.8674207440075377E-01 a       456     0    23     1    16
  2.4118639290421093E-01 a       457     0    23     1    17
 -3.7922507686982349E-01 a       458     0    23     1    18
 -1.5258843552069948E-01 a       459     0    23     1    19
 -2.1864441159546100E-02 a       460     0    23     1    20
  9.6183233546277516E-02 a       461     0    24     1     1
 -7.0888062329197950E-04 a       462     0    24     1     2
 -2.4566494944293527E-01 a       463     0    24     1     3
 -1.6329978594281258E-01 a       464     0    24     1     4
 -1.3618767710779622E-01 a       465     0    24     1     5
  1.3699393181809894E-01 a       466     0    24     1     6
  3.1376629372470738E-01 a       467     0    24     1     7
 -2.9773274876561302E-02 a       468     0    24     1     8
 -1.0161091210149518E-01 a       469     0    24     1     9
 -1.0354051695653839E-01 a       470     0    24     1    10
  2.0983483757738436E-01 a       471     0    24     1    11
  1.8098133673406562E-02 a       472     0    24     1    12
 -1.3396973134985146E-01 a       473     0    24     1    13
  6.6248108537468403E-02 a       474     0    24     1    14
  7.1479113003712250E-02 a       475     0    24     1    15
 -9.5259916904983560E-02 a       476     0    24     1    16
  2.3150572406562476E-02 a       477     0    24     1    17
  2.7603165029371723E-01 a       478     0    24     1    18
  2.3261647143836378E-01 a       479     0    24     1    19
 -5.6650821314107230E-02 a       480     0    24     1    20
  7.4376970579669577E-02 a       481     0    25     1     1
  6.9716892386547630E-02 a       482     0    25     1     2
  1.2303300347264645E-01 a       483     0    25     1     3
  1.4549243007951901E-01 a       484     0    25     1     4
  6.8739468907153519E-03 a       485     0    25     1     5
  1.0677036796416528E-01 a       486     0    25     1     6
 -1.9643123365223064E-01 a       487     0    25     1     7
  1.0995281610241428E-01 a       488     0    25     1     8
 -5.3327336361716604E-02 a       489     0    25     1     9
  6.8882186503961039E-03 a       490     0    25     1    10
  3.5432514425310389E-02 a       491     0    25     1    11
 -1.4136974114471837E-01 a       492     0    25     1    12
 -7.2114194349118685E-02 a       493     0    25     1    13
  2.0392265778206664E-01 a       494     0    25     1    14
  5.4920503324187034E-02 a       495     0    25     1    15
 -5.6880412311499193E-02 a       496     0    25     1    16
 -5.6963546795396926E-02 a       497     0    25     1    17
 -9.1725297633175704E-02 a       498     0    25     1    18
 -7.5544892193411088E-03 a       499     0    25     1    19
 -1.3887299901219188E-01 a       500     0    25     1    20
  8.5927148000808709E-03 a       501     0    26     1     1
  2.4693246449350125E-02 a       502     0    26     1     2
  1.5356870006036857E-01 a       503     0    26     1     3
  5.7045103102575302E-02 a       504     0    26     1     4
  1.8156418026918356E-01 a       505     0    26     1     5
 -2.5307907357862308E-01 a       506     0    26     1     6
  9.9717175307833819E-02 a       507     0    26     1     7
  2.5294363880720744E-01 a       508     0    26     1     8
 -3.9527769076927599E-01 a       509     0    26     1     9
 -6.0609438390848563E-02 a       510     0    26     1    10
 -1.6786899131335528E-01 a       511     0    26     1    11
  1.7139114115144941E-01 a       512     0    26     1    12
  4.4520536504778725E-02 a       513     0    26     1    13
  1.2483527355164430E-01 a       514     0    26     1    14
 -5.5928624821479145E-01 a       515     0    26     1    15
 -1.4687993579203820E-01 a       516     0    26     1    16
 -2.4674565028798234E-02 a       517     0    26     1    17
  1.8171659040611718E-01 a       518     0    26     1    18
  1.9519785660756742E-01 a       519     0    26     1    19
  3.9579406863681682E-01 a       520     0    26     1    20
 -3.8786694902613078E-02 a       521     0    27     1     1
 -2.0775644388076092E-03 a       522     0    27     1     2
  1.5792654133953050E-02 a       523     0    27     1     3
  1.6405196387830837E-01 a       524     0    27     1     4
  2.8921359526317159E-01 a       525     0    27     1     5
  3.6996328933438176E-02 a       526     0    27     1     6
  1.4798256665351442E-02 a       527     0    27     1     7
 -4.6112845503189691E-02 a       528     0    27     1     8
  9.1075571778431400E-03 a       529     0    27     1     9
  8.7177204730447141E-02 a       530     0    27     1    10
  4.5804956240838010E-02 a       531     0    27     1    11
 -5.3704837662374896E-02 a       532     0    27     1    12
 -1.7084264906229291E-01 a       533     0    27     1    13
  2.9747443266326279E-01 a       534     0    27     1    14
 -1.9689315328300303E-01 a       535     0    27     1    15
 -8.4303763159706183E-02 a       536     0    27     1    16
  2.2573464012340377E-02 a       537     0    27     1    17
 -1.1376056331974374E-01 a       538     0    27     1    18
 -3.1281653715555961E-02 a       539     0    27     1    19
 -4.2504670710254176E-02 a       540     0    27     1    20
 -7.4879706276105226E-02 a       541     0    28     1     1
  5.9018900911109250E-02 a       542     0    28     1     2
 -3.9715163244210189E-01 a       543     0    28     1     3
  1.3279092890185376E-01 a       544     0    28     1     4
 -6.0264993481780098E-02 a       545     0    28     1     5
 -1.7691605473010977E-01 a       546     0    28     1     6
 -8.6951687378668818E-02 a       547     0    28     1     7
  8.2413960948834172E-02 a       548     0    28     1     8
  5.0944349527220523E-01 a       549     0    28     1     9
  9.4386881693415983E-02 a       550     0    28     1    10
 -2.5133921688203515E-02 a       551     0    28     1    11
 -2.7070828927853834E-02 a       552     0    28     1    12
 -1.8361801493745800E-01 a       553     0    28     1    13
 -3.2155361181788029E-02 a       554     0    28     1    14
  4.5913502525860944E-01 a       555     0    28     1    15
 -8.5923100464256011E-02 a       556     0    28     1    16
  2.2508131664681352E-01 a       557     0    28     1    17
 -2.4170425867948646E-02 a       558     0    28     1    18
 -3.1519491673468486E-01 a       559     0    28     1    19
 -2.4676057672673668E-01 a       560     0    28     1    20
 -5.6818214559578278E-02 a       561     0    29     1     1
  6.0488804810588374E-02 a       562     0    29     1     2
 -2.1527029334767283E-02 a       563     0    29     1     3
 -1.2406032883459772E-01 a       564     0    29     1     4
  3.9967449936450586E-02 a       565     0    29     1     5
  4.8032475234648236E-02 a       566     0    29     1     6
 -4.2577211512881276E-02 a       567     0    29     1     7
  4.1327693989513831E-02 a       568     0    29     1     8
 -1.2333360158105697E-01 a       569     0    29     1     9
 -1.6686112335984804E-01 a       570     0    29     1    10
 -2.4033977949978424E-02 a       571     0    29     1    11
  5.3187287059084709E-02 a       572     0    29     1    12
  7.1208691048955455E-02 a       573     0    29     1    13
 -8.6799374011137121E-03 a       574     0    29     1    14
  3.7914258089247865E-02 a       575     0    29     1    15
  6.5246756926178859E-02 a       576     0    29     1    16
 -1.6595495362842635E-01 a       577     0    29     1    17
 -6.0760638439649371E-02 a       578     0    29     1    18
 -4.5102443506641075E-02 a       579     0    29     1    19
  1.1865763183371782E-01 a       580     0    29     1    20
 -8.3609713111624434E-02 a       581     0    30     1     1
 -5.1476365126129381E-02 a       582     0    30     1     2
 -1.6428204115986741E-01 a       583     0    30     1     3
  4.3566744744782997E-02 a       584     0    30     1     4
  2.6647735203516921E-02 a       585     0    30     1     5
 -7.3757610832398249E-02 a       586     0    30     1     6
  3.9680500873125205E-02 a       587     0    30     1     7
 -1.3408962481700526E-01 a       588     0    30     1     8
  8.0504214522046189E-02 a       589     0    30     1     9
 -2.7594413957955321E-02 a       590     0    30     1    10
  7.4518681132956496E-02 a       591     0    30     1    11
  3.0463832650759803E-02 a       592     0    30     1    12
 -7.7675986929102880E-02 a       593     0    30     1    13
 -3.1315947429476783E-03 a       594     0    30     1    14
  2.4013576103005055E-01 a       595     0    30     1    15
  1.1636484031533736E-02 a       596     0    30     1    16
  7.1931567229883295E-02 a       597     0    30     1    17
  4.8278575356265604E-02 a       598     0    30     1    18
 -1.4565701397429601E-01 a       599     0    30     1    19
  5.6966976453730736E-02 a       600     0    30     1    20
  6.1204468676887155E-02 a       601     0    31     1     1
 -9.7386731471186247E-02 a       602     0    31     1     2
 -4.1175859219328148E-02 a       603     0    31     1     3
 -4.1824938145057089E-01 a       604     0    31     1     4
 -6.7993018344316855E-02 a       605     0    31     1     5
  2.2385361638111728E-01 a       606     0    31     1     6
 -8.2872271307165624E-02 a       607     0    31     1     7
  1.1555934968212628E-01 a       608     0    31     1     8
  7.9040153131381380E-02 a       609     0    31     1     9
 -2.1524333425910445E-02 a       610     0    31     1    10
 -6.8479500032263829E-02 a       611     0    31     1    11
 -1.2432665876120429E-01 a       612     0    31     1    12
 -2.3726648386676263E-02 a       613     0    31     1    13
 -2.5720866631554135E-01 a       614     0    31     1    14
 -7.9537090429439624E-03 a       615     0    31     1    15
  1.0986986656348856E-01 a       616     0    31     1    16
 -2.3283426009233998E-01 a       617     0    31     1    17
  1.1036090908045013E-01 a       618     0    31     1    18
  3.5823025021439046E-02 a       619     0    31     1    19
 -1.0112484842980618E-01 a       620     0    31     1    20
  6.3881102935763504E-02 a       621     0    32     1     1
  4.7880345158919091E-02 a       622     0    32     1     2
  2.3090121180722714E-01 a       623     0    32     1     3
 -8.0687353077718571E-02 a       624     0    32     1     4
 -2.2060205687692186E-01 a       625     0    32     1     5
 -4.7407785330595753E-02 a       626     0    32     1     6
 -6.8331750779572599E-03 a       627     0    32     1     7
  2.4309149662316693E-02 a       628     0    32     1     8
 -3.1748614718995947E-03 a       629     0    32     1     9
 -1.3703631602676800E-01 a       630     0    32     1    10
  7.3612973537073969E-03 a       631     0    32     1    11
  1.2681130803659188E-01 a       632     0    32     1    12
  1.2828274063493925E-01 a       633     0    32     1    13
 -2.8991726678819418E-01 a       634     0    32     1    14
  1.3109300977354421E-01 a       635     0    32     1    15
  1.6542491270217252E-01 a       636     0    32     1    16
 -7.4376511461345482E-02 a       637     0    32     1    17
  2.3851328029306404E-01 a       638     0    32     1    18
  2.7941935503370794E-02 a       639     0    32     1    19
  3.1473740476897945E-02 a       640     0    32     1    20
 -9.9414247271811987E-02 a       641     0    33     1     1
 -1.0208961962060373E-01 a       642     0    33     1     2
 -1.2983743889281951E-01 a       643     0    33     1     3
  1.9517294224102705E-01 a       644     0    33     1     4
  3.6384302779149377E-02 a       645     0    33     1     5
 -1.1142886155193897E-01 a       646     0    33     1     6
  2.0212871855661008E-02 a       647     0    33     1     7
 -2.4924860811885488E-01 a       648     0    33     1     8
 -1.0260811237675992E-01 a       649     0    33     1     9
 -2.8627111125126333E-02 a       650     0    33     1    10
  1.1784192381646898E-01 a       651     0    33     1    11
 -1.1660087711298346E-02 a       652     0    33     1    12
 -5.4277046568773468E-02 a       653     0    33     1    13
  1.8100466447289029E-01 a       654     0    33     1    14
  1.2435426449577661E-01 a       655     0    33     1    15
  1.4128639006270105E-01 a       656     0    33     1    16
  3.5309531118274874E-02 a       657     0    33     1    17
 -1.9404513740628021E-01 a       658     0    33     1    18
 -1.8776987455429375E-01 a       659     0    33     1    19
 -1.3861434519477150E-01 a       660     0    33     1    20
  8.9533271476801707E-02 a       661     0    34     1     1
 -4.1144762486888684E-02 a       662     0    34     1     2
  2.0608204768579017E-01 a       663     0    34     1     3
  1.0707285949299105E-02 a       664     0    34     1     4
  5.8883686230837104E-02 a       665     0    34     1     5
  3.4702784530807496E-02 a       666     0    34     1     6
 -7.1917593137735630E-02 a       667     0    34     1     7
  6.9055927514421342E-02 a       668     0    34     1     8
 -1.4636509589249589E-02 a       669     0    34     1     9
  5.5463484010121258E-02 a       670     0    34     1    10
 -1.2357587249157182E-02 a       671     0    34     1    11
 -4.2909363881210368E-02 a       672     0    34     1    12
 -1.3930848994387277E-01 a       673     0    34     1    13
  3.0927150150381132E-02 a       674     0    34     1    14
 -3.6258824308675289E-02 a       675     0    34     1    15
 -2.6230345926480696E-02 a       676     0    34     1    16
 -3.4014900254718844E-02 a       677     0    34     1    17
  4.7497987101307530E-02 a       678     0    34     1    18
  6.4483582881037602E-02 a       679     0    34     1    19
  1.9699317053228103E-02 a       680     0    34     1    20
  4.5945821593726836E-02 a       681     0    35     1     1
  1.5546869586108621E-02 a       682     0    35     1     2
  5.1477410353511860E-02 a       683     0    35     1     3
  8.1284923969996689E-02 a       684     0    35     1     4
 -2.6856265817433403E-02 a       685     0    35     1     5
  5.2985760596153848E-02 a       686     0    35     1     6
 -5.8416516304789536E-02 a       687     0    35     1     7
  8.5162898419903252E-02 a       688     0    35     1     8
 -5.5323424296409358E-02 a       689     0    35     1     9
  1.4844378152964896E-02 a       690     0    35     1    10
  2.9995494076771451E-02 a       691     0    35     1    11
 -2.6079170680519313E-02 a       692     0    35     1    12
 -4.1192348733720865E-02 a       693     0    35     1    13
  1.0251010760560933E-01 a       694     0    35     1    14
  1.4484185238520391E-02 a       695     0    35     1    15
  4.6373071844595430E-02 a       696     0    35     1    16
 -5.6114401704607769E-02 a       697     0    35     1    17
 -6.2672969593210920E-02 a       698     0    35     1    18
  4.0718006101753315E-02 a       699     0    35     1    19
 -6.2745012131907557E-02 a       700     0    35     1    20
  1.0937183508847757E-01 a       701     0    36     1     1
  4.0171011306456934E-03 a       702     0    36     1     2
 -9.0990971875690413E-02 a       703     0    36     1     3
  1.1992810748723534E-01 a       704     0    36     1     4
  1.9775987089196778E-01 a       705     0    36     1     5
 -1.7365004961302201E-02 a       706     0    36     1     6
  2.7182897606038536E-01 a       707     0    36     1     7
 -1.0125221732053391E-01 a       708     0    36     1     8
 -1.5536443355162258E-01 a       709     0    36     1     9
 -1.3219822874663262E-01 a       710     0    36     1    10
 -1.3765542315324555E-01 a       711     0    36     1    11
  1.6612616401544983E-01 a       712     0    36     1    12
  1.2234512408723046E-02 a       713     0    36     1    13
  2.1439654292782354E-01 a       714     0    36     1    14
 -2.9501799476285651E-01 a       715     0    36     1    15
 -1.8540119688700149E-01 a       716     0    36     1    16
  3.4573730451194759E-02 a       717     0    36     1    17
  2.4170466796991327E-01 a       718     0    36     1    18
  2.2152928035819550E-01 a       719     0    36     1    19
  2.7003181109683011E-01 a       720     0    36     1    20
 -5.0955611933999542E-02 a       721     0    37     1     1
 -1.7931431660668771E-03 a       722     0    37     1     2
 -2.4967068528172146E-01 a       723     0    37     1     3
  5.6776122367051783E-02 a       724     0    37     1     4
  1.0658769531223967E-01 a       725     0    37     1     5
  9.9720439293064081E-02 a       726     0    37     1     6
 -7.9286228335213524E-02 a       727     0    37     1     7
  2.7523049518115062E-02 a       728     0    37     1     8
 -6.4343353306773043E-02 a       729     0    37     1     9
  1.5930436041895805E-02 a       730     0    37     1    10
  4.5381054286170411E-02 a       731     0    37     1    11
 -1.7168090450558451E-01 a       732     0    37     1    12
 -1.8522203076319899E-01 a       733     0    37     1    13
  3.1097527562235650E-01 a       734     0    37     1    14
  1.6228097250296458E-01 a       735     0    37     1    15
 -1.2907435670135012E-01 a       736     0    37     1    16
 -4.9957348706640210E-02 a       737     0    37     1    17
 -8.3394331300910590E-02 a       738     0    37     1    18
 -9.0241678376116671E-02 a       739     0    37     1    19
 -2.9878635242999198E-04 a       740     0    37     1    20
 -2.0582725714902890E-02 a       741     0    38     1     1
  4.1455550730221703E-02 a       742     0    38     1     2
  9.5796205532906339E-02 a       743     0    38     1     3
  4.1399826230902192E-01 a       744     0    38     1     4
 -5.0048115180196182E-02 a       745     0    38     1     5
  1.3732801358775232E-01 a       746     0    38     1     6
 -1.0957882770010677E-01 a       747     0    38     1     7
  9.5831183797124520E-02 a       748     0    38     1     8
  2.4437388798836010E-01 a       749     0    38     1     9
  4.4431571469413206E-02 a       750     0    38     1    10
  4.9082285067890259E-02 a       751     0    38     1    11
 -4.8707494829659158E-02 a       752     0    38     1    12
 -2.1796209480551190E-02 a       753     0    38     1    13
  8.1983101845996706E-02 a       754     0    38     1    14
  5.2100085582966216E-01 a       755     0    38     1    15
  1.0238899458456546E-02 a       756     0    38     1    16
  5.1028316949804607E-02 a       757     0    38     1    17
  2.3635211623064023E-01 a       758     0    38     1    18
 -1.3379385652929682E-01 a       759     0    38     1    19
 -1.0832678906004140E-01 a       760     0    38     1    20
 -2.2297221135757991E-02 a       761     0    39     1     1
  4.6532378599020378E-03 a       762     0    39     1     2
 -6.5691362334851650E-02 a       763     0    39     1     3
 -1.0600602125080888E-01 a       764     0    39     1     4
  1.8721276039821346E-02 a       765     0    39     1     5
 -3.8067583913191698E-02 a       766     0    39     1     6
  6.9829742424772745E-02 a       767     0    39     1     7
 -4.1545088081573450E-02 a       768     0    39     1     8
 -4.1725890923663189E-02 a       769     0    39     1     9
 -1.0762747563260203E-01 a       770     0    39     1    10
 -2.4881699501670004E-02 a       771     0    39     1    11
  3.9565496284420104E-02 a       772     0    39     1    12
  3.9358796011656150E-02 a       773     0    39     1    13
 -7.0946819636920008E-04 a       774     0    39     1    14
 -1.2862568113246745E-01 a       775     0    39     1    15
 -9.9514130780588104E-03 a       776     0    39     1    16
 -6.6320045603790678E-02 a       777     0    39     1    17
  1.4197063367705284E-01 a       778     0    39     1    18
 -3.0003044082615619E-02 a       779     0    39     1    19
  1.2197617188683061E-02 a       780     0    39     1    20
 -8.6367155951443522E-02 a       781     0    40     1     1
 -2.3110894868296247E-02 a       782     0    40     1     2
  3.2310655360340834E-02 a       783     0    40     1     3
  7.9969134500075395E-03 a       784     0    40     1     4
  4.4423738470259322E-02 a       785     0    40     1     5
 -7.2908266664647850E-02 a       786     0    40     1     6
 -9.2199020742154289E-02 a       787     0    40     1     7
 -6.1539805307597090E-02 a       788     0    40     1     8
  7.3241031714449512E-02 a       789     0    40     1     9
 -2.3619906410536934E-02 a       790     0    40     1    10
  1.9881473705863083E-02 a       791     0    40     1    11
  2.4092014892609120E-02 a       792     0    40     1    12
 -1.4193243109711271E-02 a       793     0    40     1    13
 -3.9089756641224903E-02 a       794     0    40     1    14
  1.2123244259836018E-01 a       795     0    40     1    15
 -1.6827552198671419E-02 a       796     0    40     1    16
  5.3270850565443166E-02 a       797     0    40     1    17
 -8.4036968380095205E-04 a       798     0    40     1    18
 -1.2663224315079341E-01 a       799     0    40     1    19
 -2.6776402973324134E-02 a       800     0    40     1    20
 -6.9395936290250093E-02 a       801     0    41     1     1
 -3.1969841642827374E-02 a       802     0    41     1     2
 -5.6257736022059343E-02 a       803     0    41     1     3
 -1.8735073156733609E-01 a       804     0    41     1     4
 -1.0010511016936950E-01 a       805     0    41     1     5
 -7.3804771703207164E-02 a       806     0    41     1     6
 -1.7095106088349124E-01 a       807     0    41     1     7
  7.9377007397980565E-02 a       808     0    41     1     8
 -4.6717753648394802E-03 a       809     0    41     1     9
  6.1895449678145940E-02 a       810     0    41     1    10
  4.7997502592658885E-02 a       811     0    41     1    11
 -7.3350046568067373E-02 a       812     0    41     1    12
 -7.0397670332695587E-03 a       813     0    41     1    13
 -1.6229768121102950E-01 a       814     0    41     1    14
  5.3179152953419101E-02 a       815     0    41     1    15
  1.3867772999787972E-01 a       816     0    41     1    16
 -4.7752867199561524E-02 a       817     0    41     1    17
 -1.8166785510580319E-01 a       818     0    41     1    18
 -6.1626069074538513E-02 a       819     0    41     1    19
 -3.5796802367134076E-02 a       820     0    41     1    20
  7.0743069921352777E-02 a       821     0    42     1     1
 -1.1667543245622695E-01 a       822     0    42     1     2
  1.6350279949024155E-01 a       823     0    42     1     3
  1.8498034425049764E-01 a       824     0    42     1     4
 -7.2419319265135725E-04 a       825     0    42     1     5
 -3.4197321691496525E-05 a       826     0    42     1     6
  1.6815523890231168E-01 a       827     0    42     1     7
 -7.4084658327982375E-02 a       828     0    42     1     8
  6.8263052032519908E-02 a       829     0    42     1     9
  2.1240812029310750E-02 a       830     0    42     1    10
 -8.9203374537574848E-02 a       831     0    42     1    11
  4.8797640580228258E-02 a       832     0    42     1    12
  1.1012265079502159E-01 a       833     0    42     1    13
 -1.6407332471281927E-01 a       834     0    42     1    14
 -4.3981431285221861E-02 a       835     0    42     1    15
  4.7130844937838798E-02 a       836     0    42     1    16
 -8.7139567120953759E-03 a       837     0    42     1    17
  9.2777412652470567E-02 a       838     0    42     1    18
  5.8972286107450755E-02 a       839     0    42     1    19
 -5.1283015909367083E-02 a       840     0    42     1    20
 -2.2763339451768907E-02 a       841     0    43     1     1
 -1.4136259872465997E-02 a       842     0    43     1     2
 -9.0881786898747929E-02 a       843     0    43     1     3
 -2.2546153402162397E-01 a       844     0    43     1     4
  7.2780262104956459E-02 a       845     0    43     1     5
 -8.1989094540214372E-02 a       846     0    43     1     6
  9.3330970054520176E-03 a       847     0    43     1     7
 -6.7194349720432991E-02 a       848     0    43     1     8
 -1.2950504955286621E-01 a       849     0    43     1     9
 -2.4473463149646494E-02 a       850     0    43     1    10
  3.5785881168721133E-02 a       851     0    43     1    11
 -5.1553786901445360E-02 a       852     0    43     1    12
 -1.4753971681106645E-01 a       853     0    43     1    13
  6.9691589225696030E-02 a       854     0    43     1    14
 -2.2417789198435686E-01 a       855     0    43     1    15
 -6.6612185040298505E-02 a       856     0    43     1    16
 -7.6787114737427969E-02 a       857     0    43     1    17
 -2.3400470457205802E-01 a       858     0    43     1    18
 -1.1134999842052529E-01 a       859     0    43     1    19
 -8.5865359391370147E-02 a       860     0    43     1    20
 -5.8922119763745381E-03 a       861     0    44     1     1
 -1.8678011056084319E-02 a       862     0    44     1     2
  3.1030030042189922E-04 a       863     0    44     1     3
  1.7092192503745537E-02 a       864     0    44     1     4
  1.5406174440514104E-02 a       865     0    44     1     5
  4.9775923556964030E-02 a       866     0    44     1     6
 -1.0987926143132158E-01 a       867     0    44     1     7
  7.2303136739010676E-02 a       868     0    44     1     8
 -4.3530799856898502E-03 a       869     0    44     1     9
 -1.3318174381779411E-02 a       870     0    44     1    10
  3.2375684822863279E-02 a       871     0    44     1    11
 -2.4549976994470823E-02 a       872     0    44     1    12
 -8.9017685444627098E-02 a       873     0    44     1    13
  5.4397605602278069E-02 a       874     0    44     1    14
  1.7882385369731413E-01 a       875     0    44     1    15
  1.0123512149321171E-02 a       876     0    44     1    16
 -2.9841377572419309E-02 a       877     0    44     1    17
 -7.6576688918793989E-02 a       878     0    44     1    18
 -3.2306794471291971E-02 a       879     0    44     1    19
  1.1531301924030568E-02 a       880     0    44     1    20
  5.0860009723201711E-02 a       881     0    45     1     1
  2.1947683093936240E-02 a       882     0    45     1     2
  1.7413869213782639E-02 a       883     0    45     1     3
  2.4324541192226171E-02 a       884     0    45     1     4
  3.0462204690356660E-02 a       885     0    45     1     5
  8.0504499598511164E-02 a       886     0    45     1     6
  4.3552218533208439E-02 a       887     0    45     1     7
  2.0415001125137180E-02 a       888     0    45     1     8
 -6.5355827932562435E-02 a       889     0    45     1     9
 -3.0991762337391076E-02 a       890     0    45     1    10
  6.5410615354599189E-02 a       891     0    45     1    11
 -2.7757617273532036E-02 a       892     0    45     1    12
 -1.0751077785186502E-01 a       893     0    45     1    13
  1.2997812071431217E-01 a       894     0    45     1    14
  2.3543368423696875E-02 a       895     0    45     1    15
  1.2126095652566709E-02 a       896     0    45     1    16
 -8.3632497487867580E-02 a       897     0    45     1    17
  9.9745436771812301E-03 a       898     0    45     1    18
  5.0841871906613934E-03 a       899     0    45     1    19
 -1.0377940233152383E-02 a       900     0    45     1    20
  5.6440898128061419E-02 a       901     0    46     1     1
 -3.4788243648501943E-02 a       902     0    46     1     2
 -1.9003283608707240E-02 a       903     0    46     1     3
  4.0249558037573782E-02 a       904     0    46     1     4
  9.1458446769749721E-02 a       905     0    46     1     5
  3.5660754892243553E-02 a       906     0    46     1     6
  9.4247521814811344E-02 a       907     0    46     1     7
 -2.4416462567797757E-02 a       908     0    46     1     8
 -8.7425139523225545E-03 a       909     0    46     1     9
 -4.3938177210098274E-02 a       910     0    46     1    10
 -1.0960262661571502E-01 a       911     0    46     1    11
  2.2084320034822243E-02 a       912     0    46     1    12
 -2.3644025099283984E-03 a       913     0    46     1    13
  3.8457366537536640E-02 a       914     0    46     1    14
 -1.0139701236822186E-01 a       915     0    46     1    15
 -8.3526486452347962E-02 a       916     0    46     1    16
 -3.2768199074012128E-02 a       917     0    46     1    17
  2.0059699844692463E-01 a       918     0    46     1    18
  5.3181985610602382E-02 a       919     0    46     1    19
  4.5884102796081717E-02 a       920     0    46     1    20
 -1.4974850069900070E-02 a       921     0    47     1     1
  7.2872337360293332E-02 a       922     0    47     1     2
  5.7340918782066916E-02 a       923     0    47     1     3
 -8.9473954958606952E-02 a       924     0    47     1     4
 -7.3038856760082047E-03 a       925     0    47     1     5
  1.6032049089533838E-02 a       926     0    47     1     6
 -5.7302385496264811E-02 a       927     0    47     1     7
  3.3193232134314445E-02 a       928     0    47     1     8
 -4.2304192344890898E-02 a       929     0    47     1     9
 -3.1257888289933054E-02 a       930     0    47     1    10
  6.5474195126800458E-02 a       931     0    47     1    11
  5.7362859289626436E-03 a       932     0    47     1    12
 -3.2638013855392362E-02 a       933     0    47     1    13
  4.6654941212087901E-02 a       934     0    47     1    14
  3.0698230436767653E-02 a       935     0    47     1    15
  1.8656796912733264E-02 a       936     0    47     1    16
 -1.1108354678901280E-02 a       937     0    47     1    17
 -6.6913739533325148E-02 a       938     0    47     1    18
  1.6622805039938179E-02 a       939     0    47     1    19
  1.6134971809361257E-02 a       940     0    47     1    20
 -2.9122259807947200E-02 a       941     0    48     1     1
  9.5118589689088453E-03 a       942     0    48     1     2
  4.4555331581509490E-02 a       943     0    48     1     3
  2.0746496653860300E-01 a       944     0    48     1     4
 -8.4447564066933531E-02 a       945     0    48     1     5
  5.6044825695472499E-02 a       946     0    48     1     6
 -2.6462408671444115E-02 a       947     0    48     1     7
  1.3270711125173409E-02 a       948     0    48     1     8
  5.0596776246830809E-02 a       949     0    48     1     9
  4.0323137013280478E-03 a       950     0    48     1    10
  7.9222599777069122E-02 a       951     0    48     1    11
 -8.1648250089746022E-04 a       952     0    48     1    12
  3.5518032627905247E-02 a       953     0    48     1    13
  3.5643577288627500E-02 a       954     0    48     1    14
  3.0983176501654958E-01 a       955     0    48     1    15
  7.7202729520495797E-02 a       956     0    48     1    16
  3.2464126415877669E-02 a       957     0    48     1    17
  1.4550349991257380E-01 a       958     0    48     1    18
 -8.9685699894010637E-03 a       959     0    48     1    19
 -2.1071930040935036E-02 a       960     0    48     1    20
  3.6611799691882621E-02 a       961     0    49     1     1
  6.3960044193193219E-02 a       962     0    49     1     2
  2.7262183062636541E-01 a       963     0    49     1     3
 -5.5737257698193973E-02 a       964     0    49     1     4
  5.7221297874509955E-02 a       965     0    49     1     5
  2.4942181206847790E-02 a       966     0    49     1     6
 -2.3089901588556425E-02 a       967     0    49     1     7
 -6.1390131870952399E-03 a       968     0    49     1     8
 -7.7056615667579487E-02 a       969     0    49     1     9
 -6.3501174436674995E-02 a       970     0    49     1    10
  7.0746381367054315E-02 a       971     0    49     1    11
  1.6374808157819640E-02 a       972     0    49     1    12
 -7.5030587988389075E-02 a       973     0    49     1    13
  5.0509385754785210E-02 a       974     0    49     1    14
 -7.0310508675662811E-02 a       975     0    49     1    15
  2.1692546597368616E-02 a       976     0    49     1    16
 -9.2622057692443679E-02 a       977     0    49     1    17
 -1.6986092516612771E-02 a       978     0    49     1    18
  1.3056601521826887E-02 a       979     0    49     1    19
 -7.7203118138295570E-04 a       980     0    49     1    20
 -3.5961703235274430E-02 a       981     0    50     1     1
 -3.9022395386735706E-03 a       982     0    50     1     2
 -2.6651190303301599E-03 a       983     0    50     1     3
  5.2159797185235945E-02 a       984     0    50     1     4
 -1.4411301941538830E-03 a       985     0    50     1     5
 -1.0687315555661443E-05 a       986     0    50     1     6
 -6.0435431394910644E-02 a       987     0    50     1     7
 -1.5842647762234076E-02 a       988     0    50     1     8
 -2.1357405502314496E-04 a       989     0    50     1     9
 -2.2117902605794736E-02 a       990     0    50     1    10
  2.2346985793236202E-02 a       991     0    50     1    11
 -2.1566828479831632E-02 a       992     0    50     1    12
 -2.6279046292695018E-02 a       993     0    50     1    13
  5.0325827096187326E-02 a       994     0    50     1    14
  8.8757784582248464E-02 a       995     0    50     1    15
 -1.1170306401340275E-02 a       996     0    50     1    16
 -1.2878053459518680E-02 a       997     0    50     1    17
  1.8639531699756223E-02 a       998     0    50     1    18
 -5.4616407998169518E-02 a       999     0    50     1    19
 -5.1943218610317116E-02 a      1000     0    50     1    20
 -1.4784942168993626E-01 a      1001     0    51     1     1
 -6.3835001076641043E-02 a      1002     0    51     1     2
  1.7318081138761571E-02 a      1003     0    51     1     3
  3.9204051130225687E-01 a      1004     0    51     1     4
  4.0642561213435835E-01 a      1005     0    51     1     5
 -1.8579967446518011E-01 a      1006     0    51     1     6
  1.9065686306833507E-01 a      1007     0    51     1     7
  1.5126706750534566E-01 a      1008     0    51     1     8
  1.2208629666003146E-01 a      1009     0    51     1     9
 -1.8099802443162324E-01 a      1010     0    51     1    10
  1.0126902488715427E-01 a      1011     0    51     1    11
  3.2063045868224443E-01 a      1012     0    51     1    12
 -2.3952274085176659E-01 a      1013     0    51     1    13
  1.3667961482151608E-01 a      1014     0    51     1    14
  3.4263609260782302E-01 a      1015     0    51     1    15
  5.2550464864809111E-02 a      1016     0    51     1    16
  6.9045023533547245E-02 a      1017     0    51     1    17
  1.0588655555222007E-01 a      1018     0    51     1    18
 -3.4788084230182270E-01 a      1019     0    51     1    19
  3.0904423187133091E-02 a      1020     0    51     1    20
  3.8872580171951977E-02 a      1021     0    52     1     1
 -1.4640572687536260E-01 a      1022     0    52     1     2
 -1.9579399052075114E-01 a      1023     0    52     1     3
  2.6344780806915827E-02 a      1024     0    52     1     4
 -7.3642200109454728E-02 a      1025     0    52     1     5
 -1.0109909616677761E-01 a      1026     0    52     1     6
 -2.3417961215376859E-01 a      1027     0    52     1     7
 -1.3510729337907418E-01 a      1028     0    52     1     8
  8.0196877622717072E-02 a      1029     0    52     1     9
 -3.4909905517324410E-02 a      1030     0    52     1    10
 -4.4743945915769995E-02 a      1031     0    52     1    11
  1.4655750320708438E-02 a      1032     0    52     1    12
  2.6995237738234232E-02 a      1033     0    52     1    13
  1.3237623417081246E-01 a      1034     0    52     1    14
  2.4503333328843110E-01 a      1035     0    52     1    15
  2.4897411890860544E-01 a      1036     0    52     1    16
 -1.0456627765705691E-01 a      1037     0    52     1    17
 -3.1261645934386134E-01 a      1038     0    52     1    18
 -2.0377678596329460E-01 a      1039     0    52     1    19
  1.7567237163686142E-01 a      1040     0    52     1    20
 -9.8523006495247090E-02 a      1041     0    53     1     1
 -1.9617088291093315E-01 a      1042     0    53     1     2
  5.0457992084354752E-02 a      1043     0    53     1     3
 -1.2448532525891920E-01 a      1044     0    53     1     4
 -1.3639130332103228E-01 a      1045     0    53     1     5
 -2.8236219867215401E-01 a      1046     0    53     1     6
 -4.4637370057932407E-01 a      1047     0    53     1     7
 -4.2484125559577568E-01 a      1048     0    53     1     8
  1.5544812924574275E-01 a      1049     0    53     1     9
 -2.7044883838780276E-01 a      1050     0    53     1    10
 -5.1428118991217020E-01 a      1051     0    53     1    11
 -1.0126384512231315E+00 a      1052     0    53     1    12
  3.6898114150557509E-01 a      1053     0    53     1    13
  6.4352995365295748E-02 a      1054     0    53     1    14
 -5.0330168573349954E-01 a      1055     0    53     1    15
 -1.7330415349912714E-01 a      1056     0    53     1    16
  1.2549879877713579E-01 a      1057     0    53     1    17
 -6.0393115830227617E-01 a      1058     0    53     1    18
  7.4230255414217450E-01 a      1059     0    53     1    19
 -5.1542555969233961E-01 a      1060     0    53     1    20
 -1.1831178610887585E-01 a      1061     0    54     1     1
 -3.6940815095270696E-02 a      1062     0    54     1     2
 -4.0928522340661709E-02 a      1063     0    54     1     3
  7.5783185202064202E-02 a      1064     0    54     1     4
 -1.0510434261317926E-02 a      1065     0    54     1     5
  2.7176008410208924E-02 a      1066     0    54     1     6
  2.1106104460854697E-01 a      1067     0    54     1     7
  2.4431587971252108E-01 a      1068     0    54     1     8
 -3.4356420444524922E-02 a      1069     0    54     1     9
 -2.2418995206865768E-02 a      1070     0    54     1    10
  1.4186709706055989E-01 a      1071     0    54     1    11
  1.9265221870251115E-01 a      1072     0    54     1    12
 -3.8822929532764408E-02 a      1073     0    54     1    13
  5.4798536877855037E-03 a      1074     0    54     1    14
  3.2372304350276887E-01 a      1075     0    54     1    15
 -5.7639238580165812E-03 a      1076     0    54     1    16
  6.3859449729546200E-02 a      1077     0    54     1    17
  1.1294612234522367E-01 a      1078     0    54     1    18
 -9.3884260400776146E-02 a      1079     0    54     1    19
  1.5222420802724959E-01 a      1080     0    54     1    20
  1.4004940169429070E-02 a      1081     0    55     1     1
 -1.8406493122128945E-01 a      1082     0    55     1     2
  2.1661618320686135E-01 a      1083     0    55     1     3
 -3.8753310637251959E-02 a      1084     0    55     1     4
  7.8827873039212806E-02 a      1085     0    55     1     5
  2.0706082482474169E-02 a      1086     0    55     1     6
 -3.3907348306291585E-01 a      1087     0    55     1     7
  1.5367678905937321E-01 a      1088     0    55     1     8
  4.9670477924067445E-02 a      1089     0    55     1     9
 -8.8209349774511003E-02 a      1090     0    55     1    10
  4.1725708958606861E-02 a      1091     0    55     1    11
 -3.2032288812722028E-02 a      1092     0    55     1    12
  1.8068743758226316E-01 a      1093     0    55     1    13
 -1.7621355641936010E-01 a      1094     0    55     1    14
  4.7301861463751878E-02 a      1095     0    55     1    15
 -1.0613950322729911E-01 a      1096     0    55     1    16
  2.7865348127583511E-02 a      1097     0    55     1    17
  7.0390610673002688E-02 a      1098     0    55     1    18
  2.0215824404456464E-01 a      1099     0    55     1    19
  2.0842249031747744E-02 a      1100     0    55     1    20
 -8.8935361281409317E-02 a      1101     0    56     1     1
 -6.4769550102996024E-02 a      1102     0    56     1     2
  1.8911785858542393E-01 a      1103     0    56     1     3
 -1.2099119835374805E-01 a      1104     0    56     1     4
 -9.4385441844411111E-02 a      1105     0    56     1     5
  1.4130467992379221E-02 a      1106     0    56     1     6
 -4.2346192270441058E-01 a      1107     0    56     1     7
  1.0457856554912297E-01 a      1108     0    56     1     8
  6.6082354756653097E-02 a      1109     0    56     1     9
  9.7277195639769637E-02 a      1110     0    56     1    10
  4.8227837397830298E-01 a      1111     0    56     1    11
  3.1953144507479547E-01 a      1112     0    56     1    12
 -5.7760696342678974E-01 a      1113     0    56     1    13
  4.9602443002911589E-01 a      1114     0    56     1    14
 -2.1164031732455450E-02 a      1115     0    56     1    15
 -5.2315776844891013E-02 a      1116     0    56     1    16
  1.1036038016182277E-01 a      1117     0    56     1    17
  1.6168388593798200E-02 a      1118     0    56     1    18
 -3.5985867558890011E-01 a      1119     0    56     1    19
  2.4939671509078698E-01 a      1120     0    56     1    20
 -4.3774947157957392E-02 a      1121     0    57     1     1
 -1.4105914184491739E-01 a      1122     0    57     1     2
  2.4535756383094565E-01 a      1123     0    57     1     3
  1.7051514777979249E-01 a      1124     0    57     1     4
  3.7609295707226342E-01 a      1125     0    57     1     5
  3.3291927862565240E-01 a      1126     0    57     1     6
  4.9808734911250194E-02 a      1127     0    57     1     7
 -1.0779855126705165E-02 a      1128     0    57     1     8
  1.3702523066841424E-01 a      1129     0    57     1     9
 -2.8529632190670180E-02 a      1130     0    57     1    10
 -4.4615940752451783E-01 a      1131     0    57     1    11
  1.1906869511786040E-01 a      1132     0    57     1    12
 -6.8437623939302236E-02 a      1133     0    57     1    13
  1.5155820161940306E-01 a      1134     0    57     1    14
 -3.2329748950307702E-01 a      1135     0    57     1    15
  3.5393692392664405E-02 a      1136     0    57     1    16
 -1.9267041162552717E-01 a      1137     0    57     1    17
  1.9964173443025693E-01 a      1138     0    57     1    18
 -3.0968985775952440E-01 a      1139     0    57     1    19
  7.3381073727416618E-02 a      1140     0    57     1    20
  1.3219728156163528E-02 a      1141     0    58     1     1
 -1.5504064566223361E-02 a      1142     0    58     1     2
  4.6258544390795006E-02 a      1143     0    58     1     3
  1.8495581695983707E-01 a      1144     0    58     1     4
  2.0874253415176161E-01 a      1145     0    58     1     5
  4.4776589583353316E-01 a      1146     0    58     1     6
  7.8326436209485317E-02 a      1147     0    58     1     7
 -1.2062100343086472E-01 a      1148     0    58     1     8
 -1.7863024304422245E-01 a      1149     0    58     1     9
 -2.9839175402908397E-01 a      1150     0    58     1    10
 -2.7653588285894256E-02 a      1151     0    58     1    11
 -6.5750408782203382E-02 a      1152     0    58     1    12
 -7.4222825270006294E-03 a      1153     0    58     1    13
  1.5929078341810657E-01 a      1154     0    58     1    14
  3.4229712823154584E-01 a      1155     0    58     1    15
  5.3481151524567755E-02 a      1156     0    58     1    16
 -4.0541268728755475E-01 a      1157     0    58     1    17
  6.9659175927955480E-02 a      1158     0    58     1    18
 -1.5143972054375462E-01 a      1159     0    58     1    19
  7.9272788069318936E-02 a      1160     0    58     1    20
 -8.2574088277979685E-02 a      1161     0    59     1     1
  5.8319604374445694E-02 a      1162     0    59     1     2
 -4.3739891807674479E-02 a      1163     0    59     1     3
 -1.8810465517600586E-02 a      1164     0    59     1     4
 -1.0586348984853690E-01 a      1165     0    59     1     5
 -1.8609468344115487E-02 a      1166     0    59     1     6
  1.0108136741616204E-01 a      1167     0    59     1     7
  3.4072290440328876E-02 a      1168     0    59     1     8
 -3.6305448391448378E-02 a      1169     0    59     1     9
 -2.5927675988678161E-02 a      1170     0    59     1    10
  1.6360264521446941E-01 a      1171     0    59     1    11
 -5.5225172080382613E-03 a      1172     0    59     1    12
 -5.0934332973205446E-03 a      1173     0    59     1    13
  8.1499598384064634E-02 a      1174     0    59     1    14
  8.8506846487242039E-02 a      1175     0    59     1    15
  2.8062034065984353E-02 a      1176     0    59     1    16
  7.2696635922994815E-02 a      1177     0    59     1    17
  4.1384228919654209E-02 a      1178     0    59     1    18
  4.2203854834059890E-02 a      1179     0    59     1    19
 -7.6022443218597205E-02 a      1180     0    59     1    20
 -2.3142483398550314E-03 a      1181     0    60     1     1
  1.7071144563339832E-01 a      1182     0    60     1     2
 -2.2976231815962209E-01 a      1183     0    60     1     3
  2.6076913355402742E-01 a      1184     0    60     1     4
  2.8789513532787298E-01 a      1185     0    60     1     5
  5.9057500695422660E-01 a      1186     0    60     1     6
 -1.7887208592186840E-01 a      1187     0    60     1     7
  3.6095077695321715E-01 a      1188     0    60     1     8
 -3.7305925365135129E-01 a      1189     0    60     1     9
  8.9694292464466266E-02 a      1190     0    60     1    10
  5.1137959653559362E-01 a      1191     0    60     1    11
  1.1910591441903196E+00 a      1192     0    60     1    12
  7.1985289949443504E-02 a      1193     0    60     1    13
  9.6426913494898445E-02 a      1194     0    60     1    14
  5.4483650424910401E-01 a      1195     0    60     1    15
  1.0104896101566145E-01 a      1196     0    60     1    16
 -3.0198867218413156E-01 a      1197     0    60     1    17
  7.9682973057914530E-01 a      1198     0    60     1    18
 -5.1286836722103224E-01 a      1199     0    60     1    19
  4.6141497803524084E-01 a      1200     0    60     1    20
  3.7685621929645967E-02 a      1201     0    61     1     1
  1.4943297655047302E-01 a      1202     0    61     1     2
 -5.0586408499295517E-03 a      1203     0    61     1     3
  2.7206245882444874E-01 a      1204     0    61     1     4
 -7.1137090438476380E-02 a      1205     0    61     1     5
  8.4717766555764989E-02 a      1206     0    61     1     6
 -3.2523772904069922E-02 a      1207     0    61     1     7
 -7.1612900774423005E-02 a      1208     0    61     1     8
 -5.9573572366506594E-02 a      1209     0    61     1     9
  1.2072174376170687E-01 a      1210     0    61     1    10
 -1.0519000968112420E-01 a      1211     0    61     1    11
 -3.0218093827918130E-01 a      1212     0    61     1    12
  6.8587631653688960E-02 a      1213     0    61     1    13
  2.9478037227965208E-02 a      1214     0    61     1    14
 -9.7398225301510419E-02 a      1215     0    61     1    15
 -9.6643071890513924E-02 a      1216     0    61     1    16
 -2.5197008119894881E-01 a      1217     0    61     1    17
  2.4813036702858077E-01 a      1218     0    61     1    18
 -9.9117693955065561E-02 a      1219     0    61     1    19
 -4.3751525358367099E-02 a      1220     0    61     1    20
  4.0691265946145000E-02 a      1221     0    62     1     1
  1.9133589600978888E-02 a      1222     0    62     1     2
 -3.2448174396806906E-01 a      1223     0    62     1     3
  2.2914481363556866E-01 a      1224     0    62     1     4
  2.4964791966905869E-01 a      1225     0    62     1     5
  1.9255951612150063E-01 a      1226     0    62     1     6
 -6.9586854616083174E-02 a      1227     0    62     1     7
  1.6979215936506356E-01 a      1228     0    62     1     8
  7.4805813123237624E-03 a      1229     0    62     1     9
  3.0003711845895550E-02 a      1230     0    62     1    10
 -1.6148424645786866E-02 a      1231     0    62     1    11
  2.4174827938414475E-01 a      1232     0    62     1    12
 -6.3065329376393850E-02 a      1233     0    62     1    13
  1.8109047376469870E-01 a      1234     0    62     1    14
  1.5842282237180438E-01 a      1235     0    62     1    15
  2.0354466509346031E-01 a      1236     0    62     1    16
 -1.9517747176242242E-01 a      1237     0    62     1    17
  3.4748427253527403E-01 a      1238     0    62     1    18
 -7.5020879443718186E-02 a      1239     0    62     1    19
 -3.1760683273494411E-01 a      1240     0    62     1    20
  6.3081381999579078E-02 a      1241     0    63     1     1
 -5.9729844079721144E-02 a      1242     0    63     1     2
 -7.0956244434922211E-02 a      1243     0    63     1     3
  1.9389544890283921E-02 a      1244     0    63     1     4
 -2.2794699084804811E-03 a      1245     0    63     1     5
  2.1610808856264575E-02 a      1246     0    63     1     6
 -8.0130216127085263E-02 a      1247     0    63     1     7
  1.3694676167945630E-01 a      1248     0    63     1     8
 -1.7824235996996590E-02 a      1249     0    63     1     9
 -4.3592206324707380E-02 a      1250     0    63     1    10
 -1.1789419957864147E-01 a      1251     0    63     1    11
 -1.1098139142130673E-02 a      1252     0    63     1    12
  5.7371147256855557E-03 a      1253     0    63     1    13
  4.4818680983530076E-02 a      1254     0    63     1    14
  1.4228422980245393E-02 a      1255     0    63     1    15
  4.0799971888781969E-02 a      1256     0    63     1    16
 -1.4828141757590127E-01 a      1257     0    63     1    17
  7.9120162301764871E-02 a      1258     0    63     1    18
  1.8733036726967127E-02 a      1259     0    63     1    19
  3.8302200054923019E-02 a      1260     0    63     1    20
  5.9578598151398827E-02 a      1261     0    64     1     1
 -1.4784399814510091E-02 a      1262     0    64     1     2
  5.1261676122028074E-02 a      1263     0    64     1     3
 -7.8120897927227026E-02 a      1264     0    64     1     4
  2.0204234382225721E-02 a      1265     0    64     1     5
  3.6253363917680130E-02 a      1266     0    64     1     6
  7.9345428853205193E-03 a      1267     0    64     1     7
  8.9792146663628433E-02 a      1268     0    64     1     8
  6.1506949661903197E-02 a      1269     0    64     1     9
 -5.8497427232856843E-02 a      1270     0    64     1    10
 -3.0173194652169191E-02 a      1271     0    64     1    11
  6.0872626396681305E-02 a      1272     0    64     1    12
 -2.9717247418860167E-02 a      1273     0    64     1    13
  6.9666970494706895E-02 a      1274     0    64     1    14
 -7.3136967904962200E-02 a      1275     0    64     1    15
 -3.9841651974141502E-02 a      1276     0    64     1    16
 -2.7531850461610025E-02 a      1277     0    64     1    17
 -1.1192334246284874E-01 a      1278     0    64     1    18
 -1.5297980688384913E-02 a      1279     0    64     1    19
 -5.2286736217512737E-02 a      1280     0    64     1    20
  4.4846967424955274E-02 a      1281     0    65     1     1
 -5.7201627819601364E-02 a      1282     0    65     1     2
  2.7699992498093667E-01 a      1283     0    65     1     3
  1.2076879708056168E-01 a      1284     0    65     1     4
  1.8457891473927834E-01 a      1285     0    65     1     5
 -1.4876249541562495E-01 a      1286     0    65     1     6
 -1.8208895541283121E-01 a      1287     0    65     1     7
  7.0478649257916762E-02 a      1288     0    65     1     8
 -5.8233948132281360E-02 a      1289     0    65     1     9
  3.4850949066875643E-02 a      1290     0    65     1    10
 -3.1993393765649102E-02 a      1291     0    65     1    11
 -9.1781646876747142E-02 a      1292     0    65     1    12
 -1.3866955552151156E-01 a      1293     0    65     1    13
 -1.1739220078282421E-01 a      1294     0    65     1    14
 -9.4299894273589605E-02 a      1295     0    65     1    15
  3.7893165791962106E-03 a      1296     0    65     1    16
 -2.6977040472068586E-02 a      1297     0    65     1    17
  1.2085687833539661E-01 a      1298     0    65     1    18
  1.2393098343438444E-01 a      1299     0    65     1    19
  9.9864987015733306E-02 a      1300     0    65     1    20
  3.7682802203030480E-01 a      1301     0    66     1     1
  1.6625340728498270E-01 a      1302     0    66     1     2
  1.3022392130601101E-01 a      1303     0    66     1     3
 -2.6624811102857548E-01 a      1304     0    66     1     4
 -2.4386706061845995E-01 a      1305     0    66     1     5
 -1.3690605221245264E-01 a      1306     0    66     1     6
 -1.9809194634058877E-02 a      1307     0    66     1     7
 -4.0022578970285688E-01 a      1308     0    66     1     8
  1.5247249382832739E-01 a      1309     0    66     1     9
  1.0851438236189495E-01 a      1310     0    66     1    10
  8.0546458001528071E-02 a      1311     0    66     1    11
  1.0862249476980122E-01 a      1312     0    66     1    12
 -9.3130953400458572E-02 a      1313     0    66     1    13
 -5.1573335477510340E-01 a      1314     0    66     1    14
  1.0722229424547351E-01 a      1315     0    66     1    15
  4.5085955706486758E-01 a      1316     0    66     1    16
 -1.7737979497822198E-01 a      1317     0    66     1    17
 -8.7835413153263542E-02 a      1318     0    66     1    18
 -2.1536747722606131E-01 a      1319     0    66     1    19
  2.9815568532948566E-01 a      1320     0    66     1    20
 -2.8301441698207069E-01 a      1321     0    67     1     1
 -2.3019646079997136E-01 a      1322     0    67     1     2
  1.7320361030166895E-01 a      1323     0    67     1     3
  1.2925199848587215E-01 a      1324     0    67     1     4
  1.7154911608274648E-01 a      1325     0    67     1     5
 -2.7442493254174155E-01 a      1326     0    67     1     6
  2.0683177838605032E-01 a      1327     0    67     1     7
 -5.1341680804306150E-02 a      1328     0    67     1     8
 -2.6980053617504701E-01 a      1329     0    67     1     9
  2.1178917566768979E-01 a      1330     0    67     1    10
  2.6674644922750224E-01 a      1331     0    67     1    11
 -9.6220500413497168E-02 a      1332     0    67     1    12
 -4.0593706862651890E-01 a      1333     0    67     1    13
  2.1088469907999632E-01 a      1334     0    67     1    14
 -6.2715499153806240E-02 a      1335     0    67     1    15
 -2.1288899400899766E-01 a      1336     0    67     1    16
  1.6775765229218020E-01 a      1337     0    67     1    17
  2.4324282138204170E-01 a      1338     0    67     1    18
 -1.7552084454071043E-01 a      1339     0    67     1    19
 -1.0629898467484501E-01 a      1340     0    67     1    20
 -8.8610807342562337E-01 a      1341     0    68     1     1
  5.3379013429770095E-01 a      1342     0    68     1     2
 -1.1105921767739245E-02 a      1343     0    68     1     3
 -4.7194413934934509E-01 a      1344     0    68     1     4
  4.2779443395260103E-01 a      1345     0    68     1     5
  3.3892445358743500E-01 a      1346     0    68     1     6
  1.8412605898638498E-01 a      1347     0    68     1     7
  1.8509669216342644E+00 a      1348     0    68     1     8
 -4.0219865988888925E-01 a      1349     0    68     1     9
  4.5340868262700174E-01 a      1350     0    68     1    10
  2.2627966980469114E-01 a      1351     0    68     1    11
  2.1229983630718682E-01 a      1352     0    68     1    12
 -1.5398781056914482E-01 a      1353     0    68     1    13
  6.5267651346369623E-02 a      1354     0    68     1    14
 -4.7256788882929404E-02 a      1355     0    68     1    15
 -1.8176176853231615E-01 a      1356     0    68     1    16
  2.7638486561747555E-01 a      1357     0    68     1    17
 -3.9531606812709807E-01 a      1358     0    68     1    18
 -3.0305240182273985E-01 a      1359     0    68     1    19
  3.2919626362626614E-01 a      1360     0    68     1    20
  2.9346818669075764E-02 a      1361     0    69     1     1
 -7.0316819683483411E-02 a      1362     0    69     1     2
 -9.7333908768728675E-02 a      1363     0    69     1     3
  5.1912298046536756E-03 a      1364     0    69     1     4
 -1.2504678948174655E-02 a      1365     0    69     1     5
  1.6595884631467162E-02 a      1366     0    69     1     6
 -1.5256859021526867E-01 a      1367     0    69     1     7
 -2.5229716344550951E-01 a      1368     0    69     1     8
  1.7416685855001144E-03 a      1369     0    69     1     9
 -1.2154691089512096E-01 a      1370     0    69     1    10
  2.2186434100690358E-03 a      1371     0    69     1    11
 -2.0731260794758480E-01 a      1372     0    69     1    12
  7.3463764446742583E-03 a      1373     0    69     1    13
  6.2707917289157714E-02 a      1374     0    69     1    14
 -1.0949765215133003E-01 a      1375     0    69     1    15
  7.1703367899326506E-02 a      1376     0    69     1    16
 -1.3259810737347755E-01 a      1377     0    69     1    17
 -7.4803752149817992E-02 a      1378     0    69     1    18
 -3.3138240489938658E-02 a      1379     0    69     1    19
 -1.2618161430904898E-01 a      1380     0    69     1    20
 -1.9087658472787028E-01 a      1381     0    70     1     1
  9.0091559065528987E-02 a      1382     0    70     1     2
  1.5653999312319641E-01 a      1383     0    70     1     3
  4.2123074058032811E-02 a      1384     0    70     1     4
 -7.0419973137720270E-03 a      1385     0    70     1     5
 -1.4008035305131655E-01 a      1386     0    70     1     6
  5.2021447099661777E-02 a      1387     0    70     1     7
 -6.0383514717382090E-02 a      1388     0    70     1     8
 -1.2326761094374088E-01 a      1389     0    70     1     9
  7.4931421854677355E-02 a      1390     0    70     1    10
 -2.4025258552935302E-02 a      1391     0    70     1    11
 -7.8563208614982390E-03 a      1392     0    70     1    12
 -1.0487873656787619E-01 a      1393     0    70     1    13
  1.1327698948856388E-01 a      1394     0    70     1    14
 -3.1888136390311246E-02 a      1395     0    70     1    15
  1.3816399742716073E-01 a      1396     0    70     1    16
 -2.7298437348205740E-02 a      1397     0    70     1    17
 -3.4970540501547298E-01 a      1398     0    70     1    18
 -2.3687513363001905E-01 a      1399     0    70     1    19
  1.6171387591823300E-01 a      1400     0    70     1    20
 -1.3365143201863539E-01 a      1401     0    71     1     1
 -1.6968131399942157E-01 a      1402     0    71     1     2
 -1.1119718835951774E-02 a      1403     0    71     1     3
  1.8898890216793918E-02 a      1404     0    71     1     4
 -6.6365417722340647E-01 a      1405     0    71     1     5
 -8.0064596954047534E-03 a      1406     0    71     1     6
 -1.5289704282143637E-01 a      1407     0    71     1     7
 -1.0761164947292232E-01 a      1408     0    71     1     8
 -7.1618538417793962E-02 a      1409     0    71     1     9
  3.9322665253142118E-02 a      1410     0    71     1    10
  1.9831078288733689E-01 a      1411     0    71     1    11
 -5.5012739737492879E-03 a      1412     0    71     1    12
  3.7469824605912361E-01 a      1413     0    71     1    13
 -2.8436359666107003E-01 a      1414     0    71     1    14
  2.4833344264062818E-01 a      1415     0    71     1    15
  3.3067847800160916E-01 a      1416     0    71     1    16
  1.5990880022948384E-01 a      1417     0    71     1    17
 -3.5603704798472180E-01 a      1418     0    71     1    18
  4.3515126573849044E-01 a      1419     0    71     1    19
  1.7869077968912968E-02 a      1420     0    71     1    20
 -1.0323223242374749E-01 a      1421     0    72     1     1
  2.9999950372715606E-01 a      1422     0    72     1     2
  3.9683404198112081E-02 a      1423     0    72     1     3
 -1.9885371621018083E-01 a      1424     0    72     1     4
  3.0137573570881992E-02 a      1425     0    72     1     5
 -2.8805114904570717E-01 a      1426     0    72     1     6
 -4.8696428988337315E-01 a      1427     0    72     1     7
  2.4502663310777484E-01 a      1428     0    72     1     8
 -1.3656089162096108E-01 a      1429     0    72     1     9
 -4.2909788617804523E-01 a      1430     0    72     1    10
 -2.1627526725748852E-01 a      1431     0    72     1    11
 -9.6872628576171987E-02 a      1432     0    72     1    12
 -1.2844065958705433E-01 a      1433     0    72     1    13
  1.8424596649883815E-03 a      1434     0    72     1    14
 -2.1264623066086594E-02 a      1435     0    72     1    15
  1.1724022225674323E-01 a      1436     0    72     1    16
 -4.7475993737766070E-01 a      1437     0    72     1    17
  2.5412886995105871E-01 a      1438     0    72     1    18
 -3.0631482189494214E-01 a      1439     0    72     1    19
  9.8583945377398757E-02 a      1440     0    72     1    20
 -2.4533826055276466E-02 a      1441     0    73     1     1
  2.4455325909221526E-01 a      1442     0    73     1     2
  1.4778153024146323E-01 a      1443     0    73     1     3
  7.1945304274639604E-02 a      1444     0    73     1     4
  2.8349813453324318E-01 a      1445     0    73     1     5
 -2.5347712651265730E-01 a      1446     0    73     1     6
 -2.9228351103855455E-02 a      1447     0    73     1     7
  8.5001008212032235E-03 a      1448     0    73     1     8
  6.7158455492679930E-02 a      1449     0    73     1     9
 -1.2872036219663249E-01 a      1450     0    73     1    10
 -6.7936483795666427E-02 a      1451     0    73     1    11
 -8.8610732378839249E-02 a      1452     0    73     1    12
 -1.5270465810775835E-01 a      1453     0    73     1    13
  2.6300628301610982E-02 a      1454     0    73     1    14
 -1.0824230285869335E-01 a      1455     0    73     1    15
 -3.3577298264625972E-02 a      1456     0    73     1    16
  5.2616265359432028E-02 a      1457     0    73     1    17
  9.1341183945040635E-02 a      1458     0    73     1    18
  2.0300309089537294E-01 a      1459     0    73     1    19
 -2.8026376119008511E-01 a      1460     0    73     1    20
  7.6996148879905801E-02 a      1461     0    74     1     1
 -1.2016543452416487E-01 a      1462     0    74     1     2
  6.4410130057815998E-02 a      1463     0    74     1     3
 -3.8926786778362955E-02 a      1464     0    74     1     4
 -4.3343118096257613E-02 a      1465     0    74     1     5
 -2.5881100101129477E-02 a      1466     0    74     1     6
  2.1443108418749208E-02 a      1467     0    74     1     7
 -5.3046665663117609E-02 a      1468     0    74     1     8
 -2.1319271697815140E-03 a      1469     0    74     1     9
 -9.4602794440512450E-02 a      1470     0    74     1    10
 -5.1925743816534635E-02 a      1471     0    74     1    11
 -1.7132206690863708E-01 a      1472     0    74     1    12
 -8.7572542243072066E-02 a      1473     0    74     1    13
 -8.8916364220664110E-02 a      1474     0    74     1    14
 -2.8650460989761366E-02 a      1475     0    74     1    15
  4.3258462712992746E-02 a      1476     0    74     1    16
 -2.0932011352420457E-01 a      1477     0    74     1    17
  3.5118185394489958E-02 a      1478     0    74     1    18
 -2.3354330938518844E-01 a      1479     0    74     1    19
  3.1127122853640476E-01 a      1480     0    74     1    20
  4.2875566506188151E-01 a      1481     0    75     1     1
 -5.0835307627557902E-01 a      1482     0    75     1     2
  5.9978285619563920E-01 a      1483     0    75     1     3
 -5.6201060101782371E-02 a      1484     0    75     1     4
 -7.0177914726393220E-01 a      1485     0    75     1     5
 -2.3198662794441287E-03 a      1486     0    75     1     6
  2.6808481810553170E-01 a      1487     0    75     1     7
 -9.1125170301319625E-01 a      1488     0    75     1     8
 -3.7686766111466907E-01 a      1489     0    75     1     9
 -8.8689055976236802E-02 a      1490     0    75     1    10
 -1.3221851054113803E-01 a      1491     0    75     1    11
 -4.7845622563193024E-01 a      1492     0    75     1    12
 -9.7013833236866923E-02 a      1493     0    75     1    13
  2.0620901390507443E-01 a      1494     0    75     1    14
 -2.8004653711276217E-01 a      1495     0    75     1    15
  1.6048223414076818E-01 a      1496     0    75     1    16
 -3.5437582791951089E-01 a      1497     0    75     1    17
  4.8148534473571525E-01 a      1498     0    75     1    18
  6.3767671202922394E-01 a      1499     0    75     1    19
  5.5823339825313782E-02 a      1500     0    75     1    20
 -2.9306927218197713E-02 a      1501     0    76     1     1
  8.0378823775934416E-02 a      1502     0    76     1     2
  1.3085652794565247E-01 a      1503     0    76     1     3
 -1.5398362924443970E-01 a      1504     0    76     1     4
  8.8731151484251577E-02 a      1505     0    76     1     5
 -2.0952036587729539E-01 a      1506     0    76     1     6
 -3.2496406425693303E-01 a      1507     0    76     1     7
 -2.8432121757433020E-02 a      1508     0    76     1     8
  5.8324373197187031E-03 a      1509     0    76     1     9
 -4.8086229008838077E-02 a      1510     0    76     1    10
 -2.0755684647434158E-01 a      1511     0    76     1    11
 -1.6773663172587605E-01 a      1512     0    76     1    12
 -1.2983807831488742E-01 a      1513     0    76     1    13
  1.8299507252378663E-01 a      1514     0    76     1    14
 -5.5595004625243583E-01 a      1515     0    76     1    15
 -2.5526345402985767E-01 a      1516     0    76     1    16
  1.1289097245133160E-01 a      1517     0    76     1    17
  3.5731452452188672E-01 a      1518     0    76     1    18
 -6.4577471050510787E-02 a      1519     0    76     1    19
  1.0333155365427123E-01 a      1520     0    76     1    20
  5.3846678863995620E-02 a      1521     0    77     1     1
  3.0927228969399423E-02 a      1522     0    77     1     2
  1.4499070267247835E-01 a      1523     0    77     1     3
 -5.6412889586901077E-02 a      1524     0    77     1     4
 -9.7897054681623519E-03 a      1525     0    77     1     5
 -8.2931296748378625E-02 a      1526     0    77     1     6
  1.4414824916448682E-01 a      1527     0    77     1     7
 -1.3989659068740687E-01 a      1528     0    77     1     8
  3.6005976646801725E-02 a      1529     0    77     1     9
 -6.4395255865447587E-02 a      1530     0    77     1    10
  2.6199085691578834E-03 a      1531     0    77     1    11
 -1.8861204606689545E-02 a      1532     0    77     1    12
 -1.6886089133717613E-02 a      1533     0    77     1    13
 -4.1806492164848795E-02 a      1534     0    77     1    14
 -8.4016920005928877E-02 a      1535     0    77     1    15
  1.1730498904755438E-02 a      1536     0    77     1    16
 -1.2433618370524934E-02 a      1537     0    77     1    17
  1.0873918893463281E-02 a      1538     0    77     1    18
 -4.7145996600011092E-02 a      1539     0    77     1    19
  9.6878104644077152E-04 a      1540     0    77     1    20
 -1.4460464485544217E-01 a      1541     0    78     1     1
  1.5001659566270045E-01 a      1542     0    78     1     2
 -4.8756805281458836E-02 a      1543     0    78     1     3
  6.2518531074838651E-02 a      1544     0    78     1     4
 -4.8322639206469661E-02 a      1545     0    78     1     5
 -3.5813643191592241E-02 a      1546     0    78     1     6
  6.5750070840638303E-02 a      1547     0    78     1     7
 -1.6356625833440627E-01 a      1548     0    78     1     8
  1.2698757484584006E-02 a      1549     0    78     1     9
  2.9410790099296648E-03 a      1550     0    78     1    10
  1.0557511754713300E-01 a      1551     0    78     1    11
 -2.6486062717706194E-02 a      1552     0    78     1    12
 -5.1392902887241444E-02 a      1553     0    78     1    13
 -1.1107003306507634E-02 a      1554     0    78     1    14
  1.5194942661164557E-01 a      1555     0    78     1    15
 -2.3600200784439418E-02 a      1556     0    78     1    16
  1.4560926988027711E-01 a      1557     0    78     1    17
  6.6125652438816754E-02 a      1558     0    78     1    18
 -1.6065043597815737E-01 a      1559     0    78     1    19
 -5.2699594857631676E-02 a      1560     0    78     1    20
 -5.8826349562964127E-02 a      1561     0    79     1     1
 -3.3192559378269412E-03 a      1562     0    79     1     2
 -2.8818938444286547E-02 a      1563     0    79     1     3
 -2.4610018767832774E-02 a      1564     0    79     1     4
  3.1904862156002967E-02 a      1565     0    79     1     5
 -1.3581859937766425E-01 a      1566     0    79     1     6
  1.3706689015212718E-02 a      1567     0    79     1     7
 -1.3275438463670194E-01 a      1568     0    79     1     8
  1.3890410707790686E-02 a      1569     0    79     1     9
  9.1510075648710665E-02 a      1570     0    79     1    10
 -9.4820868242359468E-02 a      1571     0    79     1    11
 -5.4978119005787703E-02 a      1572     0    79     1    12
 -9.4366186156056381E-02 a      1573     0    79     1    13
 -1.7547584645583134E-02 a      1574     0    79     1    14
 -1.8767767061031596E-01 a      1575     0    79     1    15
 -4.8825189450597384E-02 a      1576     0    79     1    16
  5.1175138093200394E-02 a      1577     0    79     1    17
  1.1961662751243596E-01 a      1578     0    79     1    18
 -1.2550157428194403E-01 a      1579     0    79     1    19
  1.9365633287244732E-02 a      1580     0    79     1    20
 -2.7629743631391219E-02 a      1581     0    80     1     1
  6.3253501681491436E-02 a      1582     0    80     1     2
 -2.0525307077781943E-01 a      1583     0    80     1     3
  2.3947420742506647E-02 a      1584     0    80     1     4
 -7.6711472788838025E-02 a      1585     0    80     1     5
  6.9553408189421198E-02 a      1586     0    80     1     6
  1.9834647056234944E-01 a      1587     0    80     1     7
 -5.7918442365418550E-02 a      1588     0    80     1     8
  8.7700008490685100E-02 a      1589     0    80     1     9
 -4.0078279374651332E-02 a      1590     0    80     1    10
  2.1469318069250329E-02 a      1591     0    80     1    11
  1.0204238069492798E-01 a      1592     0    80     1    12
  1.6224947419692956E-01 a      1593     0    80     1    13
 -7.9220194088465094E-03 a      1594     0    80     1    14
  8.4859049262114739E-02 a      1595     0    80     1    15
  8.1126436030747359E-02 a      1596     0    80     1    16
  5.6858850024982713E-02 a      1597     0    80     1    17
  1.1265921825387860E-01 a      1598     0    80     1    18
 -4.0606913682746215E-02 a      1599     0    80     1    19
 -8.0839661642430921E-02 a      1600     0    80     1    20
  1.7979270022358870E-02 a      1601     0    81     1     1
 -6.4969741380566756E-02 a      1602     0    81     1     2
 -1.5708023378824387E-01 a      1603     0    81     1     3
  1.3033939429748340E-01 a      1604     0    81     1     4
 -1.2441738156695301E-01 a      1605     0    81     1     5
  6.1868943883071972E-02 a      1606     0    81     1     6
  8.7396081417148538E-02 a      1607     0    81     1     7
 -5.9831226962670514E-02 a      1608     0    81     1     8
 -7.1666649953779860E-02 a      1609     0    81     1     9
  1.2016730449531193E-01 a      1610     0    81     1    10
  1.3798527317019952E-02 a      1611     0    81     1    11
 -2.5202578706648042E-02 a      1612     0    81     1    12
 -5.3502548929282356E-02 a      1613     0    81     1    13
  8.1491754656420529E-02 a      1614     0    81     1    14
  1.4749209617787890E-01 a      1615     0    81     1    15
  3.6269614502817925E-02 a      1616     0    81     1    16
 -2.3305075478649677E-03 a      1617     0    81     1    17
 -2.3513288480117082E-02 a      1618     0    81     1    18
  4.1499652145295975E-02 a      1619     0    81     1    19
 -5.2662577536742756E-04 a      1620     0    81     1    20
 -1.0804557115846024E-01 a      1621     0    82     1     1
  1.4270820337444390E-01 a      1622     0    82     1     2
  1.4546607443481754E-01 a      1623     0    82     1     3
