################################################################################
# Neural network connection values (weights and biases).
################################################################################
# Col  Name       Description
################################################################################
# 1    connection Neural network connection value.
# 2    t          Connection type (a = weight, b = bias).
# 3    index      Index enumerating weights.
# 4    l_s        Starting point layer (end point layer for biases).
# 5    n_s        Starting point neuron in starting layer (end point neuron for biases).
# 6    l_e        End point layer.
# 7    n_e        End point neuron in end layer.
################################################################################
#                      1 2         3     4     5     6     7
#             connection t     index   l_s   n_s   l_e   n_e
############################################################
  1.2690233135784370E-02 a         1     0     1     1     1
  1.5483300363681693E-01 a         2     0     1     1     2
 -1.6085900210198500E-01 a         3     0     1     1     3
 -2.0179332287240617E-01 a         4     0     1     1     4
  7.1008017706900878E-02 a         5     0     1     1     5
 -4.9262995135271839E-02 a         6     0     1     1     6
 -1.4060554459111288E-01 a         7     0     1     1     7
  8.1148116825992517E-02 a         8     0     1     1     8
 -9.9329823070539974E-02 a         9     0     1     1     9
  6.2955713759550935E-01 a        10     0     1     1    10
 -1.1967967686829339E-02 a        11     0     1     1    11
  3.0393760720849478E-01 a        12     0     1     1    12
 -5.8683729299346044E-01 a        13     0     1     1    13
 -2.5463649071113059E-01 a        14     0     1     1    14
  3.5495233365850878E-02 a        15     0     1     1    15
 -8.7139635268716889E-02 a        16     0     1     1    16
 -1.6127246042089122E-02 a        17     0     1     1    17
 -9.4339339195976396E-03 a        18     0     1     1    18
 -3.3188521850060397E-03 a        19     0     1     1    19
 -2.6664419805402440E-01 a        20     0     1     1    20
  2.4981114135367510E-01 a        21     0     2     1     1
 -3.3257508768627114E-01 a        22     0     2     1     2
  2.5613546109209329E-01 a        23     0     2     1     3
 -4.7628975225602366E-01 a        24     0     2     1     4
 -2.8707165255168757E-02 a        25     0     2     1     5
  2.9184481787628747E-01 a        26     0     2     1     6
  2.2315316736421065E-02 a        27     0     2     1     7
 -2.7748065194704009E-02 a        28     0     2     1     8
 -2.4900886948250123E-01 a        29     0     2     1     9
 -4.0125286662654781E-03 a        30     0     2     1    10
 -1.4968504016917120E-01 a        31     0     2     1    11
  4.9795872810284872E-02 a        32     0     2     1    12
  3.0822433428968815E-01 a        33     0     2     1    13
  4.4622501280484207E-02 a        34     0     2     1    14
  2.1000388512157586E-01 a        35     0     2     1    15
  1.1345095411141365E-01 a        36     0     2     1    16
 -2.8867457180358752E-01 a        37     0     2     1    17
  5.4904168069573045E-01 a        38     0     2     1    18
  3.1252304806858949E-01 a        39     0     2     1    19
  1.1750629775843789E-01 a        40     0     2     1    20
  4.4137569416248423E-01 a        41     0     3     1     1
  8.0846451182290849E-02 a        42     0     3     1     2
  1.9632608514235719E-01 a        43     0     3     1     3
  1.5346845996944170E-01 a        44     0     3     1     4
  5.1225900320991313E-01 a        45     0     3     1     5
  4.2943976509434578E-01 a        46     0     3     1     6
 -1.2336085095993120E-01 a        47     0     3     1     7
 -4.5276040030227629E-02 a        48     0     3     1     8
  3.4893749657143702E-01 a        49     0     3     1     9
  1.1340150924679089E-01 a        50     0     3     1    10
  2.5659404996642809E-01 a        51     0     3     1    11
  4.7445996005216190E-01 a        52     0     3     1    12
 -1.3228968878186348E-01 a        53     0     3     1    13
  4.2926815012218393E-02 a        54     0     3     1    14
 -1.7581263796676067E-01 a        55     0     3     1    15
 -9.4904696912751607E-02 a        56     0     3     1    16
 -6.2021630979068855E-02 a        57     0     3     1    17
 -4.5014970937881099E-01 a        58     0     3     1    18
 -6.6078822919427876E-02 a        59     0     3     1    19
  7.0305023322024637E-02 a        60     0     3     1    20
  1.4703876179633441E-01 a        61     0     4     1     1
 -9.5408714063449113E-02 a        62     0     4     1     2
 -9.7140963384445722E-02 a        63     0     4     1     3
  1.0735883306903181E-01 a        64     0     4     1     4
  5.0707776189621009E-02 a        65     0     4     1     5
 -5.4651467485383354E-02 a        66     0     4     1     6
 -1.8189287137662772E-02 a        67     0     4     1     7
 -8.7850790306394921E-03 a        68     0     4     1     8
 -4.4966343482419582E-02 a        69     0     4     1     9
 -2.7335911530235424E-01 a        70     0     4     1    10
  1.4147025795589488E-01 a        71     0     4     1    11
  7.1425992564043139E-02 a        72     0     4     1    12
  1.1371051700166600E-01 a        73     0     4     1    13
 -3.2980845580940049E-01 a        74     0     4     1    14
 -5.9400257188918483E-02 a        75     0     4     1    15
 -3.1674747395320307E-01 a        76     0     4     1    16
 -4.4913886447974151E-02 a        77     0     4     1    17
  1.7611461812028090E-01 a        78     0     4     1    18
 -9.6919892770310739E-02 a        79     0     4     1    19
  6.3163777675114760E-02 a        80     0     4     1    20
  1.4250899258159916E-01 a        81     0     5     1     1
 -4.1598739464833038E-03 a        82     0     5     1     2
 -1.9202041961329006E-02 a        83     0     5     1     3
 -9.6117890825068802E-02 a        84     0     5     1     4
  7.8552149373922228E-02 a        85     0     5     1     5
 -1.5933719934613064E-01 a        86     0     5     1     6
 -7.6212972160290993E-02 a        87     0     5     1     7
  4.7216820846424534E-02 a        88     0     5     1     8
 -7.0064550505169507E-02 a        89     0     5     1     9
  8.8195471386399681E-03 a        90     0     5     1    10
 -6.2968713565146842E-02 a        91     0     5     1    11
  4.4805212892499592E-02 a        92     0     5     1    12
 -1.1662480970199826E-01 a        93     0     5     1    13
 -9.9564014140418003E-02 a        94     0     5     1    14
 -2.9725554454174880E-02 a        95     0     5     1    15
 -9.3334142014154464E-02 a        96     0     5     1    16
 -8.0694903077517491E-02 a        97     0     5     1    17
 -1.0018134148035889E-02 a        98     0     5     1    18
  1.2385242613829475E-01 a        99     0     5     1    19
 -1.4260844355704247E-01 a       100     0     5     1    20
  5.0891550146164741E-02 a       101     0     6     1     1
  1.4246441872398422E-01 a       102     0     6     1     2
  3.4979462229847325E-01 a       103     0     6     1     3
  2.3505639339745643E-01 a       104     0     6     1     4
  4.6855291501971263E-01 a       105     0     6     1     5
  2.1252185060233682E-02 a       106     0     6     1     6
  3.6209898296227250E-01 a       107     0     6     1     7
 -3.9255889234178659E-01 a       108     0     6     1     8
 -3.0162797609771298E-02 a       109     0     6     1     9
 -9.6526958421229081E-01 a       110     0     6     1    10
  6.1491501726735109E-01 a       111     0     6     1    11
 -1.5455138833897430E-01 a       112     0     6     1    12
 -4.3168499700887680E-01 a       113     0     6     1    13
 -4.9857775379020620E-02 a       114     0     6     1    14
 -1.7896029542607728E-01 a       115     0     6     1    15
  3.6153359982366823E-01 a       116     0     6     1    16
  1.3723210235138489E-01 a       117     0     6     1    17
  5.7087551594479174E-02 a       118     0     6     1    18
 -4.7737583765715619E-01 a       119     0     6     1    19
  2.2058891873122313E-01 a       120     0     6     1    20
  9.9621049692605435E-02 a       121     0     7     1     1
  1.7435851180652004E-01 a       122     0     7     1     2
 -1.6151836941658668E-01 a       123     0     7     1     3
  3.0015781970368322E-01 a       124     0     7     1     4
 -2.0468905171519899E-01 a       125     0     7     1     5
 -2.0205922018636147E-01 a       126     0     7     1     6
 -1.6775362509347588E-01 a       127     0     7     1     7
  2.3633853210424768E-01 a       128     0     7     1     8
 -3.8895864754282389E-01 a       129     0     7     1     9
 -6.4237650577111158E-02 a       130     0     7     1    10
  2.1547256092751310E-01 a       131     0     7     1    11
  8.9619507598932988E-02 a       132     0     7     1    12
 -1.4362114486506661E-01 a       133     0     7     1    13
  9.7479077815588705E-02 a       134     0     7     1    14
  4.0786554731193171E-02 a       135     0     7     1    15
 -2.9807185776829570E-01 a       136     0     7     1    16
 -4.0311091678265426E-01 a       137     0     7     1    17
  6.2108561260599993E-01 a       138     0     7     1    18
 -1.9942873204864425E-01 a       139     0     7     1    19
  1.4381463657084770E-01 a       140     0     7     1    20
 -3.6539627432413380E-01 a       141     0     8     1     1
  1.0916145307048243E-01 a       142     0     8     1     2
 -1.9675647297488044E-01 a       143     0     8     1     3
  1.6292390059311704E-01 a       144     0     8     1     4
 -8.6018696695556715E-02 a       145     0     8     1     5
 -3.2458997159148262E-01 a       146     0     8     1     6
  2.2554223521871342E-01 a       147     0     8     1     7
  4.2203569884106951E-01 a       148     0     8     1     8
 -7.1594622773635888E-02 a       149     0     8     1     9
 -1.7176528677007125E-01 a       150     0     8     1    10
 -4.0860270561192152E-01 a       151     0     8     1    11
  8.1464248382573615E-02 a       152     0     8     1    12
  2.2307772182098021E-01 a       153     0     8     1    13
  3.2049895856809771E-02 a       154     0     8     1    14
  3.4204308069510769E-01 a       155     0     8     1    15
  1.4817804485206396E-01 a       156     0     8     1    16
  1.4301394819998386E-01 a       157     0     8     1    17
  1.1249172871159152E-02 a       158     0     8     1    18
 -7.6389575739592595E-03 a       159     0     8     1    19
 -1.7728276768045900E-01 a       160     0     8     1    20
  1.0454372659918372E-01 a       161     0     9     1     1
  2.5872898629283197E-02 a       162     0     9     1     2
  2.6401732600151046E-01 a       163     0     9     1     3
  7.9073902401839855E-02 a       164     0     9     1     4
 -2.1656346698822984E-01 a       165     0     9     1     5
 -6.4645329601434607E-03 a       166     0     9     1     6
 -9.7379613412690760E-02 a       167     0     9     1     7
  2.4641773746456822E-02 a       168     0     9     1     8
 -1.9564487505566125E-01 a       169     0     9     1     9
  3.0876804685844400E-01 a       170     0     9     1    10
 -1.7599740203490641E-01 a       171     0     9     1    11
  1.6647876152219998E-01 a       172     0     9     1    12
 -1.2638231481801224E-01 a       173     0     9     1    13
  2.7032664785275812E-01 a       174     0     9     1    14
 -4.0108578233081817E-02 a       175     0     9     1    15
 -2.3704683033681639E-01 a       176     0     9     1    16
 -1.3563478017915420E-01 a       177     0     9     1    17
  9.0599127148509470E-02 a       178     0     9     1    18
  1.6784150387047025E-01 a       179     0     9     1    19
 -1.9325622041116119E-01 a       180     0     9     1    20
 -2.8844079931539000E-02 a       181     0    10     1     1
  1.0132673419828898E-01 a       182     0    10     1     2
 -2.1564850713745257E-01 a       183     0    10     1     3
  1.0316750624560453E-02 a       184     0    10     1     4
 -3.8368194325232467E-02 a       185     0    10     1     5
  9.2593972456581172E-02 a       186     0    10     1     6
  1.1342971672719783E-01 a       187     0    10     1     7
  4.7096017816045055E-02 a       188     0    10     1     8
 -3.7751267453132072E-02 a       189     0    10     1     9
  8.0683406309286623E-02 a       190     0    10     1    10
 -1.0855368025862770E-03 a       191     0    10     1    11
  5.3790027542770010E-03 a       192     0    10     1    12
  1.9257062008648104E-01 a       193     0    10     1    13
  9.0497217554287385E-02 a       194     0    10     1    14
 -2.0179649701504945E-02 a       195     0    10     1    15
  1.4706886575859179E-01 a       196     0    10     1    16
  2.6008945019124957E-01 a       197     0    10     1    17
  2.0125933093547735E-01 a       198     0    10     1    18
  2.5972769011460457E-02 a       199     0    10     1    19
  7.8104605991664629E-03 a       200     0    10     1    20
  2.3056731675491923E-02 a       201     0    11     1     1
  2.9551943954751247E-01 a       202     0    11     1     2
 -1.0296346850156143E-01 a       203     0    11     1     3
 -1.4819526412887155E-01 a       204     0    11     1     4
  1.3147853466012147E-01 a       205     0    11     1     5
 -8.6537935367328331E-02 a       206     0    11     1     6
 -7.0265841947861757E-02 a       207     0    11     1     7
  1.1194545922860930E-01 a       208     0    11     1     8
 -2.6115179338868511E-01 a       209     0    11     1     9
  3.7106159021751395E-01 a       210     0    11     1    10
 -1.3869247254528635E-01 a       211     0    11     1    11
  1.7446951606262931E-01 a       212     0    11     1    12
 -5.1415319229729306E-01 a       213     0    11     1    13
  2.8182952250019606E-02 a       214     0    11     1    14
  4.4455242461984035E-01 a       215     0    11     1    15
  1.1157194949660629E-01 a       216     0    11     1    16
 -8.7879989631788127E-02 a       217     0    11     1    17
 -4.0532837903649817E-02 a       218     0    11     1    18
  7.2526429589868588E-03 a       219     0    11     1    19
 -2.1294574133726707E-01 a       220     0    11     1    20
  2.5590537010905845E-01 a       221     0    12     1     1
 -7.0812769533910941E-02 a       222     0    12     1     2
 -1.3573393639678577E-01 a       223     0    12     1     3
  3.3558613324685960E-01 a       224     0    12     1     4
  3.0064074999359640E-02 a       225     0    12     1     5
  2.3135328232211014E-01 a       226     0    12     1     6
 -5.1077176952949541E-02 a       227     0    12     1     7
 -2.6288408237397101E-02 a       228     0    12     1     8
 -2.0990594849811361E-01 a       229     0    12     1     9
  5.5959123260565947E-04 a       230     0    12     1    10
  2.7629100697804737E-01 a       231     0    12     1    11
  5.0315000330702672E-02 a       232     0    12     1    12
 -3.4626577336424458E-01 a       233     0    12     1    13
 -1.8680568418444388E-02 a       234     0    12     1    14
  1.5774642988593546E-02 a       235     0    12     1    15
  2.5829004810365118E-02 a       236     0    12     1    16
 -1.0131499029234613E-01 a       237     0    12     1    17
  2.5234996382632161E-02 a       238     0    12     1    18
 -3.5188133988324699E-01 a       239     0    12     1    19
  5.6651355925042808E-03 a       240     0    12     1    20
 -4.3419395904707003E-01 a       241     0    13     1     1
  1.8399899757277037E-02 a       242     0    13     1     2
 -5.1306023510773890E-01 a       243     0    13     1     3
 -4.6506314452142393E-02 a       244     0    13     1     4
 -2.3481068920793752E-01 a       245     0    13     1     5
  1.6285236851581195E-01 a       246     0    13     1     6
 -1.4679034840446636E-01 a       247     0    13     1     7
 -1.0684645728627881E-01 a       248     0    13     1     8
 -1.6252709958943537E-01 a       249     0    13     1     9
 -1.1468876447803497E-01 a       250     0    13     1    10
  3.3543065399866921E-02 a       251     0    13     1    11
  1.1153838499948193E-03 a       252     0    13     1    12
 -4.7771454032960195E-02 a       253     0    13     1    13
 -3.9998310143988358E-02 a       254     0    13     1    14
 -8.0162409212373192E-02 a       255     0    13     1    15
  1.2645710346481157E-01 a       256     0    13     1    16
  1.5199633189541045E-01 a       257     0    13     1    17
  6.0064655326088506E-04 a       258     0    13     1    18
 -4.5636090713721753E-02 a       259     0    13     1    19
  5.6268197456375499E-02 a       260     0    13     1    20
  2.5283088695864636E-01 a       261     0    14     1     1
  3.8830948668552530E-02 a       262     0    14     1     2
 -1.8076547787060335E-01 a       263     0    14     1     3
 -1.5156250867038223E-01 a       264     0    14     1     4
  2.2457716430262248E-01 a       265     0    14     1     5
  2.6526892072153557E-02 a       266     0    14     1     6
 -3.1784165720237789E-02 a       267     0    14     1     7
  7.9073850282639885E-02 a       268     0    14     1     8
 -1.1396310767875157E-04 a       269     0    14     1     9
  2.2508117437786534E-02 a       270     0    14     1    10
  1.7512414254534955E-01 a       271     0    14     1    11
 -2.2746432806646139E-01 a       272     0    14     1    12
 -8.7260011641734400E-02 a       273     0    14     1    13
 -5.1568727441058039E-02 a       274     0    14     1    14
  6.7565649291795645E-03 a       275     0    14     1    15
  1.8411556314816174E-01 a       276     0    14     1    16
  2.0459529375201077E-01 a       277     0    14     1    17
  1.7549191699189973E-01 a       278     0    14     1    18
 -1.0245844015645603E-01 a       279     0    14     1    19
 -3.6570741074018712E-02 a       280     0    14     1    20
  7.1403065428564699E-02 a       281     0    15     1     1
 -7.4597991317579965E-02 a       282     0    15     1     2
  1.4089829734276413E-01 a       283     0    15     1     3
  9.5621611034996487E-02 a       284     0    15     1     4
  1.6925446237805486E-01 a       285     0    15     1     5
  1.4793843984425567E-01 a       286     0    15     1     6
  9.4650911113507666E-02 a       287     0    15     1     7
  9.4986726177461109E-03 a       288     0    15     1     8
  1.3133602171969155E-01 a       289     0    15     1     9
 -1.8206970245946483E-01 a       290     0    15     1    10
 -1.1618164437755830E-02 a       291     0    15     1    11
  1.9482181286898725E-02 a       292     0    15     1    12
 -2.0658455635003886E-01 a       293     0    15     1    13
  1.3511880836052160E-02 a       294     0    15     1    14
 -5.0125217672367273E-02 a       295     0    15     1    15
 -1.4485676698995581E-01 a       296     0    15     1    16
 -4.8849446086964607E-02 a       297     0    15     1    17
 -1.9609068744622898E-01 a       298     0    15     1    18
  2.3659198876910568E-02 a       299     0    15     1    19
  1.6513842656981365E-01 a       300     0    15     1    20
 -7.8408218593624401E-03 a       301     0    16     1     1
  8.4468416265521817E-02 a       302     0    16     1     2
  1.6068746800032443E-01 a       303     0    16     1     3
  1.5244320564460567E-01 a       304     0    16     1     4
  3.6476517003888109E-01 a       305     0    16     1     5
 -3.0661757644064336E-01 a       306     0    16     1     6
  1.8853495813066445E-01 a       307     0    16     1     7
 -1.7626477009002275E-01 a       308     0    16     1     8
 -1.5668995227967128E-01 a       309     0    16     1     9
 -6.8714931193794626E-01 a       310     0    16     1    10
  4.3062094451389782E-01 a       311     0    16     1    11
 -6.5397228565684473E-02 a       312     0    16     1    12
 -1.1897600726555019E-01 a       313     0    16     1    13
 -1.2270313561984812E-01 a       314     0    16     1    14
 -5.5204305101594009E-01 a       315     0    16     1    15
  3.6820804576881194E-01 a       316     0    16     1    16
  2.3691614226334326E-01 a       317     0    16     1    17
  1.1982599246763645E-01 a       318     0    16     1    18
 -3.6097211531612394E-01 a       319     0    16     1    19
  1.0229561006640315E-02 a       320     0    16     1    20
  6.4364560122311528E-03 a       321     0    17     1     1
 -5.0960355889246968E-03 a       322     0    17     1     2
  1.3264845421392488E-01 a       323     0    17     1     3
  9.4224256810807747E-02 a       324     0    17     1     4
  1.1251770666320063E-02 a       325     0    17     1     5
  3.4833328500974226E-01 a       326     0    17     1     6
 -8.8679898293010914E-02 a       327     0    17     1     7
 -1.1223196450144655E-01 a       328     0    17     1     8
  5.3280584652745544E-02 a       329     0    17     1     9
  2.4091075675873141E-01 a       330     0    17     1    10
 -8.9670358891974514E-02 a       331     0    17     1    11
  3.1195615463866566E-01 a       332     0    17     1    12
 -5.5926261336291409E-02 a       333     0    17     1    13
 -5.4423429745190731E-02 a       334     0    17     1    14
  2.4385037879561364E-01 a       335     0    17     1    15
 -1.3497550326433941E-01 a       336     0    17     1    16
  1.1695718514562338E-01 a       337     0    17     1    17
 -1.1476055596014138E-01 a       338     0    17     1    18
  2.1065070381020934E-01 a       339     0    17     1    19
  4.4619870476444980E-02 a       340     0    17     1    20
  1.7960779295234961E-02 a       341     0    18     1     1
  1.6196315976896775E-01 a       342     0    18     1     2
 -1.7582031844271198E-01 a       343     0    18     1     3
 -4.8756224115188524E-03 a       344     0    18     1     4
  5.5426334315359183E-01 a       345     0    18     1     5
  3.4325542359693445E-01 a       346     0    18     1     6
  1.8224167415204975E-01 a       347     0    18     1     7
 -1.1997018127583858E-01 a       348     0    18     1     8
 -1.0276075478774195E-01 a       349     0    18     1     9
  3.5743529702442538E-02 a       350     0    18     1    10
  2.0666167709403835E-01 a       351     0    18     1    11
  2.4338026408580385E-01 a       352     0    18     1    12
  3.2631612977994334E-01 a       353     0    18     1    13
  1.0474086328221954E-01 a       354     0    18     1    14
 -1.3169268575713289E-01 a       355     0    18     1    15
  6.6506651190227126E-02 a       356     0    18     1    16
  6.0900342346243003E-02 a       357     0    18     1    17
 -2.6965761077811407E-01 a       358     0    18     1    18
  1.3871330891707298E-01 a       359     0    18     1    19
  5.9162059907479053E-02 a       360     0    18     1    20
  3.7814460788632276E-01 a       361     0    19     1     1
 -4.2057599866971287E-02 a       362     0    19     1     2
 -4.2172163446211891E-01 a       363     0    19     1     3
 -2.6622674393901331E-02 a       364     0    19     1     4
 -1.0293077577295964E-01 a       365     0    19     1     5
  1.5538933766017074E-01 a       366     0    19     1     6
 -8.4557603133898152E-02 a       367     0    19     1     7
 -3.0221029779491748E-01 a       368     0    19     1     8
 -9.8027324357189485E-02 a       369     0    19     1     9
 -2.2190227185491918E-01 a       370     0    19     1    10
  1.0649673554327235E-02 a       371     0    19     1    11
 -1.3412932306896457E-03 a       372     0    19     1    12
 -1.8205454639086429E-02 a       373     0    19     1    13
 -1.2580409541277474E-01 a       374     0    19     1    14
 -1.8726299045507186E-01 a       375     0    19     1    15
 -1.0954670092275964E-01 a       376     0    19     1    16
 -6.2938835844156230E-02 a       377     0    19     1    17
  1.1814233106515129E-01 a       378     0    19     1    18
 -4.3744248272554201E-02 a       379     0    19     1    19
 -1.8294940416235438E-02 a       380     0    19     1    20
 -2.6036962693475049E-02 a       381     0    20     1     1
 -9.0672948969410042E-03 a       382     0    20     1     2
 -2.0918804509997363E-01 a       383     0    20     1     3
 -1.1831326425160535E-01 a       384     0    20     1     4
  7.6255442142949686E-02 a       385     0    20     1     5
 -7.4468282216584469E-02 a       386     0    20     1     6
  1.3658085347272721E-02 a       387     0    20     1     7
 -2.6251296985919527E-02 a       388     0    20     1     8
  1.5285640780495230E-01 a       389     0    20     1     9
  3.4725215121586862E-02 a       390     0    20     1    10
  1.6313570172331780E-02 a       391     0    20     1    11
 -1.0258549225272819E-03 a       392     0    20     1    12
  5.8720082568117143E-02 a       393     0    20     1    13
 -1.2211104783124910E-01 a       394     0    20     1    14
  2.5715540837828715E-01 a       395     0    20     1    15
  1.0248318701815463E-01 a       396     0    20     1    16
 -4.0786157598469493E-02 a       397     0    20     1    17
 -8.3970337019434155E-02 a       398     0    20     1    18
  1.0709353338586819E-01 a       399     0    20     1    19
 -2.2746540066384737E-02 a       400     0    20     1    20
 -1.9132759332424315E-01 a       401     0    21     1     1
  2.9510899285598741E-01 a       402     0    21     1     2
 -3.5374980429794180E-02 a       403     0    21     1     3
 -1.4134960927629550E-01 a       404     0    21     1     4
  2.0665117988247350E-01 a       405     0    21     1     5
  1.4953671419837714E-01 a       406     0    21     1     6
 -2.4558922262438704E-01 a       407     0    21     1     7
 -1.2035331009774070E-01 a       408     0    21     1     8
  4.7580266680784043E-02 a       409     0    21     1     9
  2.2097443211082451E-01 a       410     0    21     1    10
 -1.2421672866030690E-01 a       411     0    21     1    11
 -1.5723270811264084E-01 a       412     0    21     1    12
 -5.3784587583568877E-01 a       413     0    21     1    13
  9.5819447972229355E-02 a       414     0    21     1    14
  3.6040326571093029E-01 a       415     0    21     1    15
  1.6813658144254723E-01 a       416     0    21     1    16
 -2.5175486798115060E-01 a       417     0    21     1    17
  2.5927491396215484E-03 a       418     0    21     1    18
 -1.7042875457248602E-01 a       419     0    21     1    19
 -6.7255699489131390E-02 a       420     0    21     1    20
  4.2380431687358538E-01 a       421     0    22     1     1
  2.7016018899690641E-01 a       422     0    22     1     2
  2.4557454539599519E-01 a       423     0    22     1     3
 -1.3872584709463442E-01 a       424     0    22     1     4
  8.7634316352747557E-02 a       425     0    22     1     5
 -2.1731332078778899E-02 a       426     0    22     1     6
 -2.4057252628272588E-01 a       427     0    22     1     7
 -1.0022461368406452E-01 a       428     0    22     1     8
 -2.3931748463623323E-01 a       429     0    22     1     9
  1.7889443365705293E-01 a       430     0    22     1    10
  4.0350751091005575E-02 a       431     0    22     1    11
  7.5796041943828635E-02 a       432     0    22     1    12
  7.3344230974848448E-02 a       433     0    22     1    13
  7.6899208968362548E-03 a       434     0    22     1    14
 -1.2517373109678609E-01 a       435     0    22     1    15
 -4.4765416261321640E-02 a       436     0    22     1    16
  7.0343202640747907E-02 a       437     0    22     1    17
 -1.4198641410140070E-01 a       438     0    22     1    18
  1.1797147930556427E-01 a       439     0    22     1    19
 -3.4428446050929234E-01 a       440     0    22     1    20
  9.0765219431741137E-02 a       441     0    23     1     1
  6.5932838514184938E-02 a       442     0    23     1     2
  1.5104156442340796E-01 a       443     0    23     1     3
  3.0107610196477541E-01 a       444     0    23     1     4
  1.8149966164826913E-02 a       445     0    23     1     5
  7.4472939317649769E-02 a       446     0    23     1     6
 -7.3184826550361293E-02 a       447     0    23     1     7
  1.6189895529941167E-01 a       448     0    23     1     8
  3.0451482265830621E-01 a       449     0    23     1     9
  1.0050249328602215E-01 a       450     0    23     1    10
 -2.0770841637598225E-01 a       451     0    23     1    11
  1.8961054645177047E-01 a       452     0    23     1    12
  2.1599187857116295E-01 a       453     0    23     1    13
 -1.9140728981584958E-02 a       454     0    23     1    14
 -4.6462607796060353E-02 a       455     0    23     1    15
 -2.2422100628630867E-01 a       456     0    23     1    16
  1.8210033072144063E-01 a       457     0    23     1    17
 -2.8251203189172536E-01 a       458     0    23     1    18
  2.0019607339136430E-01 a       459     0    23     1    19
 -1.8108069644766475E-01 a       460     0    23     1    20
  2.3484527068199768E-01 a       461     0    24     1     1
  5.4823747666236787E-02 a       462     0    24     1     2
 -2.1975343465027652E-01 a       463     0    24     1     3
  1.2308159520061276E-01 a       464     0    24     1     4
  1.5760192756686839E-01 a       465     0    24     1     5
  1.7232918840402814E-01 a       466     0    24     1     6
 -3.3966131761796678E-02 a       467     0    24     1     7
  9.4137773974296068E-02 a       468     0    24     1     8
  1.1230528949255872E-01 a       469     0    24     1     9
  7.2978873345123235E-02 a       470     0    24     1    10
  1.2563078993705903E-01 a       471     0    24     1    11
 -1.3067184138443022E-01 a       472     0    24     1    12
 -3.5517372794943503E-01 a       473     0    24     1    13
  4.1290985874084189E-02 a       474     0    24     1    14
  2.4200886415610504E-01 a       475     0    24     1    15
  2.6800358161737325E-02 a       476     0    24     1    16
  8.8644373417589795E-02 a       477     0    24     1    17
 -9.1849351401695589E-02 a       478     0    24     1    18
 -5.9319550010377343E-02 a       479     0    24     1    19
 -7.7024702549356200E-02 a       480     0    24     1    20
 -1.2626602055249837E-02 a       481     0    25     1     1
  1.4169241848775124E-01 a       482     0    25     1     2
  3.2890525742321756E-02 a       483     0    25     1     3
  2.6243973934768815E-02 a       484     0    25     1     4
  1.2002183360864543E-01 a       485     0    25     1     5
  4.3430094954015598E-02 a       486     0    25     1     6
  1.5292863946067206E-01 a       487     0    25     1     7
 -5.8854893348373058E-02 a       488     0    25     1     8
 -5.5567468148692171E-02 a       489     0    25     1     9
 -8.9075982850381902E-03 a       490     0    25     1    10
 -4.2774522447419812E-02 a       491     0    25     1    11
  1.1994336443422865E-01 a       492     0    25     1    12
  1.5462461305014683E-01 a       493     0    25     1    13
  1.0031244455544830E-01 a       494     0    25     1    14
 -7.3655688483467111E-02 a       495     0    25     1    15
  9.4707718167938063E-02 a       496     0    25     1    16
  2.3094670461507172E-01 a       497     0    25     1    17
 -7.6223263700340568E-03 a       498     0    25     1    18
  1.0157052544173897E-01 a       499     0    25     1    19
 -2.3155063348581842E-01 a       500     0    25     1    20
  4.8264318650741475E-02 a       501     0    26     1     1
 -4.5646520787842246E-02 a       502     0    26     1     2
 -6.9194130243057664E-02 a       503     0    26     1     3
  2.3284117515174885E-01 a       504     0    26     1     4
  6.9585539549377309E-02 a       505     0    26     1     5
 -4.0540182581040274E-01 a       506     0    26     1     6
 -1.0456789575718070E-01 a       507     0    26     1     7
 -1.3521033434764862E-01 a       508     0    26     1     8
 -1.1115940295821188E-01 a       509     0    26     1     9
 -3.4815355269671899E-01 a       510     0    26     1    10
  2.2909303689781266E-01 a       511     0    26     1    11
 -3.6576691157277985E-01 a       512     0    26     1    12
 -2.2637234773149298E-01 a       513     0    26     1    13
 -6.0640560532482998E-02 a       514     0    26     1    14
 -4.8340421518865545E-01 a       515     0    26     1    15
  4.1762303432376541E-01 a       516     0    26     1    16
 -6.3544082584513370E-02 a       517     0    26     1    17
  4.3503950239839939E-01 a       518     0    26     1    18
 -1.8047304971252787E-01 a       519     0    26     1    19
  4.2962414792868986E-01 a       520     0    26     1    20
 -1.3040019980511544E-01 a       521     0    27     1     1
 -1.2258656298518125E-01 a       522     0    27     1     2
 -1.1687457467184489E-01 a       523     0    27     1     3
 -1.0932731387196980E-01 a       524     0    27     1     4
  1.5023844297735653E-01 a       525     0    27     1     5
  4.1555811429679387E-02 a       526     0    27     1     6
 -1.0160074170126320E-04 a       527     0    27     1     7
  1.0222370052417653E-02 a       528     0    27     1     8
 -4.3224503117066679E-04 a       529     0    27     1     9
  3.0996594402942459E-02 a       530     0    27     1    10
 -1.2055741513792780E-01 a       531     0    27     1    11
  9.0834915610820792E-03 a       532     0    27     1    12
  7.0215104204857853E-02 a       533     0    27     1    13
  1.4183957242437301E-01 a       534     0    27     1    14
 -2.2185538593959223E-01 a       535     0    27     1    15
  4.6081440743632372E-02 a       536     0    27     1    16
 -1.1292115112235793E-01 a       537     0    27     1    17
  2.2285533852835690E-01 a       538     0    27     1    18
  1.9581818505823832E-02 a       539     0    27     1    19
  2.1702088516683951E-01 a       540     0    27     1    20
  2.7876291986137364E-01 a       541     0    28     1     1
  3.1830296547461209E-02 a       542     0    28     1     2
 -2.5693132065588981E-01 a       543     0    28     1     3
 -3.8324349351580000E-01 a       544     0    28     1     4
 -2.6091256224620973E-01 a       545     0    28     1     5
  6.6071319283364349E-01 a       546     0    28     1     6
  4.2391477182082421E-01 a       547     0    28     1     7
 -1.4981818179534157E-01 a       548     0    28     1     8
  6.9171966835471888E-02 a       549     0    28     1     9
  4.5341682058612179E-02 a       550     0    28     1    10
  1.8759197824218355E-02 a       551     0    28     1    11
  3.2039617186996538E-01 a       552     0    28     1    12
  1.0102548008497572E-02 a       553     0    28     1    13
 -2.2769948667608467E-01 a       554     0    28     1    14
  5.7415295119130161E-01 a       555     0    28     1    15
  4.5891868077592348E-03 a       556     0    28     1    16
  5.0595846797199850E-01 a       557     0    28     1    17
 -1.5364752443914367E-01 a       558     0    28     1    18
  3.8200706655492894E-01 a       559     0    28     1    19
 -3.7439582031756130E-01 a       560     0    28     1    20
  1.4750207018132497E-03 a       561     0    29     1     1
 -3.7317554448281075E-02 a       562     0    29     1     2
  6.1428301378669857E-02 a       563     0    29     1     3
  2.3945507605689420E-01 a       564     0    29     1     4
 -8.2280541678774688E-02 a       565     0    29     1     5
 -2.0631556695913422E-01 a       566     0    29     1     6
  5.5983861377612840E-02 a       567     0    29     1     7
  3.9727836317515884E-02 a       568     0    29     1     8
 -2.2371486404135096E-01 a       569     0    29     1     9
 -1.6271638924142592E-01 a       570     0    29     1    10
  4.4333102999476535E-02 a       571     0    29     1    11
 -1.5380037305694641E-02 a       572     0    29     1    12
 -2.0154675751229065E-01 a       573     0    29     1    13
 -1.9033511023950508E-01 a       574     0    29     1    14
 -2.0666772544233630E-02 a       575     0    29     1    15
  2.8051665153320005E-01 a       576     0    29     1    16
  1.4618343334801015E-01 a       577     0    29     1    17
  2.7478458349367740E-01 a       578     0    29     1    18
  3.0024831581535297E-02 a       579     0    29     1    19
 -1.0944113147266164E-01 a       580     0    29     1    20
  2.5151872319114299E-01 a       581     0    30     1     1
  3.8811098475652638E-02 a       582     0    30     1     2
  8.5493291530658308E-02 a       583     0    30     1     3
 -6.4308825022601102E-02 a       584     0    30     1     4
  1.1613792465094133E-01 a       585     0    30     1     5
  1.6608455774037692E-01 a       586     0    30     1     6
  8.0862786397236611E-02 a       587     0    30     1     7
  1.0054457394392059E-01 a       588     0    30     1     8
  1.7843608008052447E-01 a       589     0    30     1     9
 -1.4658795267898596E-02 a       590     0    30     1    10
 -3.3525397015921374E-02 a       591     0    30     1    11
  2.6574698056976535E-02 a       592     0    30     1    12
 -8.2495960619754269E-02 a       593     0    30     1    13
 -9.9525912931486493E-02 a       594     0    30     1    14
  1.6850226208039418E-01 a       595     0    30     1    15
  1.9405137324330392E-02 a       596     0    30     1    16
 -1.2706661695193183E-01 a       597     0    30     1    17
 -1.0574269665213622E-01 a       598     0    30     1    18
  1.0946429735268326E-01 a       599     0    30     1    19
  1.0846473800687872E-01 a       600     0    30     1    20
  2.2528448566974205E-01 a       601     0    31     1     1
  1.9569015885182440E-02 a       602     0    31     1     2
 -2.1218725266017296E-01 a       603     0    31     1     3
  5.4211860362678728E-02 a       604     0    31     1     4
  1.4697090345311806E-01 a       605     0    31     1     5
  1.7445286997568665E-01 a       606     0    31     1     6
 -2.6627012807403483E-01 a       607     0    31     1     7
  1.3892476583281443E-01 a       608     0    31     1     8
 -2.1821466203012899E-02 a       609     0    31     1     9
  3.3860788651405349E-02 a       610     0    31     1    10
 -1.3944736757901746E-01 a       611     0    31     1    11
  3.0522593593089462E-03 a       612     0    31     1    12
 -3.1008919856012290E-01 a       613     0    31     1    13
 -2.9376928563091435E-02 a       614     0    31     1    14
 -6.8180142957974615E-02 a       615     0    31     1    15
 -3.3871314497084387E-02 a       616     0    31     1    16
 -1.5004977782945400E-01 a       617     0    31     1    17
  1.7687125420028768E-01 a       618     0    31     1    18
  2.9012338542136869E-02 a       619     0    31     1    19
 -1.1869534767953223E-01 a       620     0    31     1    20
 -1.7583256037691192E-02 a       621     0    32     1     1
  2.2895498081065213E-01 a       622     0    32     1     2
 -4.3923114301052590E-03 a       623     0    32     1     3
 -5.0094947819746750E-02 a       624     0    32     1     4
 -8.4762748712633534E-02 a       625     0    32     1     5
  1.7002085160900327E-01 a       626     0    32     1     6
 -8.9701253933559946E-02 a       627     0    32     1     7
 -7.1326649259934469E-02 a       628     0    32     1     8
  6.7368491954344703E-02 a       629     0    32     1     9
  5.9277378376036929E-02 a       630     0    32     1    10
  1.3675286060168620E-01 a       631     0    32     1    11
  1.2024229252976086E-01 a       632     0    32     1    12
  2.1223327650052966E-02 a       633     0    32     1    13
 -1.0726545813968322E-01 a       634     0    32     1    14
  1.5183949409274905E-01 a       635     0    32     1    15
  2.5406694802027779E-04 a       636     0    32     1    16
  5.3536704630670631E-02 a       637     0    32     1    17
 -3.1174303299030700E-02 a       638     0    32     1    18
 -1.5431694773761084E-01 a       639     0    32     1    19
  6.2815291162499787E-02 a       640     0    32     1    20
  2.0063258508223564E-01 a       641     0    33     1     1
  1.1151343478886176E-01 a       642     0    33     1     2
 -1.1052023728677252E-01 a       643     0    33     1     3
 -2.6872888436797782E-01 a       644     0    33     1     4
  4.4896318595300522E-02 a       645     0    33     1     5
  3.2268407940524130E-01 a       646     0    33     1     6
  2.4561735275726061E-02 a       647     0    33     1     7
 -1.9161516578639626E-01 a       648     0    33     1     8
  3.5768686538954642E-01 a       649     0    33     1     9
  5.0373770814712802E-02 a       650     0    33     1    10
 -1.0811085330452583E-02 a       651     0    33     1    11
  3.0095943030392036E-01 a       652     0    33     1    12
  1.8806709184673198E-01 a       653     0    33     1    13
 -4.1273246910391727E-02 a       654     0    33     1    14
  3.3874526510979164E-01 a       655     0    33     1    15
  6.8922543066442840E-02 a       656     0    33     1    16
  2.0319700436245633E-02 a       657     0    33     1    17
  7.7877141921380011E-02 a       658     0    33     1    18
  1.0939376188316988E-01 a       659     0    33     1    19
 -3.2690787438495317E-01 a       660     0    33     1    20
  8.7729611626903389E-02 a       661     0    34     1     1
 -2.3888149088007364E-03 a       662     0    34     1     2
 -4.7689079331657020E-03 a       663     0    34     1     3
  1.4994913327065265E-03 a       664     0    34     1     4
  2.3568100874754305E-02 a       665     0    34     1     5
  4.6494640470609451E-02 a       666     0    34     1     6
 -1.8060499969638863E-02 a       667     0    34     1     7
  1.1213104652105915E-01 a       668     0    34     1     8
  1.6771192386251949E-01 a       669     0    34     1     9
  3.1485291590794787E-02 a       670     0    34     1    10
 -3.4012844335645609E-02 a       671     0    34     1    11
  1.1093568987084362E-02 a       672     0    34     1    12
 -2.2081264535974793E-01 a       673     0    34     1    13
 -1.9866610319359677E-02 a       674     0    34     1    14
 -3.6717820645276400E-02 a       675     0    34     1    15
 -2.5213166487497260E-02 a       676     0    34     1    16
 -6.8361022085070958E-02 a       677     0    34     1    17
  1.5675699972470569E-01 a       678     0    34     1    18
  8.9690074021411811E-02 a       679     0    34     1    19
  1.2591814392043590E-01 a       680     0    34     1    20
  8.3222786026721729E-02 a       681     0    35     1     1
  4.2131147226426281E-02 a       682     0    35     1     2
 -1.9530925591197040E-01 a       683     0    35     1     3
 -9.3865834673414625E-02 a       684     0    35     1     4
 -3.6994154244251787E-02 a       685     0    35     1     5
  3.4312593794423203E-02 a       686     0    35     1     6
  8.6016146899376811E-02 a       687     0    35     1     7
 -1.7791347042352262E-01 a       688     0    35     1     8
  1.3939431314340625E-01 a       689     0    35     1     9
  3.0294163195197447E-02 a       690     0    35     1    10
 -1.3151925813233970E-02 a       691     0    35     1    11
  1.1086626469086222E-01 a       692     0    35     1    12
 -4.7538789376556256E-02 a       693     0    35     1    13
 -5.6108803693042816E-02 a       694     0    35     1    14
  1.9541107630971702E-01 a       695     0    35     1    15
  2.3584561903960161E-01 a       696     0    35     1    16
  1.8118664079399008E-01 a       697     0    35     1    17
  2.3303170888008502E-02 a       698     0    35     1    18
  1.8619329871775522E-01 a       699     0    35     1    19
 -1.2931532517871605E-01 a       700     0    35     1    20
  9.7144009339074536E-02 a       701     0    36     1     1
 -1.1697883620416027E-01 a       702     0    36     1     2
 -3.4793218933622927E-01 a       703     0    36     1     3
  4.4295849901519319E-01 a       704     0    36     1     4
 -2.4462356624726847E-01 a       705     0    36     1     5
 -2.6191462795162729E-01 a       706     0    36     1     6
 -1.0459463133954348E-01 a       707     0    36     1     7
  1.0259146165701466E-01 a       708     0    36     1     8
 -2.0818682661115614E-01 a       709     0    36     1     9
 -1.3031548895113859E-01 a       710     0    36     1    10
  1.5909821046960421E-01 a       711     0    36     1    11
 -2.5302397502075519E-01 a       712     0    36     1    12
 -3.0935646704170938E-01 a       713     0    36     1    13
 -1.3693148598875768E-01 a       714     0    36     1    14
 -8.4318842499545368E-02 a       715     0    36     1    15
  1.0706736300540023E-01 a       716     0    36     1    16
  1.0046968676909633E-01 a       717     0    36     1    17
  3.4090402389178875E-01 a       718     0    36     1    18
 -5.4741250764615799E-02 a       719     0    36     1    19
  1.7673882778488492E-01 a       720     0    36     1    20
  3.2319194798125556E-01 a       721     0    37     1     1
 -1.3494148383509738E-01 a       722     0    37     1     2
 -2.3203989078123727E-01 a       723     0    37     1     3
 -1.1740340889230910E-02 a       724     0    37     1     4
  7.9353322159359710E-02 a       725     0    37     1     5
  7.9708408060725405E-02 a       726     0    37     1     6
  5.1321718862967346E-02 a       727     0    37     1     7
 -1.1703906408287924E-01 a       728     0    37     1     8
  2.9085969847356169E-01 a       729     0    37     1     9
 -7.5004045303470337E-02 a       730     0    37     1    10
 -1.2355255727210389E-01 a       731     0    37     1    11
 -1.0675638313801521E-01 a       732     0    37     1    12
 -3.3900719286340941E-01 a       733     0    37     1    13
 -7.5361006619672891E-02 a       734     0    37     1    14
  7.5770919586481161E-02 a       735     0    37     1    15
  2.1743179428944995E-01 a       736     0    37     1    16
  1.0346190594992584E-01 a       737     0    37     1    17
  1.2300714931419390E-01 a       738     0    37     1    18
  4.3134633778432185E-01 a       739     0    37     1    19
 -3.1630424541438062E-01 a       740     0    37     1    20
  1.6334987399233306E-01 a       741     0    38     1     1
  4.6977074553494593E-03 a       742     0    38     1     2
 -2.6321003788699487E-01 a       743     0    38     1     3
 -4.2329594062153730E-01 a       744     0    38     1     4
 -9.8808768789310053E-02 a       745     0    38     1     5
  4.7825429793462410E-01 a       746     0    38     1     6
  3.0361955530540119E-01 a       747     0    38     1     7
 -2.2628524695196200E-01 a       748     0    38     1     8
  3.2458107510722040E-01 a       749     0    38     1     9
  2.0245284007264941E-02 a       750     0    38     1    10
 -4.4294306541982173E-02 a       751     0    38     1    11
  2.5816560922417464E-01 a       752     0    38     1    12
 -3.1164373229239584E-02 a       753     0    38     1    13
 -1.6788947816784144E-01 a       754     0    38     1    14
  3.3434891086345642E-01 a       755     0    38     1    15
  4.0341553086200926E-01 a       756     0    38     1    16
  4.6715498684657270E-01 a       757     0    38     1    17
 -3.1659225310938338E-01 a       758     0    38     1    18
  2.4300940506286989E-01 a       759     0    38     1    19
 -2.9709537648095663E-01 a       760     0    38     1    20
 -1.5453196247377457E-01 a       761     0    39     1     1
  8.1342508876752456E-02 a       762     0    39     1     2
 -2.4978898309803633E-04 a       763     0    39     1     3
  2.1669960269006647E-01 a       764     0    39     1     4
  1.7870753435810849E-01 a       765     0    39     1     5
 -1.0776650130737175E-01 a       766     0    39     1     6
 -3.0093950312787734E-02 a       767     0    39     1     7
 -1.0808544121354878E-01 a       768     0    39     1     8
 -9.0783921089841679E-02 a       769     0    39     1     9
 -2.9667428344304896E-02 a       770     0    39     1    10
  9.3557756699994263E-02 a       771     0    39     1    11
 -9.3196591815066426E-02 a       772     0    39     1    12
  4.0913070822319750E-02 a       773     0    39     1    13
  6.9520719931332742E-02 a       774     0    39     1    14
  8.4359360464617852E-02 a       775     0    39     1    15
 -2.2116385852978961E-02 a       776     0    39     1    16
 -1.0383396135643784E-01 a       777     0    39     1    17
 -1.2377853571038470E-01 a       778     0    39     1    18
 -1.5454413891745436E-01 a       779     0    39     1    19
  6.8463104953776957E-02 a       780     0    39     1    20
 -1.9094616606993214E-01 a       781     0    40     1     1
  1.3383683420396980E-01 a       782     0    40     1     2
  6.4151678892371486E-02 a       783     0    40     1     3
 -6.2218237209573479E-02 a       784     0    40     1     4
  7.1693127164566134E-02 a       785     0    40     1     5
  9.5970747875472454E-02 a       786     0    40     1     6
  8.9017288134192046E-02 a       787     0    40     1     7
  7.0725739209005725E-02 a       788     0    40     1     8
 -1.8927273001987516E-04 a       789     0    40     1     9
  1.6912150905848025E-03 a       790     0    40     1    10
  6.3001041189144263E-02 a       791     0    40     1    11
 -3.1347018152926169E-02 a       792     0    40     1    12
  2.1231111371677738E-01 a       793     0    40     1    13
  4.8130859256473646E-02 a       794     0    40     1    14
  4.0795578164477611E-02 a       795     0    40     1    15
 -1.2707700669698802E-01 a       796     0    40     1    16
 -9.2707063394573741E-02 a       797     0    40     1    17
 -2.9404234078130131E-01 a       798     0    40     1    18
 -2.6041350990877260E-01 a       799     0    40     1    19
 -9.2739897203921479E-02 a       800     0    40     1    20
  4.8177491498731781E-02 a       801     0    41     1     1
 -1.0586363432035661E-01 a       802     0    41     1     2
  3.5429517208859701E-01 a       803     0    41     1     3
 -1.0916147099811549E-01 a       804     0    41     1     4
  7.7207274681997257E-02 a       805     0    41     1     5
 -1.9349613463024082E-02 a       806     0    41     1     6
 -8.8673352867580699E-02 a       807     0    41     1     7
 -1.4270782778941032E-02 a       808     0    41     1     8
  5.6696277089403812E-03 a       809     0    41     1     9
  1.7456823567346666E-02 a       810     0    41     1    10
 -1.4357151055390555E-01 a       811     0    41     1    11
  5.4436691758935523E-03 a       812     0    41     1    12
  1.2080968784468617E-01 a       813     0    41     1    13
  1.0077687639617827E-01 a       814     0    41     1    14
 -1.6121727394814181E-01 a       815     0    41     1    15
  6.5956719061719168E-02 a       816     0    41     1    16
 -2.3112786213752745E-01 a       817     0    41     1    17
 -9.9168950303417200E-02 a       818     0    41     1    18
  1.4554394901277246E-02 a       819     0    41     1    19
  8.7207633906364240E-02 a       820     0    41     1    20
  1.7157362549496721E-01 a       821     0    42     1     1
  4.9044391639535299E-02 a       822     0    42     1     2
 -1.2542750027148691E-01 a       823     0    42     1     3
 -1.1120493080432617E-01 a       824     0    42     1     4
 -1.9540358718593417E-01 a       825     0    42     1     5
  1.8522111388808582E-01 a       826     0    42     1     6
  2.1255630584835747E-02 a       827     0    42     1     7
  2.0713092101202958E-02 a       828     0    42     1     8
  1.0329961580565418E-01 a       829     0    42     1     9
 -2.8789615559874629E-03 a       830     0    42     1    10
  7.6358194770811169E-02 a       831     0    42     1    11
  5.5787335537090740E-02 a       832     0    42     1    12
 -4.4394078240383918E-02 a       833     0    42     1    13
 -6.4081326139499864E-02 a       834     0    42     1    14
  1.4943926494864820E-01 a       835     0    42     1    15
  7.9410140869643868E-03 a       836     0    42     1    16
  2.2382669769093516E-01 a       837     0    42     1    17
  2.8055610355113769E-01 a       838     0    42     1    18
 -8.6387643694071384E-02 a       839     0    42     1    19
 -8.2518230805839043E-03 a       840     0    42     1    20
  3.4070310712042889E-01 a       841     0    43     1     1
  1.2385338216940080E-01 a       842     0    43     1     2
 -1.7757562480155575E-01 a       843     0    43     1     3
 -3.3832878222074925E-01 a       844     0    43     1     4
  7.1066408291006180E-03 a       845     0    43     1     5
  2.4873023432196376E-01 a       846     0    43     1     6
 -2.2673448504428120E-02 a       847     0    43     1     7
 -2.8621873088270150E-01 a       848     0    43     1     8
  3.6198024130424988E-01 a       849     0    43     1     9
 -2.4608835436514830E-02 a       850     0    43     1    10
  6.1061749481009134E-02 a       851     0    43     1    11
 -7.9350946278697806E-02 a       852     0    43     1    12
  2.6651784851841862E-02 a       853     0    43     1    13
  1.4630918216781991E-02 a       854     0    43     1    14
  3.0937908321979174E-01 a       855     0    43     1    15
 -2.7764528576663967E-02 a       856     0    43     1    16
 -1.7294413891252119E-02 a       857     0    43     1    17
  3.0059999098380680E-01 a       858     0    43     1    18
  1.0327173483261841E-01 a       859     0    43     1    19
 -3.6309719991139966E-01 a       860     0    43     1    20
  1.4138423749882839E-01 a       861     0    44     1     1
 -1.2194169224511987E-01 a       862     0    44     1     2
  2.4462055973648605E-01 a       863     0    44     1     3
 -2.0585046593943512E-02 a       864     0    44     1     4
 -1.9703225975090286E-01 a       865     0    44     1     5
 -9.7461475834586475E-02 a       866     0    44     1     6
  2.8159090999432420E-02 a       867     0    44     1     7
  2.4039625430220565E-01 a       868     0    44     1     8
 -1.3422189233535768E-02 a       869     0    44     1     9
  4.6491877795058019E-03 a       870     0    44     1    10
 -1.2842619238222147E-01 a       871     0    44     1    11
 -7.9225120741105090E-03 a       872     0    44     1    12
 -9.7705292441324240E-02 a       873     0    44     1    13
 -8.4394701809126088E-02 a       874     0    44     1    14
 -2.2686106849355536E-01 a       875     0    44     1    15
 -1.1122979602859860E-01 a       876     0    44     1    16
  1.7875172840631523E-01 a       877     0    44     1    17
  1.5847136594748829E-01 a       878     0    44     1    18
  2.0791018833867925E-01 a       879     0    44     1    19
 -5.1809875687831478E-02 a       880     0    44     1    20
 -6.2747910620725891E-02 a       881     0    45     1     1
  3.9267400002188806E-02 a       882     0    45     1     2
  1.1461410653969221E-01 a       883     0    45     1     3
 -8.1170388701799811E-04 a       884     0    45     1     4
  8.8314073796198711E-02 a       885     0    45     1     5
 -1.8901274978482110E-01 a       886     0    45     1     6
 -1.2803279962495709E-02 a       887     0    45     1     7
 -2.9158851695633124E-02 a       888     0    45     1     8
  5.6752514248784407E-02 a       889     0    45     1     9
  6.8365109729601289E-02 a       890     0    45     1    10
 -5.6020566530809328E-02 a       891     0    45     1    11
 -8.4986265260162022E-02 a       892     0    45     1    12
 -1.7817785245820079E-02 a       893     0    45     1    13
  8.8955424812451153E-02 a       894     0    45     1    14
 -1.3558162842609020E-01 a       895     0    45     1    15
  5.9364414969581274E-02 a       896     0    45     1    16
 -3.7880509341139734E-02 a       897     0    45     1    17
  3.7662534604012511E-02 a       898     0    45     1    18
  8.2414203705407738E-02 a       899     0    45     1    19
  2.4910171763503230E-01 a       900     0    45     1    20
  2.2280654745127787E-01 a       901     0    46     1     1
  1.6094609446859000E-02 a       902     0    46     1     2
 -1.6464316433582701E-01 a       903     0    46     1     3
  1.5631325248480182E-01 a       904     0    46     1     4
 -1.0468061649742745E-01 a       905     0    46     1     5
 -6.4942782404297508E-03 a       906     0    46     1     6
 -1.0731677613052942E-01 a       907     0    46     1     7
  8.5701918663610155E-02 a       908     0    46     1     8
 -1.1290204060930849E-01 a       909     0    46     1     9
 -1.1181968454479193E-02 a       910     0    46     1    10
  5.7540314773031564E-02 a       911     0    46     1    11
 -1.5566860308645483E-02 a       912     0    46     1    12
 -1.7640325216294619E-01 a       913     0    46     1    13
 -1.0458447264539819E-01 a       914     0    46     1    14
  3.4110573401732763E-02 a       915     0    46     1    15
 -1.1092851066953205E-01 a       916     0    46     1    16
  2.1347263188295823E-01 a       917     0    46     1    17
  4.1672583910856736E-01 a       918     0    46     1    18
  1.2286969530153279E-01 a       919     0    46     1    19
 -3.6864441943860426E-01 a       920     0    46     1    20
 -3.4234034343599715E-02 a       921     0    47     1     1
  2.0559901124048756E-02 a       922     0    47     1     2
 -1.1490284369319985E-01 a       923     0    47     1     3
 -9.6969122121071311E-02 a       924     0    47     1     4
  1.8855972705125238E-02 a       925     0    47     1     5
  7.1526047284830085E-02 a       926     0    47     1     6
 -1.0586588693376696E-02 a       927     0    47     1     7
 -9.3648277491222578E-02 a       928     0    47     1     8
 -8.6366713857016664E-02 a       929     0    47     1     9
 -2.9210489771315917E-02 a       930     0    47     1    10
 -1.5932431785979858E-02 a       931     0    47     1    11
 -2.5203679014135560E-02 a       932     0    47     1    12
  1.0762230559041257E-02 a       933     0    47     1    13
 -4.0984379031862285E-02 a       934     0    47     1    14
 -6.1167923374005574E-03 a       935     0    47     1    15
  7.1970698570297656E-02 a       936     0    47     1    16
 -1.5272723004353101E-02 a       937     0    47     1    17
 -1.2353932155215504E-01 a       938     0    47     1    18
 -4.7783006366722169E-02 a       939     0    47     1    19
 -1.2633047503433448E-01 a       940     0    47     1    20
  1.0146308050584193E-01 a       941     0    48     1     1
 -3.7369282267422171E-02 a       942     0    48     1     2
 -2.9531294660205798E-01 a       943     0    48     1     3
 -1.6140376821101468E-01 a       944     0    48     1     4
 -9.3184692965994839E-03 a       945     0    48     1     5
  2.2972823214132310E-01 a       946     0    48     1     6
  1.6807655489290987E-01 a       947     0    48     1     7
 -3.9841256801269084E-02 a       948     0    48     1     8
  1.4720491747855233E-01 a       949     0    48     1     9
 -1.9230413241203479E-02 a       950     0    48     1    10
 -4.0746147355407242E-02 a       951     0    48     1    11
  2.5550919272559036E-01 a       952     0    48     1    12
 -1.3221391007439295E-01 a       953     0    48     1    13
 -1.6069997331923211E-01 a       954     0    48     1    14
  1.3863470032458111E-01 a       955     0    48     1    15
  3.3971252018915210E-01 a       956     0    48     1    16
  1.9143562035875097E-01 a       957     0    48     1    17
 -5.0373058029995373E-02 a       958     0    48     1    18
  1.5732151964439378E-01 a       959     0    48     1    19
  6.4328095651686665E-02 a       960     0    48     1    20
 -2.4474612836077869E-01 a       961     0    49     1     1
  1.3647461242892431E-01 a       962     0    49     1     2
 -1.5077044208049098E-01 a       963     0    49     1     3
  5.2729828880020049E-02 a       964     0    49     1     4
  2.0841099394799173E-01 a       965     0    49     1     5
 -6.3579882282787173E-02 a       966     0    49     1     6
 -4.6417069795397843E-02 a       967     0    49     1     7
 -6.1925555010013629E-02 a       968     0    49     1     8
 -1.4321484060262624E-02 a       969     0    49     1     9
  1.4324202350811721E-02 a       970     0    49     1    10
  9.1189990586040021E-02 a       971     0    49     1    11
 -4.0477368552487389E-02 a       972     0    49     1    12
  8.9538497321794475E-02 a       973     0    49     1    13
  1.0529665801127994E-01 a       974     0    49     1    14
 -1.8546564757706850E-02 a       975     0    49     1    15
  1.0646824857150228E-01 a       976     0    49     1    16
 -2.5374968770940359E-01 a       977     0    49     1    17
 -5.3109695953923966E-02 a       978     0    49     1    18
 -2.5342300004155532E-01 a       979     0    49     1    19
  2.2769637247074695E-01 a       980     0    49     1    20
 -8.3495924966838886E-02 a       981     0    50     1     1
  1.3266967327670912E-01 a       982     0    50     1     2
 -2.1656782994656237E-01 a       983     0    50     1     3
 -5.9312873005746197E-02 a       984     0    50     1     4
 -1.0037349806287042E-02 a       985     0    50     1     5
  1.1869545895974026E-01 a       986     0    50     1     6
  1.6310610418310748E-01 a       987     0    50     1     7
  1.9833456276844192E-04 a       988     0    50     1     8
  1.1264579955105285E-01 a       989     0    50     1     9
 -2.6185237577092353E-02 a       990     0    50     1    10
  8.6302829363353956E-02 a       991     0    50     1    11
  6.7663216451840480E-02 a       992     0    50     1    12
  1.4870422375980916E-02 a       993     0    50     1    13
 -8.7608158649461948E-02 a       994     0    50     1    14
  2.0428235122825897E-01 a       995     0    50     1    15
  2.0993784849112615E-01 a       996     0    50     1    16
  7.9236208828777799E-02 a       997     0    50     1    17
 -2.1695415683753594E-01 a       998     0    50     1    18
 -1.1453647745063426E-01 a       999     0    50     1    19
 -1.6603691735264747E-01 a      1000     0    50     1    20
  3.6702386561650785E-01 a      1001     0    51     1     1
 -3.6862686159648517E-01 a      1002     0    51     1     2
 -1.4308909523227084E-01 a      1003     0    51     1     3
  3.6143244824332982E-01 a      1004     0    51     1     4
 -4.2061329926709862E-01 a      1005     0    51     1     5
  1.1786623437457926E-01 a      1006     0    51     1     6
 -3.0864495172710010E-01 a      1007     0    51     1     7
 -3.1259782063735253E-02 a      1008     0    51     1     8
 -4.7169131713181656E-01 a      1009     0    51     1     9
  1.2100590148875884E-01 a      1010     0    51     1    10
  1.7036900104980698E-02 a      1011     0    51     1    11
 -1.5662449507061404E-01 a      1012     0    51     1    12
  4.6541708402687537E-02 a      1013     0    51     1    13
  3.2317712563157221E-02 a      1014     0    51     1    14
  5.0417192273655388E-03 a      1015     0    51     1    15
  2.0515434896090651E-01 a      1016     0    51     1    16
 -1.1621917617186855E-01 a      1017     0    51     1    17
  4.1151725626089819E-01 a      1018     0    51     1    18
  1.6028383887911829E-01 a      1019     0    51     1    19
  1.5053389274017243E-01 a      1020     0    51     1    20
 -3.8057175591955966E-01 a      1021     0    52     1     1
 -3.0567273010229123E-01 a      1022     0    52     1     2
 -1.8812680746375329E-01 a      1023     0    52     1     3
  3.1409778182531639E-01 a      1024     0    52     1     4
 -2.6304822812668116E-01 a      1025     0    52     1     5
 -3.4901979274189428E-02 a      1026     0    52     1     6
  1.0887966089577941E-01 a      1027     0    52     1     7
  3.8678705102150240E-01 a      1028     0    52     1     8
 -1.1005680391519369E-01 a      1029     0    52     1     9
 -3.4878871315119564E-01 a      1030     0    52     1    10
 -2.0861289933199959E-01 a      1031     0    52     1    11
 -3.8991637956744107E-01 a      1032     0    52     1    12
  7.7458361572611961E-02 a      1033     0    52     1    13
 -1.3546968393333154E-02 a      1034     0    52     1    14
  1.6144671803902125E-01 a      1035     0    52     1    15
  1.6829764299936165E-01 a      1036     0    52     1    16
  4.9744381274410325E-02 a      1037     0    52     1    17
 -2.1844188312672291E-02 a      1038     0    52     1    18
 -1.0434604892796473E-01 a      1039     0    52     1    19
 -9.4855807085059887E-03 a      1040     0    52     1    20
  1.7602670094064862E-04 a      1041     0    53     1     1
  2.4667610543025353E-01 a      1042     0    53     1     2
  5.5040583615430450E-01 a      1043     0    53     1     3
 -9.5160442509108845E-01 a      1044     0    53     1     4
 -2.9121443562970345E-01 a      1045     0    53     1     5
 -1.6489931491769419E-01 a      1046     0    53     1     6
  6.9058296093243599E-01 a      1047     0    53     1     7
  4.9946296741261879E-02 a      1048     0    53     1     8
  5.1555806722525299E-01 a      1049     0    53     1     9
 -2.0279486777398517E-01 a      1050     0    53     1    10
 -2.2397726766054854E-01 a      1051     0    53     1    11
  5.9049539017378638E-01 a      1052     0    53     1    12
  5.1846674159079331E-01 a      1053     0    53     1    13
 -2.3749375595327868E-01 a      1054     0    53     1    14
  3.6438955827637010E-01 a      1055     0    53     1    15
 -1.4356047689930354E-01 a      1056     0    53     1    16
 -7.2346146073286724E-02 a      1057     0    53     1    17
  2.3919499315292164E-01 a      1058     0    53     1    18
  6.9132416776216676E-02 a      1059     0    53     1    19
 -3.5564022884898250E-01 a      1060     0    53     1    20
 -9.4516085139474126E-03 a      1061     0    54     1     1
  2.1024087956119718E-02 a      1062     0    54     1     2
 -4.1969376800087033E-01 a      1063     0    54     1     3
 -8.4417227973039202E-02 a      1064     0    54     1     4
 -6.5137812020196181E-02 a      1065     0    54     1     5
 -7.8639146882776234E-02 a      1066     0    54     1     6
  1.0374323993075651E-01 a      1067     0    54     1     7
 -2.2246877879901403E-01 a      1068     0    54     1     8
 -4.2834143591747897E-01 a      1069     0    54     1     9
  1.9587781888094222E-01 a      1070     0    54     1    10
  2.5676151488904059E-01 a      1071     0    54     1    11
  1.8878872107651931E-01 a      1072     0    54     1    12
  2.0505389154812373E-01 a      1073     0    54     1    13
  1.3387673199291736E-01 a      1074     0    54     1    14
  1.9265139192275763E-01 a      1075     0    54     1    15
  1.8108300415212814E-01 a      1076     0    54     1    16
  2.3818964014932223E-01 a      1077     0    54     1    17
 -3.4066735385230679E-01 a      1078     0    54     1    18
  1.7785054005796167E-02 a      1079     0    54     1    19
 -4.1067264982879138E-02 a      1080     0    54     1    20
 -1.4250389352390117E-01 a      1081     0    55     1     1
  2.4980794776520293E-02 a      1082     0    55     1     2
  1.7446532656353891E-01 a      1083     0    55     1     3
  8.3026307091911875E-02 a      1084     0    55     1     4
  1.4316268019688822E-02 a      1085     0    55     1     5
 -3.4565892933374621E-02 a      1086     0    55     1     6
  3.5294269316631120E-02 a      1087     0    55     1     7
  1.1686838378037423E-01 a      1088     0    55     1     8
 -1.0536310511279955E-01 a      1089     0    55     1     9
  1.7924767618085513E-01 a      1090     0    55     1    10
 -1.0495862657596323E-01 a      1091     0    55     1    11
  3.2163320282262244E-02 a      1092     0    55     1    12
 -1.7653065141839851E-02 a      1093     0    55     1    13
  6.0365016727225461E-02 a      1094     0    55     1    14
 -8.7240205030944068E-02 a      1095     0    55     1    15
 -2.1709530646195466E-01 a      1096     0    55     1    16
  4.7499716437259594E-02 a      1097     0    55     1    17
 -1.3586520275714703E-01 a      1098     0    55     1    18
  9.0681391145406090E-02 a      1099     0    55     1    19
 -5.3538551228436849E-02 a      1100     0    55     1    20
  3.5671534889729719E-03 a      1101     0    56     1     1
 -2.4864614065025073E-01 a      1102     0    56     1     2
 -3.3174502611903628E-01 a      1103     0    56     1     3
 -1.0906427137837188E-02 a      1104     0    56     1     4
 -7.5709367225666804E-02 a      1105     0    56     1     5
 -3.8143782858803943E-01 a      1106     0    56     1     6
  6.5428508889721043E-02 a      1107     0    56     1     7
  1.7257583951665331E-01 a      1108     0    56     1     8
  5.4426868594219746E-01 a      1109     0    56     1     9
  2.3824655400993036E-01 a      1110     0    56     1    10
 -2.3332481546971229E-01 a      1111     0    56     1    11
  1.2476534474819223E-01 a      1112     0    56     1    12
 -4.4621335874185680E-02 a      1113     0    56     1    13
 -5.1949067042831554E-01 a      1114     0    56     1    14
  5.0528878392177151E-02 a      1115     0    56     1    15
 -2.0477223800798730E-01 a      1116     0    56     1    16
  2.1832714482176479E-02 a      1117     0    56     1    17
 -1.2786238294587518E-01 a      1118     0    56     1    18
  6.4711400318943135E-01 a      1119     0    56     1    19
  1.8352227418588998E-01 a      1120     0    56     1    20
  1.7660091556901641E-01 a      1121     0    57     1     1
 -3.0946209548789261E-01 a      1122     0    57     1     2
  1.5723328914373971E-01 a      1123     0    57     1     3
 -3.0059882306412467E-01 a      1124     0    57     1     4
  2.7672279347194645E-01 a      1125     0    57     1     5
 -2.1370970693455454E-01 a      1126     0    57     1     6
  1.6476943759453691E-01 a      1127     0    57     1     7
 -4.7869408804733921E-01 a      1128     0    57     1     8
  5.6296820552891780E-01 a      1129     0    57     1     9
  5.0160601046825869E-02 a      1130     0    57     1    10
 -2.5871614447398628E-01 a      1131     0    57     1    11
 -3.1437981921091307E-01 a      1132     0    57     1    12
 -2.6084302969634925E-02 a      1133     0    57     1    13
 -1.2900612550115215E-01 a      1134     0    57     1    14
 -1.5536532771960518E-01 a      1135     0    57     1    15
  2.8112494791499681E-01 a      1136     0    57     1    16
 -6.4611135354278715E-01 a      1137     0    57     1    17
 -5.8206115003004745E-02 a      1138     0    57     1    18
 -1.3324131657672070E-01 a      1139     0    57     1    19
 -1.9484488994925089E-01 a      1140     0    57     1    20
 -9.7040386864283540E-02 a      1141     0    58     1     1
 -2.1945409408938490E-01 a      1142     0    58     1     2
  1.4097829891557065E-01 a      1143     0    58     1     3
  5.7075630560791242E-02 a      1144     0    58     1     4
 -3.3441673236385777E-01 a      1145     0    58     1     5
 -1.5160516369466598E-01 a      1146     0    58     1     6
  3.5524333877468106E-01 a      1147     0    58     1     7
  2.2555606503611997E-01 a      1148     0    58     1     8
  2.7210134636203581E-01 a      1149     0    58     1     9
 -1.3762337393768737E-01 a      1150     0    58     1    10
  1.3300946229370241E-02 a      1151     0    58     1    11
 -6.8969022286773429E-02 a      1152     0    58     1    12
 -1.5809356370278499E-02 a      1153     0    58     1    13
 -3.8809138109852687E-01 a      1154     0    58     1    14
  3.9096975141527865E-03 a      1155     0    58     1    15
 -1.1615888897152991E-01 a      1156     0    58     1    16
 -1.3755516906457849E-01 a      1157     0    58     1    17
  1.3386168145191429E-01 a      1158     0    58     1    18
  1.4812456548622766E-01 a      1159     0    58     1    19
  1.0843362083899633E-01 a      1160     0    58     1    20
 -9.4010259214084624E-02 a      1161     0    59     1     1
 -8.2193028973627402E-02 a      1162     0    59     1     2
 -4.1753414023883252E-02 a      1163     0    59     1     3
 -1.3292459108084084E-01 a      1164     0    59     1     4
 -1.1390030991972494E-01 a      1165     0    59     1     5
  7.8352301844136746E-02 a      1166     0    59     1     6
  9.1225447837131060E-02 a      1167     0    59     1     7
 -5.1875845223412223E-02 a      1168     0    59     1     8
 -4.2342628300476901E-02 a      1169     0    59     1     9
  9.8212417540237545E-02 a      1170     0    59     1    10
 -4.1061959933497941E-02 a      1171     0    59     1    11
  4.6367341063566478E-02 a      1172     0    59     1    12
 -9.2480672849179574E-02 a      1173     0    59     1    13
 -2.4349643401288902E-02 a      1174     0    59     1    14
  7.4558303486451732E-02 a      1175     0    59     1    15
  2.2967920432821118E-01 a      1176     0    59     1    16
  1.6842621328800871E-02 a      1177     0    59     1    17
 -1.8497831171877641E-01 a      1178     0    59     1    18
  1.0085924528464094E-01 a      1179     0    59     1    19
  1.3706983073649837E-01 a      1180     0    59     1    20
 -1.5605507683497613E-01 a      1181     0    60     1     1
 -3.2128331991498510E-01 a      1182     0    60     1     2
  5.4859222814560215E-03 a      1183     0    60     1     3
  4.8684890464596559E-01 a      1184     0    60     1     4
 -5.7083270279139973E-02 a      1185     0    60     1     5
  4.4148381263974433E-02 a      1186     0    60     1     6
 -1.1156978991673291E-01 a      1187     0    60     1     7
  1.3818125832815098E-01 a      1188     0    60     1     8
 -6.2179839631636447E-01 a      1189     0    60     1     9
  6.0891858144331690E-01 a      1190     0    60     1    10
 -4.7578687294407077E-03 a      1191     0    60     1    11
 -3.0840817070641102E-01 a      1192     0    60     1    12
 -4.7757428518488028E-02 a      1193     0    60     1    13
  1.8529570292537170E-01 a      1194     0    60     1    14
 -5.0520270340053901E-02 a      1195     0    60     1    15
  4.4905391188081178E-01 a      1196     0    60     1    16
  4.0156952339660351E-01 a      1197     0    60     1    17
  2.3772989517579587E-01 a      1198     0    60     1    18
 -1.7995799932815093E-01 a      1199     0    60     1    19
 -2.4981910840370503E-01 a      1200     0    60     1    20
  5.7253599113028120E-01 a      1201     0    61     1     1
 -1.2992961064125066E-01 a      1202     0    61     1     2
  1.4619562251110646E-01 a      1203     0    61     1     3
  3.7419766633244027E-02 a      1204     0    61     1     4
 -4.1261654650603219E-01 a      1205     0    61     1     5
 -2.2709475439874932E-01 a      1206     0    61     1     6
  2.2233593574849650E-01 a      1207     0    61     1     7
  1.8954702632200471E-01 a      1208     0    61     1     8
  1.2589165367681954E-01 a      1209     0    61     1     9
 -1.2292856632715264E-01 a      1210     0    61     1    10
  6.6944058510216092E-02 a      1211     0    61     1    11
  1.2368881741482834E-01 a      1212     0    61     1    12
 -3.3219152410925651E-01 a      1213     0    61     1    13
 -1.7305179413127625E-01 a      1214     0    61     1    14
  1.9276039393972350E-01 a      1215     0    61     1    15
 -1.9800942252946312E-02 a      1216     0    61     1    16
 -7.3756256201523943E-02 a      1217     0    61     1    17
  2.7894535090241801E-01 a      1218     0    61     1    18
  1.3387810514345005E-01 a      1219     0    61     1    19
 -1.8088660587927402E-01 a      1220     0    61     1    20
  1.9091917218383696E-02 a      1221     0    62     1     1
 -1.3677727393556580E-01 a      1222     0    62     1     2
 -8.8136676283491790E-03 a      1223     0    62     1     3
  1.0096033560409269E-01 a      1224     0    62     1     4
 -2.1234798333553873E-01 a      1225     0    62     1     5
  1.9076273536570820E-03 a      1226     0    62     1     6
  5.8955542048183852E-02 a      1227     0    62     1     7
 -7.9546506698330386E-03 a      1228     0    62     1     8
  1.5973268907381791E-01 a      1229     0    62     1     9
  9.6027307259556896E-02 a      1230     0    62     1    10
 -3.1605651889073598E-02 a      1231     0    62     1    11
  5.6031793156444527E-02 a      1232     0    62     1    12
  2.6864881637813268E-02 a      1233     0    62     1    13
 -1.4102110291152076E-01 a      1234     0    62     1    14
  6.1861794550608362E-02 a      1235     0    62     1    15
  1.9312855198146170E-01 a      1236     0    62     1    16
  1.7576452941762827E-01 a      1237     0    62     1    17
 -1.5043470243237451E-03 a      1238     0    62     1    18
  2.8950033174619033E-03 a      1239     0    62     1    19
 -1.9026624851824752E-02 a      1240     0    62     1    20
 -1.3891173561892464E-01 a      1241     0    63     1     1
  2.9931698797592391E-02 a      1242     0    63     1     2
  1.7117060685452486E-02 a      1243     0    63     1     3
  5.4603048299077694E-02 a      1244     0    63     1     4
  6.6520267245904888E-02 a      1245     0    63     1     5
  5.2019131343592082E-02 a      1246     0    63     1     6
 -9.0854813463259118E-02 a      1247     0    63     1     7
  8.1063598739915629E-02 a      1248     0    63     1     8
  5.9103067031657873E-02 a      1249     0    63     1     9
  6.6600431722160999E-02 a      1250     0    63     1    10
  1.9254927358387264E-01 a      1251     0    63     1    11
 -1.0010583924038825E-02 a      1252     0    63     1    12
 -8.0134286279761949E-02 a      1253     0    63     1    13
  7.6622745440104389E-02 a      1254     0    63     1    14
  5.0568814816410054E-02 a      1255     0    63     1    15
 -1.2699476280944252E-01 a      1256     0    63     1    16
 -1.9572224323440565E-01 a      1257     0    63     1    17
  2.3471549922824471E-02 a      1258     0    63     1    18
 -1.4100125162000324E-01 a      1259     0    63     1    19
 -1.4075508892006263E-02 a      1260     0    63     1    20
 -1.2958676905587305E-01 a      1261     0    64     1     1
  1.9756596907611768E-01 a      1262     0    64     1     2
  1.1166280551707262E-01 a      1263     0    64     1     3
  2.4500551664711080E-02 a      1264     0    64     1     4
 -8.1302824852527947E-02 a      1265     0    64     1     5
 -9.7936981308698517E-02 a      1266     0    64     1     6
  3.4595910989622232E-02 a      1267     0    64     1     7
  4.6841043008804061E-02 a      1268     0    64     1     8
  2.8654178465279991E-02 a      1269     0    64     1     9
 -5.6530165507871601E-03 a      1270     0    64     1    10
 -9.2979139923763873E-02 a      1271     0    64     1    11
  4.4069054361240020E-02 a      1272     0    64     1    12
  1.4902249804792485E-02 a      1273     0    64     1    13
  1.6599198934636846E-02 a      1274     0    64     1    14
 -5.4161936563631149E-02 a      1275     0    64     1    15
  1.6566940663159077E-01 a      1276     0    64     1    16
  9.1516870905142128E-02 a      1277     0    64     1    17
 -1.3476712974227537E-01 a      1278     0    64     1    18
 -3.9510040130643333E-02 a      1279     0    64     1    19
  9.4456579357628148E-02 a      1280     0    64     1    20
  1.1077631658418743E-01 a      1281     0    65     1     1
  7.7555582129139539E-03 a      1282     0    65     1     2
  9.6599720055877275E-02 a      1283     0    65     1     3
  1.1811269659894704E-02 a      1284     0    65     1     4
  5.8486939462670057E-02 a      1285     0    65     1     5
  4.0210490420710876E-03 a      1286     0    65     1     6
 -4.7925213053817056E-02 a      1287     0    65     1     7
  2.8511032879780626E-03 a      1288     0    65     1     8
 -1.1833441327950453E-01 a      1289     0    65     1     9
  3.8993562696947370E-02 a      1290     0    65     1    10
 -1.7330979997537306E-02 a      1291     0    65     1    11
  2.0415091755983650E-02 a      1292     0    65     1    12
  4.7160992977423502E-02 a      1293     0    65     1    13
 -2.2790631929836942E-02 a      1294     0    65     1    14
  2.8107523100871618E-03 a      1295     0    65     1    15
 -4.9997385897763624E-03 a      1296     0    65     1    16
  8.9530592290345407E-02 a      1297     0    65     1    17
 -9.4146074235039581E-02 a      1298     0    65     1    18
 -5.1733352951198030E-03 a      1299     0    65     1    19
  1.0110747307508784E-02 a      1300     0    65     1    20
  1.5972799781935051E-01 a      1301     0    66     1     1
 -2.2930160129008453E-01 a      1302     0    66     1     2
 -1.6178329377349771E-01 a      1303     0    66     1     3
 -8.7745470574338003E-04 a      1304     0    66     1     4
 -8.7248966588273774E-02 a      1305     0    66     1     5
 -3.6015219388474179E-01 a      1306     0    66     1     6
  1.9034395514347763E-01 a      1307     0    66     1     7
 -2.4921132682401712E-01 a      1308     0    66     1     8
  8.8727576710538311E-02 a      1309     0    66     1     9
 -2.5794343657825625E-01 a      1310     0    66     1    10
  2.9493966668976423E-01 a      1311     0    66     1    11
  1.6898283308559947E-01 a      1312     0    66     1    12
  1.7615151785448974E-01 a      1313     0    66     1    13
  1.3277310713679066E-01 a      1314     0    66     1    14
  3.2025630417393679E-03 a      1315     0    66     1    15
  2.1163614319764740E-01 a      1316     0    66     1    16
  2.4843398891058871E-01 a      1317     0    66     1    17
 -2.8087593298991625E-01 a      1318     0    66     1    18
  1.6642977908246875E-01 a      1319     0    66     1    19
 -2.2419292949194380E-01 a      1320     0    66     1    20
  1.7725462848492143E-01 a      1321     0    67     1     1
  1.3589463966999338E-01 a      1322     0    67     1     2
 -8.5439840466748393E-02 a      1323     0    67     1     3
 -1.2714316744647072E-01 a      1324     0    67     1     4
 -2.2059160322359991E-01 a      1325     0    67     1     5
  2.5764874999898207E-01 a      1326     0    67     1     6
  7.8275936806404170E-02 a      1327     0    67     1     7
  2.2090401155003325E-02 a      1328     0    67     1     8
  6.9233166311144775E-02 a      1329     0    67     1     9
 -9.0517099040792290E-02 a      1330     0    67     1    10
  6.9765891786117400E-03 a      1331     0    67     1    11
  9.2012931539666460E-03 a      1332     0    67     1    12
  3.9308445743159914E-01 a      1333     0    67     1    13
 -7.1062270197718991E-02 a      1334     0    67     1    14
  1.7152947055039381E-02 a      1335     0    67     1    15
  1.8692785304052502E-02 a      1336     0    67     1    16
 -3.7549818077182821E-02 a      1337     0    67     1    17
 -1.7526415149627964E-01 a      1338     0    67     1    18
 -2.1092534365584698E-01 a      1339     0    67     1    19
 -2.2535714544075572E-01 a      1340     0    67     1    20
  3.8580617700179498E-01 a      1341     0    68     1     1
 -3.2672675304062837E-01 a      1342     0    68     1     2
  3.7596779462116363E-02 a      1343     0    68     1     3
 -2.9981123583588865E-01 a      1344     0    68     1     4
  3.5821936396578491E-01 a      1345     0    68     1     5
  5.1597610726826115E-01 a      1346     0    68     1     6
 -5.1064788724359000E-01 a      1347     0    68     1     7
 -2.7238387017156229E-01 a      1348     0    68     1     8
 -1.4402168274808202E-01 a      1349     0    68     1     9
  7.8112188576807695E-01 a      1350     0    68     1    10
 -8.4353851167305330E-02 a      1351     0    68     1    11
 -3.4401141379827538E-01 a      1352     0    68     1    12
  2.4676033193153613E-01 a      1353     0    68     1    13
  1.1385051729789565E-01 a      1354     0    68     1    14
 -1.8985961027900317E-01 a      1355     0    68     1    15
 -6.0644047289260239E-01 a      1356     0    68     1    16
 -3.7432122763506864E-01 a      1357     0    68     1    17
 -2.0437265890040662E-02 a      1358     0    68     1    18
  6.4636294989188284E-02 a      1359     0    68     1    19
  2.4173317124729998E-01 a      1360     0    68     1    20
 -4.1396263776264330E-01 a      1361     0    69     1     1
  2.1913972407955735E-02 a      1362     0    69     1     2
  3.6318482123724218E-02 a      1363     0    69     1     3
  6.4057322066122982E-04 a      1364     0    69     1     4
  8.0805700768109515E-02 a      1365     0    69     1     5
 -3.0040460955073605E-02 a      1366     0    69     1     6
 -9.0597709478162883E-02 a      1367     0    69     1     7
 -3.8369560295219655E-03 a      1368     0    69     1     8
  2.6872684309755046E-01 a      1369     0    69     1     9
 -1.8521093631128999E-01 a      1370     0    69     1    10
 -4.3548194770512534E-02 a      1371     0    69     1    11
 -8.0739005974613545E-02 a      1372     0    69     1    12
 -3.6753700500795947E-02 a      1373     0    69     1    13
 -8.5977819345678427E-02 a      1374     0    69     1    14
 -1.3047720311877031E-01 a      1375     0    69     1    15
  4.2507879694242362E-01 a      1376     0    69     1    16
 -1.8835072493132918E-01 a      1377     0    69     1    17
  2.2720189359291149E-01 a      1378     0    69     1    18
 -9.5960838548369315E-02 a      1379     0    69     1    19
  7.4017783752664476E-03 a      1380     0    69     1    20
  1.2061227912967964E-01 a      1381     0    70     1     1
  1.0675197541358378E-01 a      1382     0    70     1     2
 -2.5199057124690738E-01 a      1383     0    70     1     3
  3.2760996558306804E-02 a      1384     0    70     1     4
 -9.2337605523435090E-02 a      1385     0    70     1     5
 -4.6529617787501462E-02 a      1386     0    70     1     6
 -2.0932343969573894E-01 a      1387     0    70     1     7
 -5.2776483285498027E-02 a      1388     0    70     1     8
  2.5829797905044971E-01 a      1389     0    70     1     9
 -5.7275668445197865E-03 a      1390     0    70     1    10
  1.0972395636084482E-01 a      1391     0    70     1    11
 -8.6905564987452069E-02 a      1392     0    70     1    12
  4.1601345473580791E-02 a      1393     0    70     1    13
 -4.3868568704899275E-02 a      1394     0    70     1    14
 -1.6490936241740053E-02 a      1395     0    70     1    15
  2.4956669217093334E-02 a      1396     0    70     1    16
 -6.2455475717270455E-02 a      1397     0    70     1    17
  3.7720127271081857E-02 a      1398     0    70     1    18
 -2.3897602100326876E-01 a      1399     0    70     1    19
  1.9650748231300436E-01 a      1400     0    70     1    20
  5.5721159900198235E-02 a      1401     0    71     1     1
 -9.0966182163697451E-02 a      1402     0    71     1     2
 -1.2482451176453853E-01 a      1403     0    71     1     3
  2.3999826840337107E-01 a      1404     0    71     1     4
 -1.2237300313702117E-01 a      1405     0    71     1     5
  2.0648640153459341E-01 a      1406     0    71     1     6
 -8.0944870080850370E-02 a      1407     0    71     1     7
  3.4969670850155052E-02 a      1408     0    71     1     8
  8.1188831200114775E-02 a      1409     0    71     1     9
 -9.2822346304584510E-02 a      1410     0    71     1    10
 -1.1868944726271966E-02 a      1411     0    71     1    11
 -6.2702161813965301E-03 a      1412     0    71     1    12
 -3.3617150635793536E-01 a      1413     0    71     1    13
  2.0719584374948380E-01 a      1414     0    71     1    14
 -4.3908667402322236E-02 a      1415     0    71     1    15
 -9.4512517813837765E-02 a      1416     0    71     1    16
  3.8966194934783135E-02 a      1417     0    71     1    17
  1.1151417823452459E-01 a      1418     0    71     1    18
 -1.2864526233010926E-01 a      1419     0    71     1    19
  1.8332926515616568E-01 a      1420     0    71     1    20
 -1.8284527381927332E-01 a      1421     0    72     1     1
 -3.3928434937925678E-01 a      1422     0    72     1     2
  5.8672791551154194E-02 a      1423     0    72     1     3
 -5.1170425135892705E-01 a      1424     0    72     1     4
  1.4091351666623297E-01 a      1425     0    72     1     5
 -2.9012313280906410E-01 a      1426     0    72     1     6
 -2.5533417605647168E-01 a      1427     0    72     1     7
 -7.2604508183993957E-02 a      1428     0    72     1     8
 -1.3441126119070473E-01 a      1429     0    72     1     9
 -2.4618915846499331E-01 a      1430     0    72     1    10
  4.5072602137370479E-02 a      1431     0    72     1    11
  3.8605825349579015E-01 a      1432     0    72     1    12
  7.1175660230820767E-02 a      1433     0    72     1    13
 -2.5011985766060552E-01 a      1434     0    72     1    14
  1.7895605565880462E-01 a      1435     0    72     1    15
  6.7473069777817862E-02 a      1436     0    72     1    16
 -3.6170014027773489E-01 a      1437     0    72     1    17
  2.2038037280538691E-01 a      1438     0    72     1    18
  4.6210843032385618E-01 a      1439     0    72     1    19
 -1.4485131223349640E-01 a      1440     0    72     1    20
  2.4115870422827011E-02 a      1441     0    73     1     1
  9.3156180572288902E-02 a      1442     0    73     1     2
  1.3180417844578413E-01 a      1443     0    73     1     3
  2.3480991713996568E-01 a      1444     0    73     1     4
  2.7371250765330374E-01 a      1445     0    73     1     5
  3.5670786714011596E-02 a      1446     0    73     1     6
 -1.0500676809977892E-01 a      1447     0    73     1     7
  3.4732971963011651E-02 a      1448     0    73     1     8
  3.9592677090268324E-01 a      1449     0    73     1     9
  5.2603464608290018E-02 a      1450     0    73     1    10
 -3.2915236915841341E-02 a      1451     0    73     1    11
 -1.3167077555917434E-01 a      1452     0    73     1    12
  1.6129342871154345E-01 a      1453     0    73     1    13
  2.4355693926912020E-01 a      1454     0    73     1    14
  8.4090951349611517E-02 a      1455     0    73     1    15
 -1.7383198605681965E-01 a      1456     0    73     1    16
 -2.0793994096382426E-02 a      1457     0    73     1    17
  1.8177026204774162E-02 a      1458     0    73     1    18
 -1.8089264789940004E-01 a      1459     0    73     1    19
  1.3483305327049810E-01 a      1460     0    73     1    20
  1.4072441816168818E-02 a      1461     0    74     1     1
  1.1593959464197334E-01 a      1462     0    74     1     2
 -3.7506217692738306E-02 a      1463     0    74     1     3
  9.6124359372219484E-02 a      1464     0    74     1     4
  2.2150115903288338E-02 a      1465     0    74     1     5
  9.1142053498823858E-02 a      1466     0    74     1     6
  2.8832470521079390E-02 a      1467     0    74     1     7
  1.1966742844867963E-01 a      1468     0    74     1     8
 -1.8175546931523165E-01 a      1469     0    74     1     9
 -1.6630141974152324E-01 a      1470     0    74     1    10
  6.8468845018160321E-02 a      1471     0    74     1    11
  4.9551526928413192E-02 a      1472     0    74     1    12
  4.8669798424649776E-03 a      1473     0    74     1    13
 -1.4692320255937608E-02 a      1474     0    74     1    14
  1.3401724955715372E-01 a      1475     0    74     1    15
 -6.8709894768039126E-02 a      1476     0    74     1    16
 -1.7239437603845176E-01 a      1477     0    74     1    17
  3.4539908936077515E-02 a      1478     0    74     1    18
 -1.5543793243412538E-01 a      1479     0    74     1    19
 -8.7672034509388083E-02 a      1480     0    74     1    20
 -2.2862969982770939E-01 a      1481     0    75     1     1
  2.3442052836464639E-01 a      1482     0    75     1     2
  3.7415844676720084E-01 a      1483     0    75     1     3
 -5.1487759060437577E-01 a      1484     0    75     1     4
  1.4880655516795394E-02 a      1485     0    75     1     5
 -3.5450871755008162E-01 a      1486     0    75     1     6
  1.8027531032458152E-01 a      1487     0    75     1     7
  1.9856598026224631E-01 a      1488     0    75     1     8
  5.2773234752919818E-01 a      1489     0    75     1     9
 -1.0922651770576128E+00 a      1490     0    75     1    10
 -2.1956333749717155E-01 a      1491     0    75     1    11
  6.4156852173386092E-01 a      1492     0    75     1    12
 -4.6673671110441106E-01 a      1493     0    75     1    13
 -3.1359561680364889E-01 a      1494     0    75     1    14
 -2.8644002829278631E-01 a      1495     0    75     1    15
  3.5322805887373881E-01 a      1496     0    75     1    16
  2.7822496647637746E-01 a      1497     0    75     1    17
  1.6464689432070043E-01 a      1498     0    75     1    18
  5.4956546582619381E-01 a      1499     0    75     1    19
  4.3889160656571313E-01 a      1500     0    75     1    20
 -1.9693596353148966E-03 a      1501     0    76     1     1
  8.9438223432781114E-02 a      1502     0    76     1     2
  1.2625779770474269E-01 a      1503     0    76     1     3
 -1.7677305376005592E-01 a      1504     0    76     1     4
  1.2156459561414076E-01 a      1505     0    76     1     5
  4.5181710355698285E-01 a      1506     0    76     1     6
  1.4195313638611848E-01 a      1507     0    76     1     7
  6.2906647063631860E-02 a      1508     0    76     1     8
  3.6201224887219069E-01 a      1509     0    76     1     9
  1.0117971610461328E-01 a      1510     0    76     1    10
 -7.6552354827101640E-02 a      1511     0    76     1    11
  1.1993365102353883E-02 a      1512     0    76     1    12
  1.5633387734276535E-01 a      1513     0    76     1    13
 -1.8443752859874235E-01 a      1514     0    76     1    14
  1.5417556445345576E-01 a      1515     0    76     1    15
 -3.7155464376265773E-01 a      1516     0    76     1    16
  1.5475996660970959E-01 a      1517     0    76     1    17
  3.4811230291434836E-01 a      1518     0    76     1    18
  2.4596660844123816E-01 a      1519     0    76     1    19
  5.5060447191743840E-03 a      1520     0    76     1    20
 -1.2325277948985508E-01 a      1521     0    77     1     1
  2.0130142533195081E-01 a      1522     0    77     1     2
 -2.0859837865686369E-02 a      1523     0    77     1     3
 -2.0953769431638067E-01 a      1524     0    77     1     4
  2.2412582563676578E-01 a      1525     0    77     1     5
  7.7334758301280088E-02 a      1526     0    77     1     6
  1.6127942722479242E-02 a      1527     0    77     1     7
  6.4338603390436580E-02 a      1528     0    77     1     8
 -1.8333928662056295E-01 a      1529     0    77     1     9
 -2.5254820144304030E-01 a      1530     0    77     1    10
  6.3377457850418692E-02 a      1531     0    77     1    11
 -1.5924630381938137E-01 a      1532     0    77     1    12
 -3.0479297744530613E-02 a      1533     0    77     1    13
  1.4099845003831529E-01 a      1534     0    77     1    14
 -7.3259087943419773E-02 a      1535     0    77     1    15
 -6.0912977600965507E-02 a      1536     0    77     1    16
 -1.3759406374683447E-01 a      1537     0    77     1    17
 -5.7521332421987051E-02 a      1538     0    77     1    18
 -5.2365465449198872E-02 a      1539     0    77     1    19
 -5.1694730090691268E-02 a      1540     0    77     1    20
 -2.2151957061558389E-01 a      1541     0    78     1     1
 -4.1970662122030211E-02 a      1542     0    78     1     2
  1.2886598890125689E-01 a      1543     0    78     1     3
 -3.0295308517320443E-02 a      1544     0    78     1     4
  6.6803391953505528E-02 a      1545     0    78     1     5
 -5.2600162252340689E-02 a      1546     0    78     1     6
  6.7495201232255039E-02 a      1547     0    78     1     7
 -1.6007557926129859E-01 a      1548     0    78     1     8
 -6.5297645798618770E-02 a      1549     0    78     1     9
 -7.1291815752520749E-02 a      1550     0    78     1    10
 -2.0021431668025014E-01 a      1551     0    78     1    11
 -1.1361859927753339E-01 a      1552     0    78     1    12
 -5.0592338697001790E-02 a      1553     0    78     1    13
 -4.6778713105371718E-02 a      1554     0    78     1    14
 -4.1108211865616882E-02 a      1555     0    78     1    15
 -1.3542538516864094E-01 a      1556     0    78     1    16
  8.8770641127263239E-02 a      1557     0    78     1    17
 -2.3788867082795505E-02 a      1558     0    78     1    18
  4.5132135697881944E-02 a      1559     0    78     1    19
  2.2881382848930701E-01 a      1560     0    78     1    20
  2.2009528509282186E-02 a      1561     0    79     1     1
 -9.9529692123104446E-02 a      1562     0    79     1     2
 -6.2167204101972753E-02 a      1563     0    79     1     3
 -1.0465954698572567E-01 a      1564     0    79     1     4
  2.0105511164711834E-01 a      1565     0    79     1     5
  7.7608845424444170E-02 a      1566     0    79     1     6
  5.3104348226709730E-02 a      1567     0    79     1     7
 -3.3291432667057648E-02 a      1568     0    79     1     8
  1.5214040468072493E-01 a      1569     0    79     1     9
  1.3317903553092930E-01 a      1570     0    79     1    10
  1.2269241613964033E-01 a      1571     0    79     1    11
 -1.9770947022567389E-01 a      1572     0    79     1    12
  2.4236010762777319E-01 a      1573     0    79     1    13
  2.5534263696344869E-02 a      1574     0    79     1    14
 -1.5119005264719029E-01 a      1575     0    79     1    15
 -4.5456338568476929E-03 a      1576     0    79     1    16
 -9.1176747866225538E-02 a      1577     0    79     1    17
 -5.4471984692981939E-04 a      1578     0    79     1    18
 -3.6917565991071849E-02 a      1579     0    79     1    19
 -1.0027102285575928E-01 a      1580     0    79     1    20
 -2.1436227454023776E-01 a      1581     0    80     1     1
 -5.4435152260278209E-03 a      1582     0    80     1     2
 -7.6999497655110063E-02 a      1583     0    80     1     3
 -1.3642909514732904E-01 a      1584     0    80     1     4
  7.2367079424921543E-02 a      1585     0    80     1     5
  1.7726760154883160E-02 a      1586     0    80     1     6
 -3.1033444753108048E-02 a      1587     0    80     1     7
 -1.1228958672723268E-02 a      1588     0    80     1     8
  7.7308323190762709E-02 a      1589     0    80     1     9
 -4.2622782447653378E-03 a      1590     0    80     1    10
 -6.7448826763923470E-02 a      1591     0    80     1    11
 -7.1499120580323816E-02 a      1592     0    80     1    12
  1.6859988656654751E-01 a      1593     0    80     1    13
  1.4879577350980500E-01 a      1594     0    80     1    14
 -3.1702287520115557E-01 a      1595     0    80     1    15
  2.9255837317077510E-02 a      1596     0    80     1    16
 -2.0066204433144336E-01 a      1597     0    80     1    17
  4.6591922940016468E-02 a      1598     0    80     1    18
  3.9604412060691548E-02 a      1599     0    80     1    19
  9.7337441113080986E-02 a      1600     0    80     1    20
 -1.4907254260997167E-02 a      1601     0    81     1     1
  9.2046410334969145E-02 a      1602     0    81     1     2
  2.2194032758513452E-01 a      1603     0    81     1     3
 -1.2149461869122526E-01 a      1604     0    81     1     4
  1.6351673360929225E-01 a      1605     0    81     1     5
 -1.4599519716582871E-01 a      1606     0    81     1     6
 -5.3662471308029300E-02 a      1607     0    81     1     7
 -2.7568407399016382E-02 a      1608     0    81     1     8
 -2.6018551927013264E-03 a      1609     0    81     1     9
 -1.8236515799337949E-01 a      1610     0    81     1    10
 -1.0125068771680854E-01 a      1611     0    81     1    11
 -1.1942870871612369E-02 a      1612     0    81     1    12
 -2.0355725521580265E-01 a      1613     0    81     1    13
  2.3484327558003534E-01 a      1614     0    81     1    14
 -7.3459644284699060E-02 a      1615     0    81     1    15
 -1.9649896334762934E-01 a      1616     0    81     1    16
 -1.3506724736375492E-01 a      1617     0    81     1    17
 -1.5130041734137251E-01 a      1618     0    81     1    18
 -6.1709673491604375E-02 a      1619     0    81     1    19
  4.3007386150297151E-02 a      1620     0    81     1    20
  3.5752507613010198E-01 a      1621     0    82     1     1
  6.8702408494609082E-02 a      1622     0    82     1     2
  6.0423458319970799E-02 a      1623     0    82     1     3
