################################################################################
# Neural network connection values (weights and biases).
################################################################################
# Col  Name       Description
################################################################################
# 1    connection Neural network connection value.
# 2    t          Connection type (a = weight, b = bias).
# 3    index      Index enumerating weights.
# 4    l_s        Starting point layer (end point layer for biases).
# 5    n_s        Starting point neuron in starting layer (end point neuron for biases).
# 6    l_e        End point layer.
# 7    n_e        End point neuron in end layer.
################################################################################
#                      1 2         3     4     5     6     7
#             connection t     index   l_s   n_s   l_e   n_e
############################################################
 -6.5224887037130863E-02 a         1     0     1     1     1
  1.6729349379199526E-01 a         2     0     1     1     2
  1.7922183556232044E-01 a         3     0     1     1     3
  5.5037752979543497E-02 a         4     0     1     1     4
  1.7915522766071434E-01 a         5     0     1     1     5
  2.1920510113831274E-01 a         6     0     1     1     6
 -4.3457807450649075E-02 a         7     0     1     1     7
 -5.3856702344834096E-03 a         8     0     1     1     8
  2.8663941008719973E-01 a         9     0     1     1     9
 -7.3584315049340585E-02 a        10     0     1     1    10
  1.2333530426753609E-02 a        11     0     1     1    11
 -6.0056584812544257E-02 a        12     0     1     1    12
 -1.1715943762446471E-01 a        13     0     1     1    13
  2.3269365090884779E-02 a        14     0     1     1    14
 -7.0934378720049235E-02 a        15     0     1     1    15
 -1.7166450269200056E-01 a        16     0     1     1    16
  7.4549576927700936E-02 a        17     0     1     1    17
 -1.5346061104691357E-02 a        18     0     1     1    18
  2.5679275901676017E-03 a        19     0     1     1    19
 -1.4399835352892790E-01 a        20     0     1     1    20
 -1.4640652664372170E-01 a        21     0     2     1     1
 -5.9748524509936715E-02 a        22     0     2     1     2
  4.1713243997616917E-02 a        23     0     2     1     3
  3.8068613307429326E-02 a        24     0     2     1     4
 -3.5658810940804156E-02 a        25     0     2     1     5
  3.5671280254652993E-02 a        26     0     2     1     6
 -5.7265777377695927E-02 a        27     0     2     1     7
  5.1603868415157607E-02 a        28     0     2     1     8
 -4.1216936975235499E-02 a        29     0     2     1     9
  2.3496027750130880E-02 a        30     0     2     1    10
 -3.3656613386342606E-02 a        31     0     2     1    11
  1.4436913701422222E-01 a        32     0     2     1    12
 -2.6099620469517953E-01 a        33     0     2     1    13
 -5.6891358717915660E-02 a        34     0     2     1    14
  5.2820098463542790E-02 a        35     0     2     1    15
 -2.2078186113978610E-01 a        36     0     2     1    16
  4.4675768273928072E-02 a        37     0     2     1    17
 -6.0514375044299608E-02 a        38     0     2     1    18
 -2.2736808494190419E-01 a        39     0     2     1    19
 -1.0944941713382252E-01 a        40     0     2     1    20
  1.0342881254958351E-01 a        41     0     3     1     1
 -3.0561251067466887E-02 a        42     0     3     1     2
  1.3287208567778144E-01 a        43     0     3     1     3
 -6.7879300093821843E-02 a        44     0     3     1     4
 -1.5334482233114122E-01 a        45     0     3     1     5
  1.0237961249409988E-02 a        46     0     3     1     6
  1.2776251672604599E-01 a        47     0     3     1     7
  1.0755692960591010E-01 a        48     0     3     1     8
  1.6924511267134384E-01 a        49     0     3     1     9
 -4.8521034177048110E-02 a        50     0     3     1    10
  1.2640018048900881E-01 a        51     0     3     1    11
 -1.1436191748567294E-01 a        52     0     3     1    12
  5.6181749873631791E-03 a        53     0     3     1    13
 -1.5652568688711768E-01 a        54     0     3     1    14
  3.6727837799696871E-02 a        55     0     3     1    15
 -3.0011820527929927E-02 a        56     0     3     1    16
  1.4025279143030511E-01 a        57     0     3     1    17
 -1.1003230671248619E-01 a        58     0     3     1    18
  1.4827627852324216E-01 a        59     0     3     1    19
 -9.3400061963180833E-02 a        60     0     3     1    20
 -1.2693311206151661E-01 a        61     0     4     1     1
  1.0842270823790490E-01 a        62     0     4     1     2
 -1.4018437736920317E-01 a        63     0     4     1     3
  1.2496950794724258E-01 a        64     0     4     1     4
 -1.8069966550695490E-01 a        65     0     4     1     5
  9.8853423049815078E-02 a        66     0     4     1     6
 -4.6564656869012074E-02 a        67     0     4     1     7
 -4.7263449757697404E-02 a        68     0     4     1     8
  4.0536680425232677E-03 a        69     0     4     1     9
  1.8809944283002814E-02 a        70     0     4     1    10
 -3.5804805992572721E-02 a        71     0     4     1    11
  6.0724058395660599E-02 a        72     0     4     1    12
  2.5149481140934804E-01 a        73     0     4     1    13
  1.0130774265047855E-01 a        74     0     4     1    14
  6.9077091988640246E-02 a        75     0     4     1    15
  1.2255020793421337E-01 a        76     0     4     1    16
  6.9294413474235941E-02 a        77     0     4     1    17
  2.6948538756522200E-01 a        78     0     4     1    18
  6.5569701322380089E-02 a        79     0     4     1    19
  8.2559610137509704E-02 a        80     0     4     1    20
 -3.5228366964705604E-02 a        81     0     5     1     1
 -6.2253061568747346E-02 a        82     0     5     1     2
  1.6801099840282713E-01 a        83     0     5     1     3
 -7.5043644026803941E-02 a        84     0     5     1     4
  4.2864371909464970E-03 a        85     0     5     1     5
  9.3343692310313697E-02 a        86     0     5     1     6
 -1.4007411700781811E-01 a        87     0     5     1     7
 -2.0047186517972427E-02 a        88     0     5     1     8
 -1.2348971035652559E-02 a        89     0     5     1     9
 -1.2874377756237719E-02 a        90     0     5     1    10
 -5.6164604195465685E-02 a        91     0     5     1    11
 -1.6478779947436062E-01 a        92     0     5     1    12
  2.2984224859124845E-02 a        93     0     5     1    13
 -9.2960689777685498E-02 a        94     0     5     1    14
  7.6774878207695263E-03 a        95     0     5     1    15
  9.5767974519341881E-02 a        96     0     5     1    16
  2.9091796506059541E-02 a        97     0     5     1    17
  5.5416841040282577E-02 a        98     0     5     1    18
  1.6343189287834786E-01 a        99     0     5     1    19
 -1.2781111736069616E-02 a       100     0     5     1    20
  1.7724828282535385E-02 a       101     0     6     1     1
  1.2343600702463761E-01 a       102     0     6     1     2
  3.9319984727370895E-02 a       103     0     6     1     3
  1.5030064841771240E-01 a       104     0     6     1     4
 -8.8778264654351624E-02 a       105     0     6     1     5
  7.4714624779468039E-02 a       106     0     6     1     6
 -1.5431627303196513E-01 a       107     0     6     1     7
  1.0604247129348003E-01 a       108     0     6     1     8
 -1.3006706985221619E-01 a       109     0     6     1     9
  3.0580153944124572E-01 a       110     0     6     1    10
 -1.4462548200184999E-01 a       111     0     6     1    11
  1.2482380407935313E-01 a       112     0     6     1    12
 -2.0938545212875434E-01 a       113     0     6     1    13
 -3.4457411775993201E-02 a       114     0     6     1    14
 -2.2740714269646234E-01 a       115     0     6     1    15
 -9.6074522014448716E-02 a       116     0     6     1    16
 -1.2186278062034755E-01 a       117     0     6     1    17
  9.8413036320557007E-02 a       118     0     6     1    18
 -8.7561498752217803E-02 a       119     0     6     1    19
  2.1004385149001140E-01 a       120     0     6     1    20
 -2.3468506411682868E-02 a       121     0     7     1     1
 -7.8938820327209586E-02 a       122     0     7     1     2
  8.8826638101004080E-02 a       123     0     7     1     3
  8.5036275306763637E-02 a       124     0     7     1     4
 -4.2188911689703068E-02 a       125     0     7     1     5
 -1.7151762371660229E-01 a       126     0     7     1     6
 -1.9576608368882004E-02 a       127     0     7     1     7
 -4.2080009491320264E-02 a       128     0     7     1     8
  1.1203880625862420E-01 a       129     0     7     1     9
  1.2181969642648720E-01 a       130     0     7     1    10
  2.9236231175069277E-01 a       131     0     7     1    11
  1.0499616028935670E-01 a       132     0     7     1    12
 -7.2959476100538628E-02 a       133     0     7     1    13
  1.6520322298121426E-01 a       134     0     7     1    14
  4.8493664485766384E-02 a       135     0     7     1    15
 -3.7814154005629166E-02 a       136     0     7     1    16
 -3.1973194327914178E-02 a       137     0     7     1    17
  1.6080318398253438E-01 a       138     0     7     1    18
  1.3073630376663389E-01 a       139     0     7     1    19
  1.0387551686838306E-01 a       140     0     7     1    20
  8.4886338209329282E-03 a       141     0     8     1     1
 -2.1709747769331787E-02 a       142     0     8     1     2
  8.7220812438746881E-02 a       143     0     8     1     3
 -5.2006718477806010E-02 a       144     0     8     1     4
 -5.5520019119353205E-02 a       145     0     8     1     5
  2.1189559258518061E-02 a       146     0     8     1     6
 -4.6965993336624138E-04 a       147     0     8     1     7
 -1.6888127265415279E-01 a       148     0     8     1     8
 -7.6175899347221673E-02 a       149     0     8     1     9
 -3.9158981687072519E-02 a       150     0     8     1    10
 -1.0782547156191916E-01 a       151     0     8     1    11
  9.7085622528695126E-02 a       152     0     8     1    12
  1.5519089392253563E-01 a       153     0     8     1    13
  3.9004701083788652E-02 a       154     0     8     1    14
 -6.9925843559508885E-02 a       155     0     8     1    15
  1.1700411163496810E-01 a       156     0     8     1    16
 -7.8494828051408824E-02 a       157     0     8     1    17
  1.9973725927052907E-01 a       158     0     8     1    18
  5.0657097858013089E-02 a       159     0     8     1    19
  2.3821513349705437E-01 a       160     0     8     1    20
  1.6584038404573720E-01 a       161     0     9     1     1
 -4.8658891965715018E-02 a       162     0     9     1     2
 -5.0764827064517057E-02 a       163     0     9     1     3
 -5.0317646786074720E-02 a       164     0     9     1     4
 -1.8947578640884671E-02 a       165     0     9     1     5
  3.5203164043460744E-02 a       166     0     9     1     6
  9.9377405285658416E-02 a       167     0     9     1     7
  1.4481989019613770E-01 a       168     0     9     1     8
  7.6933139001883269E-02 a       169     0     9     1     9
  4.0424662669919405E-02 a       170     0     9     1    10
  1.9272458786847285E-01 a       171     0     9     1    11
 -3.2416787061295638E-02 a       172     0     9     1    12
 -1.2941333465435345E-01 a       173     0     9     1    13
 -1.3889606704594995E-01 a       174     0     9     1    14
 -3.6895372528462825E-02 a       175     0     9     1    15
  1.1741646645001888E-01 a       176     0     9     1    16
  1.0449002538834389E-01 a       177     0     9     1    17
  1.1914649798252460E-02 a       178     0     9     1    18
 -1.8437800223185147E-01 a       179     0     9     1    19
  1.6352244683366179E-01 a       180     0     9     1    20
 -9.0564322137131864E-02 a       181     0    10     1     1
  7.5687186289698866E-02 a       182     0    10     1     2
  1.2993690605889655E-01 a       183     0    10     1     3
  1.1084105174574013E-01 a       184     0    10     1     4
 -2.3265844036906166E-01 a       185     0    10     1     5
 -1.2664138384624815E-01 a       186     0    10     1     6
  4.3479405028960812E-02 a       187     0    10     1     7
  8.3229836629361120E-02 a       188     0    10     1     8
 -1.3890450204196386E-01 a       189     0    10     1     9
 -2.8694524763407760E-02 a       190     0    10     1    10
  3.7395947475139878E-02 a       191     0    10     1    11
  1.0090214028670670E-01 a       192     0    10     1    12
  1.4151494257905101E-01 a       193     0    10     1    13
 -1.5030634341358209E-01 a       194     0    10     1    14
 -2.2138861052756512E-01 a       195     0    10     1    15
  1.6853651721084845E-02 a       196     0    10     1    16
  2.1945702599243073E-02 a       197     0    10     1    17
 -1.0662255056753056E-01 a       198     0    10     1    18
 -4.6001699641956030E-02 a       199     0    10     1    19
  2.7318921437968741E-02 a       200     0    10     1    20
 -2.6147269960415814E-01 a       201     0    11     1     1
 -9.9900836946461666E-02 a       202     0    11     1     2
 -3.1237498647635847E-01 a       203     0    11     1     3
 -1.6160339802442558E-01 a       204     0    11     1     4
 -5.8077312911381157E-02 a       205     0    11     1     5
 -1.7052957501186655E-01 a       206     0    11     1     6
 -6.8347510412638729E-02 a       207     0    11     1     7
 -1.3748147800429161E-01 a       208     0    11     1     8
 -2.5052145084158550E-01 a       209     0    11     1     9
 -1.9204021068535143E-01 a       210     0    11     1    10
 -6.4246206568987066E-02 a       211     0    11     1    11
  1.5726917640989191E-01 a       212     0    11     1    12
  1.3160441695425301E-01 a       213     0    11     1    13
  1.9520225401503641E-01 a       214     0    11     1    14
  9.8294689367451851E-02 a       215     0    11     1    15
  1.6351354983826791E-01 a       216     0    11     1    16
  1.4580287525106542E-01 a       217     0    11     1    17
  3.8197107505936786E-02 a       218     0    11     1    18
  2.6907539090101563E-02 a       219     0    11     1    19
 -6.8061125196152816E-02 a       220     0    11     1    20
  6.6053055366050772E-02 a       221     0    12     1     1
 -8.5368439918914019E-02 a       222     0    12     1     2
 -1.0353344168146243E-01 a       223     0    12     1     3
  6.4605301963841483E-02 a       224     0    12     1     4
  1.3365908534201426E-01 a       225     0    12     1     5
  3.4948560007201625E-02 a       226     0    12     1     6
  1.5609192479067149E-01 a       227     0    12     1     7
  1.0395594065520726E-01 a       228     0    12     1     8
 -2.6267715337395192E-02 a       229     0    12     1     9
 -4.9575147699859774E-02 a       230     0    12     1    10
 -1.1372904864395145E-01 a       231     0    12     1    11
 -1.4470895144745216E-01 a       232     0    12     1    12
  1.0698365072887658E-01 a       233     0    12     1    13
 -4.8533362162135531E-02 a       234     0    12     1    14
 -8.4105316429423316E-02 a       235     0    12     1    15
 -6.5196839852459370E-04 a       236     0    12     1    16
  1.2555753885989851E-01 a       237     0    12     1    17
 -1.3541884073960461E-01 a       238     0    12     1    18
 -2.3884128290638182E-01 a       239     0    12     1    19
 -1.7991691645407301E-01 a       240     0    12     1    20
  1.4046943431356717E-02 a       241     0    13     1     1
 -1.4499655106774076E-01 a       242     0    13     1     2
 -3.0663337669544688E-01 a       243     0    13     1     3
 -2.7607002319370844E-01 a       244     0    13     1     4
  1.5222153826262463E-01 a       245     0    13     1     5
 -1.6971575913058443E-01 a       246     0    13     1     6
 -2.0188198684566822E-01 a       247     0    13     1     7
  1.5355559394270789E-02 a       248     0    13     1     8
  5.0184764581107391E-02 a       249     0    13     1     9
 -2.9310734428367700E-02 a       250     0    13     1    10
 -9.1456518598253492E-03 a       251     0    13     1    11
 -1.2210488146808771E-01 a       252     0    13     1    12
  4.1402670550972683E-03 a       253     0    13     1    13
 -1.3508281786215331E-01 a       254     0    13     1    14
  1.0781782952181360E-01 a       255     0    13     1    15
 -7.0288477980583783E-02 a       256     0    13     1    16
  4.5608442959901033E-02 a       257     0    13     1    17
  1.6294149336157782E-01 a       258     0    13     1    18
  1.0446015665658859E-02 a       259     0    13     1    19
  2.2878851898331057E-01 a       260     0    13     1    20
 -3.8422066647530943E-02 a       261     0    14     1     1
 -9.9380385535371235E-02 a       262     0    14     1     2
 -1.2004253601449442E-02 a       263     0    14     1     3
  8.0698608233061658E-02 a       264     0    14     1     4
 -1.4023354778597844E-01 a       265     0    14     1     5
 -1.4533612747831517E-01 a       266     0    14     1     6
 -2.2257895494382293E-01 a       267     0    14     1     7
 -9.6739317625028354E-03 a       268     0    14     1     8
 -9.2203069637011276E-02 a       269     0    14     1     9
 -4.1158833495025131E-02 a       270     0    14     1    10
 -9.3856363024694592E-02 a       271     0    14     1    11
 -4.5814344815544104E-02 a       272     0    14     1    12
  1.7337353153760604E-01 a       273     0    14     1    13
 -6.5226672664931623E-02 a       274     0    14     1    14
  4.0769490958484207E-02 a       275     0    14     1    15
 -5.6785195488743404E-02 a       276     0    14     1    16
 -1.3570283013246258E-03 a       277     0    14     1    17
 -1.3830170067280950E-01 a       278     0    14     1    18
 -1.7798562805791856E-03 a       279     0    14     1    19
  7.4432905160065038E-02 a       280     0    14     1    20
  2.3776102188485673E-01 a       281     0    15     1     1
  9.3905853000989456E-02 a       282     0    15     1     2
 -1.3853098109078235E-01 a       283     0    15     1     3
 -1.1581223633298315E-02 a       284     0    15     1     4
  1.6593232567569124E-01 a       285     0    15     1     5
  4.7483746868045587E-02 a       286     0    15     1     6
 -1.3807634504948962E-01 a       287     0    15     1     7
 -4.6101749331752290E-02 a       288     0    15     1     8
  8.3422451581417756E-02 a       289     0    15     1     9
 -6.9750834629711794E-02 a       290     0    15     1    10
 -2.2911633570378741E-02 a       291     0    15     1    11
 -5.9946747894368275E-02 a       292     0    15     1    12
  1.1074499042825775E-01 a       293     0    15     1    13
  3.2686365431662048E-02 a       294     0    15     1    14
  1.0278125775944551E-01 a       295     0    15     1    15
  4.8718564832407198E-02 a       296     0    15     1    16
 -9.9068503000453112E-02 a       297     0    15     1    17
  6.6896448353365764E-02 a       298     0    15     1    18
 -9.5229365938799396E-02 a       299     0    15     1    19
  1.1009589821607861E-01 a       300     0    15     1    20
 -2.4292956166563368E-02 a       301     0    16     1     1
 -1.0620858776058464E-01 a       302     0    16     1     2
  2.7561121603029766E-02 a       303     0    16     1     3
  4.0740737005374283E-01 a       304     0    16     1     4
  2.1830133839693527E-01 a       305     0    16     1     5
  1.3794808820366737E-02 a       306     0    16     1     6
  5.0137168263758733E-02 a       307     0    16     1     7
 -1.5108514356944183E-01 a       308     0    16     1     8
 -1.1390955153397329E-01 a       309     0    16     1     9
 -1.9463413523429995E-01 a       310     0    16     1    10
  6.6179925214677957E-02 a       311     0    16     1    11
 -1.0187153203250458E-01 a       312     0    16     1    12
  1.5887796213487342E-02 a       313     0    16     1    13
 -1.8825080749125419E-02 a       314     0    16     1    14
  1.2398026998606200E-01 a       315     0    16     1    15
  1.0416819092091673E-01 a       316     0    16     1    16
 -1.1114829638476217E-01 a       317     0    16     1    17
 -3.2030855807805833E-02 a       318     0    16     1    18
  2.4946121084771483E-01 a       319     0    16     1    19
  1.9560387658763098E-01 a       320     0    16     1    20
  2.6694014961508947E-02 a       321     0    17     1     1
 -1.8804326530302648E-01 a       322     0    17     1     2
  1.4074088428242648E-02 a       323     0    17     1     3
 -7.5050057663410719E-02 a       324     0    17     1     4
 -4.6640721316938992E-02 a       325     0    17     1     5
  5.9146787698709014E-02 a       326     0    17     1     6
 -1.6599262969279854E-02 a       327     0    17     1     7
  5.0471284025266253E-02 a       328     0    17     1     8
  4.4473249902681859E-02 a       329     0    17     1     9
  1.4858668266284419E-01 a       330     0    17     1    10
 -2.2881628361314163E-01 a       331     0    17     1    11
  2.1982337708310962E-01 a       332     0    17     1    12
 -1.7252254968950448E-01 a       333     0    17     1    13
 -1.4708815793583985E-01 a       334     0    17     1    14
  1.3171952782880994E-01 a       335     0    17     1    15
 -1.9114400977527299E-01 a       336     0    17     1    16
  1.5524310323113127E-01 a       337     0    17     1    17
 -1.9270774043388492E-01 a       338     0    17     1    18
 -1.0304789145593926E-01 a       339     0    17     1    19
  1.0517042815770061E-01 a       340     0    17     1    20
  1.5506437098124515E-01 a       341     0    18     1     1
 -1.5611736954936292E-01 a       342     0    18     1     2
  1.8356718528913279E-01 a       343     0    18     1     3
 -3.8166637250009017E-01 a       344     0    18     1     4
  2.0763525784486880E-01 a       345     0    18     1     5
 -1.7771121694465317E-01 a       346     0    18     1     6
  1.4527955875220527E-01 a       347     0    18     1     7
  2.0268187861379221E-02 a       348     0    18     1     8
  2.7602854699288842E-01 a       349     0    18     1     9
 -1.2386668480753715E-01 a       350     0    18     1    10
 -7.4785185654272279E-02 a       351     0    18     1    11
 -9.2113766252904156E-02 a       352     0    18     1    12
 -1.7529198508814205E-02 a       353     0    18     1    13
 -1.0241513917211180E-01 a       354     0    18     1    14
 -8.7165422050988026E-02 a       355     0    18     1    15
  1.4761930887000399E-01 a       356     0    18     1    16
  1.1456540636030026E-01 a       357     0    18     1    17
  5.7704960480265299E-02 a       358     0    18     1    18
  3.1904760097488072E-01 a       359     0    18     1    19
  3.0095941963560102E-01 a       360     0    18     1    20
 -5.5419664645730247E-03 a       361     0    19     1     1
  1.0525200682183532E-01 a       362     0    19     1     2
  2.0949054654782673E-01 a       363     0    19     1     3
 -5.6378157093939223E-02 a       364     0    19     1     4
 -8.7018099822411377E-02 a       365     0    19     1     5
 -2.4277029530134452E-02 a       366     0    19     1     6
  4.9378223770659216E-02 a       367     0    19     1     7
 -2.8419437100201193E-02 a       368     0    19     1     8
 -1.3875842537536376E-01 a       369     0    19     1     9
 -1.5611706387945276E-02 a       370     0    19     1    10
  1.2238848574650647E-01 a       371     0    19     1    11
 -9.3050679816551143E-02 a       372     0    19     1    12
 -2.5491691130286452E-02 a       373     0    19     1    13
  3.5374927505289512E-02 a       374     0    19     1    14
 -3.9357703154527253E-02 a       375     0    19     1    15
 -2.2618734700263873E-01 a       376     0    19     1    16
 -1.3407145074370250E-01 a       377     0    19     1    17
  1.7750549387852349E-01 a       378     0    19     1    18
 -1.5681384190388137E-01 a       379     0    19     1    19
 -7.8237492965469557E-02 a       380     0    19     1    20
 -1.8182860512015700E-01 a       381     0    20     1     1
 -2.4661431467176764E-01 a       382     0    20     1     2
 -5.1814372797174157E-02 a       383     0    20     1     3
 -3.0139805215411924E-01 a       384     0    20     1     4
 -1.9504577844063245E-01 a       385     0    20     1     5
 -1.2874764538481534E-01 a       386     0    20     1     6
  1.0555135598020787E-01 a       387     0    20     1     7
 -3.7273925699307153E-02 a       388     0    20     1     8
  2.8169456274779198E-01 a       389     0    20     1     9
  1.1907018614301462E-01 a       390     0    20     1    10
  1.6946764516320784E-01 a       391     0    20     1    11
  4.4576719685299020E-03 a       392     0    20     1    12
  8.0934428481778495E-02 a       393     0    20     1    13
  8.3216707709856369E-02 a       394     0    20     1    14
  6.0874584821566297E-02 a       395     0    20     1    15
 -1.2414806691765562E-01 a       396     0    20     1    16
  7.3495160211548213E-02 a       397     0    20     1    17
  1.5192977189137222E-01 a       398     0    20     1    18
  1.4079660679138253E-01 a       399     0    20     1    19
  1.6607925875670318E-01 a       400     0    20     1    20
 -9.4179523933656632E-03 a       401     0    21     1     1
  1.1146341102398696E-01 a       402     0    21     1     2
  2.6458954012794040E-02 a       403     0    21     1     3
  5.1236051399836446E-01 a       404     0    21     1     4
 -1.1109575068071994E-02 a       405     0    21     1     5
  2.9425671547984389E-01 a       406     0    21     1     6
  1.5194135082114726E-01 a       407     0    21     1     7
 -8.5078606399367998E-02 a       408     0    21     1     8
 -5.3523472821557405E-01 a       409     0    21     1     9
 -4.4297662099924813E-02 a       410     0    21     1    10
 -1.1444244837400858E-01 a       411     0    21     1    11
 -2.9246908072921182E-02 a       412     0    21     1    12
 -1.8096511334971935E-01 a       413     0    21     1    13
 -6.1231600652593941E-02 a       414     0    21     1    14
  1.5630392140627017E-01 a       415     0    21     1    15
 -2.9433274148299988E-03 a       416     0    21     1    16
 -3.1502628134368944E-02 a       417     0    21     1    17
  7.7577156683617005E-02 a       418     0    21     1    18
 -6.9992355461117900E-02 a       419     0    21     1    19
  1.5142518642021555E-01 a       420     0    21     1    20
  1.3950208239243586E-01 a       421     0    22     1     1
  6.3576854316503464E-02 a       422     0    22     1     2
 -7.5465126538213330E-03 a       423     0    22     1     3
 -7.1429411485560951E-02 a       424     0    22     1     4
 -3.6834019532252897E-02 a       425     0    22     1     5
 -1.1719430299677372E-01 a       426     0    22     1     6
 -1.6060191979563077E-01 a       427     0    22     1     7
 -5.6751971256353520E-02 a       428     0    22     1     8
  1.5273581486222840E-01 a       429     0    22     1     9
  4.0949355807163128E-02 a       430     0    22     1    10
  2.4881576253292265E-01 a       431     0    22     1    11
 -1.3412684555929308E-01 a       432     0    22     1    12
 -1.7164852127031244E-01 a       433     0    22     1    13
  8.6261320266405369E-03 a       434     0    22     1    14
  1.9707373099908562E-01 a       435     0    22     1    15
  2.4643547881591268E-01 a       436     0    22     1    16
  8.1710208252751756E-02 a       437     0    22     1    17
  5.9509393337394953E-02 a       438     0    22     1    18
 -2.4630610047844750E-01 a       439     0    22     1    19
 -2.2877110691125466E-01 a       440     0    22     1    20
 -1.7305330557065835E-02 a       441     0    23     1     1
 -2.1184767409094421E-01 a       442     0    23     1     2
  6.8580664695935753E-02 a       443     0    23     1     3
 -6.2542984838310367E-01 a       444     0    23     1     4
  1.5534572645545131E-01 a       445     0    23     1     5
  7.1266370944614334E-03 a       446     0    23     1     6
 -1.4648365649922801E-01 a       447     0    23     1     7
  1.0875184243451196E-02 a       448     0    23     1     8
  9.7835695138559248E-02 a       449     0    23     1     9
 -9.1496670139317185E-02 a       450     0    23     1    10
  2.3078234147108205E-03 a       451     0    23     1    11
  4.4109858960593780E-02 a       452     0    23     1    12
  2.3354820810577302E-02 a       453     0    23     1    13
 -2.0258978066310257E-01 a       454     0    23     1    14
 -1.4986748878044243E-01 a       455     0    23     1    15
  2.2467432896810616E-01 a       456     0    23     1    16
  2.0375170600853976E-01 a       457     0    23     1    17
  2.4006835860784342E-01 a       458     0    23     1    18
  1.4400444420013100E-01 a       459     0    23     1    19
  7.7988291680136337E-02 a       460     0    23     1    20
  1.7381210304197734E-02 a       461     0    24     1     1
 -1.2742071480217196E-01 a       462     0    24     1     2
  2.8407288473263081E-04 a       463     0    24     1     3
  2.0985402884511989E-01 a       464     0    24     1     4
 -2.3868081084646495E-01 a       465     0    24     1     5
 -4.2318423107866231E-02 a       466     0    24     1     6
  1.4435779840730167E-01 a       467     0    24     1     7
  1.2798640998014971E-01 a       468     0    24     1     8
  2.0874096794294719E-02 a       469     0    24     1     9
 -1.5034574434939892E-02 a       470     0    24     1    10
  1.4213375697706929E-01 a       471     0    24     1    11
  1.2827218338709057E-01 a       472     0    24     1    12
  5.3732470193903004E-03 a       473     0    24     1    13
  4.3231737147845277E-02 a       474     0    24     1    14
  1.2780171082364181E-02 a       475     0    24     1    15
 -4.0768036433119596E-02 a       476     0    24     1    16
  2.1084910394880446E-01 a       477     0    24     1    17
  1.8078428750933381E-01 a       478     0    24     1    18
  1.3030288568487003E-01 a       479     0    24     1    19
 -7.7184143183544524E-02 a       480     0    24     1    20
  9.6907351205774723E-03 a       481     0    25     1     1
 -1.9219118124455492E-01 a       482     0    25     1     2
  2.1893879770164454E-01 a       483     0    25     1     3
  6.1992198292699426E-02 a       484     0    25     1     4
  8.4066892039595137E-02 a       485     0    25     1     5
  7.2777521173015933E-02 a       486     0    25     1     6
 -1.0894515600902917E-01 a       487     0    25     1     7
  1.6333396358466173E-02 a       488     0    25     1     8
 -9.6518177825003104E-02 a       489     0    25     1     9
 -1.9827219204500729E-01 a       490     0    25     1    10
  1.1968920949176790E-01 a       491     0    25     1    11
  1.7891898728632977E-02 a       492     0    25     1    12
 -1.4145906831353186E-01 a       493     0    25     1    13
 -1.1370760754090421E-01 a       494     0    25     1    14
  1.5119769620848390E-02 a       495     0    25     1    15
  2.5181100882318494E-02 a       496     0    25     1    16
 -8.5862801450837675E-02 a       497     0    25     1    17
 -1.4143458127956284E-02 a       498     0    25     1    18
 -6.7484133207776969E-03 a       499     0    25     1    19
 -1.7173507032508933E-01 a       500     0    25     1    20
 -8.0082034678856190E-02 a       501     0    26     1     1
 -8.0521916684604247E-02 a       502     0    26     1     2
 -2.2662457750602449E-01 a       503     0    26     1     3
  5.3402682466233431E-01 a       504     0    26     1     4
 -1.8535578972996760E-02 a       505     0    26     1     5
 -1.0389912583827449E-01 a       506     0    26     1     6
  1.8485377037269424E-01 a       507     0    26     1     7
 -2.6243407402154739E-01 a       508     0    26     1     8
 -4.6363311363997090E-01 a       509     0    26     1     9
 -2.1803345447817754E-01 a       510     0    26     1    10
  1.3780027672423135E-02 a       511     0    26     1    11
 -7.1548208429034602E-02 a       512     0    26     1    12
  6.3108796131923106E-02 a       513     0    26     1    13
  1.9747862730097732E-01 a       514     0    26     1    14
  2.1658939357394835E-01 a       515     0    26     1    15
 -6.3013276481392613E-02 a       516     0    26     1    16
  1.5481476405578651E-02 a       517     0    26     1    17
  2.6470111281331027E-01 a       518     0    26     1    18
  2.6061497610665740E-01 a       519     0    26     1    19
  2.0269579695383785E-01 a       520     0    26     1    20
  1.5949005852266915E-01 a       521     0    27     1     1
  2.5020739482111469E-02 a       522     0    27     1     2
 -6.7035261640240262E-02 a       523     0    27     1     3
 -6.0921791238170597E-02 a       524     0    27     1     4
 -7.2251749622704142E-02 a       525     0    27     1     5
 -6.6624958091272956E-03 a       526     0    27     1     6
 -1.6847284987881350E-01 a       527     0    27     1     7
  2.3190242756549961E-02 a       528     0    27     1     8
  1.7416006810949618E-02 a       529     0    27     1     9
  7.0947128683883419E-04 a       530     0    27     1    10
 -8.2025940299001884E-02 a       531     0    27     1    11
  3.2054033823776279E-01 a       532     0    27     1    12
  1.0007219686286060E-02 a       533     0    27     1    13
  1.0248584522276402E-01 a       534     0    27     1    14
  1.8677750420792311E-01 a       535     0    27     1    15
 -4.8818931345315897E-02 a       536     0    27     1    16
  6.1025975009734619E-02 a       537     0    27     1    17
 -1.1394387303993067E-01 a       538     0    27     1    18
  7.2815341091144764E-02 a       539     0    27     1    19
  3.8267905343958054E-02 a       540     0    27     1    20
  3.2953982279150779E-02 a       541     0    28     1     1
 -3.6504966427667276E-02 a       542     0    28     1     2
  1.4514784567903175E-01 a       543     0    28     1     3
 -3.5017191910574302E-01 a       544     0    28     1     4
 -6.9444162668108447E-02 a       545     0    28     1     5
 -4.0399918308120411E-02 a       546     0    28     1     6
 -1.3397799342062405E-01 a       547     0    28     1     7
  6.2951883826575086E-02 a       548     0    28     1     8
  2.8198592467417904E-01 a       549     0    28     1     9
 -1.0931636526957461E-01 a       550     0    28     1    10
  1.5337792596662117E-01 a       551     0    28     1    11
 -2.2963449619669254E-02 a       552     0    28     1    12
 -2.2217929060160874E-01 a       553     0    28     1    13
 -1.6498916997314508E-01 a       554     0    28     1    14
 -1.4553155203295920E-01 a       555     0    28     1    15
  2.5007910113758436E-01 a       556     0    28     1    16
  2.8514013841309544E-02 a       557     0    28     1    17
  1.4823932254541847E-01 a       558     0    28     1    18
  2.2336017639267811E-01 a       559     0    28     1    19
  3.9079016218255498E-02 a       560     0    28     1    20
 -1.3092269736625706E-01 a       561     0    29     1     1
  6.5789788162419580E-02 a       562     0    29     1     2
 -2.4566559580328075E-02 a       563     0    29     1     3
  1.3368668554876950E-01 a       564     0    29     1     4
 -8.1590994544939593E-02 a       565     0    29     1     5
  9.2602618796575428E-02 a       566     0    29     1     6
 -1.3864207240199927E-01 a       567     0    29     1     7
 -1.1073364906960554E-02 a       568     0    29     1     8
 -1.2469791816900380E-01 a       569     0    29     1     9
  5.2509077703298171E-02 a       570     0    29     1    10
 -5.1545776903756411E-02 a       571     0    29     1    11
 -1.6563025306740736E-01 a       572     0    29     1    12
  2.8131658959509788E-02 a       573     0    29     1    13
 -2.1260427717808134E-02 a       574     0    29     1    14
  1.6021275439986910E-02 a       575     0    29     1    15
 -2.5940137480294223E-02 a       576     0    29     1    16
 -8.3159387023582623E-02 a       577     0    29     1    17
  4.6398014874690058E-02 a       578     0    29     1    18
 -1.5826360881712329E-01 a       579     0    29     1    19
 -1.3755536284364228E-01 a       580     0    29     1    20
  1.2523786801961337E-01 a       581     0    30     1     1
  4.7601332639945378E-02 a       582     0    30     1     2
 -1.1344158975589010E-01 a       583     0    30     1     3
 -2.4019307628169653E-01 a       584     0    30     1     4
  5.8910543215199479E-02 a       585     0    30     1     5
 -3.0176420524966073E-02 a       586     0    30     1     6
  1.6568180861070708E-01 a       587     0    30     1     7
 -1.8653853895455270E-02 a       588     0    30     1     8
  2.0489012258520795E-01 a       589     0    30     1     9
  5.9714525948335644E-02 a       590     0    30     1    10
 -1.0604796496816239E-01 a       591     0    30     1    11
  7.6424970739943879E-02 a       592     0    30     1    12
  7.4333106010709096E-02 a       593     0    30     1    13
 -2.4793002981881584E-02 a       594     0    30     1    14
 -1.4484253311219672E-01 a       595     0    30     1    15
  3.4068546123517028E-02 a       596     0    30     1    16
  3.3676910362841039E-02 a       597     0    30     1    17
  4.4237667839162755E-02 a       598     0    30     1    18
 -9.2755870093806841E-02 a       599     0    30     1    19
  8.6168524314077219E-02 a       600     0    30     1    20
  2.1075375702700760E-01 a       601     0    31     1     1
 -1.8003333224308169E-02 a       602     0    31     1     2
 -8.0061428233198298E-02 a       603     0    31     1     3
  1.1034479323091780E-01 a       604     0    31     1     4
 -3.1439300509296830E-01 a       605     0    31     1     5
  2.2247562976896734E-01 a       606     0    31     1     6
 -2.7662405082036094E-02 a       607     0    31     1     7
 -1.6035241028930874E-01 a       608     0    31     1     8
 -2.8806872745847184E-01 a       609     0    31     1     9
  6.0157634517499878E-02 a       610     0    31     1    10
 -8.6896514325631322E-02 a       611     0    31     1    11
 -9.9819310536432879E-02 a       612     0    31     1    12
  6.5863494327371916E-02 a       613     0    31     1    13
 -1.3805510985765349E-01 a       614     0    31     1    14
  2.7471154963129651E-01 a       615     0    31     1    15
  8.8572711826923750E-02 a       616     0    31     1    16
 -1.9785319894128107E-02 a       617     0    31     1    17
 -3.8640579654873393E-02 a       618     0    31     1    18
 -8.2748734587685474E-02 a       619     0    31     1    19
 -2.1379852709427283E-01 a       620     0    31     1    20
 -3.8921225807438863E-02 a       621     0    32     1     1
 -1.5562836313062817E-01 a       622     0    32     1     2
  1.0617264560316227E-02 a       623     0    32     1     3
 -3.7710799902170467E-02 a       624     0    32     1     4
 -1.9733669649354676E-02 a       625     0    32     1     5
  8.8698171208966795E-02 a       626     0    32     1     6
 -5.3419678157903445E-02 a       627     0    32     1     7
 -1.1550971986129804E-01 a       628     0    32     1     8
 -1.4341468287703446E-01 a       629     0    32     1     9
 -1.9379017406895738E-01 a       630     0    32     1    10
  2.6338018382489184E-02 a       631     0    32     1    11
 -1.1110918626832038E-01 a       632     0    32     1    12
  1.3149704309543259E-01 a       633     0    32     1    13
 -1.5846268386258511E-01 a       634     0    32     1    14
 -1.7909416448098478E-01 a       635     0    32     1    15
  1.8545935595795812E-01 a       636     0    32     1    16
  1.2709053492770980E-01 a       637     0    32     1    17
  1.9418039850723540E-01 a       638     0    32     1    18
 -2.8130320108209747E-02 a       639     0    32     1    19
  7.8176313605632635E-03 a       640     0    32     1    20
 -1.0771258405273074E-01 a       641     0    33     1     1
 -2.3162280660442482E-02 a       642     0    33     1     2
  2.0082507355038459E-01 a       643     0    33     1     3
 -3.2378415852710063E-01 a       644     0    33     1     4
 -1.3649565766235042E-01 a       645     0    33     1     5
  2.0266394648891701E-02 a       646     0    33     1     6
  8.8434155942972853E-02 a       647     0    33     1     7
  2.5671393418177365E-02 a       648     0    33     1     8
  1.6795816171489203E-01 a       649     0    33     1     9
  5.5716124346644483E-02 a       650     0    33     1    10
  1.1596218228103433E-01 a       651     0    33     1    11
 -1.8697078371793425E-02 a       652     0    33     1    12
  1.7295466379703162E-01 a       653     0    33     1    13
 -9.0865023824858185E-02 a       654     0    33     1    14
 -9.3846474245812272E-02 a       655     0    33     1    15
  1.5106397457070805E-01 a       656     0    33     1    16
  1.7053583428231306E-01 a       657     0    33     1    17
 -1.0199878186218155E-01 a       658     0    33     1    18
  2.6769731368378274E-01 a       659     0    33     1    19
  1.2114250234917717E-01 a       660     0    33     1    20
  1.2844143507892591E-01 a       661     0    34     1     1
 -1.0821040416947733E-01 a       662     0    34     1     2
 -2.5068678300321581E-02 a       663     0    34     1     3
 -3.7392187990315517E-02 a       664     0    34     1     4
 -5.9215236179725253E-02 a       665     0    34     1     5
  3.6634171441606495E-02 a       666     0    34     1     6
  1.3952852402775526E-01 a       667     0    34     1     7
 -2.6549774979427208E-02 a       668     0    34     1     8
  1.7647973697999184E-02 a       669     0    34     1     9
  3.7354241377665832E-02 a       670     0    34     1    10
  1.7575752336800612E-01 a       671     0    34     1    11
  8.9255725039138034E-02 a       672     0    34     1    12
 -8.6208726661963886E-02 a       673     0    34     1    13
  2.0880693921739618E-01 a       674     0    34     1    14
  1.3237518682058180E-01 a       675     0    34     1    15
 -1.5118500120960793E-01 a       676     0    34     1    16
 -2.4822831391771910E-02 a       677     0    34     1    17
  5.7167772705835071E-03 a       678     0    34     1    18
  7.3445952661740956E-03 a       679     0    34     1    19
  2.7825135185252085E-02 a       680     0    34     1    20
 -1.2651965737511001E-01 a       681     0    35     1     1
  1.8117301616187936E-02 a       682     0    35     1     2
  6.5608120240104761E-02 a       683     0    35     1     3
 -1.2424594003658707E-01 a       684     0    35     1     4
 -6.1931542404303911E-03 a       685     0    35     1     5
 -9.6013501595583500E-02 a       686     0    35     1     6
  1.2727958948356728E-02 a       687     0    35     1     7
 -4.7016473015900201E-02 a       688     0    35     1     8
 -2.3532896313272364E-02 a       689     0    35     1     9
 -7.9868351772228785E-02 a       690     0    35     1    10
 -1.7384558868755248E-01 a       691     0    35     1    11
  2.6599238260433797E-02 a       692     0    35     1    12
 -2.0775745900571657E-01 a       693     0    35     1    13
 -5.4415081168410276E-02 a       694     0    35     1    14
  4.8064803838964179E-02 a       695     0    35     1    15
  9.6566236904150171E-02 a       696     0    35     1    16
 -1.3174903860015550E-02 a       697     0    35     1    17
 -8.9798878051634543E-02 a       698     0    35     1    18
  1.4138834690319468E-01 a       699     0    35     1    19
 -1.7334024140687743E-01 a       700     0    35     1    20
 -1.1700426803618871E-01 a       701     0    36     1     1
 -5.4325066680388542E-02 a       702     0    36     1     2
 -8.9281235602646031E-02 a       703     0    36     1     3
  3.1664605702801740E-01 a       704     0    36     1     4
  1.2902653096165217E-01 a       705     0    36     1     5
 -1.8231770104441745E-02 a       706     0    36     1     6
  1.0223090735016817E-01 a       707     0    36     1     7
 -1.4885278974061814E-01 a       708     0    36     1     8
 -7.0598656719735392E-02 a       709     0    36     1     9
 -7.7052454067762866E-03 a       710     0    36     1    10
  2.8104874783463338E-02 a       711     0    36     1    11
  6.4763161577155476E-02 a       712     0    36     1    12
 -1.3443745096195781E-02 a       713     0    36     1    13
  1.6245082379923076E-01 a       714     0    36     1    14
 -3.0798023303241811E-02 a       715     0    36     1    15
 -2.1147970482446579E-01 a       716     0    36     1    16
 -1.1924258277646023E-01 a       717     0    36     1    17
 -9.7047755626182716E-02 a       718     0    36     1    18
  6.0138251257676190E-02 a       719     0    36     1    19
 -5.5240970701871374E-02 a       720     0    36     1    20
 -7.6687006250471604E-02 a       721     0    37     1     1
  2.8866520008928972E-02 a       722     0    37     1     2
  1.5376741271212044E-01 a       723     0    37     1     3
  6.9896359039038078E-03 a       724     0    37     1     4
 -9.0575906870307595E-03 a       725     0    37     1     5
  1.4926010907435569E-02 a       726     0    37     1     6
  4.6457759685816662E-02 a       727     0    37     1     7
  2.9619527014216048E-02 a       728     0    37     1     8
 -1.0059939676569211E-01 a       729     0    37     1     9
  1.7929375447839521E-01 a       730     0    37     1    10
  2.0794700423059156E-01 a       731     0    37     1    11
 -2.6488030412809803E-02 a       732     0    37     1    12
 -2.0483580242099991E-01 a       733     0    37     1    13
 -1.0774052169840939E-02 a       734     0    37     1    14
  6.8763393244260049E-02 a       735     0    37     1    15
 -1.7072832562115717E-01 a       736     0    37     1    16
 -7.2819552995527587E-02 a       737     0    37     1    17
 -4.0653159001052222E-02 a       738     0    37     1    18
  2.5689490348698063E-01 a       739     0    37     1    19
  3.8872876200542028E-02 a       740     0    37     1    20
  1.3512777898990896E-01 a       741     0    38     1     1
 -1.8781230722538794E-01 a       742     0    38     1     2
 -2.5686346749400211E-02 a       743     0    38     1     3
 -1.2291468647062810E-01 a       744     0    38     1     4
  2.7022942080246016E-02 a       745     0    38     1     5
 -3.6183994437955710E-02 a       746     0    38     1     6
 -2.2153675995623989E-01 a       747     0    38     1     7
  1.1451968377132399E-01 a       748     0    38     1     8
  1.4807412103051687E-01 a       749     0    38     1     9
 -1.6906779262492758E-01 a       750     0    38     1    10
  8.6400577026260264E-02 a       751     0    38     1    11
 -5.3511478520920600E-02 a       752     0    38     1    12
  2.9166983861198537E-03 a       753     0    38     1    13
 -1.1401186736626490E-01 a       754     0    38     1    14
 -1.5356294675900647E-01 a       755     0    38     1    15
  1.6513739087444401E-01 a       756     0    38     1    16
  7.9817240595776690E-02 a       757     0    38     1    17
  9.4145153880165006E-02 a       758     0    38     1    18
  1.1215296550291970E-01 a       759     0    38     1    19
  9.1775679165983365E-02 a       760     0    38     1    20
 -5.1055373305487012E-02 a       761     0    39     1     1
 -6.2140329458369559E-02 a       762     0    39     1     2
 -6.4799398696228777E-02 a       763     0    39     1     3
  3.0051967054316353E-01 a       764     0    39     1     4
 -1.9374410945026802E-01 a       765     0    39     1     5
  9.6669928540536729E-02 a       766     0    39     1     6
 -3.7473936618687862E-03 a       767     0    39     1     7
  8.9719956486016814E-02 a       768     0    39     1     8
 -4.8309387202934401E-02 a       769     0    39     1     9
 -8.8264062274375030E-03 a       770     0    39     1    10
  1.8595741659372672E-01 a       771     0    39     1    11
 -9.2376502639728075E-02 a       772     0    39     1    12
  1.4936633679602770E-01 a       773     0    39     1    13
  1.0005823791824321E-01 a       774     0    39     1    14
  7.4143318511020462E-02 a       775     0    39     1    15
 -1.1216351594809880E-03 a       776     0    39     1    16
  1.2462756231907774E-02 a       777     0    39     1    17
 -5.5403010390879170E-03 a       778     0    39     1    18
 -3.1974331900784136E-02 a       779     0    39     1    19
 -8.7853777435947550E-02 a       780     0    39     1    20
  1.1424759135518339E-01 a       781     0    40     1     1
  2.3150296107611146E-02 a       782     0    40     1     2
 -1.7718203115793005E-01 a       783     0    40     1     3
 -1.0473261801485612E-01 a       784     0    40     1     4
 -1.0218253462624889E-01 a       785     0    40     1     5
 -4.7785667710434881E-02 a       786     0    40     1     6
 -1.5985186069415872E-01 a       787     0    40     1     7
 -3.9494373107928547E-02 a       788     0    40     1     8
  1.2602932558274535E-01 a       789     0    40     1     9
  9.5439073279795034E-02 a       790     0    40     1    10
  6.4105262823546338E-02 a       791     0    40     1    11
  7.3695632585254384E-02 a       792     0    40     1    12
 -1.1066806339118716E-02 a       793     0    40     1    13
  6.6684463840328764E-02 a       794     0    40     1    14
 -1.0955646885095184E-01 a       795     0    40     1    15
 -9.2187831880786830E-02 a       796     0    40     1    16
  3.0695026977089125E-02 a       797     0    40     1    17
  2.5979451513733105E-02 a       798     0    40     1    18
 -1.0657861519020398E-01 a       799     0    40     1    19
  1.5837514517237997E-01 a       800     0    40     1    20
 -1.4210587492936232E-02 a       801     0    41     1     1
 -7.3566901017115077E-02 a       802     0    41     1     2
 -1.5298209971011686E-01 a       803     0    41     1     3
  8.2454997244286399E-02 a       804     0    41     1     4
 -1.5200104973584841E-01 a       805     0    41     1     5
 -1.2935007179030097E-01 a       806     0    41     1     6
  2.0748375738864253E-01 a       807     0    41     1     7
 -1.2421291823211286E-01 a       808     0    41     1     8
 -1.2808853679658713E-01 a       809     0    41     1     9
 -4.5836612909361966E-02 a       810     0    41     1    10
 -6.6206405538971017E-02 a       811     0    41     1    11
 -2.7412097822157405E-02 a       812     0    41     1    12
  1.4280663673242461E-02 a       813     0    41     1    13
 -1.7641764670160515E-01 a       814     0    41     1    14
  1.3777254378216283E-01 a       815     0    41     1    15
 -5.5570275416205135E-02 a       816     0    41     1    16
  6.9384095139978855E-02 a       817     0    41     1    17
  9.3573346147369701E-02 a       818     0    41     1    18
  1.0770449257168502E-01 a       819     0    41     1    19
 -5.5188417565053861E-02 a       820     0    41     1    20
  2.0063520850217051E-01 a       821     0    42     1     1
 -9.4339823444320764E-02 a       822     0    42     1     2
  9.0872322069175490E-02 a       823     0    42     1     3
  7.1934934553634427E-03 a       824     0    42     1     4
 -1.5296832259382537E-01 a       825     0    42     1     5
 -2.1761882714251259E-02 a       826     0    42     1     6
  1.8941158719871690E-01 a       827     0    42     1     7
 -7.1038715968867433E-02 a       828     0    42     1     8
  6.0838957921510395E-02 a       829     0    42     1     9
 -1.9875434314482016E-01 a       830     0    42     1    10
  4.8598955949633087E-02 a       831     0    42     1    11
 -2.5407386136113989E-02 a       832     0    42     1    12
 -1.4643741390425805E-01 a       833     0    42     1    13
  1.3908161178153408E-01 a       834     0    42     1    14
  1.2164556819018152E-01 a       835     0    42     1    15
  1.8453709592130071E-01 a       836     0    42     1    16
  1.5707531396088453E-01 a       837     0    42     1    17
 -6.7925868704252185E-02 a       838     0    42     1    18
 -4.0649498766946235E-02 a       839     0    42     1    19
 -3.8809580158205570E-02 a       840     0    42     1    20
 -3.6622400499237927E-03 a       841     0    43     1     1
  1.1409349426039928E-01 a       842     0    43     1     2
  7.4806905684534934E-03 a       843     0    43     1     3
 -2.7991941148103838E-02 a       844     0    43     1     4
  1.6499209359746192E-02 a       845     0    43     1     5
  3.5566430566984419E-03 a       846     0    43     1     6
 -5.2071713074016847E-02 a       847     0    43     1     7
  4.1160595166982568E-02 a       848     0    43     1     8
 -6.3051203455149266E-02 a       849     0    43     1     9
  1.7719989907577286E-02 a       850     0    43     1    10
  3.4979560992047437E-02 a       851     0    43     1    11
 -1.8214978686912187E-02 a       852     0    43     1    12
  3.7602930050610731E-02 a       853     0    43     1    13
 -5.3002548329238959E-02 a       854     0    43     1    14
  1.3705254603741460E-01 a       855     0    43     1    15
  1.4431573520332366E-01 a       856     0    43     1    16
  1.7981623597487822E-01 a       857     0    43     1    17
  8.7308461329902304E-02 a       858     0    43     1    18
  4.9225567798423346E-02 a       859     0    43     1    19
  9.2460792251282037E-02 a       860     0    43     1    20
 -6.0311221500021328E-02 a       861     0    44     1     1
  9.0160974744574619E-03 a       862     0    44     1     2
 -5.4321253237738440E-03 a       863     0    44     1     3
 -7.8987785671834190E-02 a       864     0    44     1     4
  3.9888479014126919E-02 a       865     0    44     1     5
  5.0337924168657032E-02 a       866     0    44     1     6
 -2.1969582010012031E-02 a       867     0    44     1     7
 -1.2481707751809654E-01 a       868     0    44     1     8
  1.3209752887368872E-01 a       869     0    44     1     9
  8.1392067214839048E-02 a       870     0    44     1    10
 -1.5510291718545566E-01 a       871     0    44     1    11
  6.5346584982115694E-02 a       872     0    44     1    12
 -1.6242781250173793E-01 a       873     0    44     1    13
  1.7289916520303393E-02 a       874     0    44     1    14
 -1.2351789960618142E-01 a       875     0    44     1    15
  1.2361829654785342E-01 a       876     0    44     1    16
 -1.7846420326341078E-01 a       877     0    44     1    17
 -4.1198484188527076E-02 a       878     0    44     1    18
 -3.6308735617814482E-02 a       879     0    44     1    19
  1.2242694526753786E-01 a       880     0    44     1    20
 -4.2806372937914956E-02 a       881     0    45     1     1
 -9.0042610222422673E-02 a       882     0    45     1     2
  1.0984745621116807E-01 a       883     0    45     1     3
 -2.3685771937100236E-02 a       884     0    45     1     4
 -1.0083564440536029E-01 a       885     0    45     1     5
 -9.0450848344435179E-03 a       886     0    45     1     6
  1.0315581412299984E-01 a       887     0    45     1     7
 -3.3606853062911800E-02 a       888     0    45     1     8
 -3.1733708145757329E-02 a       889     0    45     1     9
 -4.0282766432352832E-02 a       890     0    45     1    10
 -7.1564252216237773E-02 a       891     0    45     1    11
 -4.7797597982653268E-02 a       892     0    45     1    12
  6.6331466971611852E-02 a       893     0    45     1    13
  4.4293729408030065E-02 a       894     0    45     1    14
  8.9432999685449908E-03 a       895     0    45     1    15
  3.5592861497365520E-02 a       896     0    45     1    16
 -3.6938471617699191E-02 a       897     0    45     1    17
 -1.3642743114386538E-01 a       898     0    45     1    18
  1.6323486932176320E-01 a       899     0    45     1    19
 -1.1860960290448505E-01 a       900     0    45     1    20
  2.7046373330498797E-02 a       901     0    46     1     1
 -1.0322849563370030E-01 a       902     0    46     1     2
 -4.8306543164283240E-02 a       903     0    46     1     3
  1.3568607677457106E-01 a       904     0    46     1     4
  1.4359620198789583E-01 a       905     0    46     1     5
  1.9930719964801144E-01 a       906     0    46     1     6
 -1.9299823979990158E-01 a       907     0    46     1     7
 -1.8249560765135969E-01 a       908     0    46     1     8
 -9.3407238491293593E-02 a       909     0    46     1     9
 -9.4304985283968093E-02 a       910     0    46     1    10
 -1.4447216891401181E-02 a       911     0    46     1    11
  2.6744689042241991E-03 a       912     0    46     1    12
 -2.1026553538431185E-02 a       913     0    46     1    13
 -1.5250025081089932E-01 a       914     0    46     1    14
  1.3874416317903698E-01 a       915     0    46     1    15
  6.7723557732429825E-03 a       916     0    46     1    16
 -6.9890954790610513E-02 a       917     0    46     1    17
  7.7159899955424063E-02 a       918     0    46     1    18
  1.6488266059998605E-01 a       919     0    46     1    19
  8.5208524225162771E-02 a       920     0    46     1    20
 -1.2429141018079912E-01 a       921     0    47     1     1
 -2.3721900071919960E-01 a       922     0    47     1     2
 -5.4469818720273219E-02 a       923     0    47     1     3
  6.0271953939331517E-03 a       924     0    47     1     4
  1.1543556533523937E-01 a       925     0    47     1     5
 -3.3356224665158224E-02 a       926     0    47     1     6
  1.3905289944114613E-01 a       927     0    47     1     7
 -3.3848701401971285E-02 a       928     0    47     1     8
 -3.5503077868394753E-02 a       929     0    47     1     9
  2.6976097094552350E-02 a       930     0    47     1    10
 -1.5536125031633510E-01 a       931     0    47     1    11
 -8.5391204847452301E-02 a       932     0    47     1    12
 -1.1455469979230785E-01 a       933     0    47     1    13
 -1.2148413958536600E-01 a       934     0    47     1    14
 -6.5366519476934282E-02 a       935     0    47     1    15
  3.7853418547185408E-02 a       936     0    47     1    16
 -2.5217064385916471E-01 a       937     0    47     1    17
 -6.3717459166120052E-02 a       938     0    47     1    18
  1.0078968567429823E-01 a       939     0    47     1    19
  2.0252368320995523E-01 a       940     0    47     1    20
 -5.3899537345503082E-02 a       941     0    48     1     1
 -1.9651383855607940E-01 a       942     0    48     1     2
  1.3168572264260303E-02 a       943     0    48     1     3
  5.6759395388914176E-02 a       944     0    48     1     4
 -1.8255068624499018E-02 a       945     0    48     1     5
 -4.1241675661339967E-02 a       946     0    48     1     6
 -1.2918705045363871E-01 a       947     0    48     1     7
  7.7241405077691254E-03 a       948     0    48     1     8
  8.7202220627649721E-02 a       949     0    48     1     9
 -7.8751742433493560E-02 a       950     0    48     1    10
 -4.4214800903512000E-02 a       951     0    48     1    11
 -1.1253478107732098E-01 a       952     0    48     1    12
 -2.8463045252590465E-02 a       953     0    48     1    13
 -1.6158566178288586E-01 a       954     0    48     1    14
 -1.2953464055750441E-01 a       955     0    48     1    15
  7.5340513326656894E-02 a       956     0    48     1    16
 -2.5437312482035249E-02 a       957     0    48     1    17
 -7.5264651246081671E-02 a       958     0    48     1    18
  2.5838107483105455E-01 a       959     0    48     1    19
  2.0443442834381678E-01 a       960     0    48     1    20
  2.1523286670521762E-02 a       961     0    49     1     1
 -8.4096098012974060E-02 a       962     0    49     1     2
 -1.0849922999812041E-01 a       963     0    49     1     3
  9.1952891261651751E-02 a       964     0    49     1     4
  1.5651600322321213E-02 a       965     0    49     1     5
 -2.7135348830842485E-02 a       966     0    49     1     6
 -7.4497628351073555E-02 a       967     0    49     1     7
  1.6087083485814238E-02 a       968     0    49     1     8
 -3.4297006980999863E-02 a       969     0    49     1     9
 -4.2505196030019725E-02 a       970     0    49     1    10
 -1.7863078029010471E-01 a       971     0    49     1    11
 -3.4729170507467018E-03 a       972     0    49     1    12
  5.3591204887160427E-03 a       973     0    49     1    13
 -7.2480310525124492E-02 a       974     0    49     1    14
 -3.2705998219466972E-02 a       975     0    49     1    15
  1.3940054437571573E-02 a       976     0    49     1    16
 -4.3102646278848286E-02 a       977     0    49     1    17
 -9.5632613796629073E-02 a       978     0    49     1    18
  1.9240073651347819E-02 a       979     0    49     1    19
 -1.9787886191073784E-01 a       980     0    49     1    20
  2.2065118518485024E-02 a       981     0    50     1     1
  3.3020670653614421E-02 a       982     0    50     1     2
  8.7224497009740568E-02 a       983     0    50     1     3
 -1.1561556291703279E-01 a       984     0    50     1     4
  1.9387160713104787E-01 a       985     0    50     1     5
  1.0074648425882385E-02 a       986     0    50     1     6
  7.6390162674476736E-02 a       987     0    50     1     7
  2.5226878136210450E-02 a       988     0    50     1     8
 -9.2347083483579284E-02 a       989     0    50     1     9
 -2.8246848274437401E-02 a       990     0    50     1    10
  9.7830930179924738E-02 a       991     0    50     1    11
 -4.0551575142244986E-02 a       992     0    50     1    12
 -2.0268580446968579E-01 a       993     0    50     1    13
 -5.4915836575885696E-02 a       994     0    50     1    14
  6.9868554985418524E-02 a       995     0    50     1    15
 -3.6178876529004464E-02 a       996     0    50     1    16
  4.4441417682453625E-02 a       997     0    50     1    17
  1.1215800281196454E-01 a       998     0    50     1    18
  6.4637925175468330E-03 a       999     0    50     1    19
  1.0578297116243143E-01 a      1000     0    50     1    20
  2.4809742210141750E-01 a      1001     0    51     1     1
  7.6682330092002579E-02 a      1002     0    51     1     2
  1.1353630074727830E-01 a      1003     0    51     1     3
 -1.5511288284865132E-01 a      1004     0    51     1     4
  1.3727911231339937E-01 a      1005     0    51     1     5
  8.8073270060351150E-02 a      1006     0    51     1     6
 -1.5861652526917799E-01 a      1007     0    51     1     7
  2.1215128524973045E-01 a      1008     0    51     1     8
 -1.1622084812894475E-01 a      1009     0    51     1     9
  1.9370226562749518E-02 a      1010     0    51     1    10
  2.7284318165332250E-01 a      1011     0    51     1    11
  8.0981431361514949E-02 a      1012     0    51     1    12
 -3.4950103243432611E-02 a      1013     0    51     1    13
  2.2694806632663594E-01 a      1014     0    51     1    14
  3.1126658320561284E-02 a      1015     0    51     1    15
  3.1984355822125715E-03 a      1016     0    51     1    16
  9.3593770150060249E-02 a      1017     0    51     1    17
  5.4268288718042582E-02 a      1018     0    51     1    18
 -2.6621832671536483E-01 a      1019     0    51     1    19
  4.6021423922148190E-02 a      1020     0    51     1    20
  9.2541680389081074E-02 a      1021     0    52     1     1
  1.0044040277112572E-01 a      1022     0    52     1     2
 -1.8268995867209303E-01 a      1023     0    52     1     3
 -5.8172722933098706E-02 a      1024     0    52     1     4
 -1.2657689258129584E-01 a      1025     0    52     1     5
 -2.1301422836318049E-01 a      1026     0    52     1     6
 -1.3747666266919843E-03 a      1027     0    52     1     7
 -1.3763927210109178E-01 a      1028     0    52     1     8
 -2.0640225601426596E-01 a      1029     0    52     1     9
  4.8987347215794314E-02 a      1030     0    52     1    10
 -5.3314447581041376E-02 a      1031     0    52     1    11
  2.5666179547218185E-02 a      1032     0    52     1    12
 -3.1651046073926110E-02 a      1033     0    52     1    13
  1.2174791164440295E-01 a      1034     0    52     1    14
  6.3646029581863786E-02 a      1035     0    52     1    15
 -5.7711076834788148E-02 a      1036     0    52     1    16
 -1.4567385092763407E-01 a      1037     0    52     1    17
 -1.1935858136969400E-01 a      1038     0    52     1    18
  2.1058100604431926E-01 a      1039     0    52     1    19
 -4.1590533169800596E-02 a      1040     0    52     1    20
 -1.5309706046023960E-01 a      1041     0    53     1     1
  1.8599299950025169E-01 a      1042     0    53     1     2
  1.8316915162724785E-02 a      1043     0    53     1     3
 -1.6068423854707147E-02 a      1044     0    53     1     4
 -1.2005053176944908E-01 a      1045     0    53     1     5
 -6.9056087459479443E-02 a      1046     0    53     1     6
  1.7826297460263529E-01 a      1047     0    53     1     7
 -2.5252028923367843E-02 a      1048     0    53     1     8
 -9.1077772215189298E-02 a      1049     0    53     1     9
  1.3728445022464747E-01 a      1050     0    53     1    10
 -6.8116765032652071E-04 a      1051     0    53     1    11
 -1.3744207349124160E-01 a      1052     0    53     1    12
 -2.4501216571915269E-01 a      1053     0    53     1    13
  1.2555687819361158E-01 a      1054     0    53     1    14
 -1.6071317982699423E-01 a      1055     0    53     1    15
  7.7527828397234461E-02 a      1056     0    53     1    16
 -1.0552445270353338E-02 a      1057     0    53     1    17
  9.7721655154625525E-02 a      1058     0    53     1    18
 -3.6283407331676683E-02 a      1059     0    53     1    19
 -3.3617608969185302E-02 a      1060     0    53     1    20
 -2.5631677722921336E-02 a      1061     0    54     1     1
 -4.7945434934830188E-02 a      1062     0    54     1     2
  1.4077382667688779E-01 a      1063     0    54     1     3
  8.7497815984546368E-02 a      1064     0    54     1     4
  1.6120465525388830E-01 a      1065     0    54     1     5
  1.3652237491206734E-01 a      1066     0    54     1     6
  1.3820757576207451E-01 a      1067     0    54     1     7
 -1.5164696515541146E-01 a      1068     0    54     1     8
 -4.6754679667857922E-02 a      1069     0    54     1     9
  5.5724278698651868E-02 a      1070     0    54     1    10
  9.2328643995345905E-02 a      1071     0    54     1    11
 -7.5881863754963599E-03 a      1072     0    54     1    12
  3.0922998618947338E-02 a      1073     0    54     1    13
  3.2208299409685226E-02 a      1074     0    54     1    14
  3.6641523825472103E-02 a      1075     0    54     1    15
 -4.7726915756167984E-02 a      1076     0    54     1    16
 -1.7670847841907814E-01 a      1077     0    54     1    17
  6.7587733282354165E-02 a      1078     0    54     1    18
  5.6119126094558922E-03 a      1079     0    54     1    19
 -3.4809439087159146E-02 a      1080     0    54     1    20
  1.4605190812775054E-01 a      1081     0    55     1     1
  4.8311381439476477E-02 a      1082     0    55     1     2
 -1.4730164362897305E-01 a      1083     0    55     1     3
 -8.6367996544140499E-02 a      1084     0    55     1     4
 -2.9317407076862059E-02 a      1085     0    55     1     5
 -3.8017410049420157E-02 a      1086     0    55     1     6
 -1.6066321497717632E-02 a      1087     0    55     1     7
 -8.6306227607476187E-03 a      1088     0    55     1     8
 -5.6513758008605613E-02 a      1089     0    55     1     9
 -1.2631031169304325E-02 a      1090     0    55     1    10
 -1.8400482862988504E-01 a      1091     0    55     1    11
  3.9084947994167084E-02 a      1092     0    55     1    12
 -3.3907051264307049E-02 a      1093     0    55     1    13
 -9.7041626521476257E-02 a      1094     0    55     1    14
 -1.1412709799869417E-02 a      1095     0    55     1    15
  2.7459497686848422E-01 a      1096     0    55     1    16
  1.8059452591651995E-02 a      1097     0    55     1    17
  1.5745837924698164E-01 a      1098     0    55     1    18
 -1.1621615601734973E-01 a      1099     0    55     1    19
  9.7199052272959496E-02 a      1100     0    55     1    20
  2.2953580211545386E-03 a      1101     0    56     1     1
 -2.6726634810475994E-02 a      1102     0    56     1     2
  3.1156466767108763E-02 a      1103     0    56     1     3
 -2.0190743318574955E-01 a      1104     0    56     1     4
 -1.8862580539667995E-01 a      1105     0    56     1     5
 -6.8967940728087818E-02 a      1106     0    56     1     6
  1.9399920094244993E-01 a      1107     0    56     1     7
  3.9621959703246161E-02 a      1108     0    56     1     8
 -9.5372831233540845E-02 a      1109     0    56     1     9
 -1.6110100729787941E-01 a      1110     0    56     1    10
 -7.1311653475612510E-02 a      1111     0    56     1    11
  1.3791920094031304E-01 a      1112     0    56     1    12
  2.0895164488191337E-01 a      1113     0    56     1    13
  7.2100698089796939E-02 a      1114     0    56     1    14
 -1.5323567324272758E-01 a      1115     0    56     1    15
  2.1409288801476842E-01 a      1116     0    56     1    16
  1.2656433475013620E-01 a      1117     0    56     1    17
  3.4078519215063226E-02 a      1118     0    56     1    18
 -6.4158654416074365E-02 a      1119     0    56     1    19
  1.8310879159285284E-01 a      1120     0    56     1    20
 -1.6712164141076916E-03 a      1121     0    57     1     1
 -1.7923530462910665E-02 a      1122     0    57     1     2
 -2.3125404319055804E-03 a      1123     0    57     1     3
  6.4015602315125181E-02 a      1124     0    57     1     4
 -2.5836690223571667E-02 a      1125     0    57     1     5
  5.9522816669870304E-02 a      1126     0    57     1     6
 -2.5675670090525449E-01 a      1127     0    57     1     7
  1.5050662672520224E-01 a      1128     0    57     1     8
  6.7643229797271817E-02 a      1129     0    57     1     9
 -1.1266248330538076E-02 a      1130     0    57     1    10
 -2.0969460754056718E-01 a      1131     0    57     1    11
 -7.3659228562197587E-02 a      1132     0    57     1    12
  2.4287266516916806E-01 a      1133     0    57     1    13
 -1.2963868882955365E-01 a      1134     0    57     1    14
 -1.0601452592612227E-01 a      1135     0    57     1    15
 -3.3396736404712420E-03 a      1136     0    57     1    16
 -2.4480517976125955E-02 a      1137     0    57     1    17
  1.0209911676529339E-01 a      1138     0    57     1    18
 -7.3259385833552307E-02 a      1139     0    57     1    19
 -5.2714946553308710E-02 a      1140     0    57     1    20
  1.8945576199024045E-01 a      1141     0    58     1     1
  2.5468296541453751E-02 a      1142     0    58     1     2
  7.6427562482147507E-02 a      1143     0    58     1     3
  1.0701702617117924E-01 a      1144     0    58     1     4
 -5.2366463984368013E-02 a      1145     0    58     1     5
  1.2565195759527631E-01 a      1146     0    58     1     6
  2.2156561483228263E-01 a      1147     0    58     1     7
  1.6043903506316162E-01 a      1148     0    58     1     8
  1.3462259647479878E-03 a      1149     0    58     1     9
 -1.8723942375747787E-01 a      1150     0    58     1    10
 -1.5287702901057520E-01 a      1151     0    58     1    11
  2.2919496624507857E-01 a      1152     0    58     1    12
 -2.8679041085336870E-01 a      1153     0    58     1    13
 -2.0967604937563269E-01 a      1154     0    58     1    14
  8.8926976847885572E-02 a      1155     0    58     1    15
  4.1059058159620541E-02 a      1156     0    58     1    16
 -8.7727451915823082E-02 a      1157     0    58     1    17
  3.1489762757829165E-02 a      1158     0    58     1    18
 -8.4305642288325211E-02 a      1159     0    58     1    19
 -1.6496835022645226E-01 a      1160     0    58     1    20
  2.0408625185993323E-01 a      1161     0    59     1     1
  1.9089560201128983E-01 a      1162     0    59     1     2
 -2.4466071563841138E-01 a      1163     0    59     1     3
  7.8570375056670694E-02 a      1164     0    59     1     4
  1.8881019550223865E-01 a      1165     0    59     1     5
  2.0334896355876117E-01 a      1166     0    59     1     6
 -1.3512241170726502E-01 a      1167     0    59     1     7
 -3.9929326155195011E-03 a      1168     0    59     1     8
 -5.6302891015412937E-03 a      1169     0    59     1     9
  3.0805289184419511E-02 a      1170     0    59     1    10
 -1.4178843358860602E-01 a      1171     0    59     1    11
 -9.7110552114667323E-04 a      1172     0    59     1    12
  1.3714592671231124E-01 a      1173     0    59     1    13
  4.6730569533055363E-02 a      1174     0    59     1    14
 -6.0226637683137671E-02 a      1175     0    59     1    15
  1.3726166031405856E-01 a      1176     0    59     1    16
  1.5438771334914175E-01 a      1177     0    59     1    17
 -1.1052039440728587E-01 a      1178     0    59     1    18
 -1.3508341361442963E-01 a      1179     0    59     1    19
  1.4148992850610753E-01 a      1180     0    59     1    20
  5.6061307571280425E-03 a      1181     0    60     1     1
 -2.3260166557197377E-02 a      1182     0    60     1     2
  2.1424300706663729E-01 a      1183     0    60     1     3
 -2.5915039311292704E-01 a      1184     0    60     1     4
  6.2724223200315746E-02 a      1185     0    60     1     5
  9.4187629415706051E-03 a      1186     0    60     1     6
 -1.7009848049964793E-01 a      1187     0    60     1     7
  1.3007170918201522E-01 a      1188     0    60     1     8
  2.1085722847575311E-01 a      1189     0    60     1     9
  1.2819162077648630E-01 a      1190     0    60     1    10
 -7.5994733491412947E-02 a      1191     0    60     1    11
  7.1682923483768618E-02 a      1192     0    60     1    12
 -1.8167467658381082E-02 a      1193     0    60     1    13
 -4.5778253035010180E-02 a      1194     0    60     1    14
 -5.8113339098064050E-02 a      1195     0    60     1    15
 -2.0049324008664271E-01 a      1196     0    60     1    16
 -4.6608648419646147E-02 a      1197     0    60     1    17
 -4.2625453103563263E-02 a      1198     0    60     1    18
  7.9278449953107219E-02 a      1199     0    60     1    19
 -7.3715062117192379E-02 a      1200     0    60     1    20
  2.7251715839108053E-02 a      1201     0    61     1     1
  2.4344577271736279E-01 a      1202     0    61     1     2
  5.4895993375055414E-02 a      1203     0    61     1     3
  1.0229208020546847E-01 a      1204     0    61     1     4
  2.0130729474750278E-01 a      1205     0    61     1     5
  7.4045360208817468E-02 a      1206     0    61     1     6
 -1.6360359037460045E-01 a      1207     0    61     1     7
 -6.7691350288548290E-03 a      1208     0    61     1     8
  4.2350314551116965E-02 a      1209     0    61     1     9
  5.8441462701524498E-02 a      1210     0    61     1    10
 -7.2443694548367937E-02 a      1211     0    61     1    11
 -1.4400923246427052E-02 a      1212     0    61     1    12
 -1.8322630069699467E-01 a      1213     0    61     1    13
  1.8685914838522394E-01 a      1214     0    61     1    14
  5.8209478200681189E-02 a      1215     0    61     1    15
  4.4654125405660126E-02 a      1216     0    61     1    16
  4.6959452431482411E-02 a      1217     0    61     1    17
 -3.0563258802630577E-01 a      1218     0    61     1    18
  1.9152562705391110E-01 a      1219     0    61     1    19
  3.6077575282335961E-02 a      1220     0    61     1    20
  3.7634165112106842E-02 a      1221     0    62     1     1
  1.0780067787902854E-01 a      1222     0    62     1     2
 -5.2240618093817873E-02 a      1223     0    62     1     3
 -2.5095120870657162E-01 a      1224     0    62     1     4
 -7.4029584386658520E-02 a      1225     0    62     1     5
 -2.3927962320200361E-01 a      1226     0    62     1     6
 -2.3726308914229433E-01 a      1227     0    62     1     7
 -3.1785296851454807E-02 a      1228     0    62     1     8
 -1.6371249215869101E-02 a      1229     0    62     1     9
  1.2520302919101674E-02 a      1230     0    62     1    10
  6.6064335714960357E-02 a      1231     0    62     1    11
  9.7473628562452300E-03 a      1232     0    62     1    12
  7.9402737020925138E-02 a      1233     0    62     1    13
 -4.9639639330115663E-02 a      1234     0    62     1    14
  4.8128450142809129E-02 a      1235     0    62     1    15
  7.3877886326167735E-02 a      1236     0    62     1    16
  1.1694141506691742E-01 a      1237     0    62     1    17
  4.2444156572847579E-02 a      1238     0    62     1    18
  5.4017570693812841E-02 a      1239     0    62     1    19
  5.3191358510494405E-02 a      1240     0    62     1    20
  2.2550584479129732E-01 a      1241     0    63     1     1
 -1.0475951157127868E-01 a      1242     0    63     1     2
 -1.9759638623233777E-01 a      1243     0    63     1     3
 -8.2566692519616281E-03 a      1244     0    63     1     4
 -1.1908048263693992E-01 a      1245     0    63     1     5
 -1.8573537048229197E-01 a      1246     0    63     1     6
 -3.9912958857956801E-02 a      1247     0    63     1     7
  2.0220495507796182E-01 a      1248     0    63     1     8
  4.7371793486991734E-02 a      1249     0    63     1     9
 -8.2007843170995590E-02 a      1250     0    63     1    10
  3.2533986801157030E-02 a      1251     0    63     1    11
 -2.6818761152794700E-02 a      1252     0    63     1    12
  1.7085124719235356E-01 a      1253     0    63     1    13
  1.6759023957835156E-02 a      1254     0    63     1    14
  2.2411328656193302E-01 a      1255     0    63     1    15
 -5.7946345262114042E-02 a      1256     0    63     1    16
  1.8506013687149106E-01 a      1257     0    63     1    17
 -5.5061037554106657E-02 a      1258     0    63     1    18
 -3.0479600706546534E-01 a      1259     0    63     1    19
 -9.5887239237905486E-02 a      1260     0    63     1    20
 -1.3142898242515372E-01 a      1261     0    64     1     1
 -5.1718009312216465E-03 a      1262     0    64     1     2
 -1.7408084975682908E-01 a      1263     0    64     1     3
  1.3622147127191811E-01 a      1264     0    64     1     4
 -6.5529967405043868E-02 a      1265     0    64     1     5
  4.1790210938929220E-02 a      1266     0    64     1     6
  5.4552504330725858E-02 a      1267     0    64     1     7
  2.3704334575989965E-02 a      1268     0    64     1     8
 -5.1267120507743236E-02 a      1269     0    64     1     9
  1.1900116554222542E-03 a      1270     0    64     1    10
  6.3947375168381610E-03 a      1271     0    64     1    11
 -1.2046295760564651E-01 a      1272     0    64     1    12
 -1.0866307169611589E-01 a      1273     0    64     1    13
 -5.2513181240047759E-02 a      1274     0    64     1    14
 -8.9441056232032953E-02 a      1275     0    64     1    15
  1.6130012952595363E-01 a      1276     0    64     1    16
  1.6152611855747862E-02 a      1277     0    64     1    17
 -4.8352248868232847E-02 a      1278     0    64     1    18
  9.9043378417312034E-02 a      1279     0    64     1    19
  1.1172288472438154E-01 a      1280     0    64     1    20
 -5.1082176090572570E-02 a      1281     0    65     1     1
 -1.8261015430477268E-01 a      1282     0    65     1     2
 -4.7163333734405472E-03 a      1283     0    65     1     3
 -4.0312787926682345E-02 a      1284     0    65     1     4
 -1.2722663344298119E-01 a      1285     0    65     1     5
  2.0315927430836031E-01 a      1286     0    65     1     6
  1.9555196236847868E-02 a      1287     0    65     1     7
 -5.6044682782270532E-02 a      1288     0    65     1     8
 -4.1163952260914502E-02 a      1289     0    65     1     9
  9.9545237697228672E-02 a      1290     0    65     1    10
  5.9600735568743027E-02 a      1291     0    65     1    11
 -1.3125173200566637E-02 a      1292     0    65     1    12
 -3.7384523779663524E-02 a      1293     0    65     1    13
 -2.9357976838217972E-02 a      1294     0    65     1    14
  3.3564598264826856E-02 a      1295     0    65     1    15
 -1.1445516145222182E-01 a      1296     0    65     1    16
 -1.2358045488268492E-01 a      1297     0    65     1    17
 -1.0958728885583134E-01 a      1298     0    65     1    18
  2.3163950693379093E-01 a      1299     0    65     1    19
  2.4291445108365942E-01 a      1300     0    65     1    20
 -1.4945851250870101E-01 a      1301     0    66     1     1
  1.7759025977761234E-01 a      1302     0    66     1     2
 -3.2400753637838099E-02 a      1303     0    66     1     3
  2.1129721564357984E-01 a      1304     0    66     1     4
  6.7895663124307462E-02 a      1305     0    66     1     5
 -1.0277830862721715E-01 a      1306     0    66     1     6
  1.6062117470900586E-01 a      1307     0    66     1     7
  2.6668559262404013E-02 a      1308     0    66     1     8
  1.6404958433900599E-01 a      1309     0    66     1     9
 -4.4685751217283014E-02 a      1310     0    66     1    10
  7.7381145438704377E-02 a      1311     0    66     1    11
  2.1208907146330305E-01 a      1312     0    66     1    12
  1.9772442320760189E-01 a      1313     0    66     1    13
 -4.3819542165601334E-02 a      1314     0    66     1    14
 -2.1997933659122549E-02 a      1315     0    66     1    15
 -2.6876876064979911E-02 a      1316     0    66     1    16
 -6.1863740936763008E-03 a      1317     0    66     1    17
  1.0652861237929348E-01 a      1318     0    66     1    18
 -1.2555101883709435E-01 a      1319     0    66     1    19
 -1.9828759723712339E-01 a      1320     0    66     1    20
 -1.3611175819288096E-01 a      1321     0    67     1     1
  3.3629826110215352E-02 a      1322     0    67     1     2
  1.2140540166047616E-01 a      1323     0    67     1     3
  6.3591340687865719E-02 a      1324     0    67     1     4
 -1.5942509334509047E-01 a      1325     0    67     1     5
  1.5067679021681299E-01 a      1326     0    67     1     6
  2.4833816364472042E-01 a      1327     0    67     1     7
  3.3846583149704179E-02 a      1328     0    67     1     8
 -2.2676216373596683E-01 a      1329     0    67     1     9
 -8.6577809066572295E-02 a      1330     0    67     1    10
  9.8747697772531406E-03 a      1331     0    67     1    11
 -1.0121896736600304E-01 a      1332     0    67     1    12
  7.5356340039224937E-02 a      1333     0    67     1    13
  2.7179683482843327E-03 a      1334     0    67     1    14
 -2.5900210076396459E-02 a      1335     0    67     1    15
  1.2714195488455082E-01 a      1336     0    67     1    16
  5.0512036277397712E-02 a      1337     0    67     1    17
 -1.4957277702908731E-01 a      1338     0    67     1    18
  1.2622605997710032E-01 a      1339     0    67     1    19
  1.0406124389623005E-01 a      1340     0    67     1    20
  4.0605470797486459E-01 a      1341     0    68     1     1
 -8.2836679212293235E-02 a      1342     0    68     1     2
  1.4405011621972821E-01 a      1343     0    68     1     3
  9.3039802346864181E-02 a      1344     0    68     1     4
 -2.3794270915713081E-01 a      1345     0    68     1     5
  1.2040005266281321E-01 a      1346     0    68     1     6
 -9.7515524457137487E-02 a      1347     0    68     1     7
  4.0148349077190199E-02 a      1348     0    68     1     8
  1.8315550989614113E-01 a      1349     0    68     1     9
  2.4715802176240478E-01 a      1350     0    68     1    10
 -1.5563704437129181E-01 a      1351     0    68     1    11
 -1.1346920293077500E-01 a      1352     0    68     1    12
  6.2046341622539622E-02 a      1353     0    68     1    13
 -2.8116779352838944E-02 a      1354     0    68     1    14
 -1.5674747283236523E-01 a      1355     0    68     1    15
  4.0047800008514373E-03 a      1356     0    68     1    16
  1.4218542398206518E-01 a      1357     0    68     1    17
 -2.7107987561564606E-01 a      1358     0    68     1    18
  4.9162588947558788E-02 a      1359     0    68     1    19
 -7.6982072730691228E-02 a      1360     0    68     1    20
 -1.2655250411600716E-01 a      1361     0    69     1     1
 -1.7215190877421099E-01 a      1362     0    69     1     2
 -8.2547744170833978E-02 a      1363     0    69     1     3
 -1.0547298171516047E-01 a      1364     0    69     1     4
 -1.2787254694839598E-01 a      1365     0    69     1     5
 -1.4295279566580407E-01 a      1366     0    69     1     6
 -1.1846112880503018E-01 a      1367     0    69     1     7
  1.0288870260620142E-01 a      1368     0    69     1     8
  7.0646663655211009E-02 a      1369     0    69     1     9
 -4.9301283000828797E-02 a      1370     0    69     1    10
 -8.0146038527206601E-02 a      1371     0    69     1    11
 -8.4782241803122479E-02 a      1372     0    69     1    12
 -8.9084025635614794E-02 a      1373     0    69     1    13
  5.1814445423612028E-02 a      1374     0    69     1    14
  6.6429349801840606E-02 a      1375     0    69     1    15
 -1.4287096758965098E-01 a      1376     0    69     1    16
 -3.1543249283701558E-02 a      1377     0    69     1    17
 -4.5675054244912076E-02 a      1378     0    69     1    18
 -2.0101887355171915E-02 a      1379     0    69     1    19
 -1.4152657203723518E-01 a      1380     0    69     1    20
  6.4695611454206853E-02 a      1381     0    70     1     1
  2.0283629616227516E-01 a      1382     0    70     1     2
  4.1724009162600530E-02 a      1383     0    70     1     3
  1.8105173013275567E-02 a      1384     0    70     1     4
 -1.0604220282103957E-01 a      1385     0    70     1     5
  1.5942001595274344E-01 a      1386     0    70     1     6
 -1.0644294012981573E-01 a      1387     0    70     1     7
 -1.1315822414236003E-01 a      1388     0    70     1     8
 -1.7910066866061705E-01 a      1389     0    70     1     9
 -1.2131332073012062E-02 a      1390     0    70     1    10
 -9.7663695395036818E-02 a      1391     0    70     1    11
  3.9676643786603280E-02 a      1392     0    70     1    12
 -1.0867439695012883E-01 a      1393     0    70     1    13
  1.6317980869313442E-01 a      1394     0    70     1    14
  3.1230475914481054E-02 a      1395     0    70     1    15
 -1.2086328758766252E-01 a      1396     0    70     1    16
  5.0796453688998239E-02 a      1397     0    70     1    17
 -9.8628204752915949E-02 a      1398     0    70     1    18
  1.3004266233717274E-01 a      1399     0    70     1    19
 -9.2526186994956544E-02 a      1400     0    70     1    20
 -4.0972507340326605E-02 a      1401     0    71     1     1
 -1.3045850155299929E-02 a      1402     0    71     1     2
  1.9634215906272549E-03 a      1403     0    71     1     3
  8.9769103022918573E-02 a      1404     0    71     1     4
  1.4048911451257598E-01 a      1405     0    71     1     5
 -1.4290615847044669E-01 a      1406     0    71     1     6
  1.5827616461244828E-01 a      1407     0    71     1     7
 -1.4038449189470165E-02 a      1408     0    71     1     8
  1.3854489131619180E-01 a      1409     0    71     1     9
  1.2783537558467896E-02 a      1410     0    71     1    10
  1.7029644921539960E-01 a      1411     0    71     1    11
  5.9114999556129200E-02 a      1412     0    71     1    12
  2.0802970320645744E-01 a      1413     0    71     1    13
  8.2963232758335656E-02 a      1414     0    71     1    14
 -4.1667063391273244E-03 a      1415     0    71     1    15
 -2.0242253938906909E-01 a      1416     0    71     1    16
 -1.5218027421900739E-02 a      1417     0    71     1    17
 -1.2534767340132072E-01 a      1418     0    71     1    18
  5.5166587031265778E-02 a      1419     0    71     1    19
 -8.5977936001848401E-02 a      1420     0    71     1    20
 -2.2804079235188943E-01 a      1421     0    72     1     1
  1.7619680960900491E-01 a      1422     0    72     1     2
 -3.2458562514349469E-02 a      1423     0    72     1     3
  2.6445848691894158E-01 a      1424     0    72     1     4
  5.4191501270226587E-02 a      1425     0    72     1     5
 -2.5646681811068472E-01 a      1426     0    72     1     6
  9.1000994565515539E-02 a      1427     0    72     1     7
 -1.7058701030949830E-01 a      1428     0    72     1     8
 -2.2394290960833368E-01 a      1429     0    72     1     9
 -6.1195201396678479E-02 a      1430     0    72     1    10
 -1.6413593816628971E-01 a      1431     0    72     1    11
 -9.2660508380000159E-02 a      1432     0    72     1    12
 -6.8963275370788654E-02 a      1433     0    72     1    13
  4.5247956065900350E-03 a      1434     0    72     1    14
  2.9012223569115501E-02 a      1435     0    72     1    15
  8.2343537472275852E-02 a      1436     0    72     1    16
  5.4684046322886210E-04 a      1437     0    72     1    17
 -7.8729307811990695E-02 a      1438     0    72     1    18
 -8.9945373853355902E-03 a      1439     0    72     1    19
  8.1947821274458169E-02 a      1440     0    72     1    20
 -5.2597720326182804E-02 a      1441     0    73     1     1
  1.8823016475782453E-01 a      1442     0    73     1     2
  2.5058881603098515E-01 a      1443     0    73     1     3
 -2.2123887976429263E-01 a      1444     0    73     1     4
 -1.2001616015185605E-01 a      1445     0    73     1     5
  1.3138260155622583E-02 a      1446     0    73     1     6
  1.1447744222511554E-02 a      1447     0    73     1     7
 -2.1222465071972019E-01 a      1448     0    73     1     8
 -1.6290638997512946E-01 a      1449     0    73     1     9
 -7.3671233472341585E-02 a      1450     0    73     1    10
 -7.3895196734884705E-02 a      1451     0    73     1    11
  1.4357939773924312E-03 a      1452     0    73     1    12
 -8.3742244970132163E-02 a      1453     0    73     1    13
  3.1769225707200519E-03 a      1454     0    73     1    14
 -1.7095414578498766E-01 a      1455     0    73     1    15
 -1.6926784280333912E-01 a      1456     0    73     1    16
  4.6076951933002590E-02 a      1457     0    73     1    17
  2.1202970937005125E-01 a      1458     0    73     1    18
  2.9133075491964554E-02 a      1459     0    73     1    19
 -2.2201177971056366E-01 a      1460     0    73     1    20
 -3.3965185704380868E-02 a      1461     0    74     1     1
  1.5076318624960469E-01 a      1462     0    74     1     2
  1.8119949753298784E-01 a      1463     0    74     1     3
 -1.6372520266626248E-01 a      1464     0    74     1     4
  1.3793020244328999E-02 a      1465     0    74     1     5
  6.0232858287355119E-02 a      1466     0    74     1     6
 -3.4531135691398061E-02 a      1467     0    74     1     7
  2.2646764155132698E-02 a      1468     0    74     1     8
  5.4344769839218578E-03 a      1469     0    74     1     9
 -1.2473368585446969E-01 a      1470     0    74     1    10
  4.9712925979789525E-02 a      1471     0    74     1    11
  7.6983171483695378E-02 a      1472     0    74     1    12
  3.7781767936108573E-02 a      1473     0    74     1    13
 -1.1185877224122501E-01 a      1474     0    74     1    14
  1.8581314439822488E-01 a      1475     0    74     1    15
  1.6876398498587217E-01 a      1476     0    74     1    16
 -7.4637417269683435E-03 a      1477     0    74     1    17
  1.9991861455223242E-01 a      1478     0    74     1    18
 -2.5909764750240000E-01 a      1479     0    74     1    19
  4.8524258246698870E-02 a      1480     0    74     1    20
 -1.2789158824768285E-01 a      1481     0    75     1     1
  2.3776373820222679E-01 a      1482     0    75     1     2
 -2.1817032785773699E-01 a      1483     0    75     1     3
 -1.3001188327438915E-01 a      1484     0    75     1     4
  2.2521034140150226E-01 a      1485     0    75     1     5
  3.6221435693541401E-02 a      1486     0    75     1     6
  1.6568456855081390E-01 a      1487     0    75     1     7
 -3.1984425246681387E-02 a      1488     0    75     1     8
 -8.1139231739112763E-02 a      1489     0    75     1     9
 -7.0422602937747963E-02 a      1490     0    75     1    10
 -1.0674146981099659E-02 a      1491     0    75     1    11
  1.6384805421356927E-01 a      1492     0    75     1    12
  1.9453710471769409E-01 a      1493     0    75     1    13
 -2.1397951112750274E-01 a      1494     0    75     1    14
  2.4806215689387661E-02 a      1495     0    75     1    15
  1.2117488173985459E-01 a      1496     0    75     1    16
 -4.9432351312849988E-02 a      1497     0    75     1    17
 -1.0664039878644842E-01 a      1498     0    75     1    18
  4.9837353715029178E-04 a      1499     0    75     1    19
 -2.4029633784100257E-01 a      1500     0    75     1    20
  1.1270479303854440E-01 a      1501     0    76     1     1
  1.2582480674317101E-01 a      1502     0    76     1     2
 -1.0745130239362424E-01 a      1503     0    76     1     3
 -2.1136066308014723E-01 a      1504     0    76     1     4
 -1.3903096118787170E-01 a      1505     0    76     1     5
 -4.2352244842153115E-02 a      1506     0    76     1     6
  4.2660894960460709E-02 a      1507     0    76     1     7
 -1.2218254862211211E-01 a      1508     0    76     1     8
 -2.2567641167571295E-01 a      1509     0    76     1     9
 -1.3724823985842255E-01 a      1510     0    76     1    10
 -1.1222639049635184E-02 a      1511     0    76     1    11
  1.2900620170669455E-01 a      1512     0    76     1    12
 -2.1764209788810540E-01 a      1513     0    76     1    13
 -2.8303933444724233E-01 a      1514     0    76     1    14
 -1.3763383312242200E-01 a      1515     0    76     1    15
  4.4748292317987062E-02 a      1516     0    76     1    16
 -3.3026572157641779E-02 a      1517     0    76     1    17
  2.9077423426653499E-02 a      1518     0    76     1    18
 -1.0494486115482207E-01 a      1519     0    76     1    19
 -4.9563648067865604E-02 a      1520     0    76     1    20
  3.7234233165637965E-03 a      1521     0    77     1     1
 -1.3742341873258601E-01 a      1522     0    77     1     2
  2.3469423543262813E-01 a      1523     0    77     1     3
 -5.9966345035969724E-02 a      1524     0    77     1     4
  9.0681230026229645E-02 a      1525     0    77     1     5
  9.8671937993881718E-03 a      1526     0    77     1     6
 -6.6141368281292495E-02 a      1527     0    77     1     7
  9.7651520245102541E-02 a      1528     0    77     1     8
 -5.6617260834495628E-02 a      1529     0    77     1     9
 -3.4162823295678254E-03 a      1530     0    77     1    10
 -3.9584842228750299E-02 a      1531     0    77     1    11
 -1.5865416889310782E-01 a      1532     0    77     1    12
  1.0785488943793091E-01 a      1533     0    77     1    13
  3.2047720162032112E-02 a      1534     0    77     1    14
 -9.9349343996120443E-02 a      1535     0    77     1    15
  6.7262180349991318E-02 a      1536     0    77     1    16
 -7.1184153354100351E-03 a      1537     0    77     1    17
 -2.8147728833558300E-01 a      1538     0    77     1    18
 -3.3906157511964558E-03 a      1539     0    77     1    19
  1.4000867580004267E-01 a      1540     0    77     1    20
 -5.3723537369410629E-02 a      1541     0    78     1     1
 -5.7490255213060212E-02 a      1542     0    78     1     2
  7.0260590407185852E-02 a      1543     0    78     1     3
  3.6025450812319122E-02 a      1544     0    78     1     4
  1.8144387130559267E-01 a      1545     0    78     1     5
  6.9300173543618837E-02 a      1546     0    78     1     6
 -8.9384868499414270E-03 a      1547     0    78     1     7
  2.1584793428750092E-02 a      1548     0    78     1     8
 -7.5505914435735511E-02 a      1549     0    78     1     9
  2.9901094350670475E-02 a      1550     0    78     1    10
  6.6106289255233328E-03 a      1551     0    78     1    11
  7.4944590878798054E-02 a      1552     0    78     1    12
  2.4904456182296232E-02 a      1553     0    78     1    13
  5.8263387522074633E-02 a      1554     0    78     1    14
 -7.9888589562459714E-02 a      1555     0    78     1    15
 -1.0738831882128459E-01 a      1556     0    78     1    16
  8.2059912581755962E-02 a      1557     0    78     1    17
  8.7294221262498126E-02 a      1558     0    78     1    18
 -3.7972724203468630E-02 a      1559     0    78     1    19
  1.7589626788808699E-01 a      1560     0    78     1    20
  1.4082962327965712E-01 a      1561     0    79     1     1
  1.3244793166893135E-01 a      1562     0    79     1     2
  1.9114480779005688E-01 a      1563     0    79     1     3
  1.9373593417679419E-01 a      1564     0    79     1     4
  6.2273782001519909E-02 a      1565     0    79     1     5
  5.1663352341197268E-02 a      1566     0    79     1     6
 -7.3932257924057262E-02 a      1567     0    79     1     7
 -8.0424764387238529E-02 a      1568     0    79     1     8
  1.5862650599888084E-01 a      1569     0    79     1     9
 -5.3855149641728321E-02 a      1570     0    79     1    10
 -1.7068189982313844E-01 a      1571     0    79     1    11
  1.6258929224340818E-01 a      1572     0    79     1    12
  5.5111944097444028E-02 a      1573     0    79     1    13
 -1.0790125567404057E-01 a      1574     0    79     1    14
 -4.5705267226804722E-02 a      1575     0    79     1    15
 -7.0187508143164407E-02 a      1576     0    79     1    16
 -8.6304689643629195E-02 a      1577     0    79     1    17
  8.4143727303768817E-02 a      1578     0    79     1    18
  4.2826805062581547E-02 a      1579     0    79     1    19
  1.7895194843319481E-01 a      1580     0    79     1    20
  9.6227703551334698E-02 a      1581     0    80     1     1
  9.0491748708538003E-02 a      1582     0    80     1     2
 -3.4884848753353591E-02 a      1583     0    80     1     3
  3.9060297848938129E-02 a      1584     0    80     1     4
 -1.3731247458037471E-01 a      1585     0    80     1     5
 -1.3170717192787823E-01 a      1586     0    80     1     6
 -2.3010292013952149E-01 a      1587     0    80     1     7
 -1.9409569549953543E-02 a      1588     0    80     1     8
  7.5380048635303773E-02 a      1589     0    80     1     9
 -9.3491108332666606E-02 a      1590     0    80     1    10
  1.7802846242398640E-01 a      1591     0    80     1    11
 -5.3049753570507646E-02 a      1592     0    80     1    12
 -9.5882032641703890E-02 a      1593     0    80     1    13
  2.0502441354145670E-01 a      1594     0    80     1    14
  9.8989137477696137E-02 a      1595     0    80     1    15
  2.4033617538608734E-02 a      1596     0    80     1    16
  1.8692898276706740E-01 a      1597     0    80     1    17
  2.3474286572492020E-02 a      1598     0    80     1    18
 -5.3064318230137957E-02 a      1599     0    80     1    19
 -1.4304764873410231E-01 a      1600     0    80     1    20
  7.1320979387422476E-02 a      1601     0    81     1     1
 -2.7765882849018982E-02 a      1602     0    81     1     2
 -1.7633814992802885E-05 a      1603     0    81     1     3
 -4.3528024039219480E-02 a      1604     0    81     1     4
 -1.5150204682457194E-01 a      1605     0    81     1     5
 -6.6041406775617243E-03 a      1606     0    81     1     6
 -9.6239854914456288E-02 a      1607     0    81     1     7
  7.7441076669349893E-02 a      1608     0    81     1     8
 -2.8727651173403250E-02 a      1609     0    81     1     9
 -1.6098321146829431E-01 a      1610     0    81     1    10
  6.6209618980354754E-02 a      1611     0    81     1    11
 -9.2902588787471541E-02 a      1612     0    81     1    12
  8.8269633934494274E-02 a      1613     0    81     1    13
 -4.6481799781573067E-02 a      1614     0    81     1    14
  1.2104677608409521E-01 a      1615     0    81     1    15
  9.6872385002175349E-02 a      1616     0    81     1    16
 -1.2310234994997296E-02 a      1617     0    81     1    17
  1.6075888188045029E-01 a      1618     0    81     1    18
 -4.7531779863818700E-02 a      1619     0    81     1    19
 -7.3398572708528606E-02 a      1620     0    81     1    20
  2.7316867838659348E-01 a      1621     0    82     1     1
  1.7449563721921849E-01 a      1622     0    82     1     2
 -2.1335170425763625E-01 a      1623     0    82     1     3
