################################################################################
# Neural network connection values (weights and biases).
################################################################################
# Col  Name       Description
################################################################################
# 1    connection Neural network connection value.
# 2    t          Connection type (a = weight, b = bias).
# 3    index      Index enumerating weights.
# 4    l_s        Starting point layer (end point layer for biases).
# 5    n_s        Starting point neuron in starting layer (end point neuron for biases).
# 6    l_e        End point layer.
# 7    n_e        End point neuron in end layer.
################################################################################
#                      1 2         3     4     5     6     7
#             connection t     index   l_s   n_s   l_e   n_e
############################################################
 -3.5569762420607043E-01 a         1     0     1     1     1
 -8.4051223912016262E-02 a         2     0     1     1     2
  4.6564739585806464E-01 a         3     0     1     1     3
  1.3858280107369825E-01 a         4     0     1     1     4
  1.0162085545613971E-01 a         5     0     1     1     5
  1.2272612678054823E-01 a         6     0     1     1     6
  1.7462437603519768E-01 a         7     0     1     1     7
 -4.0903049678064747E-02 a         8     0     1     1     8
  1.6775119684016329E-01 a         9     0     1     1     9
  4.9890875040233915E-02 a        10     0     1     1    10
 -1.9610593895313086E-01 a        11     0     1     1    11
 -2.0813120038941471E-01 a        12     0     1     1    12
  3.4448442263027523E-01 a        13     0     1     1    13
  2.0880477762545591E-01 a        14     0     1     1    14
 -5.5353010900241091E-03 a        15     0     1     1    15
 -1.2283780958408506E-01 a        16     0     1     1    16
  6.2355705997333066E-01 a        17     0     1     1    17
  3.3028876774343413E-01 a        18     0     1     1    18
  2.1164813193738702E-01 a        19     0     1     1    19
 -6.1519117540760782E-02 a        20     0     1     1    20
 -1.3867974935243679E-01 a        21     0     2     1     1
  7.6686554967445614E-02 a        22     0     2     1     2
 -9.0246555815379336E-03 a        23     0     2     1     3
 -6.6194643381833410E-02 a        24     0     2     1     4
  1.5083248651956769E-02 a        25     0     2     1     5
  1.3651168557004900E-01 a        26     0     2     1     6
 -1.2135126646185788E-01 a        27     0     2     1     7
  9.4736900464987853E-02 a        28     0     2     1     8
 -6.5183352134735487E-02 a        29     0     2     1     9
  6.3190701486011552E-02 a        30     0     2     1    10
 -7.6449933711980236E-02 a        31     0     2     1    11
 -9.7688711111421508E-02 a        32     0     2     1    12
 -7.0951356497844344E-03 a        33     0     2     1    13
  1.1568829509855047E-01 a        34     0     2     1    14
  2.3055588409931480E-02 a        35     0     2     1    15
 -1.5031941477966234E-02 a        36     0     2     1    16
  2.5766124566245677E-02 a        37     0     2     1    17
 -5.6698551769684635E-02 a        38     0     2     1    18
  5.1531101204989264E-02 a        39     0     2     1    19
  5.0349010143398314E-02 a        40     0     2     1    20
 -2.9957287248821818E-01 a        41     0     3     1     1
 -9.0587651234750544E-02 a        42     0     3     1     2
  1.0434324890494696E-01 a        43     0     3     1     3
  1.2247794189641889E-01 a        44     0     3     1     4
 -1.8374180235124795E-02 a        45     0     3     1     5
  1.2877416902733285E-01 a        46     0     3     1     6
 -2.7390211841017209E-01 a        47     0     3     1     7
 -3.3714379051421911E-01 a        48     0     3     1     8
  1.9447904756485504E-01 a        49     0     3     1     9
 -5.3446508979561672E-02 a        50     0     3     1    10
  1.7157122874505257E-01 a        51     0     3     1    11
 -3.0803702359151003E-01 a        52     0     3     1    12
  5.7700944546304105E-03 a        53     0     3     1    13
  3.7298045202912183E-01 a        54     0     3     1    14
  3.1332873656667570E-01 a        55     0     3     1    15
 -4.0447204599293962E-02 a        56     0     3     1    16
 -1.0719458937017552E-01 a        57     0     3     1    17
 -7.3603891556482434E-02 a        58     0     3     1    18
 -1.7803973416478022E-01 a        59     0     3     1    19
  2.0460806797418289E-02 a        60     0     3     1    20
 -3.7410499651141599E-02 a        61     0     4     1     1
  1.2702402893688242E-01 a        62     0     4     1     2
 -8.6078730229080011E-02 a        63     0     4     1     3
 -1.8678592812763342E-01 a        64     0     4     1     4
 -1.2213906615742409E-02 a        65     0     4     1     5
  3.0139809282054630E-02 a        66     0     4     1     6
 -1.3226663853824305E-01 a        67     0     4     1     7
  2.2443881276440850E-01 a        68     0     4     1     8
 -1.2635251894613142E-01 a        69     0     4     1     9
 -8.4274917522449436E-02 a        70     0     4     1    10
  1.4399153301738721E-01 a        71     0     4     1    11
 -1.4850758197623441E-02 a        72     0     4     1    12
 -1.3129266635081704E-01 a        73     0     4     1    13
 -2.6015017102357296E-01 a        74     0     4     1    14
 -3.0145760456596553E-02 a        75     0     4     1    15
  1.1003711617774545E-01 a        76     0     4     1    16
  1.3864982657011782E-01 a        77     0     4     1    17
 -1.0045188793789661E-01 a        78     0     4     1    18
 -8.4948743976048270E-03 a        79     0     4     1    19
  4.7682375824826102E-02 a        80     0     4     1    20
 -1.9863025404699350E-02 a        81     0     5     1     1
  5.3445384900698598E-02 a        82     0     5     1     2
  6.6071596525410850E-02 a        83     0     5     1     3
 -8.5675563906068203E-02 a        84     0     5     1     4
 -5.2629750624386552E-02 a        85     0     5     1     5
  1.2457253900600752E-01 a        86     0     5     1     6
 -1.2237807870742198E-01 a        87     0     5     1     7
 -9.6439832578207915E-02 a        88     0     5     1     8
  5.6168143109496013E-02 a        89     0     5     1     9
  7.4581521748649168E-02 a        90     0     5     1    10
  1.3493881436376645E-01 a        91     0     5     1    11
 -8.1893248198153426E-02 a        92     0     5     1    12
  9.6436961797312509E-02 a        93     0     5     1    13
  5.1868253934389444E-02 a        94     0     5     1    14
  5.1177222950207081E-02 a        95     0     5     1    15
 -1.6247703869414870E-01 a        96     0     5     1    16
  3.7542400938719592E-02 a        97     0     5     1    17
 -1.1044001954508818E-01 a        98     0     5     1    18
  2.0146403525701748E-01 a        99     0     5     1    19
 -4.8552497343819119E-02 a       100     0     5     1    20
  8.1973952256033003E-02 a       101     0     6     1     1
  7.3325613664663336E-02 a       102     0     6     1     2
 -2.0763840519218374E-01 a       103     0     6     1     3
  2.8363849064084951E-01 a       104     0     6     1     4
 -1.5807351930227870E-01 a       105     0     6     1     5
 -5.8728459460445359E-02 a       106     0     6     1     6
 -3.0176020719828900E-01 a       107     0     6     1     7
 -4.7320103541529607E-01 a       108     0     6     1     8
  1.7748825667013596E-01 a       109     0     6     1     9
  1.4456643489087773E-01 a       110     0     6     1    10
 -9.0844055458584819E-03 a       111     0     6     1    11
  5.9393200943848767E-01 a       112     0     6     1    12
 -7.3117165299290021E-01 a       113     0     6     1    13
 -3.2435230498970857E-01 a       114     0     6     1    14
 -2.3267156169269901E-01 a       115     0     6     1    15
 -6.3050075923879534E-03 a       116     0     6     1    16
 -5.9426147134162631E-02 a       117     0     6     1    17
 -1.5850300386654567E-01 a       118     0     6     1    18
 -7.7105900663769622E-01 a       119     0     6     1    19
  5.5077217808271808E-02 a       120     0     6     1    20
  1.4301688465904872E-01 a       121     0     7     1     1
 -2.1408697468647780E-01 a       122     0     7     1     2
  6.1385966805703955E-02 a       123     0     7     1     3
  2.1095908689963940E-02 a       124     0     7     1     4
  2.1642366133252433E-01 a       125     0     7     1     5
  1.0012757151404969E-02 a       126     0     7     1     6
  7.0987325164595397E-02 a       127     0     7     1     7
 -1.0746211559148243E-01 a       128     0     7     1     8
 -2.5907257774017704E-02 a       129     0     7     1     9
 -8.6194887296270076E-02 a       130     0     7     1    10
 -9.3264541944831150E-02 a       131     0     7     1    11
  3.9895889318172610E-02 a       132     0     7     1    12
  7.8966008028210966E-02 a       133     0     7     1    13
 -1.0856829248232315E-01 a       134     0     7     1    14
 -3.6515587250471437E-02 a       135     0     7     1    15
 -9.8946064110828139E-02 a       136     0     7     1    16
  7.3523529767049289E-02 a       137     0     7     1    17
  1.9590369155442927E-01 a       138     0     7     1    18
  1.8989198268879355E-02 a       139     0     7     1    19
 -7.3249964635756962E-02 a       140     0     7     1    20
 -1.5512618546555262E-03 a       141     0     8     1     1
 -7.5794736137005519E-02 a       142     0     8     1     2
 -1.6531865951643052E-01 a       143     0     8     1     3
 -1.4375473843849840E-01 a       144     0     8     1     4
  1.4605347727654275E-01 a       145     0     8     1     5
 -1.4110017444026568E-03 a       146     0     8     1     6
 -1.3142487863024037E-02 a       147     0     8     1     7
  7.0933996193482521E-02 a       148     0     8     1     8
 -7.8072970464846490E-03 a       149     0     8     1     9
  1.9019547997764963E-01 a       150     0     8     1    10
 -3.1374111390515702E-01 a       151     0     8     1    11
  5.2388214450024631E-02 a       152     0     8     1    12
 -1.1249748022363187E-01 a       153     0     8     1    13
  5.2690366634956645E-02 a       154     0     8     1    14
 -2.3077587531861030E-01 a       155     0     8     1    15
 -2.6168331744230420E-02 a       156     0     8     1    16
  3.1665875550185733E-02 a       157     0     8     1    17
  1.6030308346886668E-01 a       158     0     8     1    18
  1.3543182296471787E-01 a       159     0     8     1    19
  4.9065728856425524E-02 a       160     0     8     1    20
 -1.0015079096923558E-01 a       161     0     9     1     1
  5.3901528844417172E-02 a       162     0     9     1     2
  1.2403906843419914E-01 a       163     0     9     1     3
  1.9190651722613097E-01 a       164     0     9     1     4
  1.5242309281070915E-01 a       165     0     9     1     5
  1.2496964334222576E-02 a       166     0     9     1     6
 -3.6521069526912205E-02 a       167     0     9     1     7
  7.7581718542101580E-02 a       168     0     9     1     8
  1.9408320147455013E-01 a       169     0     9     1     9
  1.2741843474212824E-01 a       170     0     9     1    10
 -9.2057276023527562E-02 a       171     0     9     1    11
  1.7447901492747644E-01 a       172     0     9     1    12
 -1.2233278276344663E-01 a       173     0     9     1    13
  1.9930712500505465E-01 a       174     0     9     1    14
 -6.3378230484103917E-02 a       175     0     9     1    15
 -1.4491791944098245E-01 a       176     0     9     1    16
 -1.7549913784051585E-01 a       177     0     9     1    17
 -1.9024462665862253E-02 a       178     0     9     1    18
  4.2657477753724860E-02 a       179     0     9     1    19
 -1.9370374342539656E-03 a       180     0     9     1    20
 -1.2475932088027164E-01 a       181     0    10     1     1
 -9.1096651078292179E-02 a       182     0    10     1     2
 -9.7599148816947298E-02 a       183     0    10     1     3
  3.1101874196664631E-02 a       184     0    10     1     4
 -1.0627965685895359E-01 a       185     0    10     1     5
  6.2066337687594619E-02 a       186     0    10     1     6
 -6.1911005362457479E-02 a       187     0    10     1     7
  1.6041289414303356E-01 a       188     0    10     1     8
  1.0087083404987228E-01 a       189     0    10     1     9
  3.6015064235126910E-02 a       190     0    10     1    10
  2.9872088035506134E-02 a       191     0    10     1    11
  1.1473489187772760E-01 a       192     0    10     1    12
  7.5350522454939051E-03 a       193     0    10     1    13
 -1.5811042035193909E-01 a       194     0    10     1    14
  4.6249858660773455E-02 a       195     0    10     1    15
  6.3117529562759433E-04 a       196     0    10     1    16
  2.8324889684566888E-02 a       197     0    10     1    17
  1.7597501081223385E-01 a       198     0    10     1    18
 -1.3939325628848082E-01 a       199     0    10     1    19
  8.0751363273071114E-02 a       200     0    10     1    20
 -9.9236494126400520E-03 a       201     0    11     1     1
  2.8431120289543232E-01 a       202     0    11     1     2
  6.3587141337052792E-03 a       203     0    11     1     3
  1.6017086469891709E-01 a       204     0    11     1     4
  1.8219168115122062E-02 a       205     0    11     1     5
 -1.5049360534211112E-01 a       206     0    11     1     6
 -3.2049228135971219E-01 a       207     0    11     1     7
  5.7911568940291737E-02 a       208     0    11     1     8
 -1.6635053760965035E-01 a       209     0    11     1     9
 -3.6902378546398956E-01 a       210     0    11     1    10
  1.2033292408024278E-01 a       211     0    11     1    11
  2.9030064516846682E-01 a       212     0    11     1    12
  9.4079717662702150E-02 a       213     0    11     1    13
 -1.2722533146724810E-01 a       214     0    11     1    14
 -5.6231812170155360E-01 a       215     0    11     1    15
 -3.4598284084718950E-01 a       216     0    11     1    16
 -1.5900672790447268E-01 a       217     0    11     1    17
  1.0942935229843302E-01 a       218     0    11     1    18
  1.5991348985879042E-01 a       219     0    11     1    19
 -2.6204644568531898E-01 a       220     0    11     1    20
 -7.1756263952644353E-02 a       221     0    12     1     1
  1.1429478425392256E-01 a       222     0    12     1     2
 -7.7517133014896409E-03 a       223     0    12     1     3
 -4.7306976759108131E-02 a       224     0    12     1     4
 -5.8995174132181596E-02 a       225     0    12     1     5
  1.4723419122380219E-02 a       226     0    12     1     6
 -8.3669393380363749E-02 a       227     0    12     1     7
  3.5219160269564097E-03 a       228     0    12     1     8
 -1.0426308297275182E-01 a       229     0    12     1     9
 -2.3994780222044446E-02 a       230     0    12     1    10
  4.8999309924025854E-02 a       231     0    12     1    11
 -6.1204607911921338E-02 a       232     0    12     1    12
 -6.8978621617842212E-02 a       233     0    12     1    13
 -6.1643265512430497E-02 a       234     0    12     1    14
 -1.2178959732876236E-01 a       235     0    12     1    15
  3.8205838739534384E-02 a       236     0    12     1    16
 -8.5042938927998524E-02 a       237     0    12     1    17
  2.4682108571064999E-02 a       238     0    12     1    18
  1.3181947304738765E-02 a       239     0    12     1    19
  2.5478864128592231E-02 a       240     0    12     1    20
  2.6890500623619976E-02 a       241     0    13     1     1
  5.2638952388007719E-02 a       242     0    13     1     2
 -1.7701033377446780E-02 a       243     0    13     1     3
 -9.7771288932262321E-02 a       244     0    13     1     4
 -7.3629890592812497E-02 a       245     0    13     1     5
  9.0886010438971862E-03 a       246     0    13     1     6
 -1.2944085572311903E-01 a       247     0    13     1     7
  1.2052613237423224E-01 a       248     0    13     1     8
  1.4278238966666701E-01 a       249     0    13     1     9
  1.8523689228240503E-01 a       250     0    13     1    10
 -2.9913687365543680E-02 a       251     0    13     1    11
  1.7757053490948316E-01 a       252     0    13     1    12
 -8.4915913886330713E-02 a       253     0    13     1    13
 -4.4091794899225223E-01 a       254     0    13     1    14
  2.3763085375159670E-01 a       255     0    13     1    15
  1.5846203754767604E-01 a       256     0    13     1    16
 -7.7789339637080415E-02 a       257     0    13     1    17
  2.3575444742047069E-01 a       258     0    13     1    18
  7.5219106011294876E-02 a       259     0    13     1    19
 -1.7760508419600660E-01 a       260     0    13     1    20
 -2.3277975034333684E-01 a       261     0    14     1     1
 -2.3026532067395902E-01 a       262     0    14     1     2
  7.0152349234259490E-02 a       263     0    14     1     3
 -1.3558459570989898E-01 a       264     0    14     1     4
  3.4678460949853135E-02 a       265     0    14     1     5
  5.6531219228519232E-02 a       266     0    14     1     6
 -2.2662242414158795E-01 a       267     0    14     1     7
  1.1543096867234269E-01 a       268     0    14     1     8
 -8.3365240361583465E-02 a       269     0    14     1     9
  6.9015958890864593E-02 a       270     0    14     1    10
 -2.1954833603481169E-01 a       271     0    14     1    11
 -2.5732764151117060E-01 a       272     0    14     1    12
  1.1293848428274060E-01 a       273     0    14     1    13
 -9.8655007948662207E-03 a       274     0    14     1    14
 -4.9058058056704205E-02 a       275     0    14     1    15
  1.5984351942549757E-01 a       276     0    14     1    16
 -2.0669998690992025E-01 a       277     0    14     1    17
 -1.6375670315010663E-01 a       278     0    14     1    18
 -9.1710758039177220E-02 a       279     0    14     1    19
 -4.0994369881066958E-02 a       280     0    14     1    20
 -1.6925913609314672E-01 a       281     0    15     1     1
  1.6489101367500433E-01 a       282     0    15     1     2
  6.4902972875057599E-02 a       283     0    15     1     3
 -3.4674252325379358E-02 a       284     0    15     1     4
  8.7629642835525601E-02 a       285     0    15     1     5
  7.8188357262893998E-02 a       286     0    15     1     6
  2.4002335650994324E-02 a       287     0    15     1     7
 -4.3027207084639731E-02 a       288     0    15     1     8
 -1.8089578581154697E-01 a       289     0    15     1     9
 -8.6939039907852553E-02 a       290     0    15     1    10
 -6.7139433811643265E-02 a       291     0    15     1    11
  1.2733196123688669E-02 a       292     0    15     1    12
 -9.3783423724710449E-02 a       293     0    15     1    13
 -1.1560488232647727E-01 a       294     0    15     1    14
 -1.1354984697450710E-01 a       295     0    15     1    15
 -4.7461398695679419E-02 a       296     0    15     1    16
  1.2823098546253081E-01 a       297     0    15     1    17
 -1.4723095461147417E-01 a       298     0    15     1    18
 -1.8821878565484074E-01 a       299     0    15     1    19
 -1.5258392303012655E-01 a       300     0    15     1    20
  1.6666395704936671E-01 a       301     0    16     1     1
 -1.4626952124870934E-01 a       302     0    16     1     2
 -4.6089578042753557E-02 a       303     0    16     1     3
  1.4118204217650895E-01 a       304     0    16     1     4
 -1.5736908470914313E-01 a       305     0    16     1     5
 -1.3025065228710910E-02 a       306     0    16     1     6
  9.2098054506091279E-02 a       307     0    16     1     7
 -2.4869719259818457E-01 a       308     0    16     1     8
  3.5018571412282756E-01 a       309     0    16     1     9
  1.7368334183875506E-01 a       310     0    16     1    10
 -1.1946908908436371E-01 a       311     0    16     1    11
  9.9178662457966332E-02 a       312     0    16     1    12
 -1.3114904390578730E-01 a       313     0    16     1    13
 -3.4956871585456135E-02 a       314     0    16     1    14
 -2.4743999277957663E-02 a       315     0    16     1    15
 -1.9885744372603847E-01 a       316     0    16     1    16
  8.7194490863311561E-02 a       317     0    16     1    17
 -1.0745459163975503E-01 a       318     0    16     1    18
  1.1140639635212184E-01 a       319     0    16     1    19
  2.8680772391946809E-02 a       320     0    16     1    20
 -1.5178199571016593E-02 a       321     0    17     1     1
 -9.7093535499411701E-02 a       322     0    17     1     2
 -6.4064633203218604E-02 a       323     0    17     1     3
 -3.5884770078652720E-02 a       324     0    17     1     4
  1.1111598812151895E-01 a       325     0    17     1     5
  2.6460833896905928E-02 a       326     0    17     1     6
  1.1306184680136515E-02 a       327     0    17     1     7
 -4.8401052845799007E-02 a       328     0    17     1     8
 -9.9722311771607789E-03 a       329     0    17     1     9
  4.0671922313820559E-02 a       330     0    17     1    10
 -1.2986169167894354E-01 a       331     0    17     1    11
  1.0105219966947583E-02 a       332     0    17     1    12
  9.8143291636872132E-02 a       333     0    17     1    13
  1.2789200036792978E-01 a       334     0    17     1    14
  1.3303885843236668E-01 a       335     0    17     1    15
 -7.6814643085502315E-02 a       336     0    17     1    16
  3.8425530714632804E-02 a       337     0    17     1    17
  1.3043236440400835E-02 a       338     0    17     1    18
 -1.9013373827775158E-02 a       339     0    17     1    19
 -7.6446345842777243E-03 a       340     0    17     1    20
 -9.5507572922546802E-02 a       341     0    18     1     1
 -1.6230096219967963E-02 a       342     0    18     1     2
  9.9943795496271345E-02 a       343     0    18     1     3
  4.3960164360410626E-03 a       344     0    18     1     4
  2.1389792791988965E-02 a       345     0    18     1     5
 -2.0553684794304156E-02 a       346     0    18     1     6
 -6.6976240242157481E-02 a       347     0    18     1     7
 -1.8108337991558857E-01 a       348     0    18     1     8
 -7.8058650146426087E-02 a       349     0    18     1     9
 -1.4789144052799685E-01 a       350     0    18     1    10
  1.5422412439687913E-01 a       351     0    18     1    11
 -2.7044981122645090E-01 a       352     0    18     1    12
  4.9973456414028970E-02 a       353     0    18     1    13
  1.8340368462452966E-01 a       354     0    18     1    14
  2.0269966557411340E-02 a       355     0    18     1    15
 -9.8871415682331890E-02 a       356     0    18     1    16
  1.2832737169226083E-01 a       357     0    18     1    17
  1.8844927084779067E-01 a       358     0    18     1    18
  7.9080652341377511E-02 a       359     0    18     1    19
  8.4008017905353796E-02 a       360     0    18     1    20
 -1.1145857609269805E-01 a       361     0    19     1     1
  1.4326637509178816E-01 a       362     0    19     1     2
 -1.5164888626961767E-01 a       363     0    19     1     3
 -1.3546626751106852E-01 a       364     0    19     1     4
  4.4570737729880579E-03 a       365     0    19     1     5
  4.6788029425152214E-02 a       366     0    19     1     6
  1.0956915389590921E-01 a       367     0    19     1     7
  2.1058749788787693E-02 a       368     0    19     1     8
  8.5736821146782896E-02 a       369     0    19     1     9
  6.3855213971360389E-02 a       370     0    19     1    10
  1.0591095086338871E-01 a       371     0    19     1    11
 -2.6960012238496530E-02 a       372     0    19     1    12
 -4.9315537594005997E-02 a       373     0    19     1    13
  2.6981202835131096E-01 a       374     0    19     1    14
 -1.1385768243334785E-01 a       375     0    19     1    15
  3.4854313529548014E-02 a       376     0    19     1    16
 -1.3634332591253986E-01 a       377     0    19     1    17
 -1.0028785446589590E-01 a       378     0    19     1    18
  1.1985828668710463E-01 a       379     0    19     1    19
 -5.7292508792861088E-02 a       380     0    19     1    20
 -1.7770121211087625E-01 a       381     0    20     1     1
 -4.5382375558232144E-02 a       382     0    20     1     2
  5.6757812290600590E-02 a       383     0    20     1     3
 -1.2038311733806155E-01 a       384     0    20     1     4
 -1.0663528469025124E-01 a       385     0    20     1     5
 -1.2118036340776046E-01 a       386     0    20     1     6
 -1.1878937043321759E-01 a       387     0    20     1     7
 -6.4746981135593296E-02 a       388     0    20     1     8
  1.0318683804692257E-01 a       389     0    20     1     9
  2.8987929408590501E-01 a       390     0    20     1    10
  1.5742923482596513E-01 a       391     0    20     1    11
 -7.1020392154146031E-02 a       392     0    20     1    12
 -1.5307832626765797E-01 a       393     0    20     1    13
  9.3207193091346202E-02 a       394     0    20     1    14
 -2.5813979717154655E-03 a       395     0    20     1    15
  1.7408692685232405E-01 a       396     0    20     1    16
  2.5334645763083651E-02 a       397     0    20     1    17
 -1.2331844730606019E-01 a       398     0    20     1    18
  7.0051867259503728E-02 a       399     0    20     1    19
 -1.2255757064436720E-01 a       400     0    20     1    20
 -2.6390656122797795E-01 a       401     0    21     1     1
  1.8566465131267978E-01 a       402     0    21     1     2
 -2.1634123652453444E-02 a       403     0    21     1     3
  8.2085339603246335E-02 a       404     0    21     1     4
  7.4703120284685343E-02 a       405     0    21     1     5
 -7.9365999125232914E-02 a       406     0    21     1     6
 -2.1375203974593962E-01 a       407     0    21     1     7
 -1.9195052888408106E-03 a       408     0    21     1     8
  3.7073086787789609E-02 a       409     0    21     1     9
 -1.2046460728101485E-01 a       410     0    21     1    10
  1.3431753456394758E-02 a       411     0    21     1    11
  1.8903699296005042E-01 a       412     0    21     1    12
 -2.6506876443728172E-01 a       413     0    21     1    13
 -7.3980629441548915E-02 a       414     0    21     1    14
 -2.8155165795618797E-01 a       415     0    21     1    15
 -1.2078996950839428E-01 a       416     0    21     1    16
  1.3301978934958023E-02 a       417     0    21     1    17
  4.9472589840385231E-02 a       418     0    21     1    18
 -1.3471971425988924E-01 a       419     0    21     1    19
 -6.2289493442844825E-02 a       420     0    21     1    20
 -2.5757104104646072E-02 a       421     0    22     1     1
  3.1075584329995624E-02 a       422     0    22     1     2
  6.6318019344728859E-03 a       423     0    22     1     3
 -7.5967716550955511E-04 a       424     0    22     1     4
 -2.0675079512083933E-02 a       425     0    22     1     5
  3.6189222125614109E-03 a       426     0    22     1     6
 -1.0055888815255888E-02 a       427     0    22     1     7
 -1.8588310153331417E-02 a       428     0    22     1     8
 -2.7432554215208203E-02 a       429     0    22     1     9
 -4.7461424763324536E-03 a       430     0    22     1    10
 -1.5394531770575770E-03 a       431     0    22     1    11
 -7.6252705429770981E-03 a       432     0    22     1    12
 -3.2644259843104290E-02 a       433     0    22     1    13
 -1.9579659071689265E-02 a       434     0    22     1    14
 -1.5571183689833439E-02 a       435     0    22     1    15
  2.8774581047047647E-02 a       436     0    22     1    16
 -1.9533766850459607E-03 a       437     0    22     1    17
  1.4607877974760340E-02 a       438     0    22     1    18
 -3.5990409458359915E-03 a       439     0    22     1    19
  5.4099479091543187E-03 a       440     0    22     1    20
 -1.8252718385030928E-02 a       441     0    23     1     1
  2.7731562045865705E-02 a       442     0    23     1     2
 -8.1679499929597235E-02 a       443     0    23     1     3
 -4.6210202430253713E-02 a       444     0    23     1     4
 -2.4227495410835739E-02 a       445     0    23     1     5
 -1.5823450976691272E-01 a       446     0    23     1     6
  1.3056016315802152E-01 a       447     0    23     1     7
 -4.6310060583788337E-02 a       448     0    23     1     8
  2.4536483409335264E-01 a       449     0    23     1     9
  2.2778281243459285E-03 a       450     0    23     1    10
  3.5561977279608625E-01 a       451     0    23     1    11
  1.1678378784948266E-02 a       452     0    23     1    12
 -9.8182745555017020E-02 a       453     0    23     1    13
 -1.2450592397619405E-01 a       454     0    23     1    14
 -2.3797281880954979E-01 a       455     0    23     1    15
  7.5130793071485650E-03 a       456     0    23     1    16
 -1.7189301969894943E-01 a       457     0    23     1    17
  8.4178412543422163E-02 a       458     0    23     1    18
  4.7988297508510226E-02 a       459     0    23     1    19
 -5.1369208005424445E-02 a       460     0    23     1    20
 -1.8766429749467226E-01 a       461     0    24     1     1
  3.1866520052988116E-02 a       462     0    24     1     2
 -2.6983020641005464E-02 a       463     0    24     1     3
  1.1561617503840759E-02 a       464     0    24     1     4
  9.6030988528164524E-02 a       465     0    24     1     5
 -1.2883334579375258E-02 a       466     0    24     1     6
 -1.2010841760630864E-01 a       467     0    24     1     7
  6.3353679855052067E-02 a       468     0    24     1     8
 -2.4970743416056382E-01 a       469     0    24     1     9
 -8.5103725915813083E-02 a       470     0    24     1    10
 -2.0779666862528517E-01 a       471     0    24     1    11
  1.9015375642314558E-01 a       472     0    24     1    12
 -1.1701917416759455E-01 a       473     0    24     1    13
  3.5710551888902424E-02 a       474     0    24     1    14
 -6.3796331251112559E-02 a       475     0    24     1    15
 -8.6472570391421671E-03 a       476     0    24     1    16
  6.9796442050226198E-02 a       477     0    24     1    17
 -1.8339031567806221E-02 a       478     0    24     1    18
  5.8049259851823611E-02 a       479     0    24     1    19
 -9.7776815945479448E-02 a       480     0    24     1    20
  8.8619540765284166E-02 a       481     0    25     1     1
  1.5374743378936770E-01 a       482     0    25     1     2
  3.4549461683597467E-02 a       483     0    25     1     3
  1.1200426664971441E-01 a       484     0    25     1     4
 -3.9311371357284970E-02 a       485     0    25     1     5
 -5.4188244637757788E-02 a       486     0    25     1     6
  6.0288427983633333E-02 a       487     0    25     1     7
 -1.8414560269211597E-02 a       488     0    25     1     8
 -1.5233195042301834E-01 a       489     0    25     1     9
  4.5061158891777416E-03 a       490     0    25     1    10
 -2.1269554269503574E-01 a       491     0    25     1    11
  1.3674554762027652E-01 a       492     0    25     1    12
  1.3687867570712376E-02 a       493     0    25     1    13
  6.2467987325873178E-02 a       494     0    25     1    14
 -3.7946383222153247E-02 a       495     0    25     1    15
  1.9530748244522841E-01 a       496     0    25     1    16
 -7.5737678738396735E-02 a       497     0    25     1    17
  6.5885107683449989E-02 a       498     0    25     1    18
 -7.6190469978747288E-02 a       499     0    25     1    19
  8.7269042845168593E-02 a       500     0    25     1    20
  1.8921859148363090E-01 a       501     0    26     1     1
 -1.0236158169941521E-01 a       502     0    26     1     2
  1.5826409268377775E-01 a       503     0    26     1     3
  4.1187635563165272E-02 a       504     0    26     1     4
 -6.7172062417171427E-02 a       505     0    26     1     5
  9.0015412327245026E-02 a       506     0    26     1     6
  6.1262962309693914E-02 a       507     0    26     1     7
 -1.1560717186555440E-01 a       508     0    26     1     8
  1.6331043464009917E-01 a       509     0    26     1     9
  1.7204960222206678E-01 a       510     0    26     1    10
  4.8479411376304467E-02 a       511     0    26     1    11
 -5.1178967545027626E-02 a       512     0    26     1    12
  1.9906679175445763E-01 a       513     0    26     1    13
 -1.8512756855878536E-02 a       514     0    26     1    14
 -4.1759209578995600E-02 a       515     0    26     1    15
  1.8124283968154676E-02 a       516     0    26     1    16
  1.6601491270232027E-02 a       517     0    26     1    17
  3.0551721466412413E-02 a       518     0    26     1    18
  1.8835315601301650E-01 a       519     0    26     1    19
 -1.4844640750434673E-01 a       520     0    26     1    20
  2.3473294645540124E-02 a       521     0    27     1     1
 -1.8981808100491243E-02 a       522     0    27     1     2
 -4.4333356494142079E-02 a       523     0    27     1     3
 -2.7516813307441958E-02 a       524     0    27     1     4
  1.1337384696485420E-02 a       525     0    27     1     5
 -2.6858410975627023E-02 a       526     0    27     1     6
 -5.9572654771909367E-03 a       527     0    27     1     7
  2.5973610390877082E-02 a       528     0    27     1     8
  9.2351036356381287E-03 a       529     0    27     1     9
  1.6744992245774524E-04 a       530     0    27     1    10
  2.5826821501605667E-02 a       531     0    27     1    11
  5.3790345593651596E-03 a       532     0    27     1    12
  5.0274636336171498E-02 a       533     0    27     1    13
  4.4148509676054715E-02 a       534     0    27     1    14
 -8.0824687959188228E-03 a       535     0    27     1    15
 -4.0503777996690637E-02 a       536     0    27     1    16
 -6.7783337347900111E-02 a       537     0    27     1    17
 -3.2016145396178579E-02 a       538     0    27     1    18
 -1.1252987653978171E-02 a       539     0    27     1    19
 -4.2987860467197155E-03 a       540     0    27     1    20
 -7.2398715183910667E-02 a       541     0    28     1     1
  5.5369193756399711E-02 a       542     0    28     1     2
 -2.4429064003525812E-02 a       543     0    28     1     3
  1.3011029762429135E-01 a       544     0    28     1     4
  6.3445967340914886E-02 a       545     0    28     1     5
 -1.9257862895050659E-01 a       546     0    28     1     6
 -5.2665097534908514E-02 a       547     0    28     1     7
  1.5170921992146996E-01 a       548     0    28     1     8
 -1.8931816524259959E-01 a       549     0    28     1     9
 -1.1870450280878812E-01 a       550     0    28     1    10
 -2.2302743905843836E-01 a       551     0    28     1    11
  8.5329440269611673E-02 a       552     0    28     1    12
 -2.3772861764963099E-01 a       553     0    28     1    13
 -6.7966241959678236E-02 a       554     0    28     1    14
 -7.2069864082218674E-02 a       555     0    28     1    15
 -5.1521789169470394E-02 a       556     0    28     1    16
  5.2026030478384361E-02 a       557     0    28     1    17
  5.1363972805090067E-03 a       558     0    28     1    18
  7.1610690186229245E-02 a       559     0    28     1    19
  2.4401127143981938E-01 a       560     0    28     1    20
 -1.6128901497034184E-01 a       561     0    29     1     1
  4.7375120359826418E-02 a       562     0    29     1     2
  8.4181781756944227E-02 a       563     0    29     1     3
 -1.0049825070484759E-03 a       564     0    29     1     4
 -3.6322380930917962E-02 a       565     0    29     1     5
  2.5100340638975233E-02 a       566     0    29     1     6
  8.5777168608453400E-02 a       567     0    29     1     7
 -8.7640207096950057E-02 a       568     0    29     1     8
  1.3738425331196372E-01 a       569     0    29     1     9
  4.4618309099989518E-02 a       570     0    29     1    10
  2.7182693981355897E-02 a       571     0    29     1    11
  2.9433818596849740E-02 a       572     0    29     1    12
  7.1412298661495233E-02 a       573     0    29     1    13
  2.4708753477331761E-02 a       574     0    29     1    14
 -1.1423564508063046E-01 a       575     0    29     1    15
  8.2000401592202066E-02 a       576     0    29     1    16
 -1.1940622795774783E-01 a       577     0    29     1    17
 -6.6635207848941336E-02 a       578     0    29     1    18
 -1.4457153813148646E-01 a       579     0    29     1    19
 -9.3475187605562005E-02 a       580     0    29     1    20
 -1.0307708646956296E-01 a       581     0    30     1     1
 -3.9348256940497442E-02 a       582     0    30     1     2
  7.7113857635999830E-02 a       583     0    30     1     3
  1.5730285687784316E-02 a       584     0    30     1     4
  7.1619659174069483E-02 a       585     0    30     1     5
  2.4490763195880234E-02 a       586     0    30     1     6
 -9.0538426171694539E-02 a       587     0    30     1     7
 -1.9524329723030714E-01 a       588     0    30     1     8
  2.0037658620686896E-01 a       589     0    30     1     9
  1.1115535308343720E-01 a       590     0    30     1    10
  1.2409476289441863E-01 a       591     0    30     1    11
 -1.2588587169258128E-01 a       592     0    30     1    12
  2.3670648141448383E-02 a       593     0    30     1    13
 -1.2286432023889798E-01 a       594     0    30     1    14
 -1.1934352033937207E-01 a       595     0    30     1    15
 -1.2002703878950539E-01 a       596     0    30     1    16
 -1.5771196106815163E-01 a       597     0    30     1    17
  1.1472022773519498E-01 a       598     0    30     1    18
  2.5737086587758355E-02 a       599     0    30     1    19
  7.7394225132630980E-03 a       600     0    30     1    20
 -7.2204781807633706E-02 a       601     0    31     1     1
  4.6572891210348084E-02 a       602     0    31     1     2
 -1.5632211677556407E-01 a       603     0    31     1     3
 -1.3838638215693327E-01 a       604     0    31     1     4
  4.7060727968955282E-03 a       605     0    31     1     5
  5.6557674700558017E-02 a       606     0    31     1     6
 -1.3986341996828952E-01 a       607     0    31     1     7
  1.3589336629038187E-01 a       608     0    31     1     8
  3.2087276221074754E-02 a       609     0    31     1     9
  2.8978181864062525E-02 a       610     0    31     1    10
 -6.7634419163250303E-02 a       611     0    31     1    11
 -1.0328401364708870E-02 a       612     0    31     1    12
  7.3220046590445273E-03 a       613     0    31     1    13
  2.5759623790883734E-01 a       614     0    31     1    14
  2.1354266004408401E-01 a       615     0    31     1    15
 -1.0584649847519033E-01 a       616     0    31     1    16
 -4.6248299574478680E-02 a       617     0    31     1    17
 -1.0861015768102671E-01 a       618     0    31     1    18
 -8.1668435029281297E-02 a       619     0    31     1    19
  4.9765805292992377E-02 a       620     0    31     1    20
 -2.8862856727337575E-02 a       621     0    32     1     1
  8.5385719238602765E-03 a       622     0    32     1     2
  2.0512809625314862E-02 a       623     0    32     1     3
  1.4785802692600625E-02 a       624     0    32     1     4
  3.0515910154846256E-04 a       625     0    32     1     5
  2.2435324336830927E-02 a       626     0    32     1     6
  7.0734149175336811E-03 a       627     0    32     1     7
 -3.2647503918317021E-02 a       628     0    32     1     8
 -1.1179025864223913E-02 a       629     0    32     1     9
  8.9745322741795665E-03 a       630     0    32     1    10
 -3.8618340414195769E-02 a       631     0    32     1    11
 -3.9507905440525869E-03 a       632     0    32     1    12
 -3.1187442377990628E-02 a       633     0    32     1    13
 -2.2038363679671644E-02 a       634     0    32     1    14
  2.8768480665424319E-02 a       635     0    32     1    15
  2.0826286695194381E-02 a       636     0    32     1    16
  6.6144825803252094E-02 a       637     0    32     1    17
  2.6459267780026045E-02 a       638     0    32     1    18
  8.0755138388372595E-03 a       639     0    32     1    19
  5.5288263780205980E-03 a       640     0    32     1    20
  7.9150383255769716E-02 a       641     0    33     1     1
 -3.6161300195661709E-02 a       642     0    33     1     2
 -4.4672855211997993E-02 a       643     0    33     1     3
 -1.7497468143616787E-01 a       644     0    33     1     4
 -5.7828547156529769E-02 a       645     0    33     1     5
  2.6817445209762986E-01 a       646     0    33     1     6
 -1.9951101457847439E-01 a       647     0    33     1     7
 -3.9257445205188200E-03 a       648     0    33     1     8
  2.8990435403921069E-02 a       649     0    33     1     9
  8.2311777210716558E-02 a       650     0    33     1    10
  1.2412596197834176E-01 a       651     0    33     1    11
 -2.0620824022139470E-01 a       652     0    33     1    12
  1.6731512477792840E-01 a       653     0    33     1    13
 -2.4592123771306597E-03 a       654     0    33     1    14
  2.3530390414936142E-01 a       655     0    33     1    15
  4.0153649678758528E-02 a       656     0    33     1    16
 -1.1608353706080114E-01 a       657     0    33     1    17
 -7.4597775243826270E-02 a       658     0    33     1    18
 -9.2140495464958783E-02 a       659     0    33     1    19
 -4.2010197129542709E-02 a       660     0    33     1    20
  8.9427242150605935E-02 a       661     0    34     1     1
 -5.7594796339724114E-02 a       662     0    34     1     2
 -4.9961259874969410E-02 a       663     0    34     1     3
  4.1800365968603578E-02 a       664     0    34     1     4
  9.9330741059381417E-02 a       665     0    34     1     5
 -3.8243335899194798E-02 a       666     0    34     1     6
 -4.6023023811079158E-02 a       667     0    34     1     7
 -6.3106910207861674E-02 a       668     0    34     1     8
 -5.8195630412708949E-02 a       669     0    34     1     9
  7.7668721930829410E-02 a       670     0    34     1    10
 -3.0731197513889513E-02 a       671     0    34     1    11
  2.4964257824115026E-02 a       672     0    34     1    12
  8.0796571294028757E-02 a       673     0    34     1    13
  1.6793120095246855E-01 a       674     0    34     1    14
 -3.0059723461358344E-04 a       675     0    34     1    15
 -4.2983031102788054E-02 a       676     0    34     1    16
 -4.5171572751762722E-02 a       677     0    34     1    17
  1.4575898641813309E-01 a       678     0    34     1    18
  1.0283670174970945E-01 a       679     0    34     1    19
 -2.6463640152004982E-02 a       680     0    34     1    20
  1.4761161895869648E-01 a       681     0    35     1     1
  3.9031591257412949E-02 a       682     0    35     1     2
  3.1806625411898187E-02 a       683     0    35     1     3
  3.6414732765083405E-02 a       684     0    35     1     4
 -1.2246317464096223E-02 a       685     0    35     1     5
 -7.6462029615556995E-02 a       686     0    35     1     6
  1.0874988197248343E-01 a       687     0    35     1     7
  2.4650941188963469E-03 a       688     0    35     1     8
 -5.8692079415964292E-02 a       689     0    35     1     9
 -1.0102465396041438E-01 a       690     0    35     1    10
  1.1028412891493343E-01 a       691     0    35     1    11
  3.9432141720225022E-02 a       692     0    35     1    12
  5.5438969530048975E-02 a       693     0    35     1    13
  4.0022285391519030E-02 a       694     0    35     1    14
 -9.7031580792261152E-02 a       695     0    35     1    15
  1.0192209260276322E-01 a       696     0    35     1    16
 -5.4502475650682780E-02 a       697     0    35     1    17
  3.5508818954705541E-02 a       698     0    35     1    18
 -5.1205242928916567E-02 a       699     0    35     1    19
 -5.4145903570069376E-02 a       700     0    35     1    20
 -2.3243222744316103E-01 a       701     0    36     1     1
 -1.4130751305964476E-02 a       702     0    36     1     2
  8.7971400627411614E-02 a       703     0    36     1     3
 -8.2358748474206947E-02 a       704     0    36     1     4
  6.4080388568657248E-02 a       705     0    36     1     5
  9.3358634696344853E-02 a       706     0    36     1     6
  1.7392194273264922E-01 a       707     0    36     1     7
 -1.4466673812610029E-01 a       708     0    36     1     8
  3.9895857722016460E-02 a       709     0    36     1     9
  5.3297919779319934E-02 a       710     0    36     1    10
 -2.7176327279830936E-02 a       711     0    36     1    11
 -2.3357052753167424E-02 a       712     0    36     1    12
 -4.0217943508806517E-02 a       713     0    36     1    13
  6.3654259069984523E-02 a       714     0    36     1    14
  1.0928311608913079E-03 a       715     0    36     1    15
  1.9399602053449053E-01 a       716     0    36     1    16
  1.6637796696529189E-01 a       717     0    36     1    17
  1.0563692786411255E-01 a       718     0    36     1    18
 -7.6879546099764523E-02 a       719     0    36     1    19
 -2.4771024803653524E-01 a       720     0    36     1    20
  3.6062651518934397E-02 a       721     0    37     1     1
 -2.1680239111103623E-03 a       722     0    37     1     2
 -2.2605639910612998E-02 a       723     0    37     1     3
 -1.5590025320355857E-02 a       724     0    37     1     4
 -6.3669335987153906E-03 a       725     0    37     1     5
 -3.3102657267532351E-02 a       726     0    37     1     6
 -8.2040263671873150E-03 a       727     0    37     1     7
  2.9812865614561115E-02 a       728     0    37     1     8
  9.4753354203729219E-03 a       729     0    37     1     9
 -1.5497666058071034E-02 a       730     0    37     1    10
  5.3461067884315525E-02 a       731     0    37     1    11
  3.4413966878216163E-03 a       732     0    37     1    12
  3.4617020087812186E-02 a       733     0    37     1    13
  1.9459382896496003E-02 a       734     0    37     1    14
 -4.8351444910846315E-02 a       735     0    37     1    15
 -1.6342352724800925E-02 a       736     0    37     1    16
 -9.7907256557662525E-02 a       737     0    37     1    17
 -2.2483845889603192E-02 a       738     0    37     1    18
 -1.1163820393495718E-02 a       739     0    37     1    19
 -7.3041910659219231E-03 a       740     0    37     1    20
  8.5673383602322101E-02 a       741     0    38     1     1
  4.0364885271796734E-02 a       742     0    38     1     2
  9.2058098836239957E-02 a       743     0    38     1     3
  3.3310386640220196E-01 a       744     0    38     1     4
  3.8682541214410372E-02 a       745     0    38     1     5
 -1.3832378087516056E-01 a       746     0    38     1     6
 -2.8821626018484081E-01 a       747     0    38     1     7
  2.6836500879524777E-01 a       748     0    38     1     8
 -2.8980600241780556E-02 a       749     0    38     1     9
 -1.3171180562738053E-02 a       750     0    38     1    10
 -2.1865202089572586E-01 a       751     0    38     1    11
  1.8367173070900411E-01 a       752     0    38     1    12
 -1.3641139446735695E-01 a       753     0    38     1    13
 -4.7997815549094353E-02 a       754     0    38     1    14
 -2.9956825716410790E-01 a       755     0    38     1    15
  2.5692483940464771E-02 a       756     0    38     1    16
 -4.4157427636131852E-01 a       757     0    38     1    17
 -1.7078828085154127E-01 a       758     0    38     1    18
  1.4866720178408033E-01 a       759     0    38     1    19
  2.4436203893512898E-01 a       760     0    38     1    20
  8.9341055230827748E-02 a       761     0    39     1     1
  2.1968014084229565E-02 a       762     0    39     1     2
  8.7903734412664497E-02 a       763     0    39     1     3
  3.2629491862700257E-03 a       764     0    39     1     4
 -6.3396332617591047E-02 a       765     0    39     1     5
  1.0365505154868260E-01 a       766     0    39     1     6
 -7.1292770937899957E-02 a       767     0    39     1     7
 -4.8707812364966827E-03 a       768     0    39     1     8
  8.9832304525993056E-02 a       769     0    39     1     9
 -1.2405869540342450E-02 a       770     0    39     1    10
  1.4054224649265648E-03 a       771     0    39     1    11
 -3.8971751746446473E-02 a       772     0    39     1    12
  7.2856574151222056E-02 a       773     0    39     1    13
 -1.6927615483774069E-01 a       774     0    39     1    14
  4.8395738146278407E-02 a       775     0    39     1    15
  1.7133706189464422E-02 a       776     0    39     1    16
 -6.5461196682446321E-02 a       777     0    39     1    17
 -3.4813216464897878E-02 a       778     0    39     1    18
  6.9412877669440985E-03 a       779     0    39     1    19
 -2.5243709146924621E-02 a       780     0    39     1    20
 -6.4574571296840702E-02 a       781     0    40     1     1
 -2.2513213677535750E-02 a       782     0    40     1     2
  1.3222035995662820E-02 a       783     0    40     1     3
  1.0165841120284014E-01 a       784     0    40     1     4
  1.9413967161117304E-02 a       785     0    40     1     5
 -6.0254108977045542E-02 a       786     0    40     1     6
  6.4016481435946224E-02 a       787     0    40     1     7
 -1.1169456373906422E-01 a       788     0    40     1     8
  9.8749380383416518E-02 a       789     0    40     1     9
  1.6774576391601643E-02 a       790     0    40     1    10
 -3.0604674529931389E-02 a       791     0    40     1    11
  6.2843246414305484E-02 a       792     0    40     1    12
  6.7990731985751604E-02 a       793     0    40     1    13
  4.5972448811427702E-02 a       794     0    40     1    14
 -1.0124580617803862E-01 a       795     0    40     1    15
 -8.0193523259205660E-02 a       796     0    40     1    16
 -1.4146555603007926E-01 a       797     0    40     1    17
  1.3415534789517762E-02 a       798     0    40     1    18
  3.3114508300054066E-02 a       799     0    40     1    19
  1.9655201880091434E-02 a       800     0    40     1    20
  9.4557772829254844E-02 a       801     0    41     1     1
  1.0829931285964487E-02 a       802     0    41     1     2
 -2.2824153158871881E-02 a       803     0    41     1     3
  7.9630369107333177E-02 a       804     0    41     1     4
  1.6347261087832059E-02 a       805     0    41     1     5
 -1.4430016939466378E-01 a       806     0    41     1     6
  2.1897327875305947E-02 a       807     0    41     1     7
 -5.2315899761566940E-02 a       808     0    41     1     8
  1.0283264422126805E-01 a       809     0    41     1     9
  7.6436080383716479E-02 a       810     0    41     1    10
  9.5364556210400145E-02 a       811     0    41     1    11
  3.6224543531466501E-02 a       812     0    41     1    12
  1.9657484847269785E-02 a       813     0    41     1    13
 -1.9880962274049934E-02 a       814     0    41     1    14
 -1.2485289576069905E-01 a       815     0    41     1    15
 -1.2768106026875123E-01 a       816     0    41     1    16
 -6.1761688398277843E-02 a       817     0    41     1    17
  2.7568880514832937E-02 a       818     0    41     1    18
  4.9526106971796810E-02 a       819     0    41     1    19
  8.0987563235123738E-02 a       820     0    41     1    20
 -2.4717369535657955E-02 a       821     0    42     1     1
 -6.0109917546094320E-04 a       822     0    42     1     2
  1.6580904384976586E-02 a       823     0    42     1     3
  1.1653069480634895E-02 a       824     0    42     1     4
  6.9339160605898119E-03 a       825     0    42     1     5
  2.3925680973774704E-02 a       826     0    42     1     6
  6.9634532215453676E-03 a       827     0    42     1     7
 -2.2522322385472748E-02 a       828     0    42     1     8
 -5.9690732480618854E-03 a       829     0    42     1     9
  1.0636490951596521E-02 a       830     0    42     1    10
 -4.1106093568938795E-02 a       831     0    42     1    11
 -1.6689993443387379E-03 a       832     0    42     1    12
 -2.1523375724471272E-02 a       833     0    42     1    13
 -7.4209371765901347E-03 a       834     0    42     1    14
  3.6400495976547202E-02 a       835     0    42     1    15
  1.3477222532301429E-02 a       836     0    42     1    16
  6.4605688587548504E-02 a       837     0    42     1    17
  1.6953580107529224E-02 a       838     0    42     1    18
  5.5281818229710187E-03 a       839     0    42     1    19
  4.1312116705334249E-03 a       840     0    42     1    20
 -9.7089390385651717E-02 a       841     0    43     1     1
 -1.9180692332259927E-02 a       842     0    43     1     2
 -6.4320695192437868E-02 a       843     0    43     1     3
 -1.5390048756549557E-01 a       844     0    43     1     4
  4.2294756126336049E-02 a       845     0    43     1     5
  7.2652815829788178E-02 a       846     0    43     1     6
  1.5043548411962171E-01 a       847     0    43     1     7
 -1.4624667835127408E-01 a       848     0    43     1     8
  4.4333503288807460E-02 a       849     0    43     1     9
  7.7282667853993785E-03 a       850     0    43     1    10
  3.8742149276613846E-02 a       851     0    43     1    11
 -1.2507783405796616E-01 a       852     0    43     1    12
  1.0678619374666849E-01 a       853     0    43     1    13
  1.2188412882845207E-01 a       854     0    43     1    14
  1.6123214518030615E-01 a       855     0    43     1    15
 -3.3235237242705142E-02 a       856     0    43     1    16
  9.4841827724591543E-02 a       857     0    43     1    17
  1.1092501636023538E-01 a       858     0    43     1    18
 -6.6877519696117757E-02 a       859     0    43     1    19
 -6.0814992771971471E-02 a       860     0    43     1    20
 -5.1612863520189907E-02 a       861     0    44     1     1
 -1.8230811835209370E-02 a       862     0    44     1     2
 -2.7033381005815354E-02 a       863     0    44     1     3
  3.1635815127108037E-02 a       864     0    44     1     4
  1.0233111256411467E-01 a       865     0    44     1     5
 -9.0504772984198789E-02 a       866     0    44     1     6
  8.6667797365469465E-02 a       867     0    44     1     7
 -3.8824296427003163E-02 a       868     0    44     1     8
  9.8636966015211408E-02 a       869     0    44     1     9
  8.9948466644189373E-02 a       870     0    44     1    10
 -4.9186029791322354E-02 a       871     0    44     1    11
  1.2210713669104676E-02 a       872     0    44     1    12
  1.9697680349226913E-02 a       873     0    44     1    13
  2.6531927357854196E-01 a       874     0    44     1    14
 -6.6679379670467664E-02 a       875     0    44     1    15
  3.0720109346827992E-02 a       876     0    44     1    16
 -1.9753381511415982E-01 a       877     0    44     1    17
  4.2967392008953872E-02 a       878     0    44     1    18
  6.1202008211499237E-02 a       879     0    44     1    19
  5.5301218412991213E-03 a       880     0    44     1    20
 -3.3938514347190758E-02 a       881     0    45     1     1
  2.6433392993294228E-02 a       882     0    45     1     2
 -4.4992757963220310E-02 a       883     0    45     1     3
 -7.9395244602062612E-02 a       884     0    45     1     4
  3.2980120722171553E-02 a       885     0    45     1     5
 -2.8808083303341354E-02 a       886     0    45     1     6
  6.7717709866040893E-02 a       887     0    45     1     7
  2.1854996948301422E-02 a       888     0    45     1     8
  1.4319203980400364E-02 a       889     0    45     1     9
 -8.6622588442429135E-02 a       890     0    45     1    10
  9.5719546764942293E-02 a       891     0    45     1    11
 -6.9367593942301201E-02 a       892     0    45     1    12
 -7.8193115880272529E-02 a       893     0    45     1    13
 -1.3181832545712799E-01 a       894     0    45     1    14
 -2.5588128300574355E-02 a       895     0    45     1    15
 -3.8844682398549851E-02 a       896     0    45     1    16
  1.2451155884905704E-01 a       897     0    45     1    17
  5.8578008416580354E-02 a       898     0    45     1    18
  1.9884744995517317E-02 a       899     0    45     1    19
 -2.3305673910663186E-02 a       900     0    45     1    20
 -1.3720774269703850E-01 a       901     0    46     1     1
 -1.8606249505412127E-02 a       902     0    46     1     2
 -1.5823928805161574E-02 a       903     0    46     1     3
 -1.1704888137904494E-01 a       904     0    46     1     4
  3.4133768215122311E-02 a       905     0    46     1     5
  1.0792851052661626E-01 a       906     0    46     1     6
  5.2131536595970099E-02 a       907     0    46     1     7
 -4.3060174132387351E-02 a       908     0    46     1     8
 -1.9850273264367339E-03 a       909     0    46     1     9
 -4.4658661218581142E-02 a       910     0    46     1    10
 -3.3427017690463766E-02 a       911     0    46     1    11
 -9.2085008073512914E-02 a       912     0    46     1    12
  2.1416920981357588E-03 a       913     0    46     1    13
 -7.5120447847899742E-03 a       914     0    46     1    14
  1.1500545654320954E-01 a       915     0    46     1    15
 -3.2060211663033507E-03 a       916     0    46     1    16
  1.5621353748512551E-01 a       917     0    46     1    17
  8.9242664495754534E-02 a       918     0    46     1    18
 -3.0021271278906105E-02 a       919     0    46     1    19
 -7.3596055161947213E-02 a       920     0    46     1    20
  1.3810015380066661E-02 a       921     0    47     1     1
  9.5067058369874367E-05 a       922     0    47     1     2
 -8.1547711593507512E-03 a       923     0    47     1     3
 -4.9378075222744318E-03 a       924     0    47     1     4
 -2.8771696761126972E-03 a       925     0    47     1     5
 -1.3587144588513499E-02 a       926     0    47     1     6
 -1.1654965387938628E-03 a       927     0    47     1     7
  1.0859269593482516E-02 a       928     0    47     1     8
  4.9735921233388632E-03 a       929     0    47     1     9
 -6.0389268455301685E-03 a       930     0    47     1    10
  2.1679315208173615E-02 a       931     0    47     1    11
  1.3713120856963721E-03 a       932     0    47     1    12
  1.2918303659496061E-02 a       933     0    47     1    13
  4.9466398931688818E-03 a       934     0    47     1    14
 -1.9989176249907887E-02 a       935     0    47     1    15
 -6.7277916835683394E-03 a       936     0    47     1    16
 -3.6183807450305222E-02 a       937     0    47     1    17
 -7.7092581901020687E-03 a       938     0    47     1    18
 -2.0369300710799819E-03 a       939     0    47     1    19
 -2.5301949996666276E-03 a       940     0    47     1    20
  1.2382879269617617E-01 a       941     0    48     1     1
  1.3277627596425489E-02 a       942     0    48     1     2
  4.3259292005417109E-02 a       943     0    48     1     3
  1.4616724776994086E-01 a       944     0    48     1     4
 -3.9921745678512768E-02 a       945     0    48     1     5
 -1.2238751609457758E-01 a       946     0    48     1     6
 -1.9942393466049046E-02 a       947     0    48     1     7
  4.9672036864266481E-02 a       948     0    48     1     8
 -1.0221892177694225E-02 a       949     0    48     1     9
 -7.8407523789019121E-02 a       950     0    48     1    10
  4.4216273073272187E-02 a       951     0    48     1    11
  9.5870816240199858E-02 a       952     0    48     1    12
 -3.0437743391738090E-02 a       953     0    48     1    13
 -1.4750708651171732E-01 a       954     0    48     1    14
 -1.8933678957241146E-01 a       955     0    48     1    15
 -2.5863456017086429E-02 a       956     0    48     1    16
 -1.2075334516798103E-01 a       957     0    48     1    17
 -4.2009308649414837E-02 a       958     0    48     1    18
  6.9327501362826227E-02 a       959     0    48     1    19
  6.5022135353563049E-02 a       960     0    48     1    20
  3.1394632053278609E-02 a       961     0    49     1     1
  5.8314690749590387E-03 a       962     0    49     1     2
  1.4263529833899195E-02 a       963     0    49     1     3
 -1.0955088607793044E-03 a       964     0    49     1     4
 -2.6068722568226510E-02 a       965     0    49     1     5
 -3.9108095996950136E-03 a       966     0    49     1     6
 -3.4417366804363296E-02 a       967     0    49     1     7
 -2.2743404850879517E-03 a       968     0    49     1     8
 -1.3789151941873450E-02 a       969     0    49     1     9
 -2.7537821681531842E-02 a       970     0    49     1    10
  1.0524627542211742E-01 a       971     0    49     1    11
 -1.1473443867299562E-02 a       972     0    49     1    12
 -1.5959784385449732E-02 a       973     0    49     1    13
 -1.6888328584615769E-01 a       974     0    49     1    14
 -6.7605196074789431E-02 a       975     0    49     1    15
 -5.3134912883059104E-02 a       976     0    49     1    16
  9.8547720151844279E-02 a       977     0    49     1    17
  1.6251961632654410E-02 a       978     0    49     1    18
 -9.1870501279705807E-03 a       979     0    49     1    19
 -1.8703535735988545E-02 a       980     0    49     1    20
  8.9631859678373352E-02 a       981     0    50     1     1
 -3.6485403889480426E-02 a       982     0    50     1     2
  7.7180339817434695E-03 a       983     0    50     1     3
  3.2946129350693409E-02 a       984     0    50     1     4
  7.0966731923561028E-03 a       985     0    50     1     5
  1.9301767220901048E-02 a       986     0    50     1     6
 -6.1554136625721366E-02 a       987     0    50     1     7
 -2.4222730041454966E-02 a       988     0    50     1     8
  2.0537587401344853E-02 a       989     0    50     1     9
  3.0916005847751671E-02 a       990     0    50     1    10
  4.0629638976634958E-03 a       991     0    50     1    11
 -4.2344786292246799E-02 a       992     0    50     1    12
  7.3380807179755494E-02 a       993     0    50     1    13
 -1.6643851887351263E-02 a       994     0    50     1    14
  1.7825730209911479E-02 a       995     0    50     1    15
 -7.3234521457504323E-02 a       996     0    50     1    16
 -3.8848686744125518E-02 a       997     0    50     1    17
  4.5246460293844278E-02 a       998     0    50     1    18
  5.3793684676767629E-02 a       999     0    50     1    19
  5.5217152734885047E-02 a      1000     0    50     1    20
 -3.0850106143634326E-01 a      1001     0    51     1     1
 -7.9212832744552403E-02 a      1002     0    51     1     2
 -2.4358265441777938E-01 a      1003     0    51     1     3
 -9.5649744946143186E-02 a      1004     0    51     1     4
  7.4426764634441783E-02 a      1005     0    51     1     5
  1.5244447210891729E-01 a      1006     0    51     1     6
 -1.1298911474166781E-01 a      1007     0    51     1     7
  3.8273115000106279E-02 a      1008     0    51     1     8
  9.6211634068840146E-02 a      1009     0    51     1     9
  2.5719161430644222E-01 a      1010     0    51     1    10
  6.4243669100843115E-02 a      1011     0    51     1    11
 -1.4042189924735973E-01 a      1012     0    51     1    12
  8.3639217922789624E-02 a      1013     0    51     1    13
 -2.5541870563194130E-01 a      1014     0    51     1    14
  1.2107048435266854E-01 a      1015     0    51     1    15
 -3.3799449403004472E-01 a      1016     0    51     1    16
 -1.0279181570591521E-01 a      1017     0    51     1    17
 -2.3377988501389935E-01 a      1018     0    51     1    18
 -5.1406095949721092E-02 a      1019     0    51     1    19
  1.4029688466192491E-01 a      1020     0    51     1    20
 -2.7676629341565295E-01 a      1021     0    52     1     1
 -7.7231272125209097E-02 a      1022     0    52     1     2
  2.5586149036887190E-01 a      1023     0    52     1     3
 -1.0555908022873035E-01 a      1024     0    52     1     4
  1.0363533230913090E-01 a      1025     0    52     1     5
 -1.4460717998582520E-02 a      1026     0    52     1     6
  2.1424760941501392E-01 a      1027     0    52     1     7
  1.8257033102375292E-01 a      1028     0    52     1     8
 -2.1026144621984037E-02 a      1029     0    52     1     9
 -3.7234192970486024E-02 a      1030     0    52     1    10
  8.2335721180981439E-02 a      1031     0    52     1    11
 -2.2731084118073566E-01 a      1032     0    52     1    12
  3.0900589030616260E-01 a      1033     0    52     1    13
 -1.4857585775370616E-01 a      1034     0    52     1    14
  1.6810345875230648E-01 a      1035     0    52     1    15
  4.4914916783960018E-01 a      1036     0    52     1    16
 -1.9957755534806082E-01 a      1037     0    52     1    17
  1.1042347735138441E-01 a      1038     0    52     1    18
  3.6753238115485370E-01 a      1039     0    52     1    19
 -2.1288590014087660E-01 a      1040     0    52     1    20
 -1.1552341556623222E-01 a      1041     0    53     1     1
  4.8213509361734908E-01 a      1042     0    53     1     2
 -5.3499927514464501E-02 a      1043     0    53     1     3
 -1.5216685049119302E-01 a      1044     0    53     1     4
  2.0724004687790658E-02 a      1045     0    53     1     5
 -5.7852957532321891E-01 a      1046     0    53     1     6
  2.0177113143042053E-01 a      1047     0    53     1     7
  1.2029645599830192E-01 a      1048     0    53     1     8
 -7.0599804111026385E-02 a      1049     0    53     1     9
  5.0575446436098473E-02 a      1050     0    53     1    10
 -2.8461434752317459E-02 a      1051     0    53     1    11
  2.9922833285622563E-01 a      1052     0    53     1    12
 -2.9164183645788438E-01 a      1053     0    53     1    13
  6.7401145651346583E-02 a      1054     0    53     1    14
 -1.6166791007071718E-01 a      1055     0    53     1    15
  3.7476225951260617E-01 a      1056     0    53     1    16
 -4.2600637020927551E-01 a      1057     0    53     1    17
 -2.3878666264603288E-01 a      1058     0    53     1    18
 -1.0563504879769962E-01 a      1059     0    53     1    19
 -7.9704796577907897E-02 a      1060     0    53     1    20
  1.2183640996059469E-01 a      1061     0    54     1     1
 -6.8769231037073206E-02 a      1062     0    54     1     2
  3.6842885994260832E-02 a      1063     0    54     1     3
  5.0126767479621748E-02 a      1064     0    54     1     4
  3.5550336355136290E-02 a      1065     0    54     1     5
 -1.0763690868393809E-01 a      1066     0    54     1     6
  1.3907593855283146E-01 a      1067     0    54     1     7
 -1.4956380963938545E-01 a      1068     0    54     1     8
 -1.5004831262392532E-01 a      1069     0    54     1     9
  9.6046042477313340E-02 a      1070     0    54     1    10
  1.4089445357891550E-01 a      1071     0    54     1    11
  8.2536123679540510E-02 a      1072     0    54     1    12
 -2.2886174679335061E-01 a      1073     0    54     1    13
  4.6258432356674151E-02 a      1074     0    54     1    14
 -2.0484660980448360E-01 a      1075     0    54     1    15
  2.7527454192876666E-01 a      1076     0    54     1    16
 -2.6934727485898430E-01 a      1077     0    54     1    17
 -3.6251429654718420E-02 a      1078     0    54     1    18
  3.4012411544434976E-02 a      1079     0    54     1    19
 -3.2786684832785941E-02 a      1080     0    54     1    20
  1.8831088247941610E-01 a      1081     0    55     1     1
  3.7223338212033580E-02 a      1082     0    55     1     2
 -6.6590267004449755E-02 a      1083     0    55     1     3
 -7.3923365967187488E-02 a      1084     0    55     1     4
 -9.3963703505014859E-02 a      1085     0    55     1     5
  4.7929716383849734E-02 a      1086     0    55     1     6
 -2.4477019582107423E-01 a      1087     0    55     1     7
  8.8033343102975697E-02 a      1088     0    55     1     8
  1.8785605960440377E-02 a      1089     0    55     1     9
  1.0417828736603427E-01 a      1090     0    55     1    10
  1.9498540853771745E-01 a      1091     0    55     1    11
 -4.8719499773222499E-02 a      1092     0    55     1    12
  1.2227933250481590E-01 a      1093     0    55     1    13
 -7.6531705931844413E-02 a      1094     0    55     1    14
  3.2918152121036631E-02 a      1095     0    55     1    15
 -1.5476612591448108E-01 a      1096     0    55     1    16
 -9.4859655638527413E-02 a      1097     0    55     1    17
 -1.2650039435746988E-01 a      1098     0    55     1    18
  6.4565842668748430E-02 a      1099     0    55     1    19
  2.9653189621943545E-02 a      1100     0    55     1    20
 -6.9420954052575673E-02 a      1101     0    56     1     1
  1.1029241816449628E-01 a      1102     0    56     1     2
 -1.5044293856844490E-01 a      1103     0    56     1     3
 -1.2387410871218082E-02 a      1104     0    56     1     4
 -1.2484491738940838E-01 a      1105     0    56     1     5
 -2.2885039205767288E-01 a      1106     0    56     1     6
  1.6069179920681954E-02 a      1107     0    56     1     7
  2.2558805224651236E-02 a      1108     0    56     1     8
  2.1338662573836983E-01 a      1109     0    56     1     9
  9.0775276516031525E-02 a      1110     0    56     1    10
  1.7754864294953271E-01 a      1111     0    56     1    11
  2.9064401156827242E-02 a      1112     0    56     1    12
  3.1960450822998941E-02 a      1113     0    56     1    13
  1.0065286548400607E-01 a      1114     0    56     1    14
 -3.7204783992850030E-02 a      1115     0    56     1    15
 -8.3513744375585241E-03 a      1116     0    56     1    16
 -2.5226202161876943E-01 a      1117     0    56     1    17
 -1.6114192447484019E-01 a      1118     0    56     1    18
 -1.1897574453243930E-01 a      1119     0    56     1    19
  4.6259972580482513E-02 a      1120     0    56     1    20
  7.7446910486405229E-02 a      1121     0    57     1     1
  1.4667713310174916E-02 a      1122     0    57     1     2
  1.9824534019344647E-01 a      1123     0    57     1     3
  2.9633989159584184E-01 a      1124     0    57     1     4
  3.1967707090370390E-01 a      1125     0    57     1     5
 -6.2573931721214837E-02 a      1126     0    57     1     6
 -7.9423807946562328E-02 a      1127     0    57     1     7
 -4.9251209893821403E-03 a      1128     0    57     1     8
  2.6556713311396359E-02 a      1129     0    57     1     9
 -2.5426763924616170E-02 a      1130     0    57     1    10
  8.7305581772395904E-02 a      1131     0    57     1    11
 -2.6232642558653648E-02 a      1132     0    57     1    12
 -1.8065398640089853E-01 a      1133     0    57     1    13
 -4.2636775371636473E-02 a      1134     0    57     1    14
 -4.4170761689866583E-01 a      1135     0    57     1    15
 -7.6393404989825220E-02 a      1136     0    57     1    16
  1.8024536574744530E-02 a      1137     0    57     1    17
 -2.2995826802066549E-01 a      1138     0    57     1    18
 -1.9124915111864121E-01 a      1139     0    57     1    19
  1.8168817059105755E-01 a      1140     0    57     1    20
  5.0205202904882444E-02 a      1141     0    58     1     1
 -3.5959074341697081E-02 a      1142     0    58     1     2
  2.1828118533561397E-02 a      1143     0    58     1     3
  1.0198886499438918E-01 a      1144     0    58     1     4
  2.8562784642676888E-02 a      1145     0    58     1     5
 -1.7504353412456997E-01 a      1146     0    58     1     6
  1.2071595679268611E-01 a      1147     0    58     1     7
  6.6035639513484831E-02 a      1148     0    58     1     8
  1.0690621157089254E-01 a      1149     0    58     1     9
  8.1872593388383610E-02 a      1150     0    58     1    10
  2.7740871632314066E-02 a      1151     0    58     1    11
  5.7578801336380776E-02 a      1152     0    58     1    12
  7.8187470304215106E-02 a      1153     0    58     1    13
  1.9398706507846708E-01 a      1154     0    58     1    14
  3.5677498941693468E-02 a      1155     0    58     1    15
  9.9836420404847102E-03 a      1156     0    58     1    16
  1.0576480033634547E-01 a      1157     0    58     1    17
  1.0530680965602146E-01 a      1158     0    58     1    18
 -1.4558450809835029E-02 a      1159     0    58     1    19
 -3.0419722219183369E-02 a      1160     0    58     1    20
 -1.4069290232343720E-01 a      1161     0    59     1     1
 -8.9336156630788227E-02 a      1162     0    59     1     2
 -1.5684692707952336E-02 a      1163     0    59     1     3
  1.0381288770832099E-01 a      1164     0    59     1     4
  1.7973477840849805E-01 a      1165     0    59     1     5
  2.1480942350993920E-01 a      1166     0    59     1     6
 -7.8669869350909583E-02 a      1167     0    59     1     7
  5.5896712576945257E-02 a      1168     0    59     1     8
  2.6097334612348554E-02 a      1169     0    59     1     9
 -2.2760952539586213E-02 a      1170     0    59     1    10
 -1.1277587661748828E-01 a      1171     0    59     1    11
 -1.7685529646931197E-01 a      1172     0    59     1    12
 -2.3519391809746149E-01 a      1173     0    59     1    13
 -1.1001664699525358E-01 a      1174     0    59     1    14
  2.0705059801406144E-02 a      1175     0    59     1    15
 -8.8509451653231874E-02 a      1176     0    59     1    16
  1.9568954649109241E-01 a      1177     0    59     1    17
  1.5080908461871703E-01 a      1178     0    59     1    18
  1.3971028666477747E-01 a      1179     0    59     1    19
  2.1556802031611993E-01 a      1180     0    59     1    20
  1.3196343144002845E-01 a      1181     0    60     1     1
 -2.5393531815182546E-01 a      1182     0    60     1     2
  1.3293669081119816E-01 a      1183     0    60     1     3
  4.5814680736856739E-02 a      1184     0    60     1     4
  5.6663257670165570E-02 a      1185     0    60     1     5
  2.9999654704588330E-01 a      1186     0    60     1     6
  5.6296878457645129E-04 a      1187     0    60     1     7
 -3.7786473015506394E-01 a      1188     0    60     1     8
  4.5658385351300103E-02 a      1189     0    60     1     9
 -2.5567742609593253E-01 a      1190     0    60     1    10
 -1.3051596145545294E-01 a      1191     0    60     1    11
 -8.5940357050591054E-02 a      1192     0    60     1    12
  1.4965953184170802E-01 a      1193     0    60     1    13
  3.4563322460389451E-01 a      1194     0    60     1    14
  5.9572656401312069E-02 a      1195     0    60     1    15
  1.4944148758689538E-01 a      1196     0    60     1    16
 -5.2889376575347147E-02 a      1197     0    60     1    17
  3.5747150517680559E-01 a      1198     0    60     1    18
 -3.4515990302328975E-01 a      1199     0    60     1    19
 -1.0700326776146678E-01 a      1200     0    60     1    20
  1.6921513566796376E-01 a      1201     0    61     1     1
 -3.0006464800201575E-02 a      1202     0    61     1     2
  5.2141920158775147E-02 a      1203     0    61     1     3
 -4.9542477369276658E-03 a      1204     0    61     1     4
 -2.0971859721168700E-02 a      1205     0    61     1     5
  5.0574522275600838E-02 a      1206     0    61     1     6
 -2.0176670191055807E-01 a      1207     0    61     1     7
  1.3487130868720903E-01 a      1208     0    61     1     8
 -7.3461734193383824E-02 a      1209     0    61     1     9
 -1.2261159380529818E-01 a      1210     0    61     1    10
  5.3304579160707083E-03 a      1211     0    61     1    11
 -9.3773820196729432E-02 a      1212     0    61     1    12
  1.2053252011008181E-01 a      1213     0    61     1    13
  5.5216575853016939E-02 a      1214     0    61     1    14
 -7.0198263978597755E-02 a      1215     0    61     1    15
  2.6091775177952532E-02 a      1216     0    61     1    16
 -5.4721950860209062E-02 a      1217     0    61     1    17
  1.9553538062974912E-01 a      1218     0    61     1    18
 -2.3147838006337608E-02 a      1219     0    61     1    19
 -4.3523668391773117E-03 a      1220     0    61     1    20
  9.6580041947983308E-02 a      1221     0    62     1     1
  1.3808281804760342E-02 a      1222     0    62     1     2
 -2.8766051745633920E-02 a      1223     0    62     1     3
  1.4885363019322001E-03 a      1224     0    62     1     4
  1.3922232180201990E-02 a      1225     0    62     1     5
  5.8294213659748607E-02 a      1226     0    62     1     6
  2.2622157855225023E-02 a      1227     0    62     1     7
 -7.1027317588971503E-02 a      1228     0    62     1     8
  1.2423085453239200E-02 a      1229     0    62     1     9
  9.4902728309895060E-02 a      1230     0    62     1    10
 -3.6343108899835053E-02 a      1231     0    62     1    11
  9.9696709146045628E-02 a      1232     0    62     1    12
  1.1634000271352339E-01 a      1233     0    62     1    13
 -3.8475391471697672E-02 a      1234     0    62     1    14
 -5.8530031096255396E-02 a      1235     0    62     1    15
  3.2824939105785551E-02 a      1236     0    62     1    16
 -2.4357464163157727E-01 a      1237     0    62     1    17
  4.9693905629424800E-02 a      1238     0    62     1    18
 -3.7008368404604482E-02 a      1239     0    62     1    19
 -5.5873092138830432E-02 a      1240     0    62     1    20
 -2.4652624078549562E-01 a      1241     0    63     1     1
 -7.4225307794471410E-02 a      1242     0    63     1     2
  7.1441620986226195E-02 a      1243     0    63     1     3
  1.2923048549880183E-02 a      1244     0    63     1     4
  1.6873665083568765E-01 a      1245     0    63     1     5
  9.3886926922105624E-02 a      1246     0    63     1     6
  2.7141057787554809E-02 a      1247     0    63     1     7
 -7.8024797547964403E-02 a      1248     0    63     1     8
 -3.8980696487797846E-02 a      1249     0    63     1     9
  1.1236321524513382E-01 a      1250     0    63     1    10
 -8.1078580749139276E-02 a      1251     0    63     1    11
 -7.1901148932198011E-02 a      1252     0    63     1    12
 -9.5216382912749586E-02 a      1253     0    63     1    13
  2.2974579976699308E-01 a      1254     0    63     1    14
  5.7036570788079645E-02 a      1255     0    63     1    15
  1.5914008668681026E-01 a      1256     0    63     1    16
 -6.2966395465697336E-02 a      1257     0    63     1    17
  3.8750837534757381E-02 a      1258     0    63     1    18
  9.3059355729333479E-02 a      1259     0    63     1    19
 -7.4813255469004469E-02 a      1260     0    63     1    20
  2.1414989201923615E-01 a      1261     0    64     1     1
  6.9707561074467475E-02 a      1262     0    64     1     2
  3.4912010496037982E-02 a      1263     0    64     1     3
  5.8826872011302510E-02 a      1264     0    64     1     4
 -5.6090669772843854E-02 a      1265     0    64     1     5
 -1.0807404115240886E-02 a      1266     0    64     1     6
  7.9477646748958158E-02 a      1267     0    64     1     7
  5.3915129787358206E-02 a      1268     0    64     1     8
 -1.4292762284086624E-01 a      1269     0    64     1     9
 -2.0283411155676789E-02 a      1270     0    64     1    10
  3.5982277340120758E-02 a      1271     0    64     1    11
  5.1190923563388238E-02 a      1272     0    64     1    12
  1.1344393705999274E-01 a      1273     0    64     1    13
 -1.0451447904702034E-01 a      1274     0    64     1    14
 -8.3228115983912017E-04 a      1275     0    64     1    15
 -8.1260008831405744E-02 a      1276     0    64     1    16
  2.2525868553547335E-01 a      1277     0    64     1    17
  3.8536579853166844E-02 a      1278     0    64     1    18
  1.3555187846470707E-01 a      1279     0    64     1    19
 -2.7825469510327421E-02 a      1280     0    64     1    20
 -1.3560304627028327E-01 a      1281     0    65     1     1
  6.6780894654022815E-02 a      1282     0    65     1     2
  1.4187230593545666E-01 a      1283     0    65     1     3
 -5.0940827499003022E-03 a      1284     0    65     1     4
  3.7742252226527037E-02 a      1285     0    65     1     5
 -4.0108635258969322E-02 a      1286     0    65     1     6
 -8.1923222482049404E-02 a      1287     0    65     1     7
  2.1623949106329025E-02 a      1288     0    65     1     8
 -2.3134313847265509E-01 a      1289     0    65     1     9
  1.7115307980094893E-01 a      1290     0    65     1    10
  1.3895065688109878E-01 a      1291     0    65     1    11
  4.2212127565067342E-02 a      1292     0    65     1    12
 -1.1784406474273811E-01 a      1293     0    65     1    13
  3.2705432581277033E-02 a      1294     0    65     1    14
 -2.5199156829599456E-01 a      1295     0    65     1    15
  8.1048091300012642E-02 a      1296     0    65     1    16
 -1.0961495381562469E-02 a      1297     0    65     1    17
  2.7807671202142416E-02 a      1298     0    65     1    18
 -1.7938121736612578E-01 a      1299     0    65     1    19
 -2.4625874537245580E-02 a      1300     0    65     1    20
  6.4944528702222157E-02 a      1301     0    66     1     1
 -1.2135957244788804E-01 a      1302     0    66     1     2
 -1.5062059071360415E-01 a      1303     0    66     1     3
 -3.7396008984495838E-01 a      1304     0    66     1     4
 -6.6062067345264111E-02 a      1305     0    66     1     5
 -1.0102740612433728E-01 a      1306     0    66     1     6
  6.6990348526126314E-02 a      1307     0    66     1     7
  1.6889811886992928E-01 a      1308     0    66     1     8
  1.9306868800226574E-02 a      1309     0    66     1     9
 -8.5169969691883660E-02 a      1310     0    66     1    10
 -1.7726388675666055E-01 a      1311     0    66     1    11
 -1.7704932051058395E-01 a      1312     0    66     1    12
  2.5590686598538953E-01 a      1313     0    66     1    13
  3.6161198974150194E-01 a      1314     0    66     1    14
  1.4500836779762091E-01 a      1315     0    66     1    15
  1.2749195491586670E-02 a      1316     0    66     1    16
  1.0403678980656871E-01 a      1317     0    66     1    17
  3.7641009663324732E-02 a      1318     0    66     1    18
  2.4276930273962216E-01 a      1319     0    66     1    19
 -1.5567907325285908E-02 a      1320     0    66     1    20
 -3.6765022476779263E-02 a      1321     0    67     1     1
  1.5539908552597537E-01 a      1322     0    67     1     2
 -3.5455110297667730E-01 a      1323     0    67     1     3
 -6.2770299294357290E-01 a      1324     0    67     1     4
  1.5865282096787736E-01 a      1325     0    67     1     5
  3.9698714565828321E-03 a      1326     0    67     1     6
  4.4961882014627308E-01 a      1327     0    67     1     7
 -8.7562189883164665E-02 a      1328     0    67     1     8
  6.9070429297980046E-02 a      1329     0    67     1     9
  2.5413166182658337E-01 a      1330     0    67     1    10
 -6.7328455544393429E-03 a      1331     0    67     1    11
 -1.9071673520015700E-01 a      1332     0    67     1    12
 -8.3032488715076361E-02 a      1333     0    67     1    13
 -7.0021593839899712E-02 a      1334     0    67     1    14
  2.7145119829593900E-01 a      1335     0    67     1    15
  1.9694457595551457E-01 a      1336     0    67     1    16
 -5.6630053210894857E-02 a      1337     0    67     1    17
  1.7985148035644710E-01 a      1338     0    67     1    18
 -6.9465899208112469E-01 a      1339     0    67     1    19
  4.3638535955866566E-02 a      1340     0    67     1    20
  1.7953839310446368E-01 a      1341     0    68     1     1
 -1.5715439497796382E-01 a      1342     0    68     1     2
 -1.7728275457344894E-01 a      1343     0    68     1     3
 -1.1040294940614898E-01 a      1344     0    68     1     4
 -1.0211556558530530E-01 a      1345     0    68     1     5
  1.0722454319215532E-01 a      1346     0    68     1     6
  1.4371383170328411E-01 a      1347     0    68     1     7
  1.1121752419299367E-01 a      1348     0    68     1     8
 -2.1162057169841006E-01 a      1349     0    68     1     9
  1.6276674592264326E-01 a      1350     0    68     1    10
 -8.6398308603348128E-02 a      1351     0    68     1    11
 -8.3429061381222955E-03 a      1352     0    68     1    12
 -1.0428152845888661E-01 a      1353     0    68     1    13
 -6.1000769606795728E-02 a      1354     0    68     1    14
  2.9411814119478108E-01 a      1355     0    68     1    15
  3.5595844410090144E-01 a      1356     0    68     1    16
  5.9669724870975029E-02 a      1357     0    68     1    17
 -2.9616008920189008E-01 a      1358     0    68     1    18
 -1.0611275295008310E-01 a      1359     0    68     1    19
  1.7642289557835325E-01 a      1360     0    68     1    20
 -3.3233908231552742E-02 a      1361     0    69     1     1
 -1.0004195839096943E-02 a      1362     0    69     1     2
 -2.0508430625361884E-01 a      1363     0    69     1     3
 -1.0516755400446716E-04 a      1364     0    69     1     4
 -1.8740200813535327E-01 a      1365     0    69     1     5
 -2.5123866769384662E-01 a      1366     0    69     1     6
  2.9246684385257033E-02 a      1367     0    69     1     7
  6.6272720008133584E-02 a      1368     0    69     1     8
  2.3422541591343865E-01 a      1369     0    69     1     9
  1.3628563324888029E-01 a      1370     0    69     1    10
 -1.3580488698375706E-01 a      1371     0    69     1    11
 -4.9841878583079813E-02 a      1372     0    69     1    12
 -1.5621495402740143E-01 a      1373     0    69     1    13
 -1.5294416410733869E-01 a      1374     0    69     1    14
  1.3743761191541135E-01 a      1375     0    69     1    15
 -9.9907769075893490E-03 a      1376     0    69     1    16
  2.9338870803436978E-01 a      1377     0    69     1    17
 -1.0746451115935558E-01 a      1378     0    69     1    18
 -1.7153113743044385E-01 a      1379     0    69     1    19
  1.4566923777443122E-01 a      1380     0    69     1    20
  1.0111020867328151E-01 a      1381     0    70     1     1
 -1.2092851904675379E-01 a      1382     0    70     1     2
  7.6450234535790487E-02 a      1383     0    70     1     3
  5.8841619118813221E-02 a      1384     0    70     1     4
  2.6929878966326887E-02 a      1385     0    70     1     5
 -1.7559269390489934E-01 a      1386     0    70     1     6
  1.5503117294401317E-01 a      1387     0    70     1     7
 -1.8849771855894190E-02 a      1388     0    70     1     8
 -1.3513700663663417E-01 a      1389     0    70     1     9
 -1.5606964870747997E-01 a      1390     0    70     1    10
  8.2612436997517913E-02 a      1391     0    70     1    11
  1.4171700993142419E-01 a      1392     0    70     1    12
 -3.7246899481872819E-02 a      1393     0    70     1    13
 -4.3431729430149273E-02 a      1394     0    70     1    14
 -1.6944500019807379E-01 a      1395     0    70     1    15
  2.8317655148778025E-02 a      1396     0    70     1    16
  2.5691519761201242E-01 a      1397     0    70     1    17
  1.5196873307559011E-01 a      1398     0    70     1    18
 -4.9262200477971592E-02 a      1399     0    70     1    19
 -1.0118097076387002E-01 a      1400     0    70     1    20
  8.8375435063888133E-02 a      1401     0    71     1     1
 -8.2749945916404458E-02 a      1402     0    71     1     2
  2.7429001433673311E-01 a      1403     0    71     1     3
  1.3853707408431756E-01 a      1404     0    71     1     4
  5.9723338502483944E-02 a      1405     0    71     1     5
  2.1104806923283256E-01 a      1406     0    71     1     6
  4.1050286090752515E-02 a      1407     0    71     1     7
  7.2619553755810876E-02 a      1408     0    71     1     8
  1.8708471230838360E-02 a      1409     0    71     1     9
 -4.5954924806475408E-02 a      1410     0    71     1    10
 -1.2793306673910748E-01 a      1411     0    71     1    11
  8.5755613498847659E-03 a      1412     0    71     1    12
 -8.3501076345066261E-02 a      1413     0    71     1    13
 -6.2383821748222920E-02 a      1414     0    71     1    14
  5.1744703964178893E-02 a      1415     0    71     1    15
  1.2090692480332899E-01 a      1416     0    71     1    16
  2.4808402225889500E-01 a      1417     0    71     1    17
  6.9535964108725340E-02 a      1418     0    71     1    18
  9.6000577479249727E-02 a      1419     0    71     1    19
 -4.1165969901896901E-02 a      1420     0    71     1    20
  1.7794794730403349E-01 a      1421     0    72     1     1
  1.2070443830909516E-01 a      1422     0    72     1     2
  1.4231426146759374E-01 a      1423     0    72     1     3
  1.2996377819204558E-01 a      1424     0    72     1     4
 -4.4057939812912304E-02 a      1425     0    72     1     5
 -6.6962744749525238E-02 a      1426     0    72     1     6
 -1.8267797731735109E-02 a      1427     0    72     1     7
  3.8194219750517966E-01 a      1428     0    72     1     8
 -2.0006200122706308E-01 a      1429     0    72     1     9
  1.3461674204460994E-01 a      1430     0    72     1    10
 -1.7214560618733882E-01 a      1431     0    72     1    11
  3.3551632218927741E-01 a      1432     0    72     1    12
  3.6160872799989391E-02 a      1433     0    72     1    13
  5.3877135447050008E-02 a      1434     0    72     1    14
 -1.8560667236796405E-01 a      1435     0    72     1    15
  1.6653932961969350E-01 a      1436     0    72     1    16
  1.5876552941995817E-01 a      1437     0    72     1    17
 -4.4657985650516548E-02 a      1438     0    72     1    18
  1.5286765591027801E-01 a      1439     0    72     1    19
 -1.1915451162252991E-01 a      1440     0    72     1    20
  3.4471860536028631E-02 a      1441     0    73     1     1
  7.7824916347168580E-02 a      1442     0    73     1     2
  1.4099118992270282E-02 a      1443     0    73     1     3
  6.4665132584315935E-04 a      1444     0    73     1     4
  5.6808075746023229E-02 a      1445     0    73     1     5
  8.0042265023897718E-02 a      1446     0    73     1     6
  6.2772538833772304E-02 a      1447     0    73     1     7
 -6.4469634239797471E-02 a      1448     0    73     1     8
 -1.1371057208371857E-01 a      1449     0    73     1     9
 -1.8010282072413378E-01 a      1450     0    73     1    10
  2.3009531739722056E-01 a      1451     0    73     1    11
 -3.7789016281377985E-02 a      1452     0    73     1    12
  1.2356132092749453E-01 a      1453     0    73     1    13
 -1.5109130232574206E-01 a      1454     0    73     1    14
 -6.5559242393505746E-02 a      1455     0    73     1    15
 -5.3550827157783139E-03 a      1456     0    73     1    16
 -8.4959151163068861E-02 a      1457     0    73     1    17
  4.5623894706273052E-02 a      1458     0    73     1    18
 -6.1306075757456072E-02 a      1459     0    73     1    19
 -3.7976337252558605E-02 a      1460     0    73     1    20
 -1.6654156363900421E-01 a      1461     0    74     1     1
 -1.5365017683323580E-02 a      1462     0    74     1     2
 -2.6931728806666923E-02 a      1463     0    74     1     3
 -6.2407315853478890E-02 a      1464     0    74     1     4
  2.3176656957557207E-02 a      1465     0    74     1     5
 -1.2289595069144327E-01 a      1466     0    74     1     6
  2.4312879730958217E-01 a      1467     0    74     1     7
  5.3498839177920005E-02 a      1468     0    74     1     8
 -3.9217630108379246E-02 a      1469     0    74     1     9
 -9.4315412552652869E-02 a      1470     0    74     1    10
  1.0106068700945194E-01 a      1471     0    74     1    11
  5.7215945055805184E-02 a      1472     0    74     1    12
  3.0076826645808210E-02 a      1473     0    74     1    13
  2.2946437029854913E-01 a      1474     0    74     1    14
 -1.4355623833501391E-01 a      1475     0    74     1    15
  2.7593310298380972E-02 a      1476     0    74     1    16
  5.8412641929586319E-02 a      1477     0    74     1    17
 -1.3762806474986325E-01 a      1478     0    74     1    18
 -5.0514759747261571E-02 a      1479     0    74     1    19
 -1.3257713515613112E-01 a      1480     0    74     1    20
 -1.8920847682508393E-01 a      1481     0    75     1     1
  1.2896135385115348E-01 a      1482     0    75     1     2
 -2.3600744353761038E-02 a      1483     0    75     1     3
  3.0305477777188866E-01 a      1484     0    75     1     4
 -8.4410961777084736E-02 a      1485     0    75     1     5
 -8.0759236919924343E-02 a      1486     0    75     1     6
 -2.9789209008849925E-02 a      1487     0    75     1     7
 -1.7447665926845846E-01 a      1488     0    75     1     8
  3.0858004436100411E-01 a      1489     0    75     1     9
  2.3456446652075968E-01 a      1490     0    75     1    10
  2.5515552154852076E-02 a      1491     0    75     1    11
  5.7438262357459552E-02 a      1492     0    75     1    12
 -2.1426019966033485E-01 a      1493     0    75     1    13
 -2.1110522224956427E-01 a      1494     0    75     1    14
  1.4202878440695990E-02 a      1495     0    75     1    15
 -4.1371831540136772E-01 a      1496     0    75     1    16
 -2.2590566784359941E-02 a      1497     0    75     1    17
  3.0268379354681635E-01 a      1498     0    75     1    18
  3.5192978742969266E-01 a      1499     0    75     1    19
  1.7780806837932012E-01 a      1500     0    75     1    20
  6.0825103266783850E-02 a      1501     0    76     1     1
 -3.2407782958953447E-02 a      1502     0    76     1     2
  2.5262447025515827E-01 a      1503     0    76     1     3
  1.5893435193548461E-01 a      1504     0    76     1     4
  1.6361500906455489E-01 a      1505     0    76     1     5
  1.2126583464690116E-01 a      1506     0    76     1     6
  6.9690373173765599E-02 a      1507     0    76     1     7
 -1.7807627768307802E-01 a      1508     0    76     1     8
 -2.2610585879665440E-02 a      1509     0    76     1     9
  1.0479247130159058E-01 a      1510     0    76     1    10
  1.9191800212956844E-01 a      1511     0    76     1    11
 -8.5626853575187269E-03 a      1512     0    76     1    12
 -9.8439038084835520E-03 a      1513     0    76     1    13
  1.7136667565073321E-01 a      1514     0    76     1    14
  9.8072964657995132E-04 a      1515     0    76     1    15
  7.1454790308165858E-02 a      1516     0    76     1    16
 -2.6754032725882387E-01 a      1517     0    76     1    17
 -1.1103416812462927E-01 a      1518     0    76     1    18
  1.2310978743824676E-01 a      1519     0    76     1    19
 -2.6007763074656364E-02 a      1520     0    76     1    20
 -2.4339104021455710E-01 a      1521     0    77     1     1
  2.6787244797169441E-03 a      1522     0    77     1     2
  1.9214425196840740E-01 a      1523     0    77     1     3
  1.5593067368724148E-01 a      1524     0    77     1     4
  9.2832434316948487E-02 a      1525     0    77     1     5
 -6.7892883109738178E-02 a      1526     0    77     1     6
 -1.6611165414789539E-01 a      1527     0    77     1     7
 -1.9661930706952196E-02 a      1528     0    77     1     8
  8.5800094147209363E-02 a      1529     0    77     1     9
  5.2603661124749776E-02 a      1530     0    77     1    10
 -1.8308182754822888E-01 a      1531     0    77     1    11
 -1.5368833901585721E-01 a      1532     0    77     1    12
  8.9254318683148634E-02 a      1533     0    77     1    13
  9.3956388451475761E-02 a      1534     0    77     1    14
  2.2600772760098219E-02 a      1535     0    77     1    15
  4.2397943518743313E-02 a      1536     0    77     1    16
 -3.0854183141075211E-02 a      1537     0    77     1    17
  4.5030080088337705E-02 a      1538     0    77     1    18
  1.7007471926263726E-01 a      1539     0    77     1    19
  7.2941972514996858E-02 a      1540     0    77     1    20
  8.3508702027091222E-02 a      1541     0    78     1     1
  2.0863890412512659E-01 a      1542     0    78     1     2
 -2.5681175447958178E-02 a      1543     0    78     1     3
 -5.7865022021442787E-02 a      1544     0    78     1     4
 -2.0817405074497614E-01 a      1545     0    78     1     5
 -4.3081254207107664E-02 a      1546     0    78     1     6
 -3.1574284273426650E-02 a      1547     0    78     1     7
  1.8381714306149571E-02 a      1548     0    78     1     8
  7.8431816714088776E-02 a      1549     0    78     1     9
  1.5367966281444403E-01 a      1550     0    78     1    10
  1.0486486415426428E-01 a      1551     0    78     1    11
  3.2190908156678605E-02 a      1552     0    78     1    12
 -1.5121012554048102E-01 a      1553     0    78     1    13
  3.7346125852660797E-02 a      1554     0    78     1    14
 -1.1169521826179717E-01 a      1555     0    78     1    15
  1.2916982279202207E-02 a      1556     0    78     1    16
  1.0857132704219968E-01 a      1557     0    78     1    17
 -2.2630716664427123E-02 a      1558     0    78     1    18
 -2.1039123963721582E-01 a      1559     0    78     1    19
  1.2347645118912311E-01 a      1560     0    78     1    20
 -1.2895685204835580E-01 a      1561     0    79     1     1
 -1.4774689781299225E-01 a      1562     0    79     1     2
 -1.3031202324071944E-01 a      1563     0    79     1     3
 -1.8371695868485421E-01 a      1564     0    79     1     4
  1.4778419657968211E-01 a      1565     0    79     1     5
 -2.3738388563075047E-01 a      1566     0    79     1     6
  1.5120554163028035E-01 a      1567     0    79     1     7
  1.8224899251880525E-01 a      1568     0    79     1     8
  1.4542622993470458E-01 a      1569     0    79     1     9
 -4.1537629995721609E-02 a      1570     0    79     1    10
  1.6693936869900339E-02 a      1571     0    79     1    11
 -2.6847276641379758E-02 a      1572     0    79     1    12
 -1.8828946284894972E-03 a      1573     0    79     1    13
  1.2780887238735256E-01 a      1574     0    79     1    14
 -3.3612259373665083E-02 a      1575     0    79     1    15
  4.1041725818691067E-02 a      1576     0    79     1    16
 -2.8655357492092709E-01 a      1577     0    79     1    17
  1.3336363979211038E-04 a      1578     0    79     1    18
 -3.0029220304248669E-03 a      1579     0    79     1    19
  8.4708765554142640E-02 a      1580     0    79     1    20
  1.4457120892234812E-01 a      1581     0    80     1     1
  8.2985412156645913E-02 a      1582     0    80     1     2
  1.7724241899145340E-01 a      1583     0    80     1     3
  1.4562500278786908E-01 a      1584     0    80     1     4
  2.0402413157684651E-02 a      1585     0    80     1     5
 -6.7934520440613197E-02 a      1586     0    80     1     6
  4.0404092650211023E-03 a      1587     0    80     1     7
  4.6583093023670599E-02 a      1588     0    80     1     8
  1.1880014651459599E-01 a      1589     0    80     1     9
 -5.1703758796339441E-02 a      1590     0    80     1    10
  1.1095718439159556E-01 a      1591     0    80     1    11
 -1.1163104062572018E-01 a      1592     0    80     1    12
  1.0644859496177375E-02 a      1593     0    80     1    13
  7.6214134385345252E-03 a      1594     0    80     1    14
  1.9887405985807828E-02 a      1595     0    80     1    15
  7.1409525841549859E-02 a      1596     0    80     1    16
 -1.2152051414198432E-01 a      1597     0    80     1    17
 -1.3428279564359690E-02 a      1598     0    80     1    18
  1.1568011547970818E-01 a      1599     0    80     1    19
  6.0464664310405369E-02 a      1600     0    80     1    20
 -2.5110724238564858E-01 a      1601     0    81     1     1
 -4.5601477687850681E-02 a      1602     0    81     1     2
 -9.7107400626867939E-03 a      1603     0    81     1     3
 -1.1323399861451394E-01 a      1604     0    81     1     4
 -1.1563653988593305E-01 a      1605     0    81     1     5
  1.9076552817355522E-01 a      1606     0    81     1     6
 -1.9646963854811644E-01 a      1607     0    81     1     7
  1.1232813205674511E-01 a      1608     0    81     1     8
 -1.5894824230600589E-02 a      1609     0    81     1     9
  3.6882285180193243E-02 a      1610     0    81     1    10
 -4.9463866813644196E-02 a      1611     0    81     1    11
 -2.9035835123591848E-02 a      1612     0    81     1    12
 -2.4453218007899352E-01 a      1613     0    81     1    13
 -2.8817159770870004E-01 a      1614     0    81     1    14
  1.5272102361547774E-02 a      1615     0    81     1    15
  1.9170184251688238E-01 a      1616     0    81     1    16
  8.4800689360572126E-02 a      1617     0    81     1    17
 -8.4296504222043378E-02 a      1618     0    81     1    18
  9.3962183747407904E-02 a      1619     0    81     1    19
 -1.4619511467039034E-01 a      1620     0    81     1    20
  2.9508393319430298E-01 a      1621     0    82     1     1
 -2.5543038708663707E-01 a      1622     0    82     1     2
  7.8998369158318454E-02 a      1623     0    82     1     3
