################################################################################
# Neural network connection values (weights and biases).
################################################################################
# Col  Name       Description
################################################################################
# 1    connection Neural network connection value.
# 2    t          Connection type (a = weight, b = bias).
# 3    index      Index enumerating weights.
# 4    l_s        Starting point layer (end point layer for biases).
# 5    n_s        Starting point neuron in starting layer (end point neuron for biases).
# 6    l_e        End point layer.
# 7    n_e        End point neuron in end layer.
################################################################################
#                      1 2         3     4     5     6     7
#             connection t     index   l_s   n_s   l_e   n_e
############################################################
 -2.0002371092973611E-01 a         1     0     1     1     1
 -1.7608218785096166E-01 a         2     0     1     1     2
 -1.7970659087169114E-01 a         3     0     1     1     3
 -1.2723318625066013E-01 a         4     0     1     1     4
 -8.6343108985790229E-02 a         5     0     1     1     5
  2.3157404394569245E-01 a         6     0     1     1     6
 -1.1595017642915770E-01 a         7     0     1     1     7
 -2.4658982426412016E-01 a         8     0     1     1     8
  6.5899610624909552E-02 a         9     0     1     1     9
 -2.2335792713263736E-01 a        10     0     1     1    10
 -4.2583302434076359E-01 a        11     0     1     1    11
  2.3859395231618211E-01 a        12     0     1     1    12
 -2.0088809389710172E-01 a        13     0     1     1    13
  5.6227456843872137E-03 a        14     0     1     1    14
  1.0749063775371889E-01 a        15     0     1     1    15
  2.0630204557354398E-01 a        16     0     1     1    16
  2.2868900017375010E-01 a        17     0     1     1    17
  1.1868077728268719E-01 a        18     0     1     1    18
  6.9075511935273698E-02 a        19     0     1     1    19
 -7.5640308058248396E-02 a        20     0     1     1    20
 -5.5863075745140607E-02 a        21     0     2     1     1
  2.2696648765822722E-01 a        22     0     2     1     2
 -1.9970625057060779E-01 a        23     0     2     1     3
  2.0127224220652531E-01 a        24     0     2     1     4
  3.7485555370088119E-01 a        25     0     2     1     5
 -2.0867187646594412E-01 a        26     0     2     1     6
  2.4905902946838468E-01 a        27     0     2     1     7
 -6.7041014883605732E-01 a        28     0     2     1     8
 -3.9228303858484442E-01 a        29     0     2     1     9
  1.6858787969278219E-01 a        30     0     2     1    10
  1.0628256741698086E-01 a        31     0     2     1    11
 -9.4964967745165371E-02 a        32     0     2     1    12
  7.2023569939451831E-02 a        33     0     2     1    13
 -2.6157833614472931E-01 a        34     0     2     1    14
  3.2250258527045872E-01 a        35     0     2     1    15
 -3.3717427647129838E-01 a        36     0     2     1    16
 -2.8964655733748285E-01 a        37     0     2     1    17
  9.8933666580212229E-02 a        38     0     2     1    18
  1.8862659484891967E-01 a        39     0     2     1    19
 -9.2403636313019497E-02 a        40     0     2     1    20
  3.5989134160380271E-01 a        41     0     3     1     1
 -9.7168938550197828E-02 a        42     0     3     1     2
 -2.8434495556693956E-01 a        43     0     3     1     3
  2.3204135757151789E-01 a        44     0     3     1     4
  2.9093781717543393E-01 a        45     0     3     1     5
  2.1499296910243276E-01 a        46     0     3     1     6
  5.9547724417053061E-01 a        47     0     3     1     7
 -5.4296944982103468E-02 a        48     0     3     1     8
  6.7694648522898071E-01 a        49     0     3     1     9
  5.9491919490659673E-01 a        50     0     3     1    10
  2.9855259417180702E-01 a        51     0     3     1    11
  6.3539985987066749E-01 a        52     0     3     1    12
 -1.7447062685474124E-01 a        53     0     3     1    13
 -1.0720525213446694E+00 a        54     0     3     1    14
 -2.0172089754893315E-02 a        55     0     3     1    15
  3.3895923654756327E-02 a        56     0     3     1    16
 -5.5022473675858732E-02 a        57     0     3     1    17
  1.0986639781643357E-02 a        58     0     3     1    18
 -4.4645914537375056E-02 a        59     0     3     1    19
 -1.5889681330523167E-02 a        60     0     3     1    20
 -1.4344893424364463E-01 a        61     0     4     1     1
  4.3877637660389634E-03 a        62     0     4     1     2
  1.2521488770438041E-01 a        63     0     4     1     3
 -7.4901640613232887E-02 a        64     0     4     1     4
 -3.9917375258842791E-01 a        65     0     4     1     5
 -7.8792956285347687E-02 a        66     0     4     1     6
 -7.8641571911910568E-02 a        67     0     4     1     7
  5.2354430556192481E-02 a        68     0     4     1     8
 -2.7290252202037513E-01 a        69     0     4     1     9
 -3.3113106474336551E-01 a        70     0     4     1    10
  1.2834246679217237E-01 a        71     0     4     1    11
  3.0273953286353161E-01 a        72     0     4     1    12
  1.8489138003294811E-01 a        73     0     4     1    13
 -5.8603203517097413E-02 a        74     0     4     1    14
 -1.0524032839126041E-01 a        75     0     4     1    15
  7.7509497491580082E-03 a        76     0     4     1    16
  1.8801515205754993E-01 a        77     0     4     1    17
  1.4985137281486599E-01 a        78     0     4     1    18
  2.2981345058236616E-01 a        79     0     4     1    19
 -2.0486667060005067E-02 a        80     0     4     1    20
 -6.6605381601607450E-02 a        81     0     5     1     1
 -9.9236635590390625E-03 a        82     0     5     1     2
  3.9785436204419634E-02 a        83     0     5     1     3
 -8.9889678348210919E-02 a        84     0     5     1     4
 -5.4461188800753922E-02 a        85     0     5     1     5
  1.4393514892260831E-01 a        86     0     5     1     6
 -7.8947955635666443E-03 a        87     0     5     1     7
  8.7901366077784843E-02 a        88     0     5     1     8
  4.0903857254309776E-02 a        89     0     5     1     9
  1.0128450230243197E-01 a        90     0     5     1    10
  1.6178707071508640E-02 a        91     0     5     1    11
  1.4277947763656459E-01 a        92     0     5     1    12
  1.0326539984895691E-01 a        93     0     5     1    13
 -1.9673839649418376E-01 a        94     0     5     1    14
 -1.9626237831075752E-01 a        95     0     5     1    15
 -5.1678374867235234E-02 a        96     0     5     1    16
  6.3766531557267895E-03 a        97     0     5     1    17
 -1.1402887070585309E-01 a        98     0     5     1    18
  1.5154684579565156E-01 a        99     0     5     1    19
 -4.3772157256087726E-02 a       100     0     5     1    20
  7.1385195187756967E-01 a       101     0     6     1     1
 -3.5532405971496739E-01 a       102     0     6     1     2
  5.8557723842267850E-01 a       103     0     6     1     3
  4.5237093467990647E-01 a       104     0     6     1     4
  2.6696665381851886E-01 a       105     0     6     1     5
 -5.9135769454883702E-01 a       106     0     6     1     6
  3.6735532209296887E-02 a       107     0     6     1     7
  5.4679214075867022E-01 a       108     0     6     1     8
 -3.2870452148940121E-01 a       109     0     6     1     9
 -1.9053793013524081E-01 a       110     0     6     1    10
  1.4005925236888943E+00 a       111     0     6     1    11
 -7.8790141432730143E-01 a       112     0     6     1    12
  3.1551799738648456E-01 a       113     0     6     1    13
  4.5988936854038404E-02 a       114     0     6     1    14
 -3.4859625333537936E-01 a       115     0     6     1    15
 -1.3886381054256698E+00 a       116     0     6     1    16
 -4.0693710887715234E-01 a       117     0     6     1    17
  7.8083683384309641E-02 a       118     0     6     1    18
 -1.4725661751783975E-01 a       119     0     6     1    19
  5.9617513340876588E-02 a       120     0     6     1    20
 -2.1686121674241812E-01 a       121     0     7     1     1
 -6.8289849019905910E-02 a       122     0     7     1     2
  1.7725768869788125E-01 a       123     0     7     1     3
 -2.4306373337217896E-01 a       124     0     7     1     4
  2.0103057912602727E-02 a       125     0     7     1     5
 -3.2361414602936227E-02 a       126     0     7     1     6
 -1.7136554847644733E-01 a       127     0     7     1     7
  6.8103217278206174E-02 a       128     0     7     1     8
 -3.1704233259154546E-01 a       129     0     7     1     9
 -1.6883232577503229E-01 a       130     0     7     1    10
 -2.3330231929169926E-01 a       131     0     7     1    11
 -2.8064662471428720E-02 a       132     0     7     1    12
  2.0961448735020147E-01 a       133     0     7     1    13
  3.6434232051641607E-01 a       134     0     7     1    14
  6.8153265323509932E-02 a       135     0     7     1    15
  8.3892246940724668E-02 a       136     0     7     1    16
 -5.6108916987196877E-01 a       137     0     7     1    17
 -1.5764573921094226E-02 a       138     0     7     1    18
 -3.1932764028681705E-02 a       139     0     7     1    19
  2.3118389363398664E-01 a       140     0     7     1    20
 -7.4351686966814656E-01 a       141     0     8     1     1
  3.2713082897756990E-01 a       142     0     8     1     2
  6.1978547187788235E-01 a       143     0     8     1     3
  3.2475229576433701E-01 a       144     0     8     1     4
 -6.5498403396972249E-01 a       145     0     8     1     5
 -1.9459175429770863E-02 a       146     0     8     1     6
  9.3868558202687996E-02 a       147     0     8     1     7
  3.4365914487060917E-01 a       148     0     8     1     8
 -1.3604264149234724E+00 a       149     0     8     1     9
 -1.5089657782172816E-01 a       150     0     8     1    10
 -5.8625753135082814E-01 a       151     0     8     1    11
 -1.5278692442502844E+00 a       152     0     8     1    12
  1.3132830220810315E-01 a       153     0     8     1    13
 -8.4241850794084416E-02 a       154     0     8     1    14
 -3.5528693328673844E-01 a       155     0     8     1    15
  4.2552557530898499E-01 a       156     0     8     1    16
 -4.1417942002207497E-02 a       157     0     8     1    17
 -3.7207150452137661E-01 a       158     0     8     1    18
  4.2425529521217442E-01 a       159     0     8     1    19
 -4.6853258386743479E-01 a       160     0     8     1    20
 -1.2178756545599635E-01 a       161     0     9     1     1
  6.7419489655657000E-02 a       162     0     9     1     2
 -8.3778724762823970E-02 a       163     0     9     1     3
 -1.2296464586010797E-02 a       164     0     9     1     4
  2.3890865543609752E-01 a       165     0     9     1     5
 -1.4779216267678863E-01 a       166     0     9     1     6
 -2.2222885752344801E-01 a       167     0     9     1     7
 -5.9334051367850693E-02 a       168     0     9     1     8
 -9.9094401013638395E-02 a       169     0     9     1     9
 -3.1863761418981584E-01 a       170     0     9     1    10
  1.6546973026814052E-01 a       171     0     9     1    11
 -6.8549485872171634E-02 a       172     0     9     1    12
 -1.7886389423901188E-02 a       173     0     9     1    13
  1.7235109731873377E-01 a       174     0     9     1    14
 -2.8540368608152872E-02 a       175     0     9     1    15
  5.6045933418778858E-02 a       176     0     9     1    16
  1.8036196645249908E-01 a       177     0     9     1    17
 -1.3506347732328305E-01 a       178     0     9     1    18
 -1.5280458394442265E-01 a       179     0     9     1    19
 -9.2120979772973191E-02 a       180     0     9     1    20
 -8.4194362709407791E-02 a       181     0    10     1     1
  1.0155353729785696E-01 a       182     0    10     1     2
 -8.3997907937841398E-02 a       183     0    10     1     3
  1.1521753462632146E-01 a       184     0    10     1     4
 -4.9017112594911844E-02 a       185     0    10     1     5
 -1.0683722672901050E-01 a       186     0    10     1     6
 -5.7310319506713683E-02 a       187     0    10     1     7
  1.2475350331675951E-01 a       188     0    10     1     8
 -3.9100676390745620E-01 a       189     0    10     1     9
  2.4841942363864483E-01 a       190     0    10     1    10
  1.7427567310886538E-01 a       191     0    10     1    11
 -3.2516649543068665E-01 a       192     0    10     1    12
 -2.7559458106484142E-01 a       193     0    10     1    13
  1.9634654931454436E-02 a       194     0    10     1    14
 -4.7756605933573934E-02 a       195     0    10     1    15
  6.9723347775528799E-02 a       196     0    10     1    16
  2.6748607875638475E-01 a       197     0    10     1    17
 -2.0963523337398596E-02 a       198     0    10     1    18
 -1.6067918465385586E-01 a       199     0    10     1    19
 -4.0402087909219911E-03 a       200     0    10     1    20
 -6.2029589194960000E-01 a       201     0    11     1     1
  2.4137860427934768E-01 a       202     0    11     1     2
 -4.1506805602628732E-01 a       203     0    11     1     3
 -2.8425058334148368E-01 a       204     0    11     1     4
 -2.4257225951734196E-01 a       205     0    11     1     5
  1.6963574712566687E-01 a       206     0    11     1     6
  2.8912190150716763E-02 a       207     0    11     1     7
 -3.9843938255314648E-01 a       208     0    11     1     8
  3.9137986376234335E-01 a       209     0    11     1     9
  5.1160570255800097E-01 a       210     0    11     1    10
 -9.2278507557563083E-01 a       211     0    11     1    11
  8.9353822904324809E-01 a       212     0    11     1    12
 -2.7578728807842218E-01 a       213     0    11     1    13
 -2.0067315795950745E-02 a       214     0    11     1    14
  7.4759765408000978E-01 a       215     0    11     1    15
  1.3186002221035491E+00 a       216     0    11     1    16
  5.8030790785260711E-01 a       217     0    11     1    17
 -5.7787633730778665E-02 a       218     0    11     1    18
  3.1249000681487143E-01 a       219     0    11     1    19
  1.8332458432045554E-01 a       220     0    11     1    20
  9.7978841333773964E-02 a       221     0    12     1     1
  8.3038764504562629E-02 a       222     0    12     1     2
  3.0160482181776338E-01 a       223     0    12     1     3
 -5.3240965504999023E-02 a       224     0    12     1     4
  2.4506015613337945E-01 a       225     0    12     1     5
 -2.1205860295535753E-01 a       226     0    12     1     6
  2.2941493565609282E-02 a       227     0    12     1     7
 -4.6679575187840133E-01 a       228     0    12     1     8
 -2.0819258599877943E-01 a       229     0    12     1     9
 -2.4151104621616215E-01 a       230     0    12     1    10
  8.9763613767644787E-02 a       231     0    12     1    11
  2.5450635753829356E-02 a       232     0    12     1    12
 -2.6396669149152935E-01 a       233     0    12     1    13
 -3.0821143423235775E-01 a       234     0    12     1    14
 -2.1342835565204735E-01 a       235     0    12     1    15
  1.8844181823391151E-01 a       236     0    12     1    16
 -3.0376418804566574E-01 a       237     0    12     1    17
 -1.3321184158012749E-02 a       238     0    12     1    18
  1.0696741732048751E-01 a       239     0    12     1    19
  3.4335287737763071E-01 a       240     0    12     1    20
  3.7707653570526842E-02 a       241     0    13     1     1
  5.3712881761327283E-02 a       242     0    13     1     2
 -2.2829681613437289E-01 a       243     0    13     1     3
  1.5729628470696458E-01 a       244     0    13     1     4
 -3.2501827728043407E-02 a       245     0    13     1     5
  2.2124061224212624E-01 a       246     0    13     1     6
 -3.6535863326917151E-01 a       247     0    13     1     7
 -1.3487096703053927E-01 a       248     0    13     1     8
  3.2969989751358231E-01 a       249     0    13     1     9
  6.7036714910138206E-01 a       250     0    13     1    10
  1.4025854161319351E-01 a       251     0    13     1    11
  3.0362868686966821E-01 a       252     0    13     1    12
 -3.2003209729712917E-01 a       253     0    13     1    13
 -1.6808879630655732E-01 a       254     0    13     1    14
 -1.6160630571364382E-01 a       255     0    13     1    15
 -1.4970954433602604E-01 a       256     0    13     1    16
 -3.5515569885807374E-01 a       257     0    13     1    17
 -5.4588658111018741E-02 a       258     0    13     1    18
 -2.4378063071156536E-01 a       259     0    13     1    19
 -1.3751680777588174E-03 a       260     0    13     1    20
 -1.2536903741277292E-01 a       261     0    14     1     1
 -4.7561453309054154E-02 a       262     0    14     1     2
 -9.6282435619896162E-02 a       263     0    14     1     3
 -3.2039782471685607E-01 a       264     0    14     1     4
  1.6082710548574564E-01 a       265     0    14     1     5
  9.5069903816152601E-02 a       266     0    14     1     6
  3.4838850790371808E-03 a       267     0    14     1     7
  1.1090840463486409E-01 a       268     0    14     1     8
  4.4003824567837306E-04 a       269     0    14     1     9
  1.4827589108350880E-01 a       270     0    14     1    10
  4.8379535408936997E-02 a       271     0    14     1    11
  1.0572772161464525E-01 a       272     0    14     1    12
 -9.5479615519013419E-02 a       273     0    14     1    13
 -1.5758126206947573E-01 a       274     0    14     1    14
  9.5701222181235834E-02 a       275     0    14     1    15
  1.0516107478868372E-01 a       276     0    14     1    16
 -2.0440035793777431E-02 a       277     0    14     1    17
 -1.4206213267652593E-01 a       278     0    14     1    18
 -1.7043926794323006E-01 a       279     0    14     1    19
 -1.8034459557460886E-01 a       280     0    14     1    20
  2.8494928494943630E-02 a       281     0    15     1     1
 -1.2340932010378082E-01 a       282     0    15     1     2
  7.5315708309735385E-02 a       283     0    15     1     3
 -9.3251376439903957E-02 a       284     0    15     1     4
  1.6501725751060831E-01 a       285     0    15     1     5
 -1.1293974684380417E-01 a       286     0    15     1     6
 -7.4165206254640445E-02 a       287     0    15     1     7
 -1.2011217139340055E-01 a       288     0    15     1     8
 -1.1897802452201908E-01 a       289     0    15     1     9
  2.3213645126253027E-01 a       290     0    15     1    10
 -1.7809571766026344E-01 a       291     0    15     1    11
  6.5972475377664474E-03 a       292     0    15     1    12
  9.0307677477247467E-02 a       293     0    15     1    13
 -1.4197152012906988E-01 a       294     0    15     1    14
 -1.5910895463191083E-01 a       295     0    15     1    15
 -1.1122085218656924E-01 a       296     0    15     1    16
 -1.9500020841202362E-01 a       297     0    15     1    17
 -8.1524515642375187E-02 a       298     0    15     1    18
  7.7186177700005437E-02 a       299     0    15     1    19
 -3.2604123582172559E-02 a       300     0    15     1    20
  3.7033627176968337E-01 a       301     0    16     1     1
 -3.3382994075319516E-01 a       302     0    16     1     2
  5.5030294571722915E-01 a       303     0    16     1     3
  2.5357821651682083E-01 a       304     0    16     1     4
  2.4215574725737038E-01 a       305     0    16     1     5
 -3.8324235847306945E-02 a       306     0    16     1     6
  6.4260864379674001E-02 a       307     0    16     1     7
  5.3911871725531302E-01 a       308     0    16     1     8
 -3.6362875393612340E-02 a       309     0    16     1     9
 -5.3930747033510085E-01 a       310     0    16     1    10
  3.7192461496345608E-01 a       311     0    16     1    11
 -4.6094774603180944E-01 a       312     0    16     1    12
  3.6467221764756169E-01 a       313     0    16     1    13
  5.7594931464764340E-02 a       314     0    16     1    14
 -6.7406919292445988E-01 a       315     0    16     1    15
 -1.2902786964369775E+00 a       316     0    16     1    16
  9.4739879280720002E-02 a       317     0    16     1    17
  3.8511671993136198E-01 a       318     0    16     1    18
 -8.2619557976892480E-02 a       319     0    16     1    19
 -2.0535761843925057E-01 a       320     0    16     1    20
  1.3123220968352658E-01 a       321     0    17     1     1
  1.1885708709893607E-01 a       322     0    17     1     2
 -1.4527714188837687E-01 a       323     0    17     1     3
 -1.8888026489230847E-01 a       324     0    17     1     4
 -1.3979376043203853E-01 a       325     0    17     1     5
  9.6715463996562695E-03 a       326     0    17     1     6
  4.2957368574914584E-01 a       327     0    17     1     7
  2.6523934951852901E-01 a       328     0    17     1     8
 -3.5777264035301515E-01 a       329     0    17     1     9
  1.9525610975618810E-02 a       330     0    17     1    10
 -1.2899610383231525E-01 a       331     0    17     1    11
 -1.0070760212296305E-01 a       332     0    17     1    12
 -1.5893755082999772E-01 a       333     0    17     1    13
  6.3902068086574684E-02 a       334     0    17     1    14
  4.6959289562674859E-02 a       335     0    17     1    15
 -1.7972013757723765E-01 a       336     0    17     1    16
  1.3522331264459045E-01 a       337     0    17     1    17
  1.9617959034650112E-01 a       338     0    17     1    18
 -7.7748976616636464E-04 a       339     0    17     1    19
 -1.1529561672074362E-02 a       340     0    17     1    20
 -1.5250286245967103E-02 a       341     0    18     1     1
  1.7652322647918930E-01 a       342     0    18     1     2
  3.0020814048340675E-02 a       343     0    18     1     3
  2.7924848029717358E-01 a       344     0    18     1     4
 -4.1667809870689021E-02 a       345     0    18     1     5
  1.5287931765916127E-01 a       346     0    18     1     6
  1.4205044702694312E-02 a       347     0    18     1     7
 -1.1170662068347441E-01 a       348     0    18     1     8
 -5.2345749150023713E-01 a       349     0    18     1     9
 -4.7185795443183104E-02 a       350     0    18     1    10
 -2.0093780348273421E-01 a       351     0    18     1    11
 -4.8628536805373535E-01 a       352     0    18     1    12
 -1.5464158054431909E-01 a       353     0    18     1    13
 -5.0057160370670796E-02 a       354     0    18     1    14
 -1.5617455467533103E-01 a       355     0    18     1    15
  7.6965894003679772E-02 a       356     0    18     1    16
  8.7424084237295602E-03 a       357     0    18     1    17
 -1.4555259082498523E-01 a       358     0    18     1    18
  9.1247886662044975E-02 a       359     0    18     1    19
  9.0273799153658060E-02 a       360     0    18     1    20
 -6.0151569515531755E-03 a       361     0    19     1     1
 -5.5719744655664039E-02 a       362     0    19     1     2
  1.3938032927607152E-01 a       363     0    19     1     3
  1.3772788783090071E-02 a       364     0    19     1     4
  1.9479531719614346E-01 a       365     0    19     1     5
 -1.4138215658543460E-01 a       366     0    19     1     6
 -1.1768593229652376E-01 a       367     0    19     1     7
 -2.2633126646523136E-01 a       368     0    19     1     8
  2.1057008077853923E-02 a       369     0    19     1     9
 -2.2342819431775237E-02 a       370     0    19     1    10
 -1.7097354061109496E-01 a       371     0    19     1    11
  1.0864417913017434E-01 a       372     0    19     1    12
 -7.4149387627877539E-02 a       373     0    19     1    13
  8.0031491332058932E-02 a       374     0    19     1    14
  3.9684202132921099E-02 a       375     0    19     1    15
 -2.0383924170718098E-01 a       376     0    19     1    16
  1.4339282063655259E-03 a       377     0    19     1    17
 -5.1919835716183249E-02 a       378     0    19     1    18
 -4.4689034907444358E-02 a       379     0    19     1    19
  1.3234997790485203E-01 a       380     0    19     1    20
 -5.9348494569497375E-02 a       381     0    20     1     1
  1.4477218808367168E-01 a       382     0    20     1     2
 -1.3360418425595891E-01 a       383     0    20     1     3
  1.1801616403647996E-01 a       384     0    20     1     4
  9.5863158982153349E-02 a       385     0    20     1     5
  4.4383780710362877E-02 a       386     0    20     1     6
 -2.2888695341952110E-02 a       387     0    20     1     7
  1.1118977294804998E-01 a       388     0    20     1     8
 -1.7153201996461204E-01 a       389     0    20     1     9
 -9.8377231185480501E-02 a       390     0    20     1    10
 -6.9857378468664841E-02 a       391     0    20     1    11
  5.2692381623120413E-03 a       392     0    20     1    12
 -9.4885832866721184E-02 a       393     0    20     1    13
  6.9423590311146182E-03 a       394     0    20     1    14
 -7.1757398585148943E-02 a       395     0    20     1    15
  1.4902012051286195E-01 a       396     0    20     1    16
  1.9302088190655574E-03 a       397     0    20     1    17
 -1.7278543825819176E-01 a       398     0    20     1    18
 -1.1833345642678572E-01 a       399     0    20     1    19
 -2.1332634362425232E-02 a       400     0    20     1    20
 -2.8893357734933334E-01 a       401     0    21     1     1
  1.9563087401364477E-03 a       402     0    21     1     2
  8.0171947375668060E-02 a       403     0    21     1     3
  1.3440142165738980E-02 a       404     0    21     1     4
 -5.5730755699906669E-03 a       405     0    21     1     5
 -2.5239765806552483E-01 a       406     0    21     1     6
 -2.5626059648235586E-02 a       407     0    21     1     7
 -9.1972243540801107E-02 a       408     0    21     1     8
  1.1617741213659882E-01 a       409     0    21     1     9
  6.4205125141711183E-01 a       410     0    21     1    10
  9.7441662899937248E-02 a       411     0    21     1    11
  3.7591642058101027E-01 a       412     0    21     1    12
 -6.7797329517558763E-02 a       413     0    21     1    13
  3.0320723921756526E-02 a       414     0    21     1    14
  4.5143379130015338E-01 a       415     0    21     1    15
  7.5434807907148538E-01 a       416     0    21     1    16
  2.1394848874817832E-01 a       417     0    21     1    17
 -1.6146997837671803E-01 a       418     0    21     1    18
  2.4340186845494258E-01 a       419     0    21     1    19
  1.1162822297969027E-01 a       420     0    21     1    20
 -2.4631700222400707E-01 a       421     0    22     1     1
 -4.3711605211778831E-02 a       422     0    22     1     2
  5.2814201203786236E-02 a       423     0    22     1     3
  5.0910592661678931E-02 a       424     0    22     1     4
  1.0488683313392638E-01 a       425     0    22     1     5
 -4.6183759892731609E-03 a       426     0    22     1     6
 -4.6532867391966401E-03 a       427     0    22     1     7
  9.5236451700795866E-02 a       428     0    22     1     8
  1.7028005123961523E-01 a       429     0    22     1     9
  3.1968694856143974E-02 a       430     0    22     1    10
  6.8741881569869046E-02 a       431     0    22     1    11
  1.2114501483809288E-01 a       432     0    22     1    12
 -2.1096778405470279E-01 a       433     0    22     1    13
 -4.8170479169486573E-02 a       434     0    22     1    14
  1.3768368617100910E-01 a       435     0    22     1    15
 -9.8886150247381219E-02 a       436     0    22     1    16
  1.3891591600799302E-01 a       437     0    22     1    17
  6.5587939149259852E-02 a       438     0    22     1    18
 -3.6291107818163787E-01 a       439     0    22     1    19
  2.0166979741570008E-02 a       440     0    22     1    20
  4.2165914857302238E-03 a       441     0    23     1     1
  1.7287130790372207E-01 a       442     0    23     1     2
 -2.4002967664655517E-01 a       443     0    23     1     3
 -2.4131718467954011E-01 a       444     0    23     1     4
  1.8394174168445590E-01 a       445     0    23     1     5
 -5.0639136992973281E-02 a       446     0    23     1     6
 -2.2981125171546310E-02 a       447     0    23     1     7
  6.6863914355566961E-02 a       448     0    23     1     8
  4.1471325879159802E-03 a       449     0    23     1     9
 -9.9881388468917899E-03 a       450     0    23     1    10
 -6.4279311777269907E-02 a       451     0    23     1    11
  1.8633773192679825E-03 a       452     0    23     1    12
 -3.0746744894605088E-01 a       453     0    23     1    13
 -1.7450557540835532E-01 a       454     0    23     1    14
  6.8859925354561702E-02 a       455     0    23     1    15
  8.2812079389209314E-02 a       456     0    23     1    16
 -6.0493296394507967E-01 a       457     0    23     1    17
 -1.9511697609253045E-01 a       458     0    23     1    18
 -3.5900507648729452E-01 a       459     0    23     1    19
 -9.7070756654645499E-02 a       460     0    23     1    20
 -1.3434338131357140E-01 a       461     0    24     1     1
 -1.4156721997306517E-03 a       462     0    24     1     2
 -6.9342296737645573E-03 a       463     0    24     1     3
  6.2917221360450457E-02 a       464     0    24     1     4
 -1.1537968085512106E-01 a       465     0    24     1     5
  9.2428921091078503E-02 a       466     0    24     1     6
 -4.3465693989743141E-02 a       467     0    24     1     7
  8.8436992546548271E-02 a       468     0    24     1     8
  3.4340057460531238E-02 a       469     0    24     1     9
 -7.6415075249939360E-02 a       470     0    24     1    10
  1.0096385913460326E-01 a       471     0    24     1    11
  4.3733293808107074E-02 a       472     0    24     1    12
 -6.6264483919549547E-02 a       473     0    24     1    13
 -3.1590807467608777E-02 a       474     0    24     1    14
 -5.6258858323559651E-03 a       475     0    24     1    15
  4.4318440601937341E-02 a       476     0    24     1    16
  2.2652710195029724E-01 a       477     0    24     1    17
 -4.4360587467169567E-02 a       478     0    24     1    18
  1.0987680666043961E-01 a       479     0    24     1    19
 -9.5181847757201038E-02 a       480     0    24     1    20
  9.2538558850708955E-02 a       481     0    25     1     1
 -1.6473219320455673E-02 a       482     0    25     1     2
 -2.4635607930133963E-02 a       483     0    25     1     3
 -1.2568440121473420E-01 a       484     0    25     1     4
  1.6062013318477458E-01 a       485     0    25     1     5
 -1.1524586015844737E-01 a       486     0    25     1     6
 -1.0584499015532857E-01 a       487     0    25     1     7
 -3.6233596722673345E-02 a       488     0    25     1     8
 -1.0239652012395027E-01 a       489     0    25     1     9
  1.4050061993340854E-01 a       490     0    25     1    10
  2.7809542370512096E-02 a       491     0    25     1    11
 -2.7283127990654184E-02 a       492     0    25     1    12
  8.9560439672643974E-02 a       493     0    25     1    13
 -2.2499052653046588E-02 a       494     0    25     1    14
 -3.8408181800034143E-02 a       495     0    25     1    15
 -4.5911644872444118E-02 a       496     0    25     1    16
 -1.6920552061472033E-01 a       497     0    25     1    17
 -1.1057006142126952E-01 a       498     0    25     1    18
 -1.0729937454150898E-01 a       499     0    25     1    19
 -7.3332978197311924E-02 a       500     0    25     1    20
  2.7463651768040862E-02 a       501     0    26     1     1
  5.1585203307707571E-02 a       502     0    26     1     2
  4.1052546391424688E-01 a       503     0    26     1     3
 -2.7711794879592533E-01 a       504     0    26     1     4
 -1.4639644610826003E-01 a       505     0    26     1     5
  6.0190484193009382E-02 a       506     0    26     1     6
 -1.5175499326358025E-01 a       507     0    26     1     7
  2.3316983791632812E-01 a       508     0    26     1     8
  2.9603631556538196E-02 a       509     0    26     1     9
 -2.2172946823428522E-01 a       510     0    26     1    10
 -1.6403764890629485E-01 a       511     0    26     1    11
 -8.0686524418101965E-02 a       512     0    26     1    12
  3.8030148978781958E-01 a       513     0    26     1    13
  5.2557027203026956E-02 a       514     0    26     1    14
 -5.1794560445419580E-01 a       515     0    26     1    15
 -6.1528731950852744E-01 a       516     0    26     1    16
  1.8813828214636749E-01 a       517     0    26     1    17
  2.3661376006286147E-01 a       518     0    26     1    18
  3.4567608067678762E-01 a       519     0    26     1    19
 -2.9024305723542254E-01 a       520     0    26     1    20
  2.0731057055787921E-01 a       521     0    27     1     1
 -8.3538138033718724E-03 a       522     0    27     1     2
  3.2997767026394467E-02 a       523     0    27     1     3
  1.4808103220287813E-01 a       524     0    27     1     4
  6.8028504924495622E-02 a       525     0    27     1     5
 -1.1251510452936224E-02 a       526     0    27     1     6
 -1.7883046353331662E-02 a       527     0    27     1     7
 -1.3591374730777470E-01 a       528     0    27     1     8
 -2.5646671186553994E-02 a       529     0    27     1     9
  2.2166791735046168E-02 a       530     0    27     1    10
 -7.5743127951057795E-02 a       531     0    27     1    11
 -1.5107596868180106E-01 a       532     0    27     1    12
  1.2474277712606675E-01 a       533     0    27     1    13
  2.0947310639534946E-02 a       534     0    27     1    14
 -3.0091844265176363E-02 a       535     0    27     1    15
  2.4804149959584278E-02 a       536     0    27     1    16
 -1.1536271500374745E-01 a       537     0    27     1    17
 -1.0471392526327936E-01 a       538     0    27     1    18
  1.4895366912852669E-02 a       539     0    27     1    19
  3.8701499353771693E-02 a       540     0    27     1    20
  1.1712855900451846E-01 a       541     0    28     1     1
  3.0740250051075658E-02 a       542     0    28     1     2
 -4.9521028098843750E-01 a       543     0    28     1     3
  2.8260578947037890E-01 a       544     0    28     1     4
  9.1137548223467219E-03 a       545     0    28     1     5
  3.3388084828446152E-01 a       546     0    28     1     6
  8.3945798874612759E-02 a       547     0    28     1     7
 -5.0977047001421971E-02 a       548     0    28     1     8
 -2.5549872874522134E-01 a       549     0    28     1     9
 -2.3664239471762646E-01 a       550     0    28     1    10
 -4.4766402829168979E-03 a       551     0    28     1    11
 -5.6572323770470501E-02 a       552     0    28     1    12
 -2.7502926733257332E-01 a       553     0    28     1    13
  1.2210847223495020E-02 a       554     0    28     1    14
  1.9104048615200750E-02 a       555     0    28     1    15
  8.8627578902304410E-02 a       556     0    28     1    16
  7.0051360687166817E-02 a       557     0    28     1    17
 -1.1984023578604489E-02 a       558     0    28     1    18
 -4.0469944302787508E-01 a       559     0    28     1    19
  1.4183591333012233E-01 a       560     0    28     1    20
 -4.0254354394703715E-03 a       561     0    29     1     1
 -7.6192451487093207E-02 a       562     0    29     1     2
  1.6680983660468524E-01 a       563     0    29     1     3
  3.7898427064552431E-02 a       564     0    29     1     4
  1.1674134183525832E-01 a       565     0    29     1     5
 -1.5181116717083937E-01 a       566     0    29     1     6
 -1.5340747836048854E-01 a       567     0    29     1     7
 -4.2266649180628564E-02 a       568     0    29     1     8
  7.1634888180518996E-02 a       569     0    29     1     9
  1.3051327850782010E-01 a       570     0    29     1    10
 -8.7003279211412946E-02 a       571     0    29     1    11
  2.3725900846761655E-02 a       572     0    29     1    12
  2.1371141245107522E-01 a       573     0    29     1    13
  3.3266473877674618E-02 a       574     0    29     1    14
  7.4697865797558174E-02 a       575     0    29     1    15
 -7.5560710301951564E-02 a       576     0    29     1    16
 -6.4840501037731729E-02 a       577     0    29     1    17
  1.0661044471850133E-02 a       578     0    29     1    18
  1.2331181659577304E-02 a       579     0    29     1    19
 -1.4104015882457951E-01 a       580     0    29     1    20
  1.2435858967075601E-01 a       581     0    30     1     1
  3.3065861152357231E-03 a       582     0    30     1     2
 -1.6085859661137700E-01 a       583     0    30     1     3
  2.6152842488573119E-02 a       584     0    30     1     4
  1.3650685503564584E-03 a       585     0    30     1     5
  2.0635337549054653E-02 a       586     0    30     1     6
  1.1394636501289442E-01 a       587     0    30     1     7
 -2.3797871419865519E-02 a       588     0    30     1     8
 -7.4050973199135214E-02 a       589     0    30     1     9
 -1.6230412567046562E-01 a       590     0    30     1    10
 -1.8913821008180121E-02 a       591     0    30     1    11
 -2.5612313748799839E-02 a       592     0    30     1    12
 -1.5643664657046166E-01 a       593     0    30     1    13
 -2.1855236393740526E-02 a       594     0    30     1    14
  1.3025536105293894E-01 a       595     0    30     1    15
  7.4090775342938550E-02 a       596     0    30     1    16
 -7.7305967659273084E-02 a       597     0    30     1    17
  1.9411242569397271E-02 a       598     0    30     1    18
 -3.7274514261064644E-02 a       599     0    30     1    19
  4.1272074750471809E-02 a       600     0    30     1    20
 -8.1489694674279620E-02 a       601     0    31     1     1
 -7.9317722603997429E-02 a       602     0    31     1     2
  1.5364884097125642E-01 a       603     0    31     1     3
  1.6701213054471623E-01 a       604     0    31     1     4
  1.3290978987711105E-03 a       605     0    31     1     5
 -2.0469411256848424E-01 a       606     0    31     1     6
 -9.4289276672166827E-02 a       607     0    31     1     7
 -3.1454721648905719E-04 a       608     0    31     1     8
 -1.1811100331877640E-02 a       609     0    31     1     9
  3.3779739728402225E-01 a       610     0    31     1    10
  2.5470118971606759E-01 a       611     0    31     1    11
  1.1997284617235003E-01 a       612     0    31     1    12
 -3.1064054189884480E-02 a       613     0    31     1    13
  3.0731942192758335E-02 a       614     0    31     1    14
  2.0443827886093213E-01 a       615     0    31     1    15
  3.0256366885453678E-01 a       616     0    31     1    16
  8.3030013899268437E-02 a       617     0    31     1    17
  1.3843176546881839E-01 a       618     0    31     1    18
  2.8932846018682185E-01 a       619     0    31     1    19
 -3.2244395700925417E-03 a       620     0    31     1    20
 -1.2507814688057281E-01 a       621     0    32     1     1
 -8.6349822030936454E-03 a       622     0    32     1     2
 -3.2869547024401563E-02 a       623     0    32     1     3
 -3.0992690736836404E-02 a       624     0    32     1     4
 -2.4740533467043799E-01 a       625     0    32     1     5
 -1.1104545437807187E-02 a       626     0    32     1     6
 -8.2623539600344444E-03 a       627     0    32     1     7
  6.6671038644535843E-02 a       628     0    32     1     8
 -8.1675267703310087E-02 a       629     0    32     1     9
 -9.6113019859848936E-03 a       630     0    32     1    10
  1.2265809637655445E-01 a       631     0    32     1    11
  2.0407438314749365E-01 a       632     0    32     1    12
 -1.0110216434295770E-01 a       633     0    32     1    13
  1.0496021270155363E-02 a       634     0    32     1    14
  7.6297856817459278E-02 a       635     0    32     1    15
 -3.6419019665743332E-02 a       636     0    32     1    16
  1.5288348748598110E-01 a       637     0    32     1    17
  2.8312086080437837E-01 a       638     0    32     1    18
 -1.5451021343616242E-02 a       639     0    32     1    19
 -4.4987295699978329E-02 a       640     0    32     1    20
  2.2537919160341868E-01 a       641     0    33     1     1
 -2.3711990887317541E-02 a       642     0    33     1     2
 -1.7086676224700162E-01 a       643     0    33     1     3
 -1.1464682112487858E-01 a       644     0    33     1     4
  8.4016993766371076E-02 a       645     0    33     1     5
 -1.5250775361099089E-01 a       646     0    33     1     6
  4.1099692091336092E-02 a       647     0    33     1     7
 -8.1689569522586714E-02 a       648     0    33     1     8
 -5.9315072456180236E-02 a       649     0    33     1     9
  3.2797200809932037E-02 a       650     0    33     1    10
  1.1499412793954662E-01 a       651     0    33     1    11
 -9.1488788296445828E-02 a       652     0    33     1    12
 -3.3377131806031313E-01 a       653     0    33     1    13
 -1.2329611062352819E-01 a       654     0    33     1    14
  3.2732378818453822E-01 a       655     0    33     1    15
  1.6919497631184961E-02 a       656     0    33     1    16
 -2.5702200108073753E-01 a       657     0    33     1    17
  1.9089254962233604E-01 a       658     0    33     1    18
 -9.5530071145366169E-01 a       659     0    33     1    19
 -8.3443728501870915E-02 a       660     0    33     1    20
 -4.3318265863718335E-02 a       661     0    34     1     1
  4.4277807549864816E-02 a       662     0    34     1     2
 -3.3459690058423953E-02 a       663     0    34     1     3
 -6.6896789588465427E-02 a       664     0    34     1     4
  1.0595323037577442E-03 a       665     0    34     1     5
 -8.2411549529398595E-02 a       666     0    34     1     6
  6.3170428935386880E-02 a       667     0    34     1     7
  3.5561182774581659E-02 a       668     0    34     1     8
 -5.1527454981819799E-02 a       669     0    34     1     9
 -5.2619699762875352E-02 a       670     0    34     1    10
  3.1649943231835946E-02 a       671     0    34     1    11
  2.0389967374109013E-02 a       672     0    34     1    12
 -2.6388637178061312E-02 a       673     0    34     1    13
  3.5236108108607053E-03 a       674     0    34     1    14
 -2.2526637944212835E-02 a       675     0    34     1    15
  1.4705944934447780E-02 a       676     0    34     1    16
  1.7945866082908254E-02 a       677     0    34     1    17
 -9.3868387958721308E-02 a       678     0    34     1    18
  9.8651175105275393E-02 a       679     0    34     1    19
  4.0885914734137815E-02 a       680     0    34     1    20
 -7.4393191691924682E-02 a       681     0    35     1     1
  4.2718769892981651E-02 a       682     0    35     1     2
 -7.6588544086086847E-03 a       683     0    35     1     3
 -9.6009852899341330E-02 a       684     0    35     1     4
 -9.8644415745363454E-03 a       685     0    35     1     5
 -4.7174443027453175E-02 a       686     0    35     1     6
 -6.1465640758885588E-02 a       687     0    35     1     7
  8.4001119319115254E-03 a       688     0    35     1     8
 -4.4254341567896274E-02 a       689     0    35     1     9
  5.3609073179923382E-02 a       690     0    35     1    10
 -5.2099549181128506E-04 a       691     0    35     1    11
  3.0387385410549823E-02 a       692     0    35     1    12
  5.9859985724654258E-02 a       693     0    35     1    13
  1.4446480264050305E-03 a       694     0    35     1    14
 -8.0817097972893631E-02 a       695     0    35     1    15
 -1.3443372859246941E-02 a       696     0    35     1    16
 -4.5201299338158502E-02 a       697     0    35     1    17
  3.6354471997419230E-02 a       698     0    35     1    18
 -8.0950631397082931E-02 a       699     0    35     1    19
 -2.1105070516612100E-02 a       700     0    35     1    20
 -1.7672312291014811E-01 a       701     0    36     1     1
  4.8427746437186649E-02 a       702     0    36     1     2
  2.2529327071181890E-01 a       703     0    36     1     3
  6.1156632627389580E-02 a       704     0    36     1     4
 -7.1380368354040769E-02 a       705     0    36     1     5
  1.6597994154012824E-01 a       706     0    36     1     6
 -7.0114567463920766E-02 a       707     0    36     1     7
  3.4382539524095701E-02 a       708     0    36     1     8
  1.0278865785546391E-01 a       709     0    36     1     9
 -1.0006540802057477E-01 a       710     0    36     1    10
 -2.4897012424640758E-01 a       711     0    36     1    11
  7.1317459695873067E-02 a       712     0    36     1    12
  2.5848895695212254E-01 a       713     0    36     1    13
  5.0666082736556255E-02 a       714     0    36     1    14
 -2.9028886777895518E-01 a       715     0    36     1    15
 -2.0261899500826516E-01 a       716     0    36     1    16
  2.8599426317162158E-01 a       717     0    36     1    17
  1.5299425390793941E-01 a       718     0    36     1    18
 -2.4634166027915616E-01 a       719     0    36     1    19
 -1.9083567312524596E-01 a       720     0    36     1    20
  1.5852356311208388E-01 a       721     0    37     1     1
  5.1803533670836531E-02 a       722     0    37     1     2
 -8.8399659809149378E-02 a       723     0    37     1     3
 -1.2699192223581957E-01 a       724     0    37     1     4
  8.0922876113612902E-02 a       725     0    37     1     5
  3.9801896192987345E-02 a       726     0    37     1     6
 -5.5810523409869479E-02 a       727     0    37     1     7
  8.1030240308121171E-02 a       728     0    37     1     8
 -6.1610321908810481E-02 a       729     0    37     1     9
 -5.3031062623607260E-02 a       730     0    37     1    10
  2.2217512023155559E-02 a       731     0    37     1    11
 -1.5665413333578349E-01 a       732     0    37     1    12
 -1.1022505812260251E-01 a       733     0    37     1    13
 -6.3206032132068796E-02 a       734     0    37     1    14
 -7.0715097919537187E-02 a       735     0    37     1    15
  5.8606156555208705E-02 a       736     0    37     1    16
 -8.8279761816939764E-02 a       737     0    37     1    17
  1.9009138532266587E-01 a       738     0    37     1    18
 -1.8248798114512033E-01 a       739     0    37     1    19
 -4.8610568168421742E-02 a       740     0    37     1    20
 -7.2862993479555077E-02 a       741     0    38     1     1
  3.5864383052409611E-02 a       742     0    38     1     2
 -3.9820762146399347E-01 a       743     0    38     1     3
  1.1874417608636781E-01 a       744     0    38     1     4
  2.6400972954998308E-02 a       745     0    38     1     5
  3.2179613663324969E-01 a       746     0    38     1     6
  4.7525997076746825E-03 a       747     0    38     1     7
  1.2125109601350079E-01 a       748     0    38     1     8
 -8.6086685029471186E-02 a       749     0    38     1     9
 -2.2052253520033113E-01 a       750     0    38     1    10
 -5.6027772164531038E-02 a       751     0    38     1    11
  9.2761053098000715E-02 a       752     0    38     1    12
 -9.7667310196236881E-02 a       753     0    38     1    13
 -3.2872362360663659E-03 a       754     0    38     1    14
 -1.6503481397770750E-01 a       755     0    38     1    15
  8.9995351653558639E-02 a       756     0    38     1    16
  1.8848961970479264E-01 a       757     0    38     1    17
 -3.0989544942293235E-01 a       758     0    38     1    18
  1.4798659846953108E-01 a       759     0    38     1    19
  1.2546235983143428E-01 a       760     0    38     1    20
  2.9906487802848991E-02 a       761     0    39     1     1
 -5.1056357241947542E-02 a       762     0    39     1     2
  7.2939035245878400E-02 a       763     0    39     1     3
 -6.0281365914055557E-02 a       764     0    39     1     4
  3.3822273122252944E-02 a       765     0    39     1     5
 -8.1222235198429527E-02 a       766     0    39     1     6
 -7.0215492830068588E-02 a       767     0    39     1     7
  8.5626831929175654E-02 a       768     0    39     1     8
  3.7311273299193972E-03 a       769     0    39     1     9
  1.1507541887335690E-01 a       770     0    39     1    10
  5.3041347767195428E-02 a       771     0    39     1    11
 -1.6256610011972004E-02 a       772     0    39     1    12
  1.9485154563049017E-01 a       773     0    39     1    13
 -1.3517097866415240E-03 a       774     0    39     1    14
 -7.4512950940104315E-03 a       775     0    39     1    15
 -1.4606722369077164E-02 a       776     0    39     1    16
  6.9234451921652458E-03 a       777     0    39     1    17
  7.3135444907492131E-02 a       778     0    39     1    18
  1.2138845563290118E-01 a       779     0    39     1    19
 -1.1454948611158924E-01 a       780     0    39     1    20
  2.3479430924449701E-01 a       781     0    40     1     1
 -5.3855542171682945E-02 a       782     0    40     1     2
 -1.8738526731225949E-01 a       783     0    40     1     3
  2.9547485598414507E-02 a       784     0    40     1     4
  1.4422575700053114E-01 a       785     0    40     1     5
 -3.1890767667345769E-02 a       786     0    40     1     6
  1.7348751823241221E-02 a       787     0    40     1     7
  5.4172162096676732E-02 a       788     0    40     1     8
 -6.9653542601464905E-02 a       789     0    40     1     9
 -3.2939661600422036E-03 a       790     0    40     1    10
  1.2157089518426561E-01 a       791     0    40     1    11
 -6.4811031924401394E-02 a       792     0    40     1    12
 -6.9816706572205650E-02 a       793     0    40     1    13
 -2.6611307141874801E-02 a       794     0    40     1    14
  1.6798416412768111E-01 a       795     0    40     1    15
  2.3885064304651177E-02 a       796     0    40     1    16
 -3.5562011302699030E-02 a       797     0    40     1    17
 -1.4190429879473923E-01 a       798     0    40     1    18
 -1.8211418689285572E-01 a       799     0    40     1    19
 -3.9856399791485066E-02 a       800     0    40     1    20
  1.6104547714998974E-01 a       801     0    41     1     1
  1.0951050441120576E-02 a       802     0    41     1     2
  1.6101483541293440E-02 a       803     0    41     1     3
 -4.7161288922898205E-02 a       804     0    41     1     4
 -2.5972586960773238E-02 a       805     0    41     1     5
 -2.0533320706841557E-01 a       806     0    41     1     6
  1.7496918575642523E-02 a       807     0    41     1     7
 -1.9012203905032797E-02 a       808     0    41     1     8
 -1.3573123035463447E-01 a       809     0    41     1     9
  9.7397689262897172E-02 a       810     0    41     1    10
  1.1853431584099604E-01 a       811     0    41     1    11
 -4.2176776913142901E-02 a       812     0    41     1    12
 -9.6302672022746352E-02 a       813     0    41     1    13
 -8.4396594781876132E-03 a       814     0    41     1    14
  1.4467482930190606E-01 a       815     0    41     1    15
  1.1872158123759362E-01 a       816     0    41     1    16
 -2.9771719750372000E-01 a       817     0    41     1    17
  2.1183931399963696E-01 a       818     0    41     1    18
  1.6710986664235547E-01 a       819     0    41     1    19
  1.4360754129488109E-02 a       820     0    41     1    20
 -1.0320613544926123E-01 a       821     0    42     1     1
  2.0452182269804005E-02 a       822     0    42     1     2
  5.6407877579997080E-02 a       823     0    42     1     3
  7.1762647814390595E-02 a       824     0    42     1     4
 -1.2226364151327221E-01 a       825     0    42     1     5
 -2.1192578841166661E-02 a       826     0    42     1     6
  8.2305909911462180E-02 a       827     0    42     1     7
 -4.3896257243671404E-02 a       828     0    42     1     8
  2.2942681437196483E-02 a       829     0    42     1     9
  3.7250213638813055E-02 a       830     0    42     1    10
  2.9950952649285593E-02 a       831     0    42     1    11
  8.1454706790245274E-02 a       832     0    42     1    12
 -2.2233418380431177E-02 a       833     0    42     1    13
  5.0254931708650072E-02 a       834     0    42     1    14
  7.2840390099000993E-02 a       835     0    42     1    15
 -6.3637935338180934E-02 a       836     0    42     1    16
  2.4970991451880803E-03 a       837     0    42     1    17
  1.1564986692564852E-01 a       838     0    42     1    18
 -4.9254718765168820E-02 a       839     0    42     1    19
  6.8536611328267796E-03 a       840     0    42     1    20
  8.7476337866381884E-02 a       841     0    43     1     1
 -2.0312286517723408E-02 a       842     0    43     1     2
  1.2537778250050885E-01 a       843     0    43     1     3
 -2.5570265962162458E-01 a       844     0    43     1     4
  2.5687611057109289E-02 a       845     0    43     1     5
 -2.3488250867668112E-01 a       846     0    43     1     6
  7.8990246750979612E-02 a       847     0    43     1     7
 -7.5057964376392700E-02 a       848     0    43     1     8
  2.2287811856015957E-02 a       849     0    43     1     9
  1.5056244023171597E-01 a       850     0    43     1    10
  8.6167571406253599E-02 a       851     0    43     1    11
 -1.1268645097438337E-01 a       852     0    43     1    12
  1.8029250376113290E-02 a       853     0    43     1    13
 -2.3267133012399799E-02 a       854     0    43     1    14
  1.2776734576480062E-01 a       855     0    43     1    15
 -8.4600860346607479E-02 a       856     0    43     1    16
 -2.0412092641487586E-01 a       857     0    43     1    17
 -3.3319927958766996E-02 a       858     0    43     1    18
  2.5974351326358933E-02 a       859     0    43     1    19
  4.3565624588444846E-02 a       860     0    43     1    20
 -4.8891347636428183E-02 a       861     0    44     1     1
  4.8072928333751513E-02 a       862     0    44     1     2
 -7.2685377012824043E-02 a       863     0    44     1     3
 -5.1731584457435323E-02 a       864     0    44     1     4
  1.3858523170477892E-02 a       865     0    44     1     5
 -2.4607349038178360E-02 a       866     0    44     1     6
  1.9783633146343835E-02 a       867     0    44     1     7
 -2.1390028579585593E-02 a       868     0    44     1     8
 -6.3531617309951313E-02 a       869     0    44     1     9
 -1.3654023874579885E-01 a       870     0    44     1    10
 -2.9876296986282809E-02 a       871     0    44     1    11
  6.4643310708128274E-02 a       872     0    44     1    12
 -1.1929832096212836E-01 a       873     0    44     1    13
  2.7481051435505545E-03 a       874     0    44     1    14
  9.1503117676424890E-03 a       875     0    44     1    15
  3.2009968279698583E-02 a       876     0    44     1    16
  1.6355904348596625E-02 a       877     0    44     1    17
 -3.7144365433782724E-02 a       878     0    44     1    18
 -8.9976887599566513E-02 a       879     0    44     1    19
  2.2134828121074344E-02 a       880     0    44     1    20
 -9.6994059471220057E-02 a       881     0    45     1     1
  2.5235696122218345E-02 a       882     0    45     1     2
  4.5850999178911701E-02 a       883     0    45     1     3
 -1.0335261528553101E-01 a       884     0    45     1     4
  2.0484247486337266E-02 a       885     0    45     1     5
 -5.7229544931914615E-02 a       886     0    45     1     6
  5.2178408025761999E-02 a       887     0    45     1     7
 -2.1990097510663584E-02 a       888     0    45     1     8
 -1.3515233722714756E-02 a       889     0    45     1     9
 -2.2168873503244802E-02 a       890     0    45     1    10
 -7.1773588796434987E-02 a       891     0    45     1    11
  4.9887257849830044E-02 a       892     0    45     1    12
  3.5290028668785771E-02 a       893     0    45     1    13
  1.1236259966216647E-02 a       894     0    45     1    14
 -5.2743896670231515E-02 a       895     0    45     1    15
  4.9457243829260939E-03 a       896     0    45     1    16
 -1.3488513526586655E-02 a       897     0    45     1    17
 -1.4600336367596802E-02 a       898     0    45     1    18
  9.7106899730837002E-03 a       899     0    45     1    19
  2.8243758075625819E-02 a       900     0    45     1    20
 -3.5928486959163140E-02 a       901     0    46     1     1
 -2.3499365166658421E-02 a       902     0    46     1     2
  2.5074852237492722E-02 a       903     0    46     1     3
  8.2374491095048172E-02 a       904     0    46     1     4
 -5.5169816808887946E-02 a       905     0    46     1     5
  8.9396901704135251E-02 a       906     0    46     1     6
 -2.0565709763411731E-02 a       907     0    46     1     7
  5.1220888860963217E-02 a       908     0    46     1     8
  1.3019236024787915E-02 a       909     0    46     1     9
 -1.9127104889266965E-02 a       910     0    46     1    10
  4.6956699639831581E-02 a       911     0    46     1    11
  4.5837479670357020E-02 a       912     0    46     1    12
  2.4617923734576656E-02 a       913     0    46     1    13
  1.1326098366602186E-02 a       914     0    46     1    14
 -2.9554206545298865E-02 a       915     0    46     1    15
 -1.8669906276166378E-02 a       916     0    46     1    16
  2.6069737899898349E-01 a       917     0    46     1    17
  1.9959399223330981E-01 a       918     0    46     1    18
 -3.4951000999989196E-01 a       919     0    46     1    19
 -1.0923612561135677E-01 a       920     0    46     1    20
  6.0966846208362138E-02 a       921     0    47     1     1
 -3.6622614230672097E-02 a       922     0    47     1     2
 -5.9769036540384429E-02 a       923     0    47     1     3
 -9.5270116318272091E-02 a       924     0    47     1     4
  2.7903193858852290E-03 a       925     0    47     1     5
  3.1513588749406872E-02 a       926     0    47     1     6
 -2.8381360593936440E-02 a       927     0    47     1     7
  3.6509775082096692E-02 a       928     0    47     1     8
 -2.2776869636405780E-02 a       929     0    47     1     9
 -4.1931513062920124E-02 a       930     0    47     1    10
  7.3480702131371728E-02 a       931     0    47     1    11
 -3.5564440247938416E-03 a       932     0    47     1    12
 -4.6257177501928516E-02 a       933     0    47     1    13
 -2.1963417811163365E-02 a       934     0    47     1    14
 -1.5840221241355996E-02 a       935     0    47     1    15
  1.4009325337290478E-02 a       936     0    47     1    16
  1.4713538306597290E-01 a       937     0    47     1    17
 -5.9829799633761248E-02 a       938     0    47     1    18
 -6.9695329044225110E-02 a       939     0    47     1    19
 -2.9167427593319970E-04 a       940     0    47     1    20
  7.5831973322671706E-02 a       941     0    48     1     1
 -2.4441786469476053E-05 a       942     0    48     1     2
 -2.4113862625634716E-01 a       943     0    48     1     3
  7.9960476204533559E-02 a       944     0    48     1     4
  5.4914391183419335E-02 a       945     0    48     1     5
  1.3860017029650684E-01 a       946     0    48     1     6
 -6.8121918591011799E-02 a       947     0    48     1     7
  9.3382113963071528E-02 a       948     0    48     1     8
 -9.9162515769288556E-02 a       949     0    48     1     9
 -1.0570673486314654E-01 a       950     0    48     1    10
  6.2928833012527455E-02 a       951     0    48     1    11
  4.3049343830529767E-02 a       952     0    48     1    12
 -1.8375054303760605E-01 a       953     0    48     1    13
 -2.7715631393992728E-02 a       954     0    48     1    14
  2.9280454242951445E-02 a       955     0    48     1    15
  4.6351194507036619E-02 a       956     0    48     1    16
  1.2763263117564522E-01 a       957     0    48     1    17
  4.9952141109834799E-02 a       958     0    48     1    18
 -3.8368477899242692E-01 a       959     0    48     1    19
 -7.7665782498835753E-02 a       960     0    48     1    20
  7.7569438997035028E-02 a       961     0    49     1     1
 -4.2523905288119800E-02 a       962     0    49     1     2
  2.6077842678555150E-02 a       963     0    49     1     3
  2.9713234263237537E-02 a       964     0    49     1     4
  1.0610373349213581E-01 a       965     0    49     1     5
 -1.1054339730653785E-01 a       966     0    49     1     6
 -1.5602451255263302E-02 a       967     0    49     1     7
  6.0331150610248629E-02 a       968     0    49     1     8
  9.8748696103872699E-03 a       969     0    49     1     9
  1.2624696397350282E-01 a       970     0    49     1    10
  1.7215702374746056E-02 a       971     0    49     1    11
 -3.9367790684283310E-02 a       972     0    49     1    12
  1.6684106326035866E-01 a       973     0    49     1    13
  4.8359004847898634E-03 a       974     0    49     1    14
  4.3098590756896801E-02 a       975     0    49     1    15
 -1.3847659237630559E-02 a       976     0    49     1    16
 -5.5678244359989547E-02 a       977     0    49     1    17
 -7.3238676971488934E-02 a       978     0    49     1    18
  3.3630159726864201E-02 a       979     0    49     1    19
 -8.1425510659424688E-02 a       980     0    49     1    20
  8.9208960594065675E-02 a       981     0    50     1     1
 -1.7036088457777206E-02 a       982     0    50     1     2
 -8.1839512499742764E-02 a       983     0    50     1     3
  8.8210801409150420E-03 a       984     0    50     1     4
  1.8652674485888161E-02 a       985     0    50     1     5
 -7.7675315852723881E-03 a       986     0    50     1     6
 -3.8004030288717801E-02 a       987     0    50     1     7
  2.2888505604139041E-02 a       988     0    50     1     8
 -4.9346994558457508E-02 a       989     0    50     1     9
  1.5859615928908111E-02 a       990     0    50     1    10
  6.3771521547210636E-02 a       991     0    50     1    11
 -2.0370850842976056E-02 a       992     0    50     1    12
 -8.6378566493887435E-03 a       993     0    50     1    13
 -1.3402336811086910E-02 a       994     0    50     1    14
  3.4000009682453085E-02 a       995     0    50     1    15
  6.2214268496724639E-03 a       996     0    50     1    16
 -1.0675507434223151E-02 a       997     0    50     1    17
  2.8965706086402491E-03 a       998     0    50     1    18
 -2.3352768202907746E-02 a       999     0    50     1    19
 -1.8406519098137883E-02 a      1000     0    50     1    20
  3.9694966116419629E-02 a      1001     0    51     1     1
  7.8688757166820236E-02 a      1002     0    51     1     2
 -3.3128581669018919E-01 a      1003     0    51     1     3
  1.9772812901121672E-01 a      1004     0    51     1     4
 -1.6690035678146017E-01 a      1005     0    51     1     5
  4.3861488017330238E-02 a      1006     0    51     1     6
 -1.4641991450363565E-01 a      1007     0    51     1     7
  3.1228073437472426E-01 a      1008     0    51     1     8
 -3.4704686720775854E-02 a      1009     0    51     1     9
 -2.0760470411716611E-01 a      1010     0    51     1    10
 -1.5263720711603576E-01 a      1011     0    51     1    11
 -1.4407823098980510E-01 a      1012     0    51     1    12
  3.2433614646547243E-01 a      1013     0    51     1    13
 -6.9154050939723030E-02 a      1014     0    51     1    14
  1.5028433889942053E-02 a      1015     0    51     1    15
 -3.4937567525723512E-01 a      1016     0    51     1    16
 -7.8157999975095094E-02 a      1017     0    51     1    17
  4.7083607892340423E-02 a      1018     0    51     1    18
  1.6769323544696294E-02 a      1019     0    51     1    19
 -4.2946767175704219E-02 a      1020     0    51     1    20
 -3.0638517628316037E-01 a      1021     0    52     1     1
  1.1688701143469978E-02 a      1022     0    52     1     2
 -1.1117394805677827E-01 a      1023     0    52     1     3
 -6.2424692487622620E-02 a      1024     0    52     1     4
  7.9792187167842518E-02 a      1025     0    52     1     5
  2.3712762068538804E-01 a      1026     0    52     1     6
  6.0817802496097001E-02 a      1027     0    52     1     7
 -3.5072012211798231E-01 a      1028     0    52     1     8
 -1.2738611296472446E-01 a      1029     0    52     1     9
 -1.8896656701922608E-02 a      1030     0    52     1    10
 -2.0981798386985745E-01 a      1031     0    52     1    11
  5.7288802185160664E-02 a      1032     0    52     1    12
 -1.4424518479862339E-01 a      1033     0    52     1    13
  3.0822372202741363E-02 a      1034     0    52     1    14
 -1.9214069736431796E-01 a      1035     0    52     1    15
  3.7273043069840250E-01 a      1036     0    52     1    16
 -1.1556990962935930E-01 a      1037     0    52     1    17
 -1.1682305050208934E-01 a      1038     0    52     1    18
 -1.3069322240486772E-01 a      1039     0    52     1    19
 -6.9672924255895510E-02 a      1040     0    52     1    20
  1.8309310075796523E-01 a      1041     0    53     1     1
  1.3273808473047771E-01 a      1042     0    53     1     2
  4.6999286203812823E-01 a      1043     0    53     1     3
  2.1489541225710329E-01 a      1044     0    53     1     4
 -4.7867082990196580E-01 a      1045     0    53     1     5
 -3.6495863969760586E-03 a      1046     0    53     1     6
  5.0865713810555369E-01 a      1047     0    53     1     7
 -5.7854611394654454E-01 a      1048     0    53     1     8
 -6.0368238697663368E-01 a      1049     0    53     1     9
  4.6815727221126269E-01 a      1050     0    53     1    10
  1.2938043029237803E-02 a      1051     0    53     1    11
 -3.9380216087356326E-02 a      1052     0    53     1    12
 -2.6557516941197123E-01 a      1053     0    53     1    13
 -5.8390426490615849E-02 a      1054     0    53     1    14
 -1.1679137149224784E-01 a      1055     0    53     1    15
  7.2057621035665187E-01 a      1056     0    53     1    16
  4.8863913516940249E-01 a      1057     0    53     1    17
 -3.8121090883586217E-01 a      1058     0    53     1    18
 -5.0750619300233091E-01 a      1059     0    53     1    19
 -3.0503954230231456E-01 a      1060     0    53     1    20
  6.3114614201058059E-02 a      1061     0    54     1     1
  1.1823410012555930E-02 a      1062     0    54     1     2
 -2.2563213594337161E-01 a      1063     0    54     1     3
 -1.9459661999557284E-01 a      1064     0    54     1     4
 -1.7136654774127985E-01 a      1065     0    54     1     5
  4.4765010496112381E-02 a      1066     0    54     1     6
  4.3854102948243677E-02 a      1067     0    54     1     7
  3.0673176619416886E-01 a      1068     0    54     1     8
 -1.1184100933539726E-01 a      1069     0    54     1     9
 -8.3325389374691375E-02 a      1070     0    54     1    10
  1.6818228923150672E-01 a      1071     0    54     1    11
 -5.3871730360710086E-02 a      1072     0    54     1    12
 -9.9109692924363751E-02 a      1073     0    54     1    13
 -5.2021437978032388E-02 a      1074     0    54     1    14
  5.3802860647220986E-02 a      1075     0    54     1    15
 -1.7131720904099160E-01 a      1076     0    54     1    16
  7.3383785516771438E-02 a      1077     0    54     1    17
  2.9221271764640289E-01 a      1078     0    54     1    18
 -3.6595736692712361E-01 a      1079     0    54     1    19
 -1.3448866598350703E-01 a      1080     0    54     1    20
  1.1763273049300438E-01 a      1081     0    55     1     1
 -7.9422775821008651E-02 a      1082     0    55     1     2
 -1.8552526602254697E-02 a      1083     0    55     1     3
 -1.1572340985057786E-01 a      1084     0    55     1     4
 -1.4957086285476992E-01 a      1085     0    55     1     5
 -7.8606956562774291E-02 a      1086     0    55     1     6
  8.1101601994116881E-02 a      1087     0    55     1     7
 -9.4150268352628533E-02 a      1088     0    55     1     8
 -3.1182822085380413E-02 a      1089     0    55     1     9
 -1.4284399602109735E-01 a      1090     0    55     1    10
  1.6087573922941981E-01 a      1091     0    55     1    11
 -1.0748734252176849E-01 a      1092     0    55     1    12
 -1.4806749125473279E-01 a      1093     0    55     1    13
 -3.9392277811586794E-02 a      1094     0    55     1    14
  1.0662806736201066E-01 a      1095     0    55     1    15
 -2.7047947089658082E-02 a      1096     0    55     1    16
  2.1098433153797444E-01 a      1097     0    55     1    17
  3.7781102307565970E-02 a      1098     0    55     1    18
  1.7270615322230046E-01 a      1099     0    55     1    19
  5.9557318821968443E-02 a      1100     0    55     1    20
 -5.8956441778743408E-02 a      1101     0    56     1     1
 -2.0538698028749094E-01 a      1102     0    56     1     2
 -3.7431807660479544E-01 a      1103     0    56     1     3
  1.6844270058234967E-01 a      1104     0    56     1     4
 -1.4110237920675103E-01 a      1105     0    56     1     5
 -1.1042320786441005E-01 a      1106     0    56     1     6
 -3.0297505758117982E-01 a      1107     0    56     1     7
 -1.8931722617254379E-01 a      1108     0    56     1     8
 -3.5255397002596091E-02 a      1109     0    56     1     9
 -3.2241645704214011E-01 a      1110     0    56     1    10
 -3.2424095304688133E-01 a      1111     0    56     1    11
  6.3445919573832144E-01 a      1112     0    56     1    12
 -1.0395318686433694E-01 a      1113     0    56     1    13
  1.3508324314171619E-01 a      1114     0    56     1    14
  1.3852930279933998E-01 a      1115     0    56     1    15
  6.7172453151640527E-02 a      1116     0    56     1    16
  1.4278780871483177E-01 a      1117     0    56     1    17
 -2.1500564715225493E-01 a      1118     0    56     1    18
 -3.1810543437509381E-01 a      1119     0    56     1    19
  1.5116785868566159E-02 a      1120     0    56     1    20
 -2.0553180516238514E-01 a      1121     0    57     1     1
  8.9624821781979121E-03 a      1122     0    57     1     2
 -1.4821442650198532E-01 a      1123     0    57     1     3
 -3.5307707943642402E-01 a      1124     0    57     1     4
  4.6806260503440428E-01 a      1125     0    57     1     5
  1.0318968821916791E-02 a      1126     0    57     1     6
 -1.6564189459585731E-02 a      1127     0    57     1     7
  1.5957919625543412E-01 a      1128     0    57     1     8
  3.1469005581552240E-01 a      1129     0    57     1     9
  7.1287765153656452E-02 a      1130     0    57     1    10
  1.7954555884927510E-02 a      1131     0    57     1    11
  1.5235705840332348E-01 a      1132     0    57     1    12
  1.5579379930699586E-01 a      1133     0    57     1    13
  7.5334230391519236E-02 a      1134     0    57     1    14
 -2.3428736214993831E-01 a      1135     0    57     1    15
  1.0398251919740180E-01 a      1136     0    57     1    16
  2.9669521416368272E-01 a      1137     0    57     1    17
 -1.2609086013866413E-01 a      1138     0    57     1    18
  4.9604943771705068E-03 a      1139     0    57     1    19
  4.1443582794681320E-02 a      1140     0    57     1    20
  7.6442895503412586E-02 a      1141     0    58     1     1
 -1.3774674102687984E-01 a      1142     0    58     1     2
 -3.2896287710548429E-02 a      1143     0    58     1     3
  2.6655433367637271E-01 a      1144     0    58     1     4
 -4.4277667056090493E-02 a      1145     0    58     1     5
 -8.1753943398389955E-02 a      1146     0    58     1     6
  1.1687923939362166E-01 a      1147     0    58     1     7
  2.0414064176325480E-01 a      1148     0    58     1     8
  8.1168610906973429E-02 a      1149     0    58     1     9
  1.3616863049101807E-01 a      1150     0    58     1    10
 -6.1682157636795409E-02 a      1151     0    58     1    11
 -6.4456658433315736E-03 a      1152     0    58     1    12
 -2.4977983334601668E-02 a      1153     0    58     1    13
 -6.2178624312527915E-02 a      1154     0    58     1    14
  8.3264007408723972E-02 a      1155     0    58     1    15
 -7.7257407372307255E-02 a      1156     0    58     1    16
  6.9140017917809785E-02 a      1157     0    58     1    17
  2.6305307947974121E-01 a      1158     0    58     1    18
  1.9649082110335581E-01 a      1159     0    58     1    19
 -3.7754161549079068E-02 a      1160     0    58     1    20
  1.6708769783433280E-01 a      1161     0    59     1     1
 -8.0412221048392532E-02 a      1162     0    59     1     2
  6.4375986487811877E-03 a      1163     0    59     1     3
 -7.8046375357869152E-02 a      1164     0    59     1     4
 -1.0341401091165517E-01 a      1165     0    59     1     5
 -1.4177439225294500E-01 a      1166     0    59     1     6
  1.3383869048178804E-01 a      1167     0    59     1     7
  4.5871378082709101E-02 a      1168     0    59     1     8
  4.1710993631842601E-02 a      1169     0    59     1     9
 -5.1173615759199355E-02 a      1170     0    59     1    10
  2.0187661178667732E-01 a      1171     0    59     1    11
 -1.3996990747960641E-01 a      1172     0    59     1    12
  1.8487084856732155E-02 a      1173     0    59     1    13
 -2.0231834199073408E-02 a      1174     0    59     1    14
 -7.1060758882694072E-02 a      1175     0    59     1    15
  5.3743589734582549E-02 a      1176     0    59     1    16
 -1.6538007676023102E-02 a      1177     0    59     1    17
 -4.5360132174417457E-02 a      1178     0    59     1    18
  5.4878204980060262E-02 a      1179     0    59     1    19
  9.5228267496114988E-02 a      1180     0    59     1    20
  2.4074222613565824E-03 a      1181     0    60     1     1
 -2.9590947815346935E-01 a      1182     0    60     1     2
 -5.9110539469902912E-01 a      1183     0    60     1     3
 -2.4260749112097627E-01 a      1184     0    60     1     4
  1.5702672404328383E-01 a      1185     0    60     1     5
  5.4069622597992396E-02 a      1186     0    60     1     6
  9.4681656123345143E-02 a      1187     0    60     1     7
  1.5699266174281326E-01 a      1188     0    60     1     8
  9.9453161053699823E-01 a      1189     0    60     1     9
 -1.0249790902125853E+00 a      1190     0    60     1    10
  1.0350352132449821E-01 a      1191     0    60     1    11
  3.6316849088839703E-01 a      1192     0    60     1    12
  2.7171247420605943E-01 a      1193     0    60     1    13
  2.7343688395749066E-01 a      1194     0    60     1    14
  6.8570345943050282E-01 a      1195     0    60     1    15
 -5.1175204576159694E-01 a      1196     0    60     1    16
 -5.6366731073197632E-02 a      1197     0    60     1    17
  2.5578722571512102E-01 a      1198     0    60     1    18
  3.0708985186606308E-01 a      1199     0    60     1    19
  4.4152781427737425E-01 a      1200     0    60     1    20
 -1.6158419317779782E-01 a      1201     0    61     1     1
 -3.8047639539899619E-02 a      1202     0    61     1     2
  2.1631931838837756E-02 a      1203     0    61     1     3
  2.6760269636718365E-01 a      1204     0    61     1     4
 -7.6216591844416898E-02 a      1205     0    61     1     5
  1.8163344850968405E-01 a      1206     0    61     1     6
  1.7231485866176929E-01 a      1207     0    61     1     7
  2.4981789864251119E-01 a      1208     0    61     1     8
  1.2232362185793209E-02 a      1209     0    61     1     9
  5.8178696756039372E-02 a      1210     0    61     1    10
 -9.7413709364837370E-02 a      1211     0    61     1    11
  1.4678248562641011E-01 a      1212     0    61     1    12
  1.2899554460257304E-01 a      1213     0    61     1    13
  8.4681533479518484E-02 a      1214     0    61     1    14
 -2.3634920907719445E-01 a      1215     0    61     1    15
  6.2015903799673852E-02 a      1216     0    61     1    16
  2.4678203649923602E-01 a      1217     0    61     1    17
  2.5725170485024740E-01 a      1218     0    61     1    18
  2.2796443365985017E-01 a      1219     0    61     1    19
 -3.3223036408016764E-02 a      1220     0    61     1    20
 -6.0986573121549585E-02 a      1221     0    62     1     1
 -1.4816449029361689E-01 a      1222     0    62     1     2
 -2.0140339537799562E-01 a      1223     0    62     1     3
  6.8363178929828405E-02 a      1224     0    62     1     4
 -6.8238237919435835E-04 a      1225     0    62     1     5
 -3.7589034217444459E-02 a      1226     0    62     1     6
  6.8165247570182608E-02 a      1227     0    62     1     7
 -1.4420249916776021E-01 a      1228     0    62     1     8
  2.2887080204746940E-01 a      1229     0    62     1     9
 -7.4031304040911530E-02 a      1230     0    62     1    10
  6.0706801642663996E-02 a      1231     0    62     1    11
  1.9159895253981524E-01 a      1232     0    62     1    12
  1.6010666353498179E-01 a      1233     0    62     1    13
  1.1602603394716843E-01 a      1234     0    62     1    14
  2.7810275041790572E-01 a      1235     0    62     1    15
 -2.5377680033734622E-02 a      1236     0    62     1    16
 -8.7763153441949474E-02 a      1237     0    62     1    17
  1.5089391616701325E-01 a      1238     0    62     1    18
 -1.8119220990987017E-01 a      1239     0    62     1    19
  2.4202423412884702E-01 a      1240     0    62     1    20
 -1.0416692637578345E-01 a      1241     0    63     1     1
 -5.5931704011445059E-02 a      1242     0    63     1     2
 -2.2566252421832390E-02 a      1243     0    63     1     3
  9.2252301696264749E-02 a      1244     0    63     1     4
 -7.2617835554554214E-02 a      1245     0    63     1     5
 -8.6665143082795382E-02 a      1246     0    63     1     6
 -4.9642394872697008E-03 a      1247     0    63     1     7
 -7.5771612734738300E-02 a      1248     0    63     1     8
 -2.4580996162086900E-02 a      1249     0    63     1     9
 -1.6277086603926935E-01 a      1250     0    63     1    10
 -5.5645733901476681E-02 a      1251     0    63     1    11
 -2.8011423291841340E-02 a      1252     0    63     1    12
  9.6140814187143972E-02 a      1253     0    63     1    13
 -4.7726859577307136E-02 a      1254     0    63     1    14
  3.7318461447941507E-02 a      1255     0    63     1    15
  6.1631942520836508E-02 a      1256     0    63     1    16
  4.0057128127029211E-02 a      1257     0    63     1    17
  6.3758897696937680E-03 a      1258     0    63     1    18
  1.6734035658022853E-02 a      1259     0    63     1    19
  1.1967203985911185E-02 a      1260     0    63     1    20
  5.0394568462260522E-02 a      1261     0    64     1     1
 -2.7426363444660068E-02 a      1262     0    64     1     2
  3.8681348025095139E-02 a      1263     0    64     1     3
 -1.7999880993502321E-02 a      1264     0    64     1     4
  2.9443307780250994E-03 a      1265     0    64     1     5
 -4.0478573399843142E-02 a      1266     0    64     1     6
 -5.4818063273580228E-02 a      1267     0    64     1     7
  6.4006391446789171E-02 a      1268     0    64     1     8
 -1.3023104783681866E-01 a      1269     0    64     1     9
  2.6919266540309055E-02 a      1270     0    64     1    10
 -3.5158922699854551E-03 a      1271     0    64     1    11
 -5.5070550949842159E-02 a      1272     0    64     1    12
  3.9255117854371177E-02 a      1273     0    64     1    13
 -5.0805996503150624E-02 a      1274     0    64     1    14
 -9.5531774537661152E-02 a      1275     0    64     1    15
  3.8227640697871101E-02 a      1276     0    64     1    16
 -7.6650471658097075E-03 a      1277     0    64     1    17
 -1.3539960654106212E-01 a      1278     0    64     1    18
  6.0173838923997705E-02 a      1279     0    64     1    19
 -2.7544912242602002E-02 a      1280     0    64     1    20
  1.1466455102043699E-01 a      1281     0    65     1     1
 -7.6378504071111025E-03 a      1282     0    65     1     2
  2.4304740009484165E-02 a      1283     0    65     1     3
  3.7834644811575426E-02 a      1284     0    65     1     4
  1.6233441018904379E-01 a      1285     0    65     1     5
 -9.4871398870389548E-02 a      1286     0    65     1     6
 -2.3916101333959922E-01 a      1287     0    65     1     7
 -8.9796777159600924E-02 a      1288     0    65     1     8
 -8.6925378739668963E-02 a      1289     0    65     1     9
  6.3881476491694511E-02 a      1290     0    65     1    10
  3.9324013235130177E-02 a      1291     0    65     1    11
 -8.8601054381308553E-02 a      1292     0    65     1    12
  2.6531780622963654E-02 a      1293     0    65     1    13
 -2.5051052756339762E-02 a      1294     0    65     1    14
  2.5911194734505358E-02 a      1295     0    65     1    15
 -3.8507666923669269E-02 a      1296     0    65     1    16
  4.3895607183960038E-02 a      1297     0    65     1    17
  4.8134697623052537E-02 a      1298     0    65     1    18
 -1.5531710178631747E-01 a      1299     0    65     1    19
 -1.0965737825591547E-01 a      1300     0    65     1    20
 -6.2039996419955690E-01 a      1301     0    66     1     1
 -3.6413166286541010E-02 a      1302     0    66     1     2
 -1.1273327614118558E-01 a      1303     0    66     1     3
 -4.7884644790667386E-01 a      1304     0    66     1     4
 -7.3496951473468131E-02 a      1305     0    66     1     5
  1.4396908864991131E-01 a      1306     0    66     1     6
 -4.6348101268010677E-01 a      1307     0    66     1     7
 -2.4874186568116344E-01 a      1308     0    66     1     8
  1.8863490216654988E-01 a      1309     0    66     1     9
  1.8639639253841828E-01 a      1310     0    66     1    10
 -5.7658225231660011E-02 a      1311     0    66     1    11
  9.0385447374611530E-02 a      1312     0    66     1    12
 -2.0308885065663557E-01 a      1313     0    66     1    13
 -1.5633225190392069E-01 a      1314     0    66     1    14
  2.7361358641572481E-01 a      1315     0    66     1    15
  3.0826529899627603E-01 a      1316     0    66     1    16
 -1.1197291223842386E-01 a      1317     0    66     1    17
  2.6218392012261627E-01 a      1318     0    66     1    18
  4.1636055856797215E-02 a      1319     0    66     1    19
 -3.7152678130591935E-02 a      1320     0    66     1    20
 -2.8194780262768511E-02 a      1321     0    67     1     1
  3.4445530762980014E-02 a      1322     0    67     1     2
 -2.8241702016758041E-01 a      1323     0    67     1     3
  2.8536285640083831E-01 a      1324     0    67     1     4
 -2.9385662992666282E-02 a      1325     0    67     1     5
  2.3401705757503871E-01 a      1326     0    67     1     6
  2.8561606772677395E-01 a      1327     0    67     1     7
  9.1052957504633256E-02 a      1328     0    67     1     8
  2.4846016148671379E-01 a      1329     0    67     1     9
  6.5779980119282697E-02 a      1330     0    67     1    10
 -4.3836487769372334E-01 a      1331     0    67     1    11
  1.1043618517470664E-01 a      1332     0    67     1    12
  2.7489582062773965E-01 a      1333     0    67     1    13
 -9.3228986641675712E-02 a      1334     0    67     1    14
 -9.5691063629868331E-02 a      1335     0    67     1    15
 -1.3883203332096472E-01 a      1336     0    67     1    16
 -1.4036478584687104E-01 a      1337     0    67     1    17
  5.9622585040330009E-02 a      1338     0    67     1    18
  2.1666300245145612E-01 a      1339     0    67     1    19
  2.6499734238582506E-01 a      1340     0    67     1    20
  1.2317887357325799E+00 a      1341     0    68     1     1
  1.7151478244102536E-01 a      1342     0    68     1     2
 -2.2644737795741214E-02 a      1343     0    68     1     3
  1.1648270180107811E-01 a      1344     0    68     1     4
  3.6773802359538316E-01 a      1345     0    68     1     5
 -3.1248666693183325E-01 a      1346     0    68     1     6
 -4.5040947376453250E-01 a      1347     0    68     1     7
  5.2524709193280499E-02 a      1348     0    68     1     8
  9.2937838786642996E-02 a      1349     0    68     1     9
 -1.6171085751328282E-01 a      1350     0    68     1    10
  7.3035493072694113E-01 a      1351     0    68     1    11
  6.2978205284224362E-02 a      1352     0    68     1    12
  2.7722276399718887E-01 a      1353     0    68     1    13
  6.3193163686783960E-01 a      1354     0    68     1    14
 -4.3338971086586081E-01 a      1355     0    68     1    15
 -1.0297201881043503E+00 a      1356     0    68     1    16
 -4.2959931423173764E-01 a      1357     0    68     1    17
  1.2516253033609576E-01 a      1358     0    68     1    18
 -8.2304526496676156E-01 a      1359     0    68     1    19
  1.1284868967226148E-01 a      1360     0    68     1    20
 -2.3823908235661648E-03 a      1361     0    69     1     1
  3.8102170827766249E-02 a      1362     0    69     1     2
 -2.2068351843387620E-02 a      1363     0    69     1     3
 -8.5996212211090758E-02 a      1364     0    69     1     4
  6.0465872708243863E-02 a      1365     0    69     1     5
 -6.8592069781997625E-02 a      1366     0    69     1     6
 -2.2657048847425501E-01 a      1367     0    69     1     7
 -2.3794903308398474E-01 a      1368     0    69     1     8
 -7.5289065193907559E-02 a      1369     0    69     1     9
 -9.3665596368433343E-02 a      1370     0    69     1    10
  7.4297338295435139E-02 a      1371     0    69     1    11
  6.7112122889174744E-02 a      1372     0    69     1    12
  3.4242887971870833E-02 a      1373     0    69     1    13
 -2.7792099573913907E-02 a      1374     0    69     1    14
  1.1671921580447001E-01 a      1375     0    69     1    15
  2.4124340379886067E-01 a      1376     0    69     1    16
  9.2894118656907630E-03 a      1377     0    69     1    17
  1.5007485677415618E-02 a      1378     0    69     1    18
 -1.6599816744421386E-01 a      1379     0    69     1    19
 -7.4038718321916327E-03 a      1380     0    69     1    20
  1.3136261467121815E-01 a      1381     0    70     1     1
  9.0549697598185611E-02 a      1382     0    70     1     2
  1.5609068630920941E-02 a      1383     0    70     1     3
 -1.2763233747122960E-01 a      1384     0    70     1     4
  1.2771924226570375E-01 a      1385     0    70     1     5
 -8.6291558991853048E-02 a      1386     0    70     1     6
 -5.4791330111153433E-02 a      1387     0    70     1     7
 -8.4644045325150630E-02 a      1388     0    70     1     8
 -9.1063352574482739E-02 a      1389     0    70     1     9
  1.2218078182641146E-01 a      1390     0    70     1    10
 -1.2944739294979238E-01 a      1391     0    70     1    11
  9.7450564862474928E-02 a      1392     0    70     1    12
  4.4229504849784954E-02 a      1393     0    70     1    13
  5.7891913917456059E-02 a      1394     0    70     1    14
 -5.4678881345084189E-02 a      1395     0    70     1    15
 -5.2867021958304034E-02 a      1396     0    70     1    16
 -1.7664769778238271E-01 a      1397     0    70     1    17
 -1.7061288207235722E-01 a      1398     0    70     1    18
 -1.8190932874477006E-01 a      1399     0    70     1    19
  2.6486145004240746E-02 a      1400     0    70     1    20
  2.5693381738155241E-01 a      1401     0    71     1     1
 -1.8935804106422230E-01 a      1402     0    71     1     2
  5.8094930245311616E-01 a      1403     0    71     1     3
 -1.8109551497657628E-02 a      1404     0    71     1     4
 -2.7871360671367906E-01 a      1405     0    71     1     5
 -2.2393230062907801E-02 a      1406     0    71     1     6
 -3.6406201191000082E-01 a      1407     0    71     1     7
 -2.5829794886601518E-03 a      1408     0    71     1     8
  3.0431576468285970E-01 a      1409     0    71     1     9
 -6.2028906496472684E-02 a      1410     0    71     1    10
 -2.3554522035632394E-01 a      1411     0    71     1    11
 -1.2279085117644288E-01 a      1412     0    71     1    12
 -2.9410957333706778E-01 a      1413     0    71     1    13
 -4.4368271109162805E-02 a      1414     0    71     1    14
  7.3004435854018182E-02 a      1415     0    71     1    15
 -1.1825104992901790E-01 a      1416     0    71     1    16
 -5.6839571492258267E-02 a      1417     0    71     1    17
 -3.8141371298721978E-02 a      1418     0    71     1    18
 -3.8019992192083657E-01 a      1419     0    71     1    19
  8.2675790808651187E-02 a      1420     0    71     1    20
 -1.9989576359533573E-01 a      1421     0    72     1     1
 -2.8963973546143034E-02 a      1422     0    72     1     2
  2.7051394874135759E-01 a      1423     0    72     1     3
 -1.4573035962112102E-01 a      1424     0    72     1     4
  1.5961549920133117E-01 a      1425     0    72     1     5
 -2.0237002596712864E-01 a      1426     0    72     1     6
 -2.1640796289916955E-01 a      1427     0    72     1     7
  9.7544385895324617E-02 a      1428     0    72     1     8
 -8.9905876191907957E-02 a      1429     0    72     1     9
  2.0100436872921515E-01 a      1430     0    72     1    10
  1.1643911092311124E-01 a      1431     0    72     1    11
 -1.2977697080258933E-02 a      1432     0    72     1    12
  3.9608871368335397E-01 a      1433     0    72     1    13
 -1.6140171703094720E-02 a      1434     0    72     1    14
  7.1894139362103010E-02 a      1435     0    72     1    15
 -1.3835391059450647E-01 a      1436     0    72     1    16
  1.0514916069414917E-01 a      1437     0    72     1    17
  1.5278008965896225E-01 a      1438     0    72     1    18
  1.3860968725871270E-01 a      1439     0    72     1    19
 -2.0770136554809085E-01 a      1440     0    72     1    20
  1.1081082509708409E-01 a      1441     0    73     1     1
 -3.3737019555349135E-02 a      1442     0    73     1     2
 -8.4494475117403139E-03 a      1443     0    73     1     3
  1.8133399798642982E-01 a      1444     0    73     1     4
  2.2380407798891519E-01 a      1445     0    73     1     5
  2.9728207120784854E-02 a      1446     0    73     1     6
 -1.6697974654267346E-02 a      1447     0    73     1     7
 -2.4951843706063556E-02 a      1448     0    73     1     8
  1.7827721111763073E-01 a      1449     0    73     1     9
 -2.0093557596969954E-02 a      1450     0    73     1    10
 -5.9314750115116235E-02 a      1451     0    73     1    11
 -6.2169088419493965E-02 a      1452     0    73     1    12
  1.4300836969900577E-01 a      1453     0    73     1    13
  9.3552430823403324E-02 a      1454     0    73     1    14
 -1.9007198488178986E-02 a      1455     0    73     1    15
 -1.1731156624862446E-03 a      1456     0    73     1    16
 -1.5947069972428279E-01 a      1457     0    73     1    17
  1.1681685995933800E-02 a      1458     0    73     1    18
  4.0781110921415190E-02 a      1459     0    73     1    19
  2.1179217605752872E-02 a      1460     0    73     1    20
 -1.7092755825101952E-01 a      1461     0    74     1     1
  3.4343305276616491E-02 a      1462     0    74     1     2
 -2.0873568408569288E-02 a      1463     0    74     1     3
 -5.8717917709237080E-02 a      1464     0    74     1     4
  1.3262482714844903E-01 a      1465     0    74     1     5
  8.4348146892996564E-02 a      1466     0    74     1     6
 -3.3648696762913002E-02 a      1467     0    74     1     7
 -4.8762264145206673E-02 a      1468     0    74     1     8
 -1.2176972365243423E-01 a      1469     0    74     1     9
  1.0425080380335176E-01 a      1470     0    74     1    10
 -8.3952637611467248E-02 a      1471     0    74     1    11
  1.9739135375752404E-01 a      1472     0    74     1    12
  1.8600689635716081E-02 a      1473     0    74     1    13
  2.8071747655012261E-02 a      1474     0    74     1    14
  4.1025218088579986E-02 a      1475     0    74     1    15
 -5.2746829456004563E-02 a      1476     0    74     1    16
  1.5510650330308823E-01 a      1477     0    74     1    17
  1.0764042620305594E-01 a      1478     0    74     1    18
 -3.7406344986621334E-02 a      1479     0    74     1    19
  5.7244418431836558E-02 a      1480     0    74     1    20
 -3.5432842491273814E-01 a      1481     0    75     1     1
 -9.9539763807480669E-02 a      1482     0    75     1     2
  3.7914066856404910E-01 a      1483     0    75     1     3
 -2.9287954274797728E-01 a      1484     0    75     1     4
 -9.9936394950650102E-03 a      1485     0    75     1     5
  1.4486219176075138E-01 a      1486     0    75     1     6
  4.7921404858825467E-01 a      1487     0    75     1     7
  3.6978455031570384E-01 a      1488     0    75     1     8
 -2.8879780373797787E-01 a      1489     0    75     1     9
  3.4435012794746234E-01 a      1490     0    75     1    10
  1.9814360888344582E-01 a      1491     0    75     1    11
 -7.1544111906359273E-02 a      1492     0    75     1    12
 -1.7284901002066036E-01 a      1493     0    75     1    13
 -2.7820762034341429E-01 a      1494     0    75     1    14
  1.3706514420166394E-01 a      1495     0    75     1    15
  5.1947741263600844E-01 a      1496     0    75     1    16
  6.9433186065255070E-01 a      1497     0    75     1    17
  4.9214973596681655E-01 a      1498     0    75     1    18
  3.7635587966289408E-01 a      1499     0    75     1    19
 -4.6709975484677757E-01 a      1500     0    75     1    20
  3.6988901185597067E-01 a      1501     0    76     1     1
  3.1129646670521365E-02 a      1502     0    76     1     2
  1.0087312100367028E-01 a      1503     0    76     1     3
  1.0844347682164389E-01 a      1504     0    76     1     4
 -1.7605272353012694E-01 a      1505     0    76     1     5
 -3.6614030334163666E-01 a      1506     0    76     1     6
  1.0696003706102204E-02 a      1507     0    76     1     7
 -1.1322534875103017E-01 a      1508     0    76     1     8
 -9.4508606297560679E-02 a      1509     0    76     1     9
  1.3437400134327310E-01 a      1510     0    76     1    10
  7.1302016502536494E-02 a      1511     0    76     1    11
 -1.8488322930242768E-01 a      1512     0    76     1    12
  4.2825433392800011E-01 a      1513     0    76     1    13
 -5.5658450722422745E-03 a      1514     0    76     1    14
  5.5266190946483960E-02 a      1515     0    76     1    15
  1.3152632314918350E-01 a      1516     0    76     1    16
 -1.4953905287540770E-01 a      1517     0    76     1    17
  1.4653547900640712E-01 a      1518     0    76     1    18
  1.2399618083687358E-01 a      1519     0    76     1    19
 -1.0015882855214099E-01 a      1520     0    76     1    20
 -8.9560046091232692E-02 a      1521     0    77     1     1
  5.8163659729110827E-02 a      1522     0    77     1     2
  3.0257925097172050E-02 a      1523     0    77     1     3
 -1.1055441489744545E-01 a      1524     0    77     1     4
 -1.3590044091318065E-01 a      1525     0    77     1     5
  5.3426299367561783E-02 a      1526     0    77     1     6
  5.1835048843895584E-03 a      1527     0    77     1     7
  1.8196575958921929E-01 a      1528     0    77     1     8
  1.2473544309453705E-02 a      1529     0    77     1     9
 -5.4278122300140577E-02 a      1530     0    77     1    10
  7.5944583370323199E-02 a      1531     0    77     1    11
 -5.5220899944646185E-02 a      1532     0    77     1    12
 -4.2207707515553611E-02 a      1533     0    77     1    13
 -5.5450651314071800E-02 a      1534     0    77     1    14
 -5.0471233758521902E-02 a      1535     0    77     1    15
  9.0726321317217400E-03 a      1536     0    77     1    16
  9.7557627892284698E-02 a      1537     0    77     1    17
  1.8058539730605233E-01 a      1538     0    77     1    18
  1.8569113533344911E-01 a      1539     0    77     1    19
 -9.1476819236329429E-02 a      1540     0    77     1    20
  3.5497036605179284E-02 a      1541     0    78     1     1
  5.6378426786403334E-02 a      1542     0    78     1     2
  7.3779692479542663E-02 a      1543     0    78     1     3
 -2.2860452098550990E-03 a      1544     0    78     1     4
  2.0114348203462726E-01 a      1545     0    78     1     5
 -1.2621209618874259E-02 a      1546     0    78     1     6
 -7.0574994997907217E-02 a      1547     0    78     1     7
 -3.9792170454689670E-02 a      1548     0    78     1     8
  2.5559506800965894E-02 a      1549     0    78     1     9
  1.0672695567513377E-01 a      1550     0    78     1    10
 -2.8069237617256930E-02 a      1551     0    78     1    11
  8.8223916242391134E-02 a      1552     0    78     1    12
 -2.2068899114693341E-02 a      1553     0    78     1    13
  9.3134073784950838E-02 a      1554     0    78     1    14
 -3.1456431530092761E-02 a      1555     0    78     1    15
 -6.4777231584680697E-02 a      1556     0    78     1    16
 -1.2549661011699689E-01 a      1557     0    78     1    17
 -3.4806312341082740E-01 a      1558     0    78     1    18
  2.3472761696387442E-02 a      1559     0    78     1    19
  2.0403417586060776E-02 a      1560     0    78     1    20
  4.9946226704677618E-02 a      1561     0    79     1     1
 -4.2255219290860707E-02 a      1562     0    79     1     2
 -8.1137014185790793E-02 a      1563     0    79     1     3
  4.2796254102096684E-02 a      1564     0    79     1     4
  1.1022853103206545E-01 a      1565     0    79     1     5
 -9.8527296647050525E-02 a      1566     0    79     1     6
  7.3256364715680158E-02 a      1567     0    79     1     7
 -4.3871901876080650E-02 a      1568     0    79     1     8
  1.0689795401092424E-01 a      1569     0    79     1     9
  4.2159751888757348E-02 a      1570     0    79     1    10
  5.4642276510889237E-02 a      1571     0    79     1    11
  1.6190506877864004E-03 a      1572     0    79     1    12
  2.6504279956075141E-02 a      1573     0    79     1    13
  4.5883507929060707E-02 a      1574     0    79     1    14
  1.8271346835450217E-01 a      1575     0    79     1    15
 -7.2856856824525695E-02 a      1576     0    79     1    16
  8.4436020442904006E-02 a      1577     0    79     1    17
  8.8638069948062725E-02 a      1578     0    79     1    18
 -2.0162099771668313E-01 a      1579     0    79     1    19
  1.7797602572539140E-02 a      1580     0    79     1    20
 -1.6170060648001974E-01 a      1581     0    80     1     1
 -1.7440844894379935E-02 a      1582     0    80     1     2
  4.9722525641310099E-02 a      1583     0    80     1     3
  1.2149626053567020E-01 a      1584     0    80     1     4
 -6.4387956946111227E-02 a      1585     0    80     1     5
  7.3950900368005085E-02 a      1586     0    80     1     6
  1.6513784112379359E-01 a      1587     0    80     1     7
 -3.1747016412244592E-03 a      1588     0    80     1     8
  1.1079707795096597E-01 a      1589     0    80     1     9
 -1.5897730391206613E-01 a      1590     0    80     1    10
 -7.6567574803435859E-02 a      1591     0    80     1    11
  5.6559708713909860E-03 a      1592     0    80     1    12
  4.2289916938693009E-02 a      1593     0    80     1    13
 -5.3141885272152863E-03 a      1594     0    80     1    14
  3.6510282475008218E-02 a      1595     0    80     1    15
  1.0718129035339274E-01 a      1596     0    80     1    16
 -1.5404934806184964E-01 a      1597     0    80     1    17
 -1.6000452482147856E-01 a      1598     0    80     1    18
 -1.4228814292141227E-02 a      1599     0    80     1    19
  9.1035569730467517E-02 a      1600     0    80     1    20
 -7.5824193789078675E-02 a      1601     0    81     1     1
  4.9912171392438358E-02 a      1602     0    81     1     2
 -2.1410742355295331E-02 a      1603     0    81     1     3
 -1.9731170640176592E-02 a      1604     0    81     1     4
  8.7764039570065094E-02 a      1605     0    81     1     5
  1.2934893123628208E-01 a      1606     0    81     1     6
  3.0644877369515034E-02 a      1607     0    81     1     7
  8.4515742794385049E-02 a      1608     0    81     1     8
  5.3175573372661267E-02 a      1609     0    81     1     9
  2.7340242580526204E-02 a      1610     0    81     1    10
  9.3313512063311031E-03 a      1611     0    81     1    11
  1.6154488027845703E-02 a      1612     0    81     1    12
 -5.7880472121216033E-02 a      1613     0    81     1    13
  1.7935988973236186E-02 a      1614     0    81     1    14
 -4.3290077030115559E-02 a      1615     0    81     1    15
  8.2775246221239593E-02 a      1616     0    81     1    16
 -3.1236540337180346E-02 a      1617     0    81     1    17
  1.2896087718659585E-01 a      1618     0    81     1    18
 -2.3605875218775238E-01 a      1619     0    81     1    19
 -8.7347906448777130E-02 a      1620     0    81     1    20
  4.1265254754417162E-02 a      1621     0    82     1     1
  4.1668066279691492E-03 a      1622     0    82     1     2
 -4.9057510371416591E-02 a      1623     0    82     1     3
